{"features": ["dRsi", "dMacdHist", "dAdx", "dAdxBullish", "dEmaCross", "dStackBull", "dStackBear", "dStructBull", "dStructBear", "dStochK", "dStochCross", "dMacdCross", "dDivergence", "dEma20Rising", "dBBPercentB", "dBBSqueeze", "dBBBandwidth", "dVolumeRatio", "dAboveVwap", "hRsi", "hMacdHist", "hAdx", "hAdxBullish", "hEmaCross", "hStackBull", "hStackBear", "hStructBull", "hStructBear", "hStochK", "hStochCross", "hMacdCross", "hDivergence", "hEma20Rising", "hBBPercentB", "hBBSqueeze", "hBBBandwidth", "hVolumeRatio", "hAboveVwap", "eRsi", "eEmaCross", "eStochK", "eMacdHist", "fundingSignal", "oiSignal", "takerSignal", "crowdingSignal", "derivativesCombined", "fundingRateRaw", "oiChangePct", "takerRatioRaw", "longPctRaw", "vix", "dxyAboveEma20", "volScalarML", "last3Green", "last3Red", "last3VolIncreasing", "obvRising", "adLineAccumulation", "atrPercent", "atrPercentile", "tfAlignment", "momentumAlignment", "structureAlignment", "dayOfWeek", "barsSinceRegimeChange", "regimeCode", "dRsiDelta", "dAdxDelta", "hRsiDelta", "hAdxDelta", "hMacdHistDelta", "fearGreedIndex", "fearGreedZone", "ethBtcRatio", "ethBtcDelta6", "basisPct", "basisExtreme", "fiftyTwoWeekPct", "distToFiftyTwoHigh", "gapPercent", "gapFilled", "gapDirectionAligned", "relStrengthVsSpy", "beta", "vixLevelCode", "isMarketHours", "vpDistToPocATR", "vpAbovePoc", "vpVAWidth", "vpInValueArea", "vpDistToVAH_ATR", "vpDistToVAL_ATR", "hRsiDelta1", "hMacdHistDelta1", "dRsiDelta1", "hRsiAccel", "hMacdAccel", "dAdxAccel", "hourBucket", "isWeekend"], "trees": [{"nodeid": 0, "depth": 0, "split": "tfAlignment", "split_condition": 2, "yes": 1, "no": 2, "missing": 2, "children": [{"nodeid": 1, "depth": 1, "split": "tfAlignment", "split_condition": -1, "yes": 3, "no": 4, "missing": 4, "children": [{"nodeid": 3, "depth": 2, "split": "fiftyTwoWeekPct", "split_condition": 0, "yes": 7, "no": 8, "missing": 8, "children": [{"nodeid": 7, "depth": 3, "split": "vix", "split_condition": 27.3999996, "yes": 15, "no": 16, "missing": 16, "children": [{"nodeid": 15, "leaf": -0.0754061341}, {"nodeid": 16, "leaf": -0.0307523888}]}, {"nodeid": 8, "depth": 3, "split": "fiftyTwoWeekPct", "split_condition": 0.0189999994, "yes": 17, "no": 18, "missing": 18, "children": [{"nodeid": 17, "leaf": 0.14360933}, {"nodeid": 18, "leaf": -0.0531678572}]}]}, {"nodeid": 4, "depth": 2, "split": "hVolumeRatio", "split_condition": 0.370000005, "yes": 9, "no": 10, "missing": 10, "children": [{"nodeid": 9, "depth": 3, "split": "vix", "split_condition": 18, "yes": 19, "no": 20, "missing": 20, "children": [{"nodeid": 19, "leaf": -0.0549222082}, {"nodeid": 20, "leaf": 0.026748931}]}, {"nodeid": 10, "depth": 3, "split": "atrPercent", "split_condition": 2.62210011, "yes": 21, "no": 22, "missing": 22, "children": [{"nodeid": 21, "leaf": 0.0447132923}, {"nodeid": 22, "leaf": 0.0110413302}]}]}]}, {"nodeid": 2, "depth": 1, "split": "hVolumeRatio", "split_condition": 1.12, "yes": 5, "no": 6, "missing": 6, "children": [{"nodeid": 5, "depth": 2, "split": "dStochK", "split_condition": 54.0999985, "yes": 11, "no": 12, "missing": 12, "children": [{"nodeid": 11, "depth": 3, "split": "fiftyTwoWeekPct", "split_condition": 0.156299993, "yes": 23, "no": 24, "missing": 24, "children": [{"nodeid": 23, "leaf": -0.0457507521}, {"nodeid": 24, "leaf": -0.0900842473}]}, {"nodeid": 12, "depth": 3, "split": "hMacdHistDelta", "split_condition": -0.129999995, "yes": 25, "no": 26, "missing": 26, "children": [{"nodeid": 25, "leaf": -0.0673662797}, {"nodeid": 26, "leaf": -0.0269795172}]}]}, {"nodeid": 6, "depth": 2, "split": "hAdxDelta", "split_condition": 3.20000005, "yes": 13, "no": 14, "missing": 14, "children": [{"nodeid": 13, "depth": 3, "split": "fiftyTwoWeekPct", "split_condition": 0.947600007, "yes": 27, "no": 28, "missing": 28, "children": [{"nodeid": 27, "leaf": 0.0194200315}, {"nodeid": 28, "leaf": -0.041985143}]}, {"nodeid": 14, "depth": 3, "split": "vix", "split_condition": 14.6000004, "yes": 29, "no": 30, "missing": 30, "children": [{"nodeid": 29, "leaf": 0.0840791911}, {"nodeid": 30, "leaf": 0.00244371197}]}]}]}]}, {"nodeid": 0, "depth": 0, "split": "dayOfWeek", "split_condition": 5, "yes": 1, "no": 2, "missing": 2, "children": [{"nodeid": 1, "depth": 1, "split": "tfAlignment", "split_condition": 2, "yes": 3, "no": 4, "missing": 4, "children": [{"nodeid": 3, "depth": 2, "split": "tfAlignment", "split_condition": -1, "yes": 7, "no": 8, "missing": 8, "children": [{"nodeid": 7, "depth": 3, "split": "atrPercent", "split_condition": 1.55379999, "yes": 15, "no": 16, "missing": 16, "children": [{"nodeid": 15, "leaf": 0.0199021641}, {"nodeid": 16, "leaf": -0.04085638}]}, {"nodeid": 8, "depth": 3, "split": "atrPercent", "split_condition": 2.91400003, "yes": 17, "no": 18, "missing": 18, "children": [{"nodeid": 17, "leaf": 0.0603502877}, {"nodeid": 18, "leaf": 0.0255985055}]}]}, {"nodeid": 4, "depth": 2, "split": "eStochK", "split_condition": 79, "yes": 9, "no": 10, "missing": 10, "children": [{"nodeid": 9, "depth": 3, "split": "dAdxDelta", "split_condition": 1.85000002, "yes": 19, "no": 20, "missing": 20, "children": [{"nodeid": 19, "leaf": -0.0564155169}, {"nodeid": 20, "leaf": -0.0124001997}]}, {"nodeid": 10, "depth": 3, "split": "hBBBandwidth", "split_condition": 10.6851997, "yes": 21, "no": 22, "missing": 22, "children": [{"nodeid": 21, "leaf": 0.0190465394}, {"nodeid": 22, "leaf": -0.0462159105}]}]}]}, {"nodeid": 2, "depth": 1, "split": "ethBtcRatio", "split_condition": 0.0372539982, "yes": 5, "no": 6, "missing": 6, "children": [{"nodeid": 5, "depth": 2, "split": "gapPercent", "split_condition": 15.0993004, "yes": 11, "no": 12, "missing": 12, "children": [{"nodeid": 11, "depth": 3, "split": "dMacdHist", "split_condition": -0.0299999993, "yes": 23, "no": 24, "missing": 24, "children": [{"nodeid": 23, "leaf": 0}, {"nodeid": 24, "leaf": 0.0839421377}]}, {"nodeid": 12, "depth": 3, "split": "fiftyTwoWeekPct", "split_condition": 0.215499997, "yes": 25, "no": 26, "missing": 26, "children": [{"nodeid": 25, "leaf": 0.0134527721}, {"nodeid": 26, "leaf": -0.0483295247}]}]}, {"nodeid": 6, "depth": 2, "split": "dayOfWeek", "split_condition": 6, "yes": 13, "no": 14, "missing": 14, "children": [{"nodeid": 13, "depth": 3, "split": "hVolumeRatio", "split_condition": 1.65999997, "yes": 27, "no": 28, "missing": 28, "children": [{"nodeid": 27, "leaf": -0.0857755542}, {"nodeid": 28, "leaf": 0.0353918336}]}, {"nodeid": 14, "depth": 3, "split": "hBBBandwidth", "split_condition": 4.29809999, "yes": 29, "no": 30, "missing": 30, "children": [{"nodeid": 29, "leaf": 0.00544142211}, {"nodeid": 30, "leaf": -0.0597412176}]}]}]}]}, {"nodeid": 0, "depth": 0, "split": "dAdx", "split_condition": 20.2000008, "yes": 1, "no": 2, "missing": 2, "children": [{"nodeid": 1, "depth": 1, "split": "dBBPercentB", "split_condition": 0.8398, "yes": 3, "no": 4, "missing": 4, "children": [{"nodeid": 3, "depth": 2, "split": "atrPercent", "split_condition": 1.18159997, "yes": 7, "no": 8, "missing": 8, "children": [{"nodeid": 7, "depth": 3, "split": "dBBBandwidth", "split_condition": 9.54139996, "yes": 15, "no": 16, "missing": 16, "children": [{"nodeid": 15, "leaf": 0.0236162618}, {"nodeid": 16, "leaf": 0.0804492012}]}, {"nodeid": 8, "depth": 3, "split": "dBBSqueeze", "split_condition": 1, "yes": 17, "no": 18, "missing": 18, "children": [{"nodeid": 17, "leaf": 0.000993693131}, {"nodeid": 18, "leaf": 0.0406436063}]}]}, {"nodeid": 4, "depth": 2, "split": "hMacdHistDelta", "split_condition": -0.75999999, "yes": 9, "no": 10, "missing": 10, "children": [{"nodeid": 9, "leaf": 0.01116456}, {"nodeid": 10, "depth": 3, "split": "hRsi", "split_condition": 70.9000015, "yes": 19, "no": 20, "missing": 20, "children": [{"nodeid": 19, "leaf": 0.065725565}, {"nodeid": 20, "leaf": 0.130844042}]}]}]}, {"nodeid": 2, "depth": 1, "split": "dAdxDelta", "split_condition": -0.140000001, "yes": 5, "no": 6, "missing": 6, "children": [{"nodeid": 5, "depth": 2, "split": "hMacdHistDelta", "split_condition": 0, "yes": 11, "no": 12, "missing": 12, "children": [{"nodeid": 11, "depth": 3, "split": "vpDistToPocATR", "split_condition": -8.46000004, "yes": 21, "no": 22, "missing": 22, "children": [{"nodeid": 21, "leaf": 0.0516206212}, {"nodeid": 22, "leaf": -0.0230530612}]}, {"nodeid": 12, "depth": 3, "split": "hAdx", "split_condition": 33, "yes": 23, "no": 24, "missing": 24, "children": [{"nodeid": 23, "leaf": 0.00421536621}, {"nodeid": 24, "leaf": 0.0443212129}]}]}, {"nodeid": 6, "depth": 2, "split": "dAdx", "split_condition": 40.7000008, "yes": 13, "no": 14, "missing": 14, "children": [{"nodeid": 13, "depth": 3, "split": "hRsi", "split_condition": 70.1999969, "yes": 25, "no": 26, "missing": 26, "children": [{"nodeid": 25, "leaf": -0.0218373444}, {"nodeid": 26, "leaf": 0.0319846235}]}, {"nodeid": 14, "depth": 3, "split": "eStochK", "split_condition": 89.1999969, "yes": 27, "no": 28, "missing": 28, "children": [{"nodeid": 27, "leaf": -0.0659320951}, {"nodeid": 28, "leaf": -0.011183382}]}]}]}]}, {"nodeid": 0, "depth": 0, "split": "gapDirectionAligned", "split_condition": 0.0110999998, "yes": 1, "no": 2, "missing": 2, "children": [{"nodeid": 1, "depth": 1, "split": "relStrengthVsSpy", "split_condition": 0.0299999993, "yes": 3, "no": 4, "missing": 4, "children": [{"nodeid": 3, "leaf": 0.152530372}, {"nodeid": 4, "depth": 2, "split": "tfAlignment", "split_condition": 2, "yes": 7, "no": 8, "missing": 8, "children": [{"nodeid": 7, "depth": 3, "split": "hBBPercentB", "split_condition": 0.922100008, "yes": 13, "no": 14, "missing": 14, "children": [{"nodeid": 13, "leaf": 0.0206381213}, {"nodeid": 14, "leaf": 0.0871876776}]}, {"nodeid": 8, "depth": 3, "split": "hBBPercentB", "split_condition": 0.864700019, "yes": 15, "no": 16, "missing": 16, "children": [{"nodeid": 15, "leaf": -0.0524036363}, {"nodeid": 16, "leaf": -0.000840235036}]}]}]}, {"nodeid": 2, "depth": 1, "split": "tfAlignment", "split_condition": -1, "yes": 5, "no": 6, "missing": 6, "children": [{"nodeid": 5, "depth": 2, "split": "ethBtcDelta6", "split_condition": -2.4145, "yes": 9, "no": 10, "missing": 10, "children": [{"nodeid": 9, "depth": 3, "split": "fearGreedIndex", "split_condition": 22, "yes": 17, "no": 18, "missing": 18, "children": [{"nodeid": 17, "leaf": 0.0404314026}, {"nodeid": 18, "leaf": -0.0568698719}]}, {"nodeid": 10, "depth": 3, "split": "hBBPercentB", "split_condition": 0.893999994, "yes": 19, "no": 20, "missing": 20, "children": [{"nodeid": 19, "leaf": -0.0623247512}, {"nodeid": 20, "leaf": 0.0218684524}]}]}, {"nodeid": 6, "depth": 2, "split": "tfAlignment", "split_condition": 2, "yes": 11, "no": 12, "missing": 12, "children": [{"nodeid": 11, "depth": 3, "split": "hBBSqueeze", "split_condition": 1, "yes": 21, "no": 22, "missing": 22, "children": [{"nodeid": 21, "leaf": 0.00170894724}, {"nodeid": 22, "leaf": 0.0404715799}]}, {"nodeid": 12, "depth": 3, "split": "hBBPercentB", "split_condition": 0.336600006, "yes": 23, "no": 24, "missing": 24, "children": [{"nodeid": 23, "leaf": -0.0226442516}, {"nodeid": 24, "leaf": -0.0650909245}]}]}]}]}, {"nodeid": 0, "depth": 0, "split": "dayOfWeek", "split_condition": 5, "yes": 1, "no": 2, "missing": 2, "children": [{"nodeid": 1, "depth": 1, "split": "tfAlignment", "split_condition": 2, "yes": 3, "no": 4, "missing": 4, "children": [{"nodeid": 3, "depth": 2, "split": "gapDirectionAligned", "split_condition": 0.0110999998, "yes": 7, "no": 8, "missing": 8, "children": [{"nodeid": 7, "depth": 3, "split": "fiftyTwoWeekPct", "split_condition": 1.25479996, "yes": 15, "no": 16, "missing": 16, "children": [{"nodeid": 15, "leaf": 0.139566168}, {"nodeid": 16, "leaf": 0.055554755}]}, {"nodeid": 8, "depth": 3, "split": "tfAlignment", "split_condition": -1, "yes": 17, "no": 18, "missing": 18, "children": [{"nodeid": 17, "leaf": -0.0391541608}, {"nodeid": 18, "leaf": 0.033945635}]}]}, {"nodeid": 4, "depth": 2, "split": "hMacdHist", "split_condition": 13.6099997, "yes": 9, "no": 10, "missing": 10, "children": [{"nodeid": 9, "depth": 3, "split": "hRsi", "split_condition": 68.9000015, "yes": 19, "no": 20, "missing": 20, "children": [{"nodeid": 19, "leaf": -0.0298683401}, {"nodeid": 20, "leaf": 0.0268681832}]}, {"nodeid": 10, "depth": 3, "split": "ethBtcDelta6", "split_condition": -0.907000005, "yes": 21, "no": 22, "missing": 22, "children": [{"nodeid": 21, "leaf": -0.0222604219}, {"nodeid": 22, "leaf": -0.0963099673}]}]}]}, {"nodeid": 2, "depth": 1, "split": "gapDirectionAligned", "split_condition": 0.0110999998, "yes": 5, "no": 6, "missing": 6, "children": [{"nodeid": 5, "depth": 2, "split": "fiftyTwoWeekPct", "split_condition": 0.386599988, "yes": 11, "no": 12, "missing": 12, "children": [{"nodeid": 11, "leaf": 0.135776907}, {"nodeid": 12, "depth": 3, "split": "hBBPercentB", "split_condition": 0.926400006, "yes": 23, "no": 24, "missing": 24, "children": [{"nodeid": 23, "leaf": -0.0581779517}, {"nodeid": 24, "leaf": 0.0131524811}]}]}, {"nodeid": 6, "depth": 2, "split": "vix", "split_condition": 13.3999996, "yes": 13, "no": 14, "missing": 14, "children": [{"nodeid": 13, "depth": 3, "split": "hMacdHistDelta", "split_condition": 0.0199999996, "yes": 25, "no": 26, "missing": 26, "children": [{"nodeid": 25, "leaf": -0.11566782}, {"nodeid": 26, "leaf": -0.0554085374}]}, {"nodeid": 14, "depth": 3, "split": "fiftyTwoWeekPct", "split_condition": 3.41989994, "yes": 27, "no": 28, "missing": 28, "children": [{"nodeid": 27, "leaf": -0.0585812517}, {"nodeid": 28, "leaf": -0.0025688617}]}]}]}]}, {"nodeid": 0, "depth": 0, "split": "dayOfWeek", "split_condition": 5, "yes": 1, "no": 2, "missing": 2, "children": [{"nodeid": 1, "depth": 1, "split": "dAdx", "split_condition": 20.2000008, "yes": 3, "no": 4, "missing": 4, "children": [{"nodeid": 3, "depth": 2, "split": "gapDirectionAligned", "split_condition": 0.0110999998, "yes": 7, "no": 8, "missing": 8, "children": [{"nodeid": 7, "depth": 3, "split": "fearGreedIndex", "split_condition": 50, "yes": 15, "no": 16, "missing": 16, "children": [{"nodeid": 15, "leaf": 0.0504505001}, {"nodeid": 16, "leaf": 0.108707346}]}, {"nodeid": 8, "depth": 3, "split": "gapDirectionAligned", "split_condition": 7.2750001, "yes": 17, "no": 18, "missing": 18, "children": [{"nodeid": 17, "leaf": 0.0291408431}, {"nodeid": 18, "leaf": 0.10119129}]}]}, {"nodeid": 4, "depth": 2, "split": "eStochK", "split_condition": 11, "yes": 9, "no": 10, "missing": 10, "children": [{"nodeid": 9, "depth": 3, "split": "vpDistToPocATR", "split_condition": 10.96, "yes": 19, "no": 20, "missing": 20, "children": [{"nodeid": 19, "leaf": -0.0374602675}, {"nodeid": 20, "leaf": 0.0287287887}]}, {"nodeid": 10, "depth": 3, "split": "gapDirectionAligned", "split_condition": 0.0110999998, "yes": 21, "no": 22, "missing": 22, "children": [{"nodeid": 21, "leaf": 0.0321190432}, {"nodeid": 22, "leaf": 0.00362072419}]}]}]}, {"nodeid": 2, "depth": 1, "split": "gapDirectionAligned", "split_condition": 0.0110999998, "yes": 5, "no": 6, "missing": 6, "children": [{"nodeid": 5, "depth": 2, "split": "fiftyTwoWeekPct", "split_condition": 0.0189999994, "yes": 11, "no": 12, "missing": 12, "children": [{"nodeid": 11, "leaf": 0.129882723}, {"nodeid": 12, "depth": 3, "split": "hBBPercentB", "split_condition": 0.922100008, "yes": 23, "no": 24, "missing": 24, "children": [{"nodeid": 23, "leaf": -0.0431992337}, {"nodeid": 24, "leaf": 0.0271015521}]}]}, {"nodeid": 6, "depth": 2, "split": "dayOfWeek", "split_condition": 6, "yes": 13, "no": 14, "missing": 14, "children": [{"nodeid": 13, "depth": 3, "split": "hVolumeRatio", "split_condition": 1.42999995, "yes": 25, "no": 26, "missing": 26, "children": [{"nodeid": 25, "leaf": -0.0766296163}, {"nodeid": 26, "leaf": 0}]}, {"nodeid": 14, "depth": 3, "split": "basisPct", "split_condition": -0.031702999, "yes": 27, "no": 28, "missing": 28, "children": [{"nodeid": 27, "leaf": -0.0704380572}, {"nodeid": 28, "leaf": -0.0284832921}]}]}]}]}, {"nodeid": 0, "depth": 0, "split": "gapDirectionAligned", "split_condition": 0.0110999998, "yes": 1, "no": 2, "missing": 2, "children": [{"nodeid": 1, "depth": 1, "split": "relStrengthVsSpy", "split_condition": 0.0299999993, "yes": 3, "no": 4, "missing": 4, "children": [{"nodeid": 3, "leaf": 0.131281599}, {"nodeid": 4, "depth": 2, "split": "gapPercent", "split_condition": 13.9048004, "yes": 7, "no": 8, "missing": 8, "children": [{"nodeid": 7, "depth": 3, "split": "hRsi", "split_condition": 70.9000015, "yes": 13, "no": 14, "missing": 14, "children": [{"nodeid": 13, "leaf": 0.00861192122}, {"nodeid": 14, "leaf": 0.063260898}]}, {"nodeid": 8, "depth": 3, "split": "dRsiDelta", "split_condition": 6.51000023, "yes": 15, "no": 16, "missing": 16, "children": [{"nodeid": 15, "leaf": -0.0324874334}, {"nodeid": 16, "leaf": 0.0452148132}]}]}]}, {"nodeid": 2, "depth": 1, "split": "hVolumeRatio", "split_condition": 0.819999993, "yes": 5, "no": 6, "missing": 6, "children": [{"nodeid": 5, "depth": 2, "split": "atrPercent", "split_condition": 1.04729998, "yes": 9, "no": 10, "missing": 10, "children": [{"nodeid": 9, "depth": 3, "split": "volScalarML", "split_condition": 1.02999997, "yes": 17, "no": 18, "missing": 18, "children": [{"nodeid": 17, "leaf": 0.00778667675}, {"nodeid": 18, "leaf": 0.0873096138}]}, {"nodeid": 10, "depth": 3, "split": "dEmaCross", "split_condition": -1, "yes": 19, "no": 20, "missing": 20, "children": [{"nodeid": 19, "leaf": -0.0442458764}, {"nodeid": 20, "leaf": -0.0170682389}]}]}, {"nodeid": 6, "depth": 2, "split": "atrPercent", "split_condition": 0.975600004, "yes": 11, "no": 12, "missing": 12, "children": [{"nodeid": 11, "depth": 3, "split": "momentumAlignment", "split_condition": 1, "yes": 21, "no": 22, "missing": 22, "children": [{"nodeid": 21, "leaf": 0.0763736665}, {"nodeid": 22, "leaf": 0.00260567246}]}, {"nodeid": 12, "depth": 3, "split": "relStrengthVsSpy", "split_condition": 8.98379993, "yes": 23, "no": 24, "missing": 24, "children": [{"nodeid": 23, "leaf": 0.00623224955}, {"nodeid": 24, "leaf": -0.0455519892}]}]}]}]}, {"nodeid": 0, "depth": 0, "split": "gapDirectionAligned", "split_condition": 0.0110999998, "yes": 1, "no": 2, "missing": 2, "children": [{"nodeid": 1, "depth": 1, "split": "gapDirectionAligned", "split_condition": 0, "yes": 3, "no": 4, "missing": 4, "children": [{"nodeid": 3, "depth": 2, "split": "regimeCode", "split_condition": 1, "yes": 7, "no": 8, "missing": 8, "children": [{"nodeid": 7, "depth": 3, "split": "ethBtcDelta6", "split_condition": 3.65849996, "yes": 13, "no": 14, "missing": 14, "children": [{"nodeid": 13, "leaf": 0.068697311}, {"nodeid": 14, "leaf": 0}]}, {"nodeid": 8, "depth": 3, "split": "atrPercent", "split_condition": 1.63150001, "yes": 15, "no": 16, "missing": 16, "children": [{"nodeid": 15, "leaf": 0.0303806271}, {"nodeid": 16, "leaf": -0.0257747676}]}]}, {"nodeid": 4, "leaf": 0.121163554}]}, {"nodeid": 2, "depth": 1, "split": "hBBBandwidth", "split_condition": 2.78909993, "yes": 5, "no": 6, "missing": 6, "children": [{"nodeid": 5, "depth": 2, "split": "eStochK", "split_condition": 50.0999985, "yes": 9, "no": 10, "missing": 10, "children": [{"nodeid": 9, "depth": 3, "split": "ethBtcDelta6", "split_condition": 0.50910002, "yes": 17, "no": 18, "missing": 18, "children": [{"nodeid": 17, "leaf": 0.0675193369}, {"nodeid": 18, "leaf": -0.0126035577}]}, {"nodeid": 10, "depth": 3, "split": "hMacdHist", "split_condition": 5.13999987, "yes": 19, "no": 20, "missing": 20, "children": [{"nodeid": 19, "leaf": -0.00865251012}, {"nodeid": 20, "leaf": 0.0711419359}]}]}, {"nodeid": 6, "depth": 2, "split": "hMacdHistDelta", "split_condition": 0.00999999978, "yes": 11, "no": 12, "missing": 12, "children": [{"nodeid": 11, "depth": 3, "split": "hBBPercentB", "split_condition": 0.117600001, "yes": 21, "no": 22, "missing": 22, "children": [{"nodeid": 21, "leaf": 0.00511469459}, {"nodeid": 22, "leaf": -0.0277071539}]}, {"nodeid": 12, "depth": 3, "split": "gapPercent", "split_condition": 36.1862984, "yes": 23, "no": 24, "missing": 24, "children": [{"nodeid": 23, "leaf": 0.00604241248}, {"nodeid": 24, "leaf": -0.0445593186}]}]}]}]}, {"nodeid": 0, "depth": 0, "split": "relStrengthVsSpy", "split_condition": 0.0299999993, "yes": 1, "no": 2, "missing": 2, "children": [{"nodeid": 1, "depth": 1, "split": "fiftyTwoWeekPct", "split_condition": -0.606100023, "yes": 3, "no": 4, "missing": 4, "children": [{"nodeid": 3, "depth": 2, "split": "dStackBull", "split_condition": 1, "yes": 7, "no": 8, "missing": 8, "children": [{"nodeid": 7, "depth": 3, "split": "beta", "split_condition": 2.4000001, "yes": 13, "no": 14, "missing": 14, "children": [{"nodeid": 13, "leaf": -0.00838001259}, {"nodeid": 14, "leaf": -0.0491257794}]}, {"nodeid": 8, "depth": 3, "split": "ethBtcDelta6", "split_condition": 0.247700006, "yes": 15, "no": 16, "missing": 16, "children": [{"nodeid": 15, "leaf": 0.0598481782}, {"nodeid": 16, "leaf": -0.0242363233}]}]}, {"nodeid": 4, "leaf": 0.119354859}]}, {"nodeid": 2, "depth": 1, "split": "hVolumeRatio", "split_condition": 0.920000017, "yes": 5, "no": 6, "missing": 6, "children": [{"nodeid": 5, "depth": 2, "split": "dRsi", "split_condition": 43.2999992, "yes": 9, "no": 10, "missing": 10, "children": [{"nodeid": 9, "depth": 3, "split": "dBBBandwidth", "split_condition": 8.41310024, "yes": 17, "no": 18, "missing": 18, "children": [{"nodeid": 17, "leaf": 0.028066894}, {"nodeid": 18, "leaf": -0.0518142916}]}, {"nodeid": 10, "depth": 3, "split": "dRsi", "split_condition": 58.2000008, "yes": 19, "no": 20, "missing": 20, "children": [{"nodeid": 19, "leaf": 0.00213296502}, {"nodeid": 20, "leaf": -0.023181038}]}]}, {"nodeid": 6, "depth": 2, "split": "relStrengthVsSpy", "split_condition": 3.38380003, "yes": 11, "no": 12, "missing": 12, "children": [{"nodeid": 11, "depth": 3, "split": "ethBtcDelta6", "split_condition": -0.124200001, "yes": 21, "no": 22, "missing": 22, "children": [{"nodeid": 21, "leaf": 0.0135554653}, {"nodeid": 22, "leaf": -0.0207402948}]}, {"nodeid": 12, "depth": 3, "split": "dBBBandwidth", "split_condition": 21.3134003, "yes": 23, "no": 24, "missing": 24, "children": [{"nodeid": 23, "leaf": 0.0473543257}, {"nodeid": 24, "leaf": 0.00819244236}]}]}]}]}, {"nodeid": 0, "depth": 0, "split": "dayOfWeek", "split_condition": 5, "yes": 1, "no": 2, "missing": 2, "children": [{"nodeid": 1, "depth": 1, "split": "dAdxDelta", "split_condition": 1.25999999, "yes": 3, "no": 4, "missing": 4, "children": [{"nodeid": 3, "depth": 2, "split": "hBBBandwidth", "split_condition": 25.8619995, "yes": 7, "no": 8, "missing": 8, "children": [{"nodeid": 7, "depth": 3, "split": "hVolumeRatio", "split_condition": 1.27999997, "yes": 15, "no": 16, "missing": 16, "children": [{"nodeid": 15, "leaf": 0.0176654868}, {"nodeid": 16, "leaf": 0.0408352427}]}, {"nodeid": 8, "depth": 3, "split": "dBBPercentB", "split_condition": 0.316900015, "yes": 17, "no": 18, "missing": 18, "children": [{"nodeid": 17, "leaf": 0}, {"nodeid": 18, "leaf": -0.0714364052}]}]}, {"nodeid": 4, "depth": 2, "split": "dRsiDelta", "split_condition": 5.30000019, "yes": 9, "no": 10, "missing": 10, "children": [{"nodeid": 9, "depth": 3, "split": "hAboveVwap", "split_condition": 1, "yes": 19, "no": 20, "missing": 20, "children": [{"nodeid": 19, "leaf": 0.00261352421}, {"nodeid": 20, "leaf": -0.0300419033}]}, {"nodeid": 10, "depth": 3, "split": "ethBtcRatio", "split_condition": 0.0540699996, "yes": 21, "no": 22, "missing": 22, "children": [{"nodeid": 21, "leaf": 0.0830969438}, {"nodeid": 22, "leaf": 0.000751204148}]}]}]}, {"nodeid": 2, "depth": 1, "split": "ethBtcRatio", "split_condition": 0.0372539982, "yes": 5, "no": 6, "missing": 6, "children": [{"nodeid": 5, "depth": 2, "split": "fiftyTwoWeekPct", "split_condition": 0.0189999994, "yes": 11, "no": 12, "missing": 12, "children": [{"nodeid": 11, "depth": 3, "split": "fiftyTwoWeekPct", "split_condition": -0.00329999998, "yes": 23, "no": 24, "missing": 24, "children": [{"nodeid": 23, "leaf": -0.0246665552}, {"nodeid": 24, "leaf": 0.103197999}]}, {"nodeid": 12, "depth": 3, "split": "hStochK", "split_condition": 79.0999985, "yes": 25, "no": 26, "missing": 26, "children": [{"nodeid": 25, "leaf": -0.0380600952}, {"nodeid": 26, "leaf": 0.0241636746}]}]}, {"nodeid": 6, "depth": 2, "split": "dayOfWeek", "split_condition": 6, "yes": 13, "no": 14, "missing": 14, "children": [{"nodeid": 13, "depth": 3, "split": "hVolumeRatio", "split_condition": 1.62, "yes": 27, "no": 28, "missing": 28, "children": [{"nodeid": 27, "leaf": -0.0616810843}, {"nodeid": 28, "leaf": 0.0246181358}]}, {"nodeid": 14, "depth": 3, "split": "hDivergence", "split_condition": 0, "yes": 29, "no": 30, "missing": 30, "children": [{"nodeid": 29, "leaf": 0.0414580293}, {"nodeid": 30, "leaf": -0.0316607803}]}]}]}]}, {"nodeid": 0, "depth": 0, "split": "relStrengthVsSpy", "split_condition": 0.0299999993, "yes": 1, "no": 2, "missing": 2, "children": [{"nodeid": 1, "depth": 1, "split": "fiftyTwoWeekPct", "split_condition": -0.606100023, "yes": 3, "no": 4, "missing": 4, "children": [{"nodeid": 3, "depth": 2, "split": "relStrengthVsSpy", "split_condition": -1.15400004, "yes": 7, "no": 8, "missing": 8, "children": [{"nodeid": 7, "depth": 3, "split": "fearGreedIndex", "split_condition": 49, "yes": 13, "no": 14, "missing": 14, "children": [{"nodeid": 13, "leaf": -0.00103616575}, {"nodeid": 14, "leaf": 0.0493126102}]}, {"nodeid": 8, "depth": 3, "split": "dRsi", "split_condition": 44.5999985, "yes": 15, "no": 16, "missing": 16, "children": [{"nodeid": 15, "leaf": -0.0398769379}, {"nodeid": 16, "leaf": 0.0494992249}]}]}, {"nodeid": 4, "leaf": 0.11368598}]}, {"nodeid": 2, "depth": 1, "split": "dBBBandwidth", "split_condition": 35.8005981, "yes": 5, "no": 6, "missing": 6, "children": [{"nodeid": 5, "depth": 2, "split": "hMacdHistDelta", "split_condition": 0.00999999978, "yes": 9, "no": 10, "missing": 10, "children": [{"nodeid": 9, "depth": 3, "split": "basisPct", "split_condition": -0.0252100006, "yes": 17, "no": 18, "missing": 18, "children": [{"nodeid": 17, "leaf": -0.0248546433}, {"nodeid": 18, "leaf": -0.00115467457}]}, {"nodeid": 10, "depth": 3, "split": "vpAbovePoc", "split_condition": 8.5, "yes": 19, "no": 20, "missing": 20, "children": [{"nodeid": 19, "leaf": 0.0153293638}, {"nodeid": 20, "leaf": -0.0452947654}]}]}, {"nodeid": 6, "depth": 2, "split": "eStochK", "split_condition": 5.5, "yes": 11, "no": 12, "missing": 12, "children": [{"nodeid": 11, "leaf": -0.0945242867}, {"nodeid": 12, "depth": 3, "split": "hAdxDelta", "split_condition": -4.63000011, "yes": 21, "no": 22, "missing": 22, "children": [{"nodeid": 21, "leaf": -0.0423496477}, {"nodeid": 22, "leaf": -0.00759622548}]}]}]}]}, {"nodeid": 0, "depth": 0, "split": "gapDirectionAligned", "split_condition": 0.0110999998, "yes": 1, "no": 2, "missing": 2, "children": [{"nodeid": 1, "depth": 1, "split": "fiftyTwoWeekPct", "split_condition": 0.836000025, "yes": 3, "no": 4, "missing": 4, "children": [{"nodeid": 3, "leaf": 0.110168777}, {"nodeid": 4, "depth": 2, "split": "hBBPercentB", "split_condition": 0.997300029, "yes": 7, "no": 8, "missing": 8, "children": [{"nodeid": 7, "depth": 3, "split": "dBBBandwidth", "split_condition": 26.3516006, "yes": 13, "no": 14, "missing": 14, "children": [{"nodeid": 13, "leaf": 0.0140010891}, {"nodeid": 14, "leaf": -0.0321172215}]}, {"nodeid": 8, "depth": 3, "split": "hMacdHist", "split_condition": 14.8900003, "yes": 15, "no": 16, "missing": 16, "children": [{"nodeid": 15, "leaf": 0.0595596395}, {"nodeid": 16, "leaf": -0.00730278576}]}]}]}, {"nodeid": 2, "depth": 1, "split": "dAdx", "split_condition": 18.2000008, "yes": 5, "no": 6, "missing": 6, "children": [{"nodeid": 5, "depth": 2, "split": "fiftyTwoWeekPct", "split_condition": 1.70809996, "yes": 9, "no": 10, "missing": 10, "children": [{"nodeid": 9, "depth": 3, "split": "fiftyTwoWeekPct", "split_condition": -2.3829, "yes": 17, "no": 18, "missing": 18, "children": [{"nodeid": 17, "leaf": 0.0468523391}, {"nodeid": 18, "leaf": -0.000441534445}]}, {"nodeid": 10, "depth": 3, "split": "dBBBandwidth", "split_condition": 13.3146, "yes": 19, "no": 20, "missing": 20, "children": [{"nodeid": 19, "leaf": 0.103919409}, {"nodeid": 20, "leaf": 0.0450740866}]}]}, {"nodeid": 6, "depth": 2, "split": "dAdxDelta", "split_condition": -0.680000007, "yes": 11, "no": 12, "missing": 12, "children": [{"nodeid": 11, "depth": 3, "split": "relStrengthVsSpy", "split_condition": 5.31669998, "yes": 21, "no": 22, "missing": 22, "children": [{"nodeid": 21, "leaf": -0.0054438496}, {"nodeid": 22, "leaf": 0.0299382322}]}, {"nodeid": 12, "depth": 3, "split": "hBBPercentB", "split_condition": 0.0940999985, "yes": 23, "no": 24, "missing": 24, "children": [{"nodeid": 23, "leaf": 0.0110225817}, {"nodeid": 24, "leaf": -0.0273338519}]}]}]}]}, {"nodeid": 0, "depth": 0, "split": "dayOfWeek", "split_condition": 5, "yes": 1, "no": 2, "missing": 2, "children": [{"nodeid": 1, "depth": 1, "split": "tfAlignment", "split_condition": 2, "yes": 3, "no": 4, "missing": 4, "children": [{"nodeid": 3, "depth": 2, "split": "tfAlignment", "split_condition": -1, "yes": 7, "no": 8, "missing": 8, "children": [{"nodeid": 7, "depth": 3, "split": "relStrengthVsSpy", "split_condition": 0.611500025, "yes": 15, "no": 16, "missing": 16, "children": [{"nodeid": 15, "leaf": 0.00542424526}, {"nodeid": 16, "leaf": -0.041177731}]}, {"nodeid": 8, "depth": 3, "split": "dStochK", "split_condition": 5.80000019, "yes": 17, "no": 18, "missing": 18, "children": [{"nodeid": 17, "leaf": 0.0751618519}, {"nodeid": 18, "leaf": 0.0342437662}]}]}, {"nodeid": 4, "depth": 2, "split": "relStrengthVsSpy", "split_condition": 2.70449996, "yes": 9, "no": 10, "missing": 10, "children": [{"nodeid": 9, "leaf": 0.0602015443}, {"nodeid": 10, "depth": 3, "split": "hRsi", "split_condition": 70.1999969, "yes": 19, "no": 20, "missing": 20, "children": [{"nodeid": 19, "leaf": -0.0384785123}, {"nodeid": 20, "leaf": 0.00675205234}]}]}]}, {"nodeid": 2, "depth": 1, "split": "ethBtcRatio", "split_condition": 0.0468100011, "yes": 5, "no": 6, "missing": 6, "children": [{"nodeid": 5, "depth": 2, "split": "atrPercentile", "split_condition": 72, "yes": 11, "no": 12, "missing": 12, "children": [{"nodeid": 11, "depth": 3, "split": "hMacdHist", "split_condition": -0.0199999996, "yes": 21, "no": 22, "missing": 22, "children": [{"nodeid": 21, "leaf": -0.0122710643}, {"nodeid": 22, "leaf": 0.0461017154}]}, {"nodeid": 12, "depth": 3, "split": "hVolumeRatio", "split_condition": 0.949999988, "yes": 23, "no": 24, "missing": 24, "children": [{"nodeid": 23, "leaf": -0.0363817401}, {"nodeid": 24, "leaf": 0.0195809864}]}]}, {"nodeid": 6, "depth": 2, "split": "vixLevelCode", "split_condition": 2.36999989, "yes": 13, "no": 14, "missing": 14, "children": [{"nodeid": 13, "depth": 3, "split": "dStochK", "split_condition": 36.0999985, "yes": 25, "no": 26, "missing": 26, "children": [{"nodeid": 25, "leaf": -0.056640882}, {"nodeid": 26, "leaf": -0.02846024}]}, {"nodeid": 14, "depth": 3, "split": "hBBBandwidth", "split_condition": 12.0787001, "yes": 27, "no": 28, "missing": 28, "children": [{"nodeid": 27, "leaf": -0.108654939}, {"nodeid": 28, "leaf": -0.0410524942}]}]}]}]}, {"nodeid": 0, "depth": 0, "split": "dayOfWeek", "split_condition": 5, "yes": 1, "no": 2, "missing": 2, "children": [{"nodeid": 1, "depth": 1, "split": "dAdx", "split_condition": 20.2000008, "yes": 3, "no": 4, "missing": 4, "children": [{"nodeid": 3, "depth": 2, "split": "dBBPercentB", "split_condition": 1.00660002, "yes": 7, "no": 8, "missing": 8, "children": [{"nodeid": 7, "depth": 3, "split": "gapDirectionAligned", "split_condition": 6.35020018, "yes": 15, "no": 16, "missing": 16, "children": [{"nodeid": 15, "leaf": 0.0206779409}, {"nodeid": 16, "leaf": 0.0749774277}]}, {"nodeid": 8, "leaf": 0.0954502374}]}, {"nodeid": 4, "depth": 2, "split": "dAdxDelta", "split_condition": -0.140000001, "yes": 9, "no": 10, "missing": 10, "children": [{"nodeid": 9, "depth": 3, "split": "eRsi", "split_condition": 38, "yes": 17, "no": 18, "missing": 18, "children": [{"nodeid": 17, "leaf": -0.0158760548}, {"nodeid": 18, "leaf": 0.0240582433}]}, {"nodeid": 10, "depth": 3, "split": "dAdx", "split_condition": 39.4000015, "yes": 19, "no": 20, "missing": 20, "children": [{"nodeid": 19, "leaf": 0.000569591008}, {"nodeid": 20, "leaf": -0.0288627576}]}]}]}, {"nodeid": 2, "depth": 1, "split": "gapDirectionAligned", "split_condition": 0.0110999998, "yes": 5, "no": 6, "missing": 6, "children": [{"nodeid": 5, "depth": 2, "split": "gapDirectionAligned", "split_condition": 0, "yes": 11, "no": 12, "missing": 12, "children": [{"nodeid": 11, "depth": 3, "split": "dBBPercentB", "split_condition": 1.07249999, "yes": 21, "no": 22, "missing": 22, "children": [{"nodeid": 21, "leaf": -0.0311339833}, {"nodeid": 22, "leaf": 0.0288779698}]}, {"nodeid": 12, "leaf": 0.0971383154}]}, {"nodeid": 6, "depth": 2, "split": "vix", "split_condition": 23.1000004, "yes": 13, "no": 14, "missing": 14, "children": [{"nodeid": 13, "depth": 3, "split": "hBBBandwidth", "split_condition": 2.84540009, "yes": 23, "no": 24, "missing": 24, "children": [{"nodeid": 23, "leaf": -0.00644150563}, {"nodeid": 24, "leaf": -0.0583683439}]}, {"nodeid": 14, "depth": 3, "split": "vix", "split_condition": 24.7999992, "yes": 25, "no": 26, "missing": 26, "children": [{"nodeid": 25, "leaf": 0.0567817278}, {"nodeid": 26, "leaf": -0.0290150046}]}]}]}]}, {"nodeid": 0, "depth": 0, "split": "dStochK", "split_condition": 5.80000019, "yes": 1, "no": 2, "missing": 2, "children": [{"nodeid": 1, "depth": 1, "split": "dEmaCross", "split_condition": -1, "yes": 3, "no": 4, "missing": 4, "children": [{"nodeid": 3, "depth": 2, "split": "eStochK", "split_condition": 27.2000008, "yes": 7, "no": 8, "missing": 8, "children": [{"nodeid": 7, "depth": 3, "split": "atrPercent", "split_condition": 2.27900004, "yes": 15, "no": 16, "missing": 16, "children": [{"nodeid": 15, "leaf": 0}, {"nodeid": 16, "leaf": -0.0658132508}]}, {"nodeid": 8, "depth": 3, "split": "eStochK", "split_condition": 50.0999985, "yes": 17, "no": 18, "missing": 18, "children": [{"nodeid": 17, "leaf": 0.0682434812}, {"nodeid": 18, "leaf": -0.0016174179}]}]}, {"nodeid": 4, "depth": 2, "split": "vix", "split_condition": 13.8999996, "yes": 9, "no": 10, "missing": 10, "children": [{"nodeid": 9, "depth": 3, "split": "eStochK", "split_condition": 78.5, "yes": 19, "no": 20, "missing": 20, "children": [{"nodeid": 19, "leaf": 0.101747431}, {"nodeid": 20, "leaf": 0.0215431731}]}, {"nodeid": 10, "depth": 3, "split": "vpDistToPocATR", "split_condition": -2.08999991, "yes": 21, "no": 22, "missing": 22, "children": [{"nodeid": 21, "leaf": 0.0643088743}, {"nodeid": 22, "leaf": 0.0138758058}]}]}]}, {"nodeid": 2, "depth": 1, "split": "volScalarML", "split_condition": 0.779999971, "yes": 5, "no": 6, "missing": 6, "children": [{"nodeid": 5, "depth": 2, "split": "fiftyTwoWeekPct", "split_condition": 0, "yes": 11, "no": 12, "missing": 12, "children": [{"nodeid": 11, "depth": 3, "split": "hMacdHist", "split_condition": -0.0199999996, "yes": 23, "no": 24, "missing": 24, "children": [{"nodeid": 23, "leaf": 0.0344076864}, {"nodeid": 24, "leaf": -0.0268181171}]}, {"nodeid": 12, "depth": 3, "split": "fiftyTwoWeekPct", "split_condition": 0.0571999997, "yes": 25, "no": 26, "missing": 26, "children": [{"nodeid": 25, "leaf": 0.0962221324}, {"nodeid": 26, "leaf": 0.0349496119}]}]}, {"nodeid": 6, "depth": 2, "split": "dEmaCross", "split_condition": -1, "yes": 13, "no": 14, "missing": 14, "children": [{"nodeid": 13, "depth": 3, "split": "fiftyTwoWeekPct", "split_condition": -0.0775000006, "yes": 27, "no": 28, "missing": 28, "children": [{"nodeid": 27, "leaf": -0.0344282351}, {"nodeid": 28, "leaf": 0.00983281154}]}, {"nodeid": 14, "depth": 3, "split": "volScalarML", "split_condition": 1.22000003, "yes": 29, "no": 30, "missing": 30, "children": [{"nodeid": 29, "leaf": 0.00922342949}, {"nodeid": 30, "leaf": -0.0105821462}]}]}]}]}, {"nodeid": 0, "depth": 0, "split": "dayOfWeek", "split_condition": 5, "yes": 1, "no": 2, "missing": 2, "children": [{"nodeid": 1, "depth": 1, "split": "tfAlignment", "split_condition": 2, "yes": 3, "no": 4, "missing": 4, "children": [{"nodeid": 3, "depth": 2, "split": "tfAlignment", "split_condition": -1, "yes": 7, "no": 8, "missing": 8, "children": [{"nodeid": 7, "depth": 3, "split": "gapDirectionAligned", "split_condition": 0.0110999998, "yes": 15, "no": 16, "missing": 16, "children": [{"nodeid": 15, "leaf": 0.0960169807}, {"nodeid": 16, "leaf": -0.0318300985}]}, {"nodeid": 8, "depth": 3, "split": "dVolumeRatio", "split_condition": 0.550000012, "yes": 17, "no": 18, "missing": 18, "children": [{"nodeid": 17, "leaf": 0.0653711557}, {"nodeid": 18, "leaf": 0.0264258813}]}]}, {"nodeid": 4, "depth": 2, "split": "eMacdHist", "split_condition": 9.21000004, "yes": 9, "no": 10, "missing": 10, "children": [{"nodeid": 9, "depth": 3, "split": "vix", "split_condition": 13.8999996, "yes": 19, "no": 20, "missing": 20, "children": [{"nodeid": 19, "leaf": 0.0141477715}, {"nodeid": 20, "leaf": -0.0288685933}]}, {"nodeid": 10, "depth": 3, "split": "vix", "split_condition": 17.7999992, "yes": 21, "no": 22, "missing": 22, "children": [{"nodeid": 21, "leaf": -0.0942144394}, {"nodeid": 22, "leaf": -0.0221614409}]}]}]}, {"nodeid": 2, "depth": 1, "split": "gapDirectionAligned", "split_condition": 0.0110999998, "yes": 5, "no": 6, "missing": 6, "children": [{"nodeid": 5, "depth": 2, "split": "fiftyTwoWeekPct", "split_condition": 0.0189999994, "yes": 11, "no": 12, "missing": 12, "children": [{"nodeid": 11, "leaf": 0.0964389518}, {"nodeid": 12, "depth": 3, "split": "hMacdHistDelta", "split_condition": -0.75999999, "yes": 23, "no": 24, "missing": 24, "children": [{"nodeid": 23, "leaf": -0.0554271936}, {"nodeid": 24, "leaf": 0.00489309104}]}]}, {"nodeid": 6, "depth": 2, "split": "vix", "split_condition": 13.3999996, "yes": 13, "no": 14, "missing": 14, "children": [{"nodeid": 13, "depth": 3, "split": "dVolumeRatio", "split_condition": 0.600000024, "yes": 25, "no": 26, "missing": 26, "children": [{"nodeid": 25, "leaf": -0.0410310179}, {"nodeid": 26, "leaf": -0.0980036706}]}, {"nodeid": 14, "depth": 3, "split": "ethBtcDelta6", "split_condition": -1.74860001, "yes": 27, "no": 28, "missing": 28, "children": [{"nodeid": 27, "leaf": -0.0028804366}, {"nodeid": 28, "leaf": -0.0404191278}]}]}]}]}, {"nodeid": 0, "depth": 0, "split": "relStrengthVsSpy", "split_condition": 0.0299999993, "yes": 1, "no": 2, "missing": 2, "children": [{"nodeid": 1, "depth": 1, "split": "fiftyTwoWeekPct", "split_condition": -0.606100023, "yes": 3, "no": 4, "missing": 4, "children": [{"nodeid": 3, "depth": 2, "split": "hVolumeRatio", "split_condition": 0.930000007, "yes": 7, "no": 8, "missing": 8, "children": [{"nodeid": 7, "depth": 3, "split": "ethBtcDelta6", "split_condition": 0.450300008, "yes": 13, "no": 14, "missing": 14, "children": [{"nodeid": 13, "leaf": 0.00385297299}, {"nodeid": 14, "leaf": -0.0475178286}]}, {"nodeid": 8, "depth": 3, "split": "ethBtcDelta6", "split_condition": 0.407499999, "yes": 15, "no": 16, "missing": 16, "children": [{"nodeid": 15, "leaf": 0.00913256593}, {"nodeid": 16, "leaf": 0.0752754211}]}]}, {"nodeid": 4, "leaf": 0.103012912}]}, {"nodeid": 2, "depth": 1, "split": "hRsi", "split_condition": 70.5999985, "yes": 5, "no": 6, "missing": 6, "children": [{"nodeid": 5, "depth": 2, "split": "dRsi", "split_condition": 39.5, "yes": 9, "no": 10, "missing": 10, "children": [{"nodeid": 9, "depth": 3, "split": "hVolumeRatio", "split_condition": 0.810000002, "yes": 17, "no": 18, "missing": 18, "children": [{"nodeid": 17, "leaf": -0.0571050644}, {"nodeid": 18, "leaf": -0.00586894806}]}, {"nodeid": 10, "depth": 3, "split": "gapDirectionAligned", "split_condition": 2.63520002, "yes": 19, "no": 20, "missing": 20, "children": [{"nodeid": 19, "leaf": -0.0138469255}, {"nodeid": 20, "leaf": 0.00457637757}]}]}, {"nodeid": 6, "depth": 2, "split": "gapPercent", "split_condition": 8.53579998, "yes": 11, "no": 12, "missing": 12, "children": [{"nodeid": 11, "depth": 3, "split": "beta", "split_condition": 1.15999997, "yes": 21, "no": 22, "missing": 22, "children": [{"nodeid": 21, "leaf": 0.039834924}, {"nodeid": 22, "leaf": 0.0984466597}]}, {"nodeid": 12, "depth": 3, "split": "dMacdHist", "split_condition": 46.5299988, "yes": 23, "no": 24, "missing": 24, "children": [{"nodeid": 23, "leaf": 0.032319434}, {"nodeid": 24, "leaf": -0.06030339}]}]}]}]}, {"nodeid": 0, "depth": 0, "split": "tfAlignment", "split_condition": 2, "yes": 1, "no": 2, "missing": 2, "children": [{"nodeid": 1, "depth": 1, "split": "tfAlignment", "split_condition": -1, "yes": 3, "no": 4, "missing": 4, "children": [{"nodeid": 3, "depth": 2, "split": "relStrengthVsSpy", "split_condition": 0.611500025, "yes": 7, "no": 8, "missing": 8, "children": [{"nodeid": 7, "depth": 3, "split": "beta", "split_condition": 0.819999993, "yes": 13, "no": 14, "missing": 14, "children": [{"nodeid": 13, "leaf": 0.0132018365}, {"nodeid": 14, "leaf": -0.0264600944}]}, {"nodeid": 8, "depth": 3, "split": "fearGreedIndex", "split_condition": 34, "yes": 15, "no": 16, "missing": 16, "children": [{"nodeid": 15, "leaf": -0.0308982003}, {"nodeid": 16, "leaf": -0.0716209039}]}]}, {"nodeid": 4, "depth": 2, "split": "relStrengthVsSpy", "split_condition": 5.31669998, "yes": 9, "no": 10, "missing": 10, "children": [{"nodeid": 9, "depth": 3, "split": "relStrengthVsSpy", "split_condition": 0.0299999993, "yes": 17, "no": 18, "missing": 18, "children": [{"nodeid": 17, "leaf": 0.0365079455}, {"nodeid": 18, "leaf": 0.000463883072}]}, {"nodeid": 10, "depth": 3, "split": "hMacdHistDelta", "split_condition": -0.0799999982, "yes": 19, "no": 20, "missing": 20, "children": [{"nodeid": 19, "leaf": 0.0132378172}, {"nodeid": 20, "leaf": 0.0508927032}]}]}]}, {"nodeid": 2, "depth": 1, "split": "relStrengthVsSpy", "split_condition": 0.0299999993, "yes": 5, "no": 6, "missing": 6, "children": [{"nodeid": 5, "leaf": 0.0923697725}, {"nodeid": 6, "depth": 2, "split": "vpDistToPocATR", "split_condition": 10.96, "yes": 11, "no": 12, "missing": 12, "children": [{"nodeid": 11, "depth": 3, "split": "ethBtcDelta6", "split_condition": -2.3348, "yes": 21, "no": 22, "missing": 22, "children": [{"nodeid": 21, "leaf": 0.00480368827}, {"nodeid": 22, "leaf": -0.0355583876}]}, {"nodeid": 12, "leaf": 0.0351626948}]}]}]}, {"nodeid": 0, "depth": 0, "split": "tfAlignment", "split_condition": 2, "yes": 1, "no": 2, "missing": 2, "children": [{"nodeid": 1, "depth": 1, "split": "tfAlignment", "split_condition": -1, "yes": 3, "no": 4, "missing": 4, "children": [{"nodeid": 3, "depth": 2, "split": "fiftyTwoWeekPct", "split_condition": -0.140000001, "yes": 7, "no": 8, "missing": 8, "children": [{"nodeid": 7, "depth": 3, "split": "fearGreedIndex", "split_condition": 20, "yes": 13, "no": 14, "missing": 14, "children": [{"nodeid": 13, "leaf": 0.00404743245}, {"nodeid": 14, "leaf": -0.0431852005}]}, {"nodeid": 8, "depth": 3, "split": "relStrengthVsSpy", "split_condition": 0.486999989, "yes": 15, "no": 16, "missing": 16, "children": [{"nodeid": 15, "leaf": 0.0909175947}, {"nodeid": 16, "leaf": -0.0219070166}]}]}, {"nodeid": 4, "depth": 2, "split": "relStrengthVsSpy", "split_condition": 4.71589994, "yes": 9, "no": 10, "missing": 10, "children": [{"nodeid": 9, "depth": 3, "split": "relStrengthVsSpy", "split_condition": 0.0299999993, "yes": 17, "no": 18, "missing": 18, "children": [{"nodeid": 17, "leaf": 0.0326778628}, {"nodeid": 18, "leaf": -0.00169790885}]}, {"nodeid": 10, "depth": 3, "split": "dMacdHist", "split_condition": 54.0299988, "yes": 19, "no": 20, "missing": 20, "children": [{"nodeid": 19, "leaf": 0.0405379198}, {"nodeid": 20, "leaf": -0.00643920666}]}]}]}, {"nodeid": 2, "depth": 1, "split": "relStrengthVsSpy", "split_condition": 1.61670005, "yes": 5, "no": 6, "missing": 6, "children": [{"nodeid": 5, "leaf": 0.0818681866}, {"nodeid": 6, "depth": 2, "split": "hRsi", "split_condition": 66.6999969, "yes": 11, "no": 12, "missing": 12, "children": [{"nodeid": 11, "depth": 3, "split": "hVolumeRatio", "split_condition": 1.79999995, "yes": 21, "no": 22, "missing": 22, "children": [{"nodeid": 21, "leaf": -0.0389730744}, {"nodeid": 22, "leaf": 0.0448111966}]}, {"nodeid": 12, "depth": 3, "split": "dBBBandwidth", "split_condition": 19.9041004, "yes": 23, "no": 24, "missing": 24, "children": [{"nodeid": 23, "leaf": 0.0502048098}, {"nodeid": 24, "leaf": -0.00862754602}]}]}]}]}, {"nodeid": 0, "depth": 0, "split": "dayOfWeek", "split_condition": 5, "yes": 1, "no": 2, "missing": 2, "children": [{"nodeid": 1, "depth": 1, "split": "tfAlignment", "split_condition": 2, "yes": 3, "no": 4, "missing": 4, "children": [{"nodeid": 3, "depth": 2, "split": "tfAlignment", "split_condition": -1, "yes": 7, "no": 8, "missing": 8, "children": [{"nodeid": 7, "depth": 3, "split": "ethBtcDelta6", "split_condition": -2.52690005, "yes": 15, "no": 16, "missing": 16, "children": [{"nodeid": 15, "leaf": 0.0389327258}, {"nodeid": 16, "leaf": -0.0224264171}]}, {"nodeid": 8, "depth": 3, "split": "hBBPercentB", "split_condition": 1.13569999, "yes": 17, "no": 18, "missing": 18, "children": [{"nodeid": 17, "leaf": 0.0266296118}, {"nodeid": 18, "leaf": 0.0883227587}]}]}, {"nodeid": 4, "depth": 2, "split": "relStrengthVsSpy", "split_condition": 2.18670011, "yes": 9, "no": 10, "missing": 10, "children": [{"nodeid": 9, "leaf": 0.0906802565}, {"nodeid": 10, "depth": 3, "split": "dBBPercentB", "split_condition": 0.883599997, "yes": 19, "no": 20, "missing": 20, "children": [{"nodeid": 19, "leaf": -0.0368971303}, {"nodeid": 20, "leaf": 0}]}]}]}, {"nodeid": 2, "depth": 1, "split": "fiftyTwoWeekPct", "split_condition": -0.123000003, "yes": 5, "no": 6, "missing": 6, "children": [{"nodeid": 5, "depth": 2, "split": "hBBBandwidth", "split_condition": 11.2517996, "yes": 11, "no": 12, "missing": 12, "children": [{"nodeid": 11, "depth": 3, "split": "hRsiDelta", "split_condition": 2.49000001, "yes": 21, "no": 22, "missing": 22, "children": [{"nodeid": 21, "leaf": -0.0376241021}, {"nodeid": 22, "leaf": -0.0885514244}]}, {"nodeid": 12, "depth": 3, "split": "hRsiDelta", "split_condition": 2.79999995, "yes": 23, "no": 24, "missing": 24, "children": [{"nodeid": 23, "leaf": -0.0271389745}, {"nodeid": 24, "leaf": 0.0185478348}]}]}, {"nodeid": 6, "depth": 2, "split": "relStrengthVsSpy", "split_condition": 0.0299999993, "yes": 13, "no": 14, "missing": 14, "children": [{"nodeid": 13, "leaf": 0.089649342}, {"nodeid": 14, "depth": 3, "split": "fiftyTwoWeekPct", "split_condition": 1.79999995, "yes": 25, "no": 26, "missing": 26, "children": [{"nodeid": 25, "leaf": -0.0409471281}, {"nodeid": 26, "leaf": -0.00993876811}]}]}]}]}, {"nodeid": 0, "depth": 0, "split": "tfAlignment", "split_condition": 2, "yes": 1, "no": 2, "missing": 2, "children": [{"nodeid": 1, "depth": 1, "split": "tfAlignment", "split_condition": -1, "yes": 3, "no": 4, "missing": 4, "children": [{"nodeid": 3, "depth": 2, "split": "atrPercentile", "split_condition": 23, "yes": 7, "no": 8, "missing": 8, "children": [{"nodeid": 7, "depth": 3, "split": "dAdx", "split_condition": 25.5, "yes": 15, "no": 16, "missing": 16, "children": [{"nodeid": 15, "leaf": -0.0302233882}, {"nodeid": 16, "leaf": 0.0125100957}]}, {"nodeid": 8, "depth": 3, "split": "dAdx", "split_condition": 21.7999992, "yes": 17, "no": 18, "missing": 18, "children": [{"nodeid": 17, "leaf": 0.0244634245}, {"nodeid": 18, "leaf": -0.038036637}]}]}, {"nodeid": 4, "depth": 2, "split": "hBBSqueeze", "split_condition": 1, "yes": 9, "no": 10, "missing": 10, "children": [{"nodeid": 9, "depth": 3, "split": "hRsi", "split_condition": 63, "yes": 19, "no": 20, "missing": 20, "children": [{"nodeid": 19, "leaf": 0.00319972308}, {"nodeid": 20, "leaf": 0.0330595039}]}, {"nodeid": 10, "depth": 3, "split": "hStochK", "split_condition": 82.4000015, "yes": 21, "no": 22, "missing": 22, "children": [{"nodeid": 21, "leaf": 0.0410958789}, {"nodeid": 22, "leaf": -0.0129618477}]}]}]}, {"nodeid": 2, "depth": 1, "split": "dxyAboveEma20", "split_condition": 1, "yes": 5, "no": 6, "missing": 6, "children": [{"nodeid": 5, "depth": 2, "split": "dBBPercentB", "split_condition": 1.00059998, "yes": 11, "no": 12, "missing": 12, "children": [{"nodeid": 11, "depth": 3, "split": "vpAbovePoc", "split_condition": 15.1099997, "yes": 23, "no": 24, "missing": 24, "children": [{"nodeid": 23, "leaf": -0.0504019856}, {"nodeid": 24, "leaf": 0.0127238175}]}, {"nodeid": 12, "depth": 3, "split": "hRsiDelta", "split_condition": -3.45000005, "yes": 25, "no": 26, "missing": 26, "children": [{"nodeid": 25, "leaf": 0.0622709468}, {"nodeid": 26, "leaf": -0.00777916284}]}]}, {"nodeid": 6, "depth": 2, "split": "vix", "split_condition": 12.6000004, "yes": 13, "no": 14, "missing": 14, "children": [{"nodeid": 13, "leaf": -0.0699532852}, {"nodeid": 14, "depth": 3, "split": "vix", "split_condition": 13.6000004, "yes": 27, "no": 28, "missing": 28, "children": [{"nodeid": 27, "leaf": 0.0669023991}, {"nodeid": 28, "leaf": -0.0104169631}]}]}]}]}, {"nodeid": 0, "depth": 0, "split": "dayOfWeek", "split_condition": 5, "yes": 1, "no": 2, "missing": 2, "children": [{"nodeid": 1, "depth": 1, "split": "atrPercent", "split_condition": 2.62210011, "yes": 3, "no": 4, "missing": 4, "children": [{"nodeid": 3, "depth": 2, "split": "relStrengthVsSpy", "split_condition": 0.646799982, "yes": 7, "no": 8, "missing": 8, "children": [{"nodeid": 7, "depth": 3, "split": "fiftyTwoWeekPct", "split_condition": -0.907599986, "yes": 15, "no": 16, "missing": 16, "children": [{"nodeid": 15, "leaf": 0.0180741921}, {"nodeid": 16, "leaf": 0.0912310556}]}, {"nodeid": 8, "depth": 3, "split": "hMacdHistDelta", "split_condition": 0.00999999978, "yes": 17, "no": 18, "missing": 18, "children": [{"nodeid": 17, "leaf": 0.00218621013}, {"nodeid": 18, "leaf": 0.0294625182}]}]}, {"nodeid": 4, "depth": 2, "split": "dStochK", "split_condition": 7.5, "yes": 9, "no": 10, "missing": 10, "children": [{"nodeid": 9, "depth": 3, "split": "relStrengthVsSpy", "split_condition": 3.11229992, "yes": 19, "no": 20, "missing": 20, "children": [{"nodeid": 19, "leaf": 0.0412574895}, {"nodeid": 20, "leaf": -0.00709063653}]}, {"nodeid": 10, "depth": 3, "split": "hBBPercentB", "split_condition": 1.03779995, "yes": 21, "no": 22, "missing": 22, "children": [{"nodeid": 21, "leaf": -0.0121577699}, {"nodeid": 22, "leaf": 0.0549548529}]}]}]}, {"nodeid": 2, "depth": 1, "split": "gapDirectionAligned", "split_condition": 0.128800005, "yes": 5, "no": 6, "missing": 6, "children": [{"nodeid": 5, "depth": 2, "split": "fiftyTwoWeekPct", "split_condition": 0.0189999994, "yes": 11, "no": 12, "missing": 12, "children": [{"nodeid": 11, "leaf": 0.0878058001}, {"nodeid": 12, "depth": 3, "split": "dStochK", "split_condition": 68.1999969, "yes": 23, "no": 24, "missing": 24, "children": [{"nodeid": 23, "leaf": -0.0639859959}, {"nodeid": 24, "leaf": -0.00172722398}]}]}, {"nodeid": 6, "depth": 2, "split": "dayOfWeek", "split_condition": 6, "yes": 13, "no": 14, "missing": 14, "children": [{"nodeid": 13, "depth": 3, "split": "atrPercent", "split_condition": 1.90050006, "yes": 25, "no": 26, "missing": 26, "children": [{"nodeid": 25, "leaf": -0.0801330954}, {"nodeid": 26, "leaf": -0.0334417038}]}, {"nodeid": 14, "depth": 3, "split": "dRsi", "split_condition": 38.7000008, "yes": 27, "no": 28, "missing": 28, "children": [{"nodeid": 27, "leaf": -0.0569081306}, {"nodeid": 28, "leaf": -0.0110314162}]}]}]}]}, {"nodeid": 0, "depth": 0, "split": "dayOfWeek", "split_condition": 5, "yes": 1, "no": 2, "missing": 2, "children": [{"nodeid": 1, "depth": 1, "split": "dayOfWeek", "split_condition": 1, "yes": 3, "no": 4, "missing": 4, "children": [{"nodeid": 3, "depth": 2, "split": "hStochK", "split_condition": 3.4000001, "yes": 7, "no": 8, "missing": 8, "children": [{"nodeid": 7, "leaf": -0.0454731695}, {"nodeid": 8, "depth": 3, "split": "dRsi", "split_condition": 58.7000008, "yes": 15, "no": 16, "missing": 16, "children": [{"nodeid": 15, "leaf": 0.0459269509}, {"nodeid": 16, "leaf": 0.0107827587}]}]}, {"nodeid": 4, "depth": 2, "split": "gapPercent", "split_condition": 14.2510996, "yes": 9, "no": 10, "missing": 10, "children": [{"nodeid": 9, "depth": 3, "split": "gapDirectionAligned", "split_condition": 0.0110999998, "yes": 17, "no": 18, "missing": 18, "children": [{"nodeid": 17, "leaf": 0.0381554998}, {"nodeid": 18, "leaf": 0.00536643155}]}, {"nodeid": 10, "depth": 3, "split": "vpAbovePoc", "split_condition": 0.170000002, "yes": 19, "no": 20, "missing": 20, "children": [{"nodeid": 19, "leaf": -0.00142937759}, {"nodeid": 20, "leaf": -0.0383625925}]}]}]}, {"nodeid": 2, "depth": 1, "split": "gapDirectionAligned", "split_condition": 0.0110999998, "yes": 5, "no": 6, "missing": 6, "children": [{"nodeid": 5, "depth": 2, "split": "gapDirectionAligned", "split_condition": -0.0298999995, "yes": 11, "no": 12, "missing": 12, "children": [{"nodeid": 11, "depth": 3, "split": "hStochK", "split_condition": 88.4000015, "yes": 21, "no": 22, "missing": 22, "children": [{"nodeid": 21, "leaf": -0.0308903214}, {"nodeid": 22, "leaf": 0.0283605196}]}, {"nodeid": 12, "leaf": 0.0808773339}]}, {"nodeid": 6, "depth": 2, "split": "hRsiDelta", "split_condition": 2.41000009, "yes": 13, "no": 14, "missing": 14, "children": [{"nodeid": 13, "depth": 3, "split": "hRsiDelta", "split_condition": 0.280000001, "yes": 23, "no": 24, "missing": 24, "children": [{"nodeid": 23, "leaf": -0.0260414332}, {"nodeid": 24, "leaf": 0.0125810998}]}, {"nodeid": 14, "depth": 3, "split": "hBBBandwidth", "split_condition": 10.8246002, "yes": 25, "no": 26, "missing": 26, "children": [{"nodeid": 25, "leaf": -0.0607348606}, {"nodeid": 26, "leaf": -0.020231206}]}]}]}]}, {"nodeid": 0, "depth": 0, "split": "dayOfWeek", "split_condition": 5, "yes": 1, "no": 2, "missing": 2, "children": [{"nodeid": 1, "depth": 1, "split": "eStochK", "split_condition": 7.69999981, "yes": 3, "no": 4, "missing": 4, "children": [{"nodeid": 3, "depth": 2, "split": "vpDistToPocATR", "split_condition": 7.61999989, "yes": 7, "no": 8, "missing": 8, "children": [{"nodeid": 7, "depth": 3, "split": "atrPercentile", "split_condition": 85, "yes": 15, "no": 16, "missing": 16, "children": [{"nodeid": 15, "leaf": -0.0149792563}, {"nodeid": 16, "leaf": -0.0748589709}]}, {"nodeid": 8, "depth": 3, "split": "vix", "split_condition": 16.2000008, "yes": 17, "no": 18, "missing": 18, "children": [{"nodeid": 17, "leaf": 0.050110776}, {"nodeid": 18, "leaf": -0.0119691119}]}]}, {"nodeid": 4, "depth": 2, "split": "hBBPercentB", "split_condition": 1.13569999, "yes": 9, "no": 10, "missing": 10, "children": [{"nodeid": 9, "depth": 3, "split": "relStrengthVsSpy", "split_condition": 0.076700002, "yes": 19, "no": 20, "missing": 20, "children": [{"nodeid": 19, "leaf": 0.0298885927}, {"nodeid": 20, "leaf": 0.0068126535}]}, {"nodeid": 10, "depth": 3, "split": "fearGreedIndex", "split_condition": 51, "yes": 21, "no": 22, "missing": 22, "children": [{"nodeid": 21, "leaf": 0.102765113}, {"nodeid": 22, "leaf": 0.0251825191}]}]}]}, {"nodeid": 2, "depth": 1, "split": "dayOfWeek", "split_condition": 6, "yes": 5, "no": 6, "missing": 6, "children": [{"nodeid": 5, "depth": 2, "split": "ethBtcRatio", "split_condition": 0.0541599989, "yes": 11, "no": 12, "missing": 12, "children": [{"nodeid": 11, "depth": 3, "split": "hAdxDelta", "split_condition": 4.55999994, "yes": 23, "no": 24, "missing": 24, "children": [{"nodeid": 23, "leaf": -0.0305396505}, {"nodeid": 24, "leaf": 0.0485892966}]}, {"nodeid": 12, "depth": 3, "split": "ethBtcRatio", "split_condition": 0.0674680024, "yes": 25, "no": 26, "missing": 26, "children": [{"nodeid": 25, "leaf": -0.0698374882}, {"nodeid": 26, "leaf": -0.0279306248}]}]}, {"nodeid": 6, "depth": 2, "split": "dBBBandwidth", "split_condition": 8.17570019, "yes": 13, "no": 14, "missing": 14, "children": [{"nodeid": 13, "leaf": 0.0741786882}, {"nodeid": 14, "depth": 3, "split": "hVolumeRatio", "split_condition": 0.370000005, "yes": 27, "no": 28, "missing": 28, "children": [{"nodeid": 27, "leaf": -0.0443523824}, {"nodeid": 28, "leaf": -0.00573215494}]}]}]}]}, {"nodeid": 0, "depth": 0, "split": "dayOfWeek", "split_condition": 5, "yes": 1, "no": 2, "missing": 2, "children": [{"nodeid": 1, "depth": 1, "split": "tfAlignment", "split_condition": 2, "yes": 3, "no": 4, "missing": 4, "children": [{"nodeid": 3, "depth": 2, "split": "tfAlignment", "split_condition": -1, "yes": 7, "no": 8, "missing": 8, "children": [{"nodeid": 7, "depth": 3, "split": "gapDirectionAligned", "split_condition": 0.0110999998, "yes": 15, "no": 16, "missing": 16, "children": [{"nodeid": 15, "leaf": 0.0848963708}, {"nodeid": 16, "leaf": -0.0170525871}]}, {"nodeid": 8, "depth": 3, "split": "gapDirectionAligned", "split_condition": 6.25, "yes": 17, "no": 18, "missing": 18, "children": [{"nodeid": 17, "leaf": 0.0210622717}, {"nodeid": 18, "leaf": 0.0518921316}]}]}, {"nodeid": 4, "depth": 2, "split": "eMacdHist", "split_condition": 9.21000004, "yes": 9, "no": 10, "missing": 10, "children": [{"nodeid": 9, "depth": 3, "split": "gapDirectionAligned", "split_condition": -2.90170002, "yes": 19, "no": 20, "missing": 20, "children": [{"nodeid": 19, "leaf": 0.0281150788}, {"nodeid": 20, "leaf": -0.0165487248}]}, {"nodeid": 10, "depth": 3, "split": "atrPercentile", "split_condition": 68, "yes": 21, "no": 22, "missing": 22, "children": [{"nodeid": 21, "leaf": -0.0182425845}, {"nodeid": 22, "leaf": -0.0806952715}]}]}]}, {"nodeid": 2, "depth": 1, "split": "gapDirectionAligned", "split_condition": 0.0110999998, "yes": 5, "no": 6, "missing": 6, "children": [{"nodeid": 5, "depth": 2, "split": "fiftyTwoWeekPct", "split_condition": 0.0189999994, "yes": 11, "no": 12, "missing": 12, "children": [{"nodeid": 11, "leaf": 0.084861286}, {"nodeid": 12, "depth": 3, "split": "hMacdHistDelta", "split_condition": -0.620000005, "yes": 23, "no": 24, "missing": 24, "children": [{"nodeid": 23, "leaf": -0.0470345877}, {"nodeid": 24, "leaf": 0.00533342361}]}]}, {"nodeid": 6, "depth": 2, "split": "dayOfWeek", "split_condition": 6, "yes": 13, "no": 14, "missing": 14, "children": [{"nodeid": 13, "depth": 3, "split": "dBBBandwidth", "split_condition": 22.5326004, "yes": 25, "no": 26, "missing": 26, "children": [{"nodeid": 25, "leaf": -0.062405102}, {"nodeid": 26, "leaf": -0.0222906377}]}, {"nodeid": 14, "depth": 3, "split": "atrPercent", "split_condition": 0.865800023, "yes": 27, "no": 28, "missing": 28, "children": [{"nodeid": 27, "leaf": 0.0621496513}, {"nodeid": 28, "leaf": -0.0208974518}]}]}]}]}, {"nodeid": 0, "depth": 0, "split": "tfAlignment", "split_condition": 2, "yes": 1, "no": 2, "missing": 2, "children": [{"nodeid": 1, "depth": 1, "split": "fiftyTwoWeekPct", "split_condition": 0, "yes": 3, "no": 4, "missing": 4, "children": [{"nodeid": 3, "depth": 2, "split": "dStackBull", "split_condition": 1, "yes": 7, "no": 8, "missing": 8, "children": [{"nodeid": 7, "depth": 3, "split": "vpAbovePoc", "split_condition": 0, "yes": 15, "no": 16, "missing": 16, "children": [{"nodeid": 15, "leaf": 0.00860706717}, {"nodeid": 16, "leaf": -0.0222115945}]}, {"nodeid": 8, "depth": 3, "split": "hVolumeRatio", "split_condition": 0.779999971, "yes": 17, "no": 18, "missing": 18, "children": [{"nodeid": 17, "leaf": -0.00130892254}, {"nodeid": 18, "leaf": 0.0303906053}]}]}, {"nodeid": 4, "depth": 2, "split": "relStrengthVsSpy", "split_condition": 0.413800001, "yes": 9, "no": 10, "missing": 10, "children": [{"nodeid": 9, "leaf": 0.0940471888}, {"nodeid": 10, "depth": 3, "split": "relStrengthVsSpy", "split_condition": 4.66890001, "yes": 19, "no": 20, "missing": 20, "children": [{"nodeid": 19, "leaf": -0.00223485101}, {"nodeid": 20, "leaf": 0.0296623986}]}]}]}, {"nodeid": 2, "depth": 1, "split": "hRsi", "split_condition": 68.9000015, "yes": 5, "no": 6, "missing": 6, "children": [{"nodeid": 5, "depth": 2, "split": "hRsi", "split_condition": 45.5, "yes": 11, "no": 12, "missing": 12, "children": [{"nodeid": 11, "depth": 3, "split": "dAdxDelta", "split_condition": -0.75, "yes": 21, "no": 22, "missing": 22, "children": [{"nodeid": 21, "leaf": 0.0643677041}, {"nodeid": 22, "leaf": 0}]}, {"nodeid": 12, "depth": 3, "split": "eRsi", "split_condition": 59.9000015, "yes": 23, "no": 24, "missing": 24, "children": [{"nodeid": 23, "leaf": -0.032773979}, {"nodeid": 24, "leaf": -0.00360666006}]}]}, {"nodeid": 6, "depth": 2, "split": "hMacdHist", "split_condition": 2.75, "yes": 13, "no": 14, "missing": 14, "children": [{"nodeid": 13, "depth": 3, "split": "dAdxDelta", "split_condition": 2.52999997, "yes": 25, "no": 26, "missing": 26, "children": [{"nodeid": 25, "leaf": 0.0557993054}, {"nodeid": 26, "leaf": -0.0149671137}]}, {"nodeid": 14, "depth": 3, "split": "gapPercent", "split_condition": 9.17749977, "yes": 27, "no": 28, "missing": 28, "children": [{"nodeid": 27, "leaf": 0.0366024412}, {"nodeid": 28, "leaf": -0.0375356749}]}]}]}]}, {"nodeid": 0, "depth": 0, "split": "hBBBandwidth", "split_condition": 2.78909993, "yes": 1, "no": 2, "missing": 2, "children": [{"nodeid": 1, "depth": 1, "split": "dStochK", "split_condition": 77.6999969, "yes": 3, "no": 4, "missing": 4, "children": [{"nodeid": 3, "depth": 2, "split": "dStochK", "split_condition": 38.7000008, "yes": 7, "no": 8, "missing": 8, "children": [{"nodeid": 7, "depth": 3, "split": "dBBSqueeze", "split_condition": 1, "yes": 15, "no": 16, "missing": 16, "children": [{"nodeid": 15, "leaf": 0.0615656488}, {"nodeid": 16, "leaf": 0}]}, {"nodeid": 8, "depth": 3, "split": "dBBBandwidth", "split_condition": 8.63969994, "yes": 17, "no": 18, "missing": 18, "children": [{"nodeid": 17, "leaf": 0.0266649202}, {"nodeid": 18, "leaf": -0.0371886455}]}]}, {"nodeid": 4, "depth": 2, "split": "hRsiDelta", "split_condition": -3.45000005, "yes": 9, "no": 10, "missing": 10, "children": [{"nodeid": 9, "leaf": 0.110572889}, {"nodeid": 10, "leaf": 0.029935658}]}]}, {"nodeid": 2, "depth": 1, "split": "hMacdHistDelta", "split_condition": -0.75999999, "yes": 5, "no": 6, "missing": 6, "children": [{"nodeid": 5, "depth": 2, "split": "dRsiDelta", "split_condition": 1.77999997, "yes": 11, "no": 12, "missing": 12, "children": [{"nodeid": 11, "depth": 3, "split": "dBBBandwidth", "split_condition": 35.8005981, "yes": 19, "no": 20, "missing": 20, "children": [{"nodeid": 19, "leaf": -0.00437536603}, {"nodeid": 20, "leaf": -0.0426289737}]}, {"nodeid": 12, "depth": 3, "split": "dStochK", "split_condition": 54.5999985, "yes": 21, "no": 22, "missing": 22, "children": [{"nodeid": 21, "leaf": -0.108848728}, {"nodeid": 22, "leaf": -0.0431812294}]}]}, {"nodeid": 6, "depth": 2, "split": "dEmaCross", "split_condition": -1, "yes": 13, "no": 14, "missing": 14, "children": [{"nodeid": 13, "depth": 3, "split": "volScalarML", "split_condition": 0.879999995, "yes": 23, "no": 24, "missing": 24, "children": [{"nodeid": 23, "leaf": 0}, {"nodeid": 24, "leaf": -0.0251432583}]}, {"nodeid": 14, "depth": 3, "split": "dRsiDelta", "split_condition": -5.78999996, "yes": 25, "no": 26, "missing": 26, "children": [{"nodeid": 25, "leaf": -0.030300986}, {"nodeid": 26, "leaf": 0.00920352153}]}]}]}]}, {"nodeid": 0, "depth": 0, "split": "gapDirectionAligned", "split_condition": 0.0110999998, "yes": 1, "no": 2, "missing": 2, "children": [{"nodeid": 1, "depth": 1, "split": "gapDirectionAligned", "split_condition": 0, "yes": 3, "no": 4, "missing": 4, "children": [{"nodeid": 3, "depth": 2, "split": "beta", "split_condition": 1.38, "yes": 7, "no": 8, "missing": 8, "children": [{"nodeid": 7, "depth": 3, "split": "hAdxDelta", "split_condition": 5.84000015, "yes": 13, "no": 14, "missing": 14, "children": [{"nodeid": 13, "leaf": -0.0276129097}, {"nodeid": 14, "leaf": 0.0196673647}]}, {"nodeid": 8, "depth": 3, "split": "dStochK", "split_condition": 62.5999985, "yes": 15, "no": 16, "missing": 16, "children": [{"nodeid": 15, "leaf": -0.0278466009}, {"nodeid": 16, "leaf": 0.0339811668}]}]}, {"nodeid": 4, "leaf": 0.0882517099}]}, {"nodeid": 2, "depth": 1, "split": "basisPct", "split_condition": -0.0252100006, "yes": 5, "no": 6, "missing": 6, "children": [{"nodeid": 5, "depth": 2, "split": "hStochK", "split_condition": 98.9000015, "yes": 9, "no": 10, "missing": 10, "children": [{"nodeid": 9, "depth": 3, "split": "gapDirectionAligned", "split_condition": 7.17439985, "yes": 17, "no": 18, "missing": 18, "children": [{"nodeid": 17, "leaf": -0.029345803}, {"nodeid": 18, "leaf": 0}]}, {"nodeid": 10, "depth": 3, "split": "ethBtcRatio", "split_condition": 0.0623899996, "yes": 19, "no": 20, "missing": 20, "children": [{"nodeid": 19, "leaf": -0.00473867403}, {"nodeid": 20, "leaf": 0.0743441507}]}]}, {"nodeid": 6, "depth": 2, "split": "beta", "split_condition": -6.63000011, "yes": 11, "no": 12, "missing": 12, "children": [{"nodeid": 11, "depth": 3, "split": "eStochK", "split_condition": 35, "yes": 21, "no": 22, "missing": 22, "children": [{"nodeid": 21, "leaf": 0}, {"nodeid": 22, "leaf": 0.0561588518}]}, {"nodeid": 12, "depth": 3, "split": "dStochK", "split_condition": 8.10000038, "yes": 23, "no": 24, "missing": 24, "children": [{"nodeid": 23, "leaf": 0.0201994609}, {"nodeid": 24, "leaf": -0.00554730836}]}]}]}]}, {"nodeid": 0, "depth": 0, "split": "dayOfWeek", "split_condition": 5, "yes": 1, "no": 2, "missing": 2, "children": [{"nodeid": 1, "depth": 1, "split": "dayOfWeek", "split_condition": 1, "yes": 3, "no": 4, "missing": 4, "children": [{"nodeid": 3, "depth": 2, "split": "eRsi", "split_condition": 38, "yes": 7, "no": 8, "missing": 8, "children": [{"nodeid": 7, "depth": 3, "split": "hVolumeRatio", "split_condition": 0.800000012, "yes": 15, "no": 16, "missing": 16, "children": [{"nodeid": 15, "leaf": -0.0541364625}, {"nodeid": 16, "leaf": 0}]}, {"nodeid": 8, "depth": 3, "split": "tfAlignment", "split_condition": 2, "yes": 17, "no": 18, "missing": 18, "children": [{"nodeid": 17, "leaf": 0.0450766832}, {"nodeid": 18, "leaf": 0.00142643088}]}]}, {"nodeid": 4, "depth": 2, "split": "tfAlignment", "split_condition": -1, "yes": 9, "no": 10, "missing": 10, "children": [{"nodeid": 9, "depth": 3, "split": "fearGreedIndex", "split_condition": 66, "yes": 19, "no": 20, "missing": 20, "children": [{"nodeid": 19, "leaf": -0.0256463885}, {"nodeid": 20, "leaf": 0.0395036787}]}, {"nodeid": 10, "depth": 3, "split": "tfAlignment", "split_condition": 2, "yes": 21, "no": 22, "missing": 22, "children": [{"nodeid": 21, "leaf": 0.0131213171}, {"nodeid": 22, "leaf": -0.0131789166}]}]}]}, {"nodeid": 2, "depth": 1, "split": "vixLevelCode", "split_condition": 2.36999989, "yes": 5, "no": 6, "missing": 6, "children": [{"nodeid": 5, "depth": 2, "split": "hEmaCross", "split_condition": 3, "yes": 11, "no": 12, "missing": 12, "children": [{"nodeid": 11, "depth": 3, "split": "dayOfWeek", "split_condition": 6, "yes": 23, "no": 24, "missing": 24, "children": [{"nodeid": 23, "leaf": -0.0418610051}, {"nodeid": 24, "leaf": -0.0119020082}]}, {"nodeid": 12, "depth": 3, "split": "tfAlignment", "split_condition": 2, "yes": 25, "no": 26, "missing": 26, "children": [{"nodeid": 25, "leaf": 0.0265380405}, {"nodeid": 26, "leaf": -0.0205226634}]}]}, {"nodeid": 6, "depth": 2, "split": "hBBBandwidth", "split_condition": 13.3364, "yes": 13, "no": 14, "missing": 14, "children": [{"nodeid": 13, "depth": 3, "split": "hourBucket", "split_condition": 1, "yes": 27, "no": 28, "missing": 28, "children": [{"nodeid": 27, "leaf": -0.0985374451}, {"nodeid": 28, "leaf": -0.0526085906}]}, {"nodeid": 14, "leaf": -0.00633996725}]}]}]}, {"nodeid": 0, "depth": 0, "split": "dayOfWeek", "split_condition": 1, "yes": 1, "no": 2, "missing": 2, "children": [{"nodeid": 1, "depth": 1, "split": "basisPct", "split_condition": -0.0164979994, "yes": 3, "no": 4, "missing": 4, "children": [{"nodeid": 3, "depth": 2, "split": "dMacdHist", "split_condition": -0.00999999978, "yes": 7, "no": 8, "missing": 8, "children": [{"nodeid": 7, "depth": 3, "split": "dStochK", "split_condition": 20.8999996, "yes": 15, "no": 16, "missing": 16, "children": [{"nodeid": 15, "leaf": 0.0698336959}, {"nodeid": 16, "leaf": 0.00713228015}]}, {"nodeid": 8, "depth": 3, "split": "volScalarML", "split_condition": 1.20000005, "yes": 17, "no": 18, "missing": 18, "children": [{"nodeid": 17, "leaf": -0.00217076461}, {"nodeid": 18, "leaf": -0.0689941868}]}]}, {"nodeid": 4, "depth": 2, "split": "tfAlignment", "split_condition": 2, "yes": 9, "no": 10, "missing": 10, "children": [{"nodeid": 9, "depth": 3, "split": "fearGreedIndex", "split_condition": 72, "yes": 19, "no": 20, "missing": 20, "children": [{"nodeid": 19, "leaf": 0.0539844558}, {"nodeid": 20, "leaf": 0.0134314895}]}, {"nodeid": 10, "depth": 3, "split": "barsSinceRegimeChange", "split_condition": 93, "yes": 21, "no": 22, "missing": 22, "children": [{"nodeid": 21, "leaf": 0.0361346863}, {"nodeid": 22, "leaf": -0.0232465342}]}]}]}, {"nodeid": 2, "depth": 1, "split": "tfAlignment", "split_condition": 2, "yes": 5, "no": 6, "missing": 6, "children": [{"nodeid": 5, "depth": 2, "split": "tfAlignment", "split_condition": 0, "yes": 11, "no": 12, "missing": 12, "children": [{"nodeid": 11, "depth": 3, "split": "ethBtcRatio", "split_condition": 0.0534199998, "yes": 23, "no": 24, "missing": 24, "children": [{"nodeid": 23, "leaf": 0.0111890994}, {"nodeid": 24, "leaf": -0.0169601645}]}, {"nodeid": 12, "depth": 3, "split": "fearGreedIndex", "split_condition": 77, "yes": 25, "no": 26, "missing": 26, "children": [{"nodeid": 25, "leaf": 0.00870735478}, {"nodeid": 26, "leaf": 0.0473512821}]}]}, {"nodeid": 6, "depth": 2, "split": "ethBtcRatio", "split_condition": 0.0302510001, "yes": 13, "no": 14, "missing": 14, "children": [{"nodeid": 13, "depth": 3, "split": "vpDistToPocATR", "split_condition": 2.83999991, "yes": 27, "no": 28, "missing": 28, "children": [{"nodeid": 27, "leaf": 0.0386108905}, {"nodeid": 28, "leaf": -0.0362908095}]}, {"nodeid": 14, "depth": 3, "split": "hMacdHist", "split_condition": 24.5599995, "yes": 29, "no": 30, "missing": 30, "children": [{"nodeid": 29, "leaf": -0.0183102489}, {"nodeid": 30, "leaf": -0.0640588775}]}]}]}]}, {"nodeid": 0, "depth": 0, "split": "dayOfWeek", "split_condition": 5, "yes": 1, "no": 2, "missing": 2, "children": [{"nodeid": 1, "depth": 1, "split": "tfAlignment", "split_condition": 2, "yes": 3, "no": 4, "missing": 4, "children": [{"nodeid": 3, "depth": 2, "split": "gapDirectionAligned", "split_condition": 0.0110999998, "yes": 7, "no": 8, "missing": 8, "children": [{"nodeid": 7, "depth": 3, "split": "fiftyTwoWeekPct", "split_condition": 0.836000025, "yes": 15, "no": 16, "missing": 16, "children": [{"nodeid": 15, "leaf": 0.0906732455}, {"nodeid": 16, "leaf": 0.0272372719}]}, {"nodeid": 8, "depth": 3, "split": "vix", "split_condition": 12.6000004, "yes": 17, "no": 18, "missing": 18, "children": [{"nodeid": 17, "leaf": 0.080913268}, {"nodeid": 18, "leaf": 0.00644847797}]}]}, {"nodeid": 4, "depth": 2, "split": "basisPct", "split_condition": 0.0340190008, "yes": 9, "no": 10, "missing": 10, "children": [{"nodeid": 9, "depth": 3, "split": "atrPercent", "split_condition": 1.31780005, "yes": 19, "no": 20, "missing": 20, "children": [{"nodeid": 19, "leaf": 0.0146342665}, {"nodeid": 20, "leaf": -0.0297495667}]}, {"nodeid": 10, "depth": 3, "split": "vix", "split_condition": 17, "yes": 21, "no": 22, "missing": 22, "children": [{"nodeid": 21, "leaf": 0.0369906127}, {"nodeid": 22, "leaf": -0.0273914523}]}]}]}, {"nodeid": 2, "depth": 1, "split": "vix", "split_condition": 13.8000002, "yes": 5, "no": 6, "missing": 6, "children": [{"nodeid": 5, "depth": 2, "split": "hBBBandwidth", "split_condition": 13.7200003, "yes": 11, "no": 12, "missing": 12, "children": [{"nodeid": 11, "depth": 3, "split": "hBBBandwidth", "split_condition": 2.90370011, "yes": 23, "no": 24, "missing": 24, "children": [{"nodeid": 23, "leaf": 0.0067014196}, {"nodeid": 24, "leaf": -0.0646641776}]}, {"nodeid": 12, "leaf": 0.00239223125}]}, {"nodeid": 6, "depth": 2, "split": "gapDirectionAligned", "split_condition": 0.128800005, "yes": 13, "no": 14, "missing": 14, "children": [{"nodeid": 13, "depth": 3, "split": "tfAlignment", "split_condition": 2, "yes": 25, "no": 26, "missing": 26, "children": [{"nodeid": 25, "leaf": 0.0465852357}, {"nodeid": 26, "leaf": -0.0161635969}]}, {"nodeid": 14, "depth": 3, "split": "fiftyTwoWeekPct", "split_condition": 4.25460005, "yes": 27, "no": 28, "missing": 28, "children": [{"nodeid": 27, "leaf": -0.0205933712}, {"nodeid": 28, "leaf": 0.0626224279}]}]}]}]}, {"nodeid": 0, "depth": 0, "split": "dayOfWeek", "split_condition": 5, "yes": 1, "no": 2, "missing": 2, "children": [{"nodeid": 1, "depth": 1, "split": "atrPercent", "split_condition": 1.63859999, "yes": 3, "no": 4, "missing": 4, "children": [{"nodeid": 3, "depth": 2, "split": "hMacdHist", "split_condition": -0.00999999978, "yes": 7, "no": 8, "missing": 8, "children": [{"nodeid": 7, "depth": 3, "split": "dAdx", "split_condition": 17.2999992, "yes": 15, "no": 16, "missing": 16, "children": [{"nodeid": 15, "leaf": 0.00438044406}, {"nodeid": 16, "leaf": 0.0517614298}]}, {"nodeid": 8, "depth": 3, "split": "relStrengthVsSpy", "split_condition": 0.646799982, "yes": 17, "no": 18, "missing": 18, "children": [{"nodeid": 17, "leaf": 0.0425156243}, {"nodeid": 18, "leaf": 0}]}]}, {"nodeid": 4, "depth": 2, "split": "hStochK", "split_condition": 1.20000005, "yes": 9, "no": 10, "missing": 10, "children": [{"nodeid": 9, "depth": 3, "split": "vpDistToPocATR", "split_condition": -0.920000017, "yes": 19, "no": 20, "missing": 20, "children": [{"nodeid": 19, "leaf": -0.00795419421}, {"nodeid": 20, "leaf": -0.0678618625}]}, {"nodeid": 10, "depth": 3, "split": "dayOfWeek", "split_condition": 1, "yes": 21, "no": 22, "missing": 22, "children": [{"nodeid": 21, "leaf": 0.0193545148}, {"nodeid": 22, "leaf": -0.00337440963}]}]}]}, {"nodeid": 2, "depth": 1, "split": "vix", "split_condition": 23.1000004, "yes": 5, "no": 6, "missing": 6, "children": [{"nodeid": 5, "depth": 2, "split": "relStrengthVsSpy", "split_condition": 4.05530024, "yes": 11, "no": 12, "missing": 12, "children": [{"nodeid": 11, "depth": 3, "split": "atrPercent", "split_condition": 1.0244, "yes": 23, "no": 24, "missing": 24, "children": [{"nodeid": 23, "leaf": 0.00610658154}, {"nodeid": 24, "leaf": -0.0461125039}]}, {"nodeid": 12, "depth": 3, "split": "hMacdHistDelta", "split_condition": -0.75999999, "yes": 25, "no": 26, "missing": 26, "children": [{"nodeid": 25, "leaf": -0.0371770002}, {"nodeid": 26, "leaf": 0.00888605416}]}]}, {"nodeid": 6, "depth": 2, "split": "ethBtcRatio", "split_condition": 0.0728399977, "yes": 13, "no": 14, "missing": 14, "children": [{"nodeid": 13, "depth": 3, "split": "ethBtcRatio", "split_condition": 0.0592800006, "yes": 27, "no": 28, "missing": 28, "children": [{"nodeid": 27, "leaf": 0.0261387303}, {"nodeid": 28, "leaf": -0.0361660793}]}, {"nodeid": 14, "leaf": 0.0617557168}]}]}]}, {"nodeid": 0, "depth": 0, "split": "hVolumeRatio", "split_condition": 1.27999997, "yes": 1, "no": 2, "missing": 2, "children": [{"nodeid": 1, "depth": 1, "split": "atrPercentile", "split_condition": 77, "yes": 3, "no": 4, "missing": 4, "children": [{"nodeid": 3, "depth": 2, "split": "ethBtcRatio", "split_condition": 0.05229, "yes": 7, "no": 8, "missing": 8, "children": [{"nodeid": 7, "depth": 3, "split": "atrPercentile", "split_condition": 56, "yes": 15, "no": 16, "missing": 16, "children": [{"nodeid": 15, "leaf": 0.00801112968}, {"nodeid": 16, "leaf": 0.049254749}]}, {"nodeid": 8, "depth": 3, "split": "hVolumeRatio", "split_condition": 0.280000001, "yes": 17, "no": 18, "missing": 18, "children": [{"nodeid": 17, "leaf": -0.0629190207}, {"nodeid": 18, "leaf": -0.00108949165}]}]}, {"nodeid": 4, "depth": 2, "split": "dVolumeRatio", "split_condition": 0.819999993, "yes": 9, "no": 10, "missing": 10, "children": [{"nodeid": 9, "depth": 3, "split": "hMacdHistDelta", "split_condition": 2.8599999, "yes": 19, "no": 20, "missing": 20, "children": [{"nodeid": 19, "leaf": -0.00662565278}, {"nodeid": 20, "leaf": 0.0411504172}]}, {"nodeid": 10, "depth": 3, "split": "eStochK", "split_condition": 4.5, "yes": 21, "no": 22, "missing": 22, "children": [{"nodeid": 21, "leaf": -0.0896625295}, {"nodeid": 22, "leaf": -0.0229307432}]}]}]}, {"nodeid": 2, "depth": 1, "split": "hAdxDelta", "split_condition": 2.57999992, "yes": 5, "no": 6, "missing": 6, "children": [{"nodeid": 5, "depth": 2, "split": "hAdxDelta", "split_condition": -7.3499999, "yes": 11, "no": 12, "missing": 12, "children": [{"nodeid": 11, "leaf": 0.0587187335}, {"nodeid": 12, "depth": 3, "split": "hBBSqueeze", "split_condition": 1, "yes": 23, "no": 24, "missing": 24, "children": [{"nodeid": 23, "leaf": -0.0085697379}, {"nodeid": 24, "leaf": 0.033694353}]}]}, {"nodeid": 6, "depth": 2, "split": "atrPercentile", "split_condition": 86, "yes": 13, "no": 14, "missing": 14, "children": [{"nodeid": 13, "depth": 3, "split": "vpDistToPocATR", "split_condition": -4.86999989, "yes": 25, "no": 26, "missing": 26, "children": [{"nodeid": 25, "leaf": -0.00535517745}, {"nodeid": 26, "leaf": 0.0425781384}]}, {"nodeid": 14, "depth": 3, "split": "eStochK", "split_condition": 22.2000008, "yes": 27, "no": 28, "missing": 28, "children": [{"nodeid": 27, "leaf": 0}, {"nodeid": 28, "leaf": 0.0874314457}]}]}]}]}, {"nodeid": 0, "depth": 0, "split": "tfAlignment", "split_condition": 2, "yes": 1, "no": 2, "missing": 2, "children": [{"nodeid": 1, "depth": 1, "split": "hBBPercentB", "split_condition": 0.926400006, "yes": 3, "no": 4, "missing": 4, "children": [{"nodeid": 3, "depth": 2, "split": "relStrengthVsSpy", "split_condition": 4.71589994, "yes": 7, "no": 8, "missing": 8, "children": [{"nodeid": 7, "depth": 3, "split": "dBBBandwidth", "split_condition": 41.5357018, "yes": 15, "no": 16, "missing": 16, "children": [{"nodeid": 15, "leaf": -0.00112405093}, {"nodeid": 16, "leaf": -0.0313492492}]}, {"nodeid": 8, "depth": 3, "split": "dVolumeRatio", "split_condition": 0.819999993, "yes": 17, "no": 18, "missing": 18, "children": [{"nodeid": 17, "leaf": 0.0363976173}, {"nodeid": 18, "leaf": -0.000592383847}]}]}, {"nodeid": 4, "depth": 2, "split": "hBBPercentB", "split_condition": 1.13569999, "yes": 9, "no": 10, "missing": 10, "children": [{"nodeid": 9, "depth": 3, "split": "fearGreedIndex", "split_condition": 53, "yes": 19, "no": 20, "missing": 20, "children": [{"nodeid": 19, "leaf": 0.00632338738}, {"nodeid": 20, "leaf": 0.0548748337}]}, {"nodeid": 10, "depth": 3, "split": "dEmaCross", "split_condition": 3, "yes": 21, "no": 22, "missing": 22, "children": [{"nodeid": 21, "leaf": 0.0998082012}, {"nodeid": 22, "leaf": 0.0310093518}]}]}]}, {"nodeid": 2, "depth": 1, "split": "fearGreedIndex", "split_condition": 76, "yes": 5, "no": 6, "missing": 6, "children": [{"nodeid": 5, "depth": 2, "split": "fearGreedIndex", "split_condition": 74, "yes": 11, "no": 12, "missing": 12, "children": [{"nodeid": 11, "depth": 3, "split": "relStrengthVsSpy", "split_condition": 2.10439992, "yes": 23, "no": 24, "missing": 24, "children": [{"nodeid": 23, "leaf": 0.0696269646}, {"nodeid": 24, "leaf": -0.0141204344}]}, {"nodeid": 12, "depth": 3, "split": "hBBPercentB", "split_condition": 0.695599973, "yes": 25, "no": 26, "missing": 26, "children": [{"nodeid": 25, "leaf": 0}, {"nodeid": 26, "leaf": 0.0642832145}]}]}, {"nodeid": 6, "depth": 2, "split": "relStrengthVsSpy", "split_condition": 12.0191002, "yes": 13, "no": 14, "missing": 14, "children": [{"nodeid": 13, "depth": 3, "split": "vix", "split_condition": 22.2999992, "yes": 27, "no": 28, "missing": 28, "children": [{"nodeid": 27, "leaf": -0.0697516873}, {"nodeid": 28, "leaf": -0.00306787901}]}, {"nodeid": 14, "leaf": 0.00878375489}]}]}]}, {"nodeid": 0, "depth": 0, "split": "dayOfWeek", "split_condition": 1, "yes": 1, "no": 2, "missing": 2, "children": [{"nodeid": 1, "depth": 1, "split": "fearGreedIndex", "split_condition": 31, "yes": 3, "no": 4, "missing": 4, "children": [{"nodeid": 3, "depth": 2, "split": "gapPercent", "split_condition": 21.3910007, "yes": 7, "no": 8, "missing": 8, "children": [{"nodeid": 7, "depth": 3, "split": "hVolumeRatio", "split_condition": 0.699999988, "yes": 15, "no": 16, "missing": 16, "children": [{"nodeid": 15, "leaf": 0.117087856}, {"nodeid": 16, "leaf": 0.0452948846}]}, {"nodeid": 8, "depth": 3, "split": "atrPercentile", "split_condition": 30, "yes": 17, "no": 18, "missing": 18, "children": [{"nodeid": 17, "leaf": -0.0214234442}, {"nodeid": 18, "leaf": 0.0276927371}]}]}, {"nodeid": 4, "depth": 2, "split": "vixLevelCode", "split_condition": -0.0399999991, "yes": 9, "no": 10, "missing": 10, "children": [{"nodeid": 9, "depth": 3, "split": "dRsi", "split_condition": 58.4000015, "yes": 19, "no": 20, "missing": 20, "children": [{"nodeid": 19, "leaf": 0.0689435005}, {"nodeid": 20, "leaf": -0.00997242332}]}, {"nodeid": 10, "depth": 3, "split": "hBBPercentB", "split_condition": 1.0546, "yes": 21, "no": 22, "missing": 22, "children": [{"nodeid": 21, "leaf": -0.0114578232}, {"nodeid": 22, "leaf": 0.0756749436}]}]}]}, {"nodeid": 2, "depth": 1, "split": "gapPercent", "split_condition": 41.1102982, "yes": 5, "no": 6, "missing": 6, "children": [{"nodeid": 5, "depth": 2, "split": "vpAbovePoc", "split_condition": 0.170000002, "yes": 11, "no": 12, "missing": 12, "children": [{"nodeid": 11, "depth": 3, "split": "barsSinceRegimeChange", "split_condition": 64, "yes": 23, "no": 24, "missing": 24, "children": [{"nodeid": 23, "leaf": -0.00534621812}, {"nodeid": 24, "leaf": 0.00970916823}]}, {"nodeid": 12, "depth": 3, "split": "hBBPercentB", "split_condition": -0.0120999999, "yes": 25, "no": 26, "missing": 26, "children": [{"nodeid": 25, "leaf": 0.052901309}, {"nodeid": 26, "leaf": -0.0179027822}]}]}, {"nodeid": 6, "depth": 2, "split": "dAdx", "split_condition": 33.0999985, "yes": 13, "no": 14, "missing": 14, "children": [{"nodeid": 13, "leaf": 0.00760027394}, {"nodeid": 14, "depth": 3, "split": "vixLevelCode", "split_condition": 0.189999998, "yes": 27, "no": 28, "missing": 28, "children": [{"nodeid": 27, "leaf": -0.0556803867}, {"nodeid": 28, "leaf": 0}]}]}]}]}, {"nodeid": 0, "depth": 0, "split": "dayOfWeek", "split_condition": 5, "yes": 1, "no": 2, "missing": 2, "children": [{"nodeid": 1, "depth": 1, "split": "gapPercent", "split_condition": 2.98300004, "yes": 3, "no": 4, "missing": 4, "children": [{"nodeid": 3, "leaf": 0.0936046764}, {"nodeid": 4, "depth": 2, "split": "hMacdHistDelta", "split_condition": 0.0599999987, "yes": 7, "no": 8, "missing": 8, "children": [{"nodeid": 7, "depth": 3, "split": "vix", "split_condition": 12.5, "yes": 13, "no": 14, "missing": 14, "children": [{"nodeid": 13, "leaf": 0.05460288}, {"nodeid": 14, "leaf": -0.00154757511}]}, {"nodeid": 8, "depth": 3, "split": "hMacdHist", "split_condition": 21.1200008, "yes": 15, "no": 16, "missing": 16, "children": [{"nodeid": 15, "leaf": 0.0264372267}, {"nodeid": 16, "leaf": -0.0140524739}]}]}]}, {"nodeid": 2, "depth": 1, "split": "vixLevelCode", "split_condition": 4.30999994, "yes": 5, "no": 6, "missing": 6, "children": [{"nodeid": 5, "depth": 2, "split": "dBBPercentB", "split_condition": -0.0852999985, "yes": 9, "no": 10, "missing": 10, "children": [{"nodeid": 9, "leaf": 0.059102688}, {"nodeid": 10, "depth": 3, "split": "vix", "split_condition": 23.1000004, "yes": 17, "no": 18, "missing": 18, "children": [{"nodeid": 17, "leaf": -0.0192335732}, {"nodeid": 18, "leaf": 0.00733899837}]}]}, {"nodeid": 6, "depth": 2, "split": "dBBBandwidth", "split_condition": 21.9004993, "yes": 11, "no": 12, "missing": 12, "children": [{"nodeid": 11, "leaf": -0.0812254623}, {"nodeid": 12, "leaf": -0.022351291}]}]}]}, {"nodeid": 0, "depth": 0, "split": "dayOfWeek", "split_condition": 5, "yes": 1, "no": 2, "missing": 2, "children": [{"nodeid": 1, "depth": 1, "split": "atrPercent", "split_condition": 2.60949993, "yes": 3, "no": 4, "missing": 4, "children": [{"nodeid": 3, "depth": 2, "split": "dVolumeRatio", "split_condition": 2.50999999, "yes": 7, "no": 8, "missing": 8, "children": [{"nodeid": 7, "depth": 3, "split": "ethBtcRatio", "split_condition": 0.0532499999, "yes": 15, "no": 16, "missing": 16, "children": [{"nodeid": 15, "leaf": 0.0268312134}, {"nodeid": 16, "leaf": 0.00912293885}]}, {"nodeid": 8, "leaf": -0.0465259627}]}, {"nodeid": 4, "depth": 2, "split": "basisPct", "split_condition": -0.0244389996, "yes": 9, "no": 10, "missing": 10, "children": [{"nodeid": 9, "depth": 3, "split": "fiftyTwoWeekPct", "split_condition": -5.13360023, "yes": 17, "no": 18, "missing": 18, "children": [{"nodeid": 17, "leaf": -0.0729991719}, {"nodeid": 18, "leaf": -0.0171411615}]}, {"nodeid": 10, "depth": 3, "split": "vix", "split_condition": 17.2999992, "yes": 19, "no": 20, "missing": 20, "children": [{"nodeid": 19, "leaf": 0.020990964}, {"nodeid": 20, "leaf": -0.0103820227}]}]}]}, {"nodeid": 2, "depth": 1, "split": "dMacdHist", "split_condition": -2.28999996, "yes": 5, "no": 6, "missing": 6, "children": [{"nodeid": 5, "depth": 2, "split": "dVolumeRatio", "split_condition": 0.400000006, "yes": 11, "no": 12, "missing": 12, "children": [{"nodeid": 11, "leaf": 0.0047372235}, {"nodeid": 12, "depth": 3, "split": "ethBtcRatio", "split_condition": 0.0682300031, "yes": 21, "no": 22, "missing": 22, "children": [{"nodeid": 21, "leaf": -0.058203619}, {"nodeid": 22, "leaf": -0.0149369799}]}]}, {"nodeid": 6, "depth": 2, "split": "hStochK", "split_condition": 89.5999985, "yes": 13, "no": 14, "missing": 14, "children": [{"nodeid": 13, "depth": 3, "split": "atrPercent", "split_condition": 2.47729993, "yes": 23, "no": 24, "missing": 24, "children": [{"nodeid": 23, "leaf": -0.0248633455}, {"nodeid": 24, "leaf": 0.00152930256}]}, {"nodeid": 14, "depth": 3, "split": "dBBPercentB", "split_condition": 0.964600027, "yes": 25, "no": 26, "missing": 26, "children": [{"nodeid": 25, "leaf": 0.00288234605}, {"nodeid": 26, "leaf": 0.0708756596}]}]}]}]}, {"nodeid": 0, "depth": 0, "split": "hBBPercentB", "split_condition": 1.16750002, "yes": 1, "no": 2, "missing": 2, "children": [{"nodeid": 1, "depth": 1, "split": "hVolumeRatio", "split_condition": 0.319999993, "yes": 3, "no": 4, "missing": 4, "children": [{"nodeid": 3, "depth": 2, "split": "dVolumeRatio", "split_condition": 0.790000021, "yes": 7, "no": 8, "missing": 8, "children": [{"nodeid": 7, "depth": 3, "split": "atrPercentile", "split_condition": 22, "yes": 13, "no": 14, "missing": 14, "children": [{"nodeid": 13, "leaf": -0.00463281805}, {"nodeid": 14, "leaf": -0.0641106814}]}, {"nodeid": 8, "depth": 3, "split": "hBBPercentB", "split_condition": 0.512099981, "yes": 15, "no": 16, "missing": 16, "children": [{"nodeid": 15, "leaf": 0.0311425384}, {"nodeid": 16, "leaf": -0.0135236382}]}]}, {"nodeid": 4, "depth": 2, "split": "dVolumeRatio", "split_condition": 0.819999993, "yes": 9, "no": 10, "missing": 10, "children": [{"nodeid": 9, "depth": 3, "split": "vpAbovePoc", "split_condition": 0, "yes": 17, "no": 18, "missing": 18, "children": [{"nodeid": 17, "leaf": 0.0199064855}, {"nodeid": 18, "leaf": 0.00180797197}]}, {"nodeid": 10, "depth": 3, "split": "atrPercentile", "split_condition": 3, "yes": 19, "no": 20, "missing": 20, "children": [{"nodeid": 19, "leaf": 0.0251257811}, {"nodeid": 20, "leaf": -0.00846487191}]}]}]}, {"nodeid": 2, "depth": 1, "split": "dEmaCross", "split_condition": 3, "yes": 5, "no": 6, "missing": 6, "children": [{"nodeid": 5, "leaf": 0.0902708918}, {"nodeid": 6, "depth": 2, "split": "gapDirectionAligned", "split_condition": -1.49179995, "yes": 11, "no": 12, "missing": 12, "children": [{"nodeid": 11, "leaf": 0.0753796771}, {"nodeid": 12, "leaf": -0.0144435894}]}]}]}, {"nodeid": 0, "depth": 0, "split": "ethBtcDelta6", "split_condition": -2.82949996, "yes": 1, "no": 2, "missing": 2, "children": [{"nodeid": 1, "depth": 1, "split": "ethBtcDelta6", "split_condition": -3.7671001, "yes": 3, "no": 4, "missing": 4, "children": [{"nodeid": 3, "depth": 2, "split": "ethBtcDelta6", "split_condition": -4.46820021, "yes": 7, "no": 8, "missing": 8, "children": [{"nodeid": 7, "depth": 3, "split": "dAdxDelta", "split_condition": -0.0299999993, "yes": 15, "no": 16, "missing": 16, "children": [{"nodeid": 15, "leaf": 0.00335746375}, {"nodeid": 16, "leaf": 0.0586878769}]}, {"nodeid": 8, "leaf": -0.0468034446}]}, {"nodeid": 4, "depth": 2, "split": "hAdxDelta", "split_condition": 0.889999986, "yes": 9, "no": 10, "missing": 10, "children": [{"nodeid": 9, "depth": 3, "split": "ethBtcDelta6", "split_condition": -3.26090002, "yes": 17, "no": 18, "missing": 18, "children": [{"nodeid": 17, "leaf": -0.00864069536}, {"nodeid": 18, "leaf": 0.0605190545}]}, {"nodeid": 10, "depth": 3, "split": "barsSinceRegimeChange", "split_condition": 87, "yes": 19, "no": 20, "missing": 20, "children": [{"nodeid": 19, "leaf": 0.103010453}, {"nodeid": 20, "leaf": 0.0463474877}]}]}]}, {"nodeid": 2, "depth": 1, "split": "eMacdHist", "split_condition": 6.42000008, "yes": 5, "no": 6, "missing": 6, "children": [{"nodeid": 5, "depth": 2, "split": "eMacdHist", "split_condition": 0.0199999996, "yes": 11, "no": 12, "missing": 12, "children": [{"nodeid": 11, "depth": 3, "split": "gapPercent", "split_condition": 2.98300004, "yes": 21, "no": 22, "missing": 22, "children": [{"nodeid": 21, "leaf": 0.0777520835}, {"nodeid": 22, "leaf": -0.00272783986}]}, {"nodeid": 12, "depth": 3, "split": "hAdxDelta", "split_condition": -6.61999989, "yes": 23, "no": 24, "missing": 24, "children": [{"nodeid": 23, "leaf": 0.0438499153}, {"nodeid": 24, "leaf": 0.0085674664}]}]}, {"nodeid": 6, "depth": 2, "split": "ethBtcDelta6", "split_condition": -0.353799999, "yes": 13, "no": 14, "missing": 14, "children": [{"nodeid": 13, "depth": 3, "split": "hStochK", "split_condition": 66.5999985, "yes": 25, "no": 26, "missing": 26, "children": [{"nodeid": 25, "leaf": -0.0289458912}, {"nodeid": 26, "leaf": 0.0341104157}]}, {"nodeid": 14, "depth": 3, "split": "vix", "split_condition": 24.7999992, "yes": 27, "no": 28, "missing": 28, "children": [{"nodeid": 27, "leaf": -0.0525454655}, {"nodeid": 28, "leaf": 0.00927009992}]}]}]}]}, {"nodeid": 0, "depth": 0, "split": "tfAlignment", "split_condition": 2, "yes": 1, "no": 2, "missing": 2, "children": [{"nodeid": 1, "depth": 1, "split": "relStrengthVsSpy", "split_condition": 6.26679993, "yes": 3, "no": 4, "missing": 4, "children": [{"nodeid": 3, "depth": 2, "split": "tfAlignment", "split_condition": -1, "yes": 7, "no": 8, "missing": 8, "children": [{"nodeid": 7, "depth": 3, "split": "atrPercentile", "split_condition": 75, "yes": 15, "no": 16, "missing": 16, "children": [{"nodeid": 15, "leaf": -0.00895589311}, {"nodeid": 16, "leaf": -0.0548610874}]}, {"nodeid": 8, "depth": 3, "split": "dayOfWeek", "split_condition": 3, "yes": 17, "no": 18, "missing": 18, "children": [{"nodeid": 17, "leaf": 0.0162422769}, {"nodeid": 18, "leaf": -0.00274746795}]}]}, {"nodeid": 4, "depth": 2, "split": "hBBSqueeze", "split_condition": 1, "yes": 9, "no": 10, "missing": 10, "children": [{"nodeid": 9, "depth": 3, "split": "atrPercent", "split_condition": 2.6954999, "yes": 19, "no": 20, "missing": 20, "children": [{"nodeid": 19, "leaf": 0.0374746248}, {"nodeid": 20, "leaf": -0.00423191395}]}, {"nodeid": 10, "depth": 3, "split": "vix", "split_condition": 21.7000008, "yes": 21, "no": 22, "missing": 22, "children": [{"nodeid": 21, "leaf": 0.0906030089}, {"nodeid": 22, "leaf": 0.0205692407}]}]}]}, {"nodeid": 2, "depth": 1, "split": "vpDistToPocATR", "split_condition": 10.96, "yes": 5, "no": 6, "missing": 6, "children": [{"nodeid": 5, "depth": 2, "split": "dAdxDelta", "split_condition": 0.689999998, "yes": 11, "no": 12, "missing": 12, "children": [{"nodeid": 11, "depth": 3, "split": "hRsi", "split_condition": 44.5999985, "yes": 23, "no": 24, "missing": 24, "children": [{"nodeid": 23, "leaf": 0.0270902086}, {"nodeid": 24, "leaf": -0.0345404968}]}, {"nodeid": 12, "depth": 3, "split": "volScalarML", "split_condition": 0.939999998, "yes": 25, "no": 26, "missing": 26, "children": [{"nodeid": 25, "leaf": -0.0518535897}, {"nodeid": 26, "leaf": 0.0054446971}]}]}, {"nodeid": 6, "depth": 2, "split": "vix", "split_condition": 14.5, "yes": 13, "no": 14, "missing": 14, "children": [{"nodeid": 13, "leaf": 0.0902928337}, {"nodeid": 14, "leaf": 0}]}]}]}, {"nodeid": 0, "depth": 0, "split": "relStrengthVsSpy", "split_condition": 0.0299999993, "yes": 1, "no": 2, "missing": 2, "children": [{"nodeid": 1, "depth": 1, "split": "fiftyTwoWeekPct", "split_condition": -0.606100023, "yes": 3, "no": 4, "missing": 4, "children": [{"nodeid": 3, "depth": 2, "split": "fiftyTwoWeekPct", "split_condition": -2.86039996, "yes": 7, "no": 8, "missing": 8, "children": [{"nodeid": 7, "depth": 3, "split": "hBBPercentB", "split_condition": -0.00300000003, "yes": 13, "no": 14, "missing": 14, "children": [{"nodeid": 13, "leaf": 0.0398960076}, {"nodeid": 14, "leaf": -0.00166372699}]}, {"nodeid": 8, "depth": 3, "split": "dBBBandwidth", "split_condition": 14.4103003, "yes": 15, "no": 16, "missing": 16, "children": [{"nodeid": 15, "leaf": -0.0851782709}, {"nodeid": 16, "leaf": 0}]}]}, {"nodeid": 4, "leaf": 0.0904758647}]}, {"nodeid": 2, "depth": 1, "split": "tfAlignment", "split_condition": -1, "yes": 5, "no": 6, "missing": 6, "children": [{"nodeid": 5, "depth": 2, "split": "basisPct", "split_condition": -0.0283519998, "yes": 9, "no": 10, "missing": 10, "children": [{"nodeid": 9, "depth": 3, "split": "hRsi", "split_condition": 39.7999992, "yes": 17, "no": 18, "missing": 18, "children": [{"nodeid": 17, "leaf": 0.00358518446}, {"nodeid": 18, "leaf": -0.0594019592}]}, {"nodeid": 10, "depth": 3, "split": "dVolumeRatio", "split_condition": 1.12, "yes": 19, "no": 20, "missing": 20, "children": [{"nodeid": 19, "leaf": 0}, {"nodeid": 20, "leaf": -0.0449911915}]}]}, {"nodeid": 6, "depth": 2, "split": "tfAlignment", "split_condition": 2, "yes": 11, "no": 12, "missing": 12, "children": [{"nodeid": 11, "depth": 3, "split": "relStrengthVsSpy", "split_condition": 2.9519999, "yes": 21, "no": 22, "missing": 22, "children": [{"nodeid": 21, "leaf": -0.00812278036}, {"nodeid": 22, "leaf": 0.0164716728}]}, {"nodeid": 12, "depth": 3, "split": "hRsi", "split_condition": 44.5999985, "yes": 23, "no": 24, "missing": 24, "children": [{"nodeid": 23, "leaf": 0.0329592191}, {"nodeid": 24, "leaf": -0.0155616207}]}]}]}]}, {"nodeid": 0, "depth": 0, "split": "barsSinceRegimeChange", "split_condition": 77, "yes": 1, "no": 2, "missing": 2, "children": [{"nodeid": 1, "depth": 1, "split": "hBBBandwidth", "split_condition": 2.84540009, "yes": 3, "no": 4, "missing": 4, "children": [{"nodeid": 3, "depth": 2, "split": "hAboveVwap", "split_condition": 1, "yes": 7, "no": 8, "missing": 8, "children": [{"nodeid": 7, "depth": 3, "split": "vpDistToPocATR", "split_condition": 0.0799999982, "yes": 13, "no": 14, "missing": 14, "children": [{"nodeid": 13, "leaf": 0.0145440381}, {"nodeid": 14, "leaf": 0.0813388154}]}, {"nodeid": 8, "depth": 3, "split": "dMacdHist", "split_condition": 0.00999999978, "yes": 15, "no": 16, "missing": 16, "children": [{"nodeid": 15, "leaf": 0.019479176}, {"nodeid": 16, "leaf": -0.0250751134}]}]}, {"nodeid": 4, "depth": 2, "split": "basisPct", "split_condition": 0.0612839982, "yes": 9, "no": 10, "missing": 10, "children": [{"nodeid": 9, "depth": 3, "split": "dAdx", "split_condition": 40.7000008, "yes": 17, "no": 18, "missing": 18, "children": [{"nodeid": 17, "leaf": -0.0107836816}, {"nodeid": 18, "leaf": -0.0452790186}]}, {"nodeid": 10, "depth": 3, "split": "beta", "split_condition": -0.970000029, "yes": 19, "no": 20, "missing": 20, "children": [{"nodeid": 19, "leaf": -0.0217011571}, {"nodeid": 20, "leaf": 0.0423281603}]}]}]}, {"nodeid": 2, "depth": 1, "split": "beta", "split_condition": -11.0799999, "yes": 5, "no": 6, "missing": 6, "children": [{"nodeid": 5, "leaf": 0.0741929337}, {"nodeid": 6, "depth": 2, "split": "hAdx", "split_condition": 52.0999985, "yes": 11, "no": 12, "missing": 12, "children": [{"nodeid": 11, "depth": 3, "split": "atrPercent", "split_condition": 0.901899993, "yes": 21, "no": 22, "missing": 22, "children": [{"nodeid": 21, "leaf": 0.0370011814}, {"nodeid": 22, "leaf": 0.00418726169}]}, {"nodeid": 12, "depth": 3, "split": "atrPercentile", "split_condition": 59, "yes": 23, "no": 24, "missing": 24, "children": [{"nodeid": 23, "leaf": -0.0696856305}, {"nodeid": 24, "leaf": -0.018178748}]}]}]}]}, {"nodeid": 0, "depth": 0, "split": "dayOfWeek", "split_condition": 5, "yes": 1, "no": 2, "missing": 2, "children": [{"nodeid": 1, "depth": 1, "split": "atrPercent", "split_condition": 1.63150001, "yes": 3, "no": 4, "missing": 4, "children": [{"nodeid": 3, "depth": 2, "split": "gapDirectionAligned", "split_condition": 0.0110999998, "yes": 7, "no": 8, "missing": 8, "children": [{"nodeid": 7, "depth": 3, "split": "dMacdHist", "split_condition": 2.46000004, "yes": 15, "no": 16, "missing": 16, "children": [{"nodeid": 15, "leaf": 0.0737851262}, {"nodeid": 16, "leaf": 0.0214800257}]}, {"nodeid": 8, "depth": 3, "split": "hAdx", "split_condition": 13.1999998, "yes": 17, "no": 18, "missing": 18, "children": [{"nodeid": 17, "leaf": 0.0574355647}, {"nodeid": 18, "leaf": 0.00724005466}]}]}, {"nodeid": 4, "depth": 2, "split": "eStochK", "split_condition": 6.30000019, "yes": 9, "no": 10, "missing": 10, "children": [{"nodeid": 9, "depth": 3, "split": "ethBtcRatio", "split_condition": 0.0557999983, "yes": 19, "no": 20, "missing": 20, "children": [{"nodeid": 19, "leaf": -0.0651381314}, {"nodeid": 20, "leaf": -0.00265130354}]}, {"nodeid": 10, "depth": 3, "split": "relStrengthVsSpy", "split_condition": 0.0299999993, "yes": 21, "no": 22, "missing": 22, "children": [{"nodeid": 21, "leaf": 0.0235154424}, {"nodeid": 22, "leaf": -0.00123522058}]}]}]}, {"nodeid": 2, "depth": 1, "split": "vix", "split_condition": 13.6999998, "yes": 5, "no": 6, "missing": 6, "children": [{"nodeid": 5, "depth": 2, "split": "fearGreedIndex", "split_condition": 70, "yes": 11, "no": 12, "missing": 12, "children": [{"nodeid": 11, "depth": 3, "split": "ethBtcRatio", "split_condition": 0.0599600002, "yes": 23, "no": 24, "missing": 24, "children": [{"nodeid": 23, "leaf": -0.0977779999}, {"nodeid": 24, "leaf": -0.0244281292}]}, {"nodeid": 12, "depth": 3, "split": "dMacdHist", "split_condition": 0, "yes": 25, "no": 26, "missing": 26, "children": [{"nodeid": 25, "leaf": 0.0210160799}, {"nodeid": 26, "leaf": -0.0470813066}]}]}, {"nodeid": 6, "depth": 2, "split": "hDivergence", "split_condition": 0, "yes": 13, "no": 14, "missing": 14, "children": [{"nodeid": 13, "depth": 3, "split": "dStructBull", "split_condition": 1, "yes": 27, "no": 28, "missing": 28, "children": [{"nodeid": 27, "leaf": 0.0695045441}, {"nodeid": 28, "leaf": 0}]}, {"nodeid": 14, "depth": 3, "split": "ethBtcRatio", "split_condition": 0.0545700006, "yes": 29, "no": 30, "missing": 30, "children": [{"nodeid": 29, "leaf": 0.0104597332}, {"nodeid": 30, "leaf": -0.0187353175}]}]}]}]}, {"nodeid": 0, "depth": 0, "split": "ethBtcRatio", "split_condition": 0.0534199998, "yes": 1, "no": 2, "missing": 2, "children": [{"nodeid": 1, "depth": 1, "split": "relStrengthVsSpy", "split_condition": 0.0299999993, "yes": 3, "no": 4, "missing": 4, "children": [{"nodeid": 3, "depth": 2, "split": "relStrengthVsSpy", "split_condition": -0.457899988, "yes": 7, "no": 8, "missing": 8, "children": [{"nodeid": 7, "depth": 3, "split": "ethBtcRatio", "split_condition": 0.04899, "yes": 15, "no": 16, "missing": 16, "children": [{"nodeid": 15, "leaf": -0.0164065193}, {"nodeid": 16, "leaf": 0.0565835983}]}, {"nodeid": 8, "leaf": 0.0873204246}]}, {"nodeid": 4, "depth": 2, "split": "atrPercent", "split_condition": 1.76639998, "yes": 9, "no": 10, "missing": 10, "children": [{"nodeid": 9, "depth": 3, "split": "eMacdHist", "split_condition": 33.9799995, "yes": 17, "no": 18, "missing": 18, "children": [{"nodeid": 17, "leaf": 0.0332692564}, {"nodeid": 18, "leaf": -0.0456351042}]}, {"nodeid": 10, "depth": 3, "split": "relStrengthVsSpy", "split_condition": 10.9125004, "yes": 19, "no": 20, "missing": 20, "children": [{"nodeid": 19, "leaf": -0.00953493826}, {"nodeid": 20, "leaf": 0.0507084839}]}]}]}, {"nodeid": 2, "depth": 1, "split": "ethBtcRatio", "split_condition": 0.0536600016, "yes": 5, "no": 6, "missing": 6, "children": [{"nodeid": 5, "depth": 2, "split": "dBBPercentB", "split_condition": 0.688600004, "yes": 11, "no": 12, "missing": 12, "children": [{"nodeid": 11, "leaf": -0.116326205}, {"nodeid": 12, "leaf": 0.00280424766}]}, {"nodeid": 6, "depth": 2, "split": "tfAlignment", "split_condition": -1, "yes": 13, "no": 14, "missing": 14, "children": [{"nodeid": 13, "depth": 3, "split": "dVolumeRatio", "split_condition": 2.07999992, "yes": 21, "no": 22, "missing": 22, "children": [{"nodeid": 21, "leaf": -0.017575711}, {"nodeid": 22, "leaf": 0.0418414474}]}, {"nodeid": 14, 