{"features": ["dRsi", "dMacdHist", "dAdx", "dAdxBullish", "dEmaCross", "dStackBull", "dStackBear", "dStructBull", "dStructBear", "dStochK", "dStochCross", "dMacdCross", "dDivergence", "dEma20Rising", "dBBPercentB", "dBBSqueeze", "dBBBandwidth", "dVolumeRatio", "dAboveVwap", "hRsi", "hMacdHist", "hAdx", "hAdxBullish", "hEmaCross", "hStackBull", "hStackBear", "hStructBull", "hStructBear", "hStochK", "hStochCross", "hMacdCross", "hDivergence", "hEma20Rising", "hBBPercentB", "hBBSqueeze", "hBBBandwidth", "hVolumeRatio", "hAboveVwap", "eRsi", "eEmaCross", "eStochK", "eMacdHist", "fundingSignal", "oiSignal", "takerSignal", "crowdingSignal", "derivativesCombined", "fundingRateRaw", "oiChangePct", "takerRatioRaw", "longPctRaw", "vix", "dxyAboveEma20", "volScalarML", "last3Green", "last3Red", "last3VolIncreasing", "obvRising", "adLineAccumulation", "atrPercent", "atrPercentile", "dailyScore", "fourHScore", "tfAlignment", "momentumAlignment", "structureAlignment", "scoreSum", "scoreDivergence", "dayOfWeek", "barsSinceRegimeChange", "regimeCode", "dRsiDelta", "dAdxDelta", "hRsiDelta", "hAdxDelta", "hMacdHistDelta", "fearGreedIndex", "fearGreedZone", "ethBtcRatio", "ethBtcDelta6", "vpDistToPocATR", "vpAbovePoc", "vpVAWidth", "vpInValueArea", "vpDistToVAH_ATR", "vpDistToVAL_ATR", "hRsiDelta1", "hMacdHistDelta1", "dRsiDelta1", "hRsiAccel", "hMacdAccel", "dAdxAccel", "hourBucket", "isWeekend"], "trees": [{"nodeid": 0, "depth": 0, "split": "vpDistToVAL_ATR", "split_condition": 0.0186999999, "yes": 1, "no": 2, "missing": 2, "children": [{"nodeid": 1, "depth": 1, "split": "vpDistToVAL_ATR", "split_condition": 0, "yes": 3, "no": 4, "missing": 4, "children": [{"nodeid": 3, "depth": 2, "split": "dayOfWeek", "split_condition": 5, "yes": 7, "no": 8, "missing": 8, "children": [{"nodeid": 7, "leaf": -0.0044800397}, {"nodeid": 8, "leaf": -0.109651327}]}, {"nodeid": 4, "depth": 2, "split": "hStackBear", "split_condition": 1, "yes": 9, "no": 10, "missing": 10, "children": [{"nodeid": 9, "leaf": 0.181717679}, {"nodeid": 10, "leaf": 0.0831449702}]}]}, {"nodeid": 2, "depth": 1, "split": "dayOfWeek", "split_condition": 5, "yes": 5, "no": 6, "missing": 6, "children": [{"nodeid": 5, "depth": 2, "split": "tfAlignment", "split_condition": 2, "yes": 11, "no": 12, "missing": 12, "children": [{"nodeid": 11, "leaf": 0.0169409774}, {"nodeid": 12, "leaf": -0.0728247911}]}, {"nodeid": 6, "depth": 2, "split": "dayOfWeek", "split_condition": 6, "yes": 13, "no": 14, "missing": 14, "children": [{"nodeid": 13, "leaf": -0.125050172}, {"nodeid": 14, "leaf": -0.0732271671}]}]}]}, {"nodeid": 0, "depth": 0, "split": "vpDistToVAL_ATR", "split_condition": 0.0186999999, "yes": 1, "no": 2, "missing": 2, "children": [{"nodeid": 1, "depth": 1, "split": "vpDistToPocATR", "split_condition": -0.595200002, "yes": 3, "no": 4, "missing": 4, "children": [{"nodeid": 3, "depth": 2, "split": "dayOfWeek", "split_condition": 5, "yes": 7, "no": 8, "missing": 8, "children": [{"nodeid": 7, "leaf": -0.00139622565}, {"nodeid": 8, "leaf": -0.0986233205}]}, {"nodeid": 4, "leaf": 0.168683633}]}, {"nodeid": 2, "depth": 1, "split": "dayOfWeek", "split_condition": 5, "yes": 5, "no": 6, "missing": 6, "children": [{"nodeid": 5, "depth": 2, "split": "tfAlignment", "split_condition": 2, "yes": 9, "no": 10, "missing": 10, "children": [{"nodeid": 9, "leaf": 0.0178864896}, {"nodeid": 10, "leaf": -0.0622784272}]}, {"nodeid": 6, "depth": 2, "split": "dBBPercentB", "split_condition": 1.05579996, "yes": 11, "no": 12, "missing": 12, "children": [{"nodeid": 11, "leaf": -0.0938320085}, {"nodeid": 12, "leaf": -0.00412438717}]}]}]}, {"nodeid": 0, "depth": 0, "split": "vpVAWidth", "split_condition": 3.2651, "yes": 1, "no": 2, "missing": 2, "children": [{"nodeid": 1, "depth": 1, "split": "vpDistToVAL_ATR", "split_condition": 0.0709000006, "yes": 3, "no": 4, "missing": 4, "children": [{"nodeid": 3, "leaf": 0.158143088}, {"nodeid": 4, "leaf": 0.0467300192}]}, {"nodeid": 2, "depth": 1, "split": "dayOfWeek", "split_condition": 5, "yes": 5, "no": 6, "missing": 6, "children": [{"nodeid": 5, "depth": 2, "split": "dAdx", "split_condition": 20.2000008, "yes": 7, "no": 8, "missing": 8, "children": [{"nodeid": 7, "leaf": 0.0470542051}, {"nodeid": 8, "leaf": -0.00957555696}]}, {"nodeid": 6, "depth": 2, "split": "vpDistToVAH_ATR", "split_condition": 0.0340999998, "yes": 9, "no": 10, "missing": 10, "children": [{"nodeid": 9, "leaf": 0.00829759147}, {"nodeid": 10, "leaf": -0.0900185779}]}]}]}, {"nodeid": 0, "depth": 0, "split": "vpVAWidth", "split_condition": 2.97449994, "yes": 1, "no": 2, "missing": 2, "children": [{"nodeid": 1, "depth": 1, "split": "atrPercent", "split_condition": 0.720899999, "yes": 3, "no": 4, "missing": 4, "children": [{"nodeid": 3, "leaf": 0.0680871904}, {"nodeid": 4, "leaf": 0.149176568}]}, {"nodeid": 2, "depth": 1, "split": "dayOfWeek", "split_condition": 5, "yes": 5, "no": 6, "missing": 6, "children": [{"nodeid": 5, "depth": 2, "split": "tfAlignment", "split_condition": 2, "yes": 7, "no": 8, "missing": 8, "children": [{"nodeid": 7, "leaf": 0.0210876521}, {"nodeid": 8, "leaf": -0.0547422282}]}, {"nodeid": 6, "depth": 2, "split": "ethBtcRatio", "split_condition": 0.0468950011, "yes": 9, "no": 10, "missing": 10, "children": [{"nodeid": 9, "leaf": -0.00377943413}, {"nodeid": 10, "leaf": -0.0666356683}]}]}]}, {"nodeid": 0, "depth": 0, "split": "vpVAWidth", "split_condition": 2.97449994, "yes": 1, "no": 2, "missing": 2, "children": [{"nodeid": 1, "depth": 1, "split": "atrPercent", "split_condition": 0.720899999, "yes": 3, "no": 4, "missing": 4, "children": [{"nodeid": 3, "leaf": 0.071678333}, {"nodeid": 4, "leaf": 0.142303661}]}, {"nodeid": 2, "depth": 1, "split": "tfAlignment", "split_condition": 2, "yes": 5, "no": 6, "missing": 6, "children": [{"nodeid": 5, "depth": 2, "split": "tfAlignment", "split_condition": -1, "yes": 7, "no": 8, "missing": 8, "children": [{"nodeid": 7, "leaf": -0.0728712603}, {"nodeid": 8, "leaf": 0.0208227392}]}, {"nodeid": 6, "depth": 2, "split": "hRsi", "split_condition": 69.5, "yes": 9, "no": 10, "missing": 10, "children": [{"nodeid": 9, "leaf": -0.0732995495}, {"nodeid": 10, "leaf": -0.00613071164}]}]}]}, {"nodeid": 0, "depth": 0, "split": "vpDistToVAH_ATR", "split_condition": 0.0340999998, "yes": 1, "no": 2, "missing": 2, "children": [{"nodeid": 1, "depth": 1, "split": "vpDistToVAL_ATR", "split_condition": 0.0186999999, "yes": 3, "no": 4, "missing": 4, "children": [{"nodeid": 3, "depth": 2, "split": "vpVAWidth", "split_condition": 2.97449994, "yes": 7, "no": 8, "missing": 8, "children": [{"nodeid": 7, "leaf": 0.136583015}, {"nodeid": 8, "leaf": 0.158096001}]}, {"nodeid": 4, "depth": 2, "split": "tfAlignment", "split_condition": 2, "yes": 9, "no": 10, "missing": 10, "children": [{"nodeid": 9, "leaf": 0.0495914742}, {"nodeid": 10, "leaf": -0.0477138348}]}]}, {"nodeid": 2, "depth": 1, "split": "dayOfWeek", "split_condition": 5, "yes": 5, "no": 6, "missing": 6, "children": [{"nodeid": 5, "depth": 2, "split": "tfAlignment", "split_condition": -1, "yes": 11, "no": 12, "missing": 12, "children": [{"nodeid": 11, "leaf": -0.0761495382}, {"nodeid": 12, "leaf": 0.00890132319}]}, {"nodeid": 6, "depth": 2, "split": "dayOfWeek", "split_condition": 6, "yes": 13, "no": 14, "missing": 14, "children": [{"nodeid": 13, "leaf": -0.0961315557}, {"nodeid": 14, "leaf": -0.0487785004}]}]}]}, {"nodeid": 0, "depth": 0, "split": "vpDistToVAL_ATR", "split_condition": 0.0186999999, "yes": 1, "no": 2, "missing": 2, "children": [{"nodeid": 1, "depth": 1, "split": "vpDistToPocATR", "split_condition": -0.595200002, "yes": 3, "no": 4, "missing": 4, "children": [{"nodeid": 3, "depth": 2, "split": "tfAlignment", "split_condition": -1, "yes": 7, "no": 8, "missing": 8, "children": [{"nodeid": 7, "leaf": -0.05663177}, {"nodeid": 8, "leaf": 0.0083159199}]}, {"nodeid": 4, "depth": 2, "split": "vpVAWidth", "split_condition": 2.97449994, "yes": 9, "no": 10, "missing": 10, "children": [{"nodeid": 9, "leaf": 0.131807044}, {"nodeid": 10, "leaf": 0.149418995}]}]}, {"nodeid": 2, "depth": 1, "split": "dayOfWeek", "split_condition": 5, "yes": 5, "no": 6, "missing": 6, "children": [{"nodeid": 5, "depth": 2, "split": "tfAlignment", "split_condition": -1, "yes": 11, "no": 12, "missing": 12, "children": [{"nodeid": 11, "leaf": -0.0804316029}, {"nodeid": 12, "leaf": 0.00846736133}]}, {"nodeid": 6, "depth": 2, "split": "dayOfWeek", "split_condition": 6, "yes": 13, "no": 14, "missing": 14, "children": [{"nodeid": 13, "leaf": -0.0854753628}, {"nodeid": 14, "leaf": -0.0393480249}]}]}]}, {"nodeid": 0, "depth": 0, "split": "vpDistToVAL_ATR", "split_condition": 0.0186999999, "yes": 1, "no": 2, "missing": 2, "children": [{"nodeid": 1, "depth": 1, "split": "vpDistToVAH_ATR", "split_condition": 2.44889998, "yes": 3, "no": 4, "missing": 4, "children": [{"nodeid": 3, "depth": 2, "split": "vpVAWidth", "split_condition": 2.97449994, "yes": 7, "no": 8, "missing": 8, "children": [{"nodeid": 7, "leaf": 0.127726063}, {"nodeid": 8, "leaf": 0.142625794}]}, {"nodeid": 4, "depth": 2, "split": "dayOfWeek", "split_condition": 5, "yes": 9, "no": 10, "missing": 10, "children": [{"nodeid": 9, "leaf": 0.00473467261}, {"nodeid": 10, "leaf": -0.0709132776}]}]}, {"nodeid": 2, "depth": 1, "split": "dayOfWeek", "split_condition": 5, "yes": 5, "no": 6, "missing": 6, "children": [{"nodeid": 5, "depth": 2, "split": "dBBBandwidth", "split_condition": 23.3589993, "yes": 11, "no": 12, "missing": 12, "children": [{"nodeid": 11, "leaf": 0.0201058742}, {"nodeid": 12, "leaf": -0.0294752121}]}, {"nodeid": 6, "depth": 2, "split": "ethBtcRatio", "split_condition": 0.0468950011, "yes": 13, "no": 14, "missing": 14, "children": [{"nodeid": 13, "leaf": -0.0092306491}, {"nodeid": 14, "leaf": -0.0650100634}]}]}]}, {"nodeid": 0, "depth": 0, "split": "vpDistToVAH_ATR", "split_condition": 0.0340999998, "yes": 1, "no": 2, "missing": 2, "children": [{"nodeid": 1, "depth": 1, "split": "vpDistToPocATR", "split_condition": 1.24360001, "yes": 3, "no": 4, "missing": 4, "children": [{"nodeid": 3, "leaf": 0.130262345}, {"nodeid": 4, "depth": 2, "split": "hRsi", "split_condition": 70.4000015, "yes": 7, "no": 8, "missing": 8, "children": [{"nodeid": 7, "leaf": -0.026678523}, {"nodeid": 8, "leaf": 0.0577613488}]}]}, {"nodeid": 2, "depth": 1, "split": "dayOfWeek", "split_condition": 5, "yes": 5, "no": 6, "missing": 6, "children": [{"nodeid": 5, "depth": 2, "split": "tfAlignment", "split_condition": -1, "yes": 9, "no": 10, "missing": 10, "children": [{"nodeid": 9, "leaf": -0.061581064}, {"nodeid": 10, "leaf": 0.00700416556}]}, {"nodeid": 6, "depth": 2, "split": "hMacdHistDelta1", "split_condition": 4.30999994, "yes": 11, "no": 12, "missing": 12, "children": [{"nodeid": 11, "leaf": -0.0485698693}, {"nodeid": 12, "leaf": -0.116005205}]}]}]}, {"nodeid": 0, "depth": 0, "split": "vpDistToVAH_ATR", "split_condition": 0.0340999998, "yes": 1, "no": 2, "missing": 2, "children": [{"nodeid": 1, "depth": 1, "split": "vpDistToPocATR", "split_condition": 0.801299989, "yes": 3, "no": 4, "missing": 4, "children": [{"nodeid": 3, "leaf": 0.126978576}, {"nodeid": 4, "depth": 2, "split": "dAdx", "split_condition": 20.2000008, "yes": 7, "no": 8, "missing": 8, "children": [{"nodeid": 7, "leaf": 0.0755134597}, {"nodeid": 8, "leaf": -0.0211864095}]}]}, {"nodeid": 2, "depth": 1, "split": "dayOfWeek", "split_condition": 5, "yes": 5, "no": 6, "missing": 6, "children": [{"nodeid": 5, "depth": 2, "split": "atrPercent", "split_condition": 2.65440011, "yes": 9, "no": 10, "missing": 10, "children": [{"nodeid": 9, "leaf": 0.0054266951}, {"nodeid": 10, "leaf": -0.0376295634}]}, {"nodeid": 6, "depth": 2, "split": "hMacdAccel", "split_condition": 8.56000042, "yes": 11, "no": 12, "missing": 12, "children": [{"nodeid": 11, "leaf": -0.0441015474}, {"nodeid": 12, "leaf": -0.126652971}]}]}]}, {"nodeid": 0, "depth": 0, "split": "vpDistToVAL_ATR", "split_condition": 0.0186999999, "yes": 1, "no": 2, "missing": 2, "children": [{"nodeid": 1, "depth": 1, "split": "vpDistToVAH_ATR", "split_condition": 2.44889998, "yes": 3, "no": 4, "missing": 4, "children": [{"nodeid": 3, "leaf": 0.123682134}, {"nodeid": 4, "depth": 2, "split": "vpDistToVAH_ATR", "split_condition": 6.25950003, "yes": 7, "no": 8, "missing": 8, "children": [{"nodeid": 7, "leaf": -0.0621910654}, {"nodeid": 8, "leaf": 0.00967189856}]}]}, {"nodeid": 2, "depth": 1, "split": "tfAlignment", "split_condition": 2, "yes": 5, "no": 6, "missing": 6, "children": [{"nodeid": 5, "depth": 2, "split": "tfAlignment", "split_condition": -1, "yes": 9, "no": 10, "missing": 10, "children": [{"nodeid": 9, "leaf": -0.0693084449}, {"nodeid": 10, "leaf": 0.00784947444}]}, {"nodeid": 6, "depth": 2, "split": "hAdxDelta", "split_condition": 8.34000015, "yes": 11, "no": 12, "missing": 12, "children": [{"nodeid": 11, "leaf": -0.0636519864}, {"nodeid": 12, "leaf": 0.0162397083}]}]}]}, {"nodeid": 0, "depth": 0, "split": "vpDistToVAH_ATR", "split_condition": 0.0340999998, "yes": 1, "no": 2, "missing": 2, "children": [{"nodeid": 1, "depth": 1, "split": "vpDistToPocATR", "split_condition": 0.769400001, "yes": 3, "no": 4, "missing": 4, "children": [{"nodeid": 3, "leaf": 0.120424345}, {"nodeid": 4, "depth": 2, "split": "tfAlignment", "split_condition": 2, "yes": 7, "no": 8, "missing": 8, "children": [{"nodeid": 7, "leaf": 0.0453507416}, {"nodeid": 8, "leaf": -0.0354858898}]}]}, {"nodeid": 2, "depth": 1, "split": "dayOfWeek", "split_condition": 5, "yes": 5, "no": 6, "missing": 6, "children": [{"nodeid": 5, "depth": 2, "split": "tfAlignment", "split_condition": -1, "yes": 9, "no": 10, "missing": 10, "children": [{"nodeid": 9, "leaf": -0.0546930693}, {"nodeid": 10, "leaf": 0.00375870359}]}, {"nodeid": 6, "depth": 2, "split": "dVolumeRatio", "split_condition": 0.660000026, "yes": 11, "no": 12, "missing": 12, "children": [{"nodeid": 11, "leaf": -0.0258365963}, {"nodeid": 12, "leaf": -0.0645346642}]}]}]}, {"nodeid": 0, "depth": 0, "split": "vpDistToVAH_ATR", "split_condition": 0.0340999998, "yes": 1, "no": 2, "missing": 2, "children": [{"nodeid": 1, "depth": 1, "split": "vpDistToPocATR", "split_condition": 0.168599993, "yes": 3, "no": 4, "missing": 4, "children": [{"nodeid": 3, "leaf": 0.118676685}, {"nodeid": 4, "depth": 2, "split": "dRsiDelta", "split_condition": 6.42000008, "yes": 7, "no": 8, "missing": 8, "children": [{"nodeid": 7, "leaf": -0.0124691864}, {"nodeid": 8, "leaf": 0.0833444446}]}]}, {"nodeid": 2, "depth": 1, "split": "dayOfWeek", "split_condition": 1, "yes": 5, "no": 6, "missing": 6, "children": [{"nodeid": 5, "depth": 2, "split": "dRsi", "split_condition": 59.4000015, "yes": 9, "no": 10, "missing": 10, "children": [{"nodeid": 9, "leaf": 0.0494693257}, {"nodeid": 10, "leaf": -0.0485787056}]}, {"nodeid": 6, "depth": 2, "split": "tfAlignment", "split_condition": -1, "yes": 11, "no": 12, "missing": 12, "children": [{"nodeid": 11, "leaf": -0.0645821616}, {"nodeid": 12, "leaf": -0.0122316219}]}]}]}, {"nodeid": 0, "depth": 0, "split": "vpVAWidth", "split_condition": 3.62919998, "yes": 1, "no": 2, "missing": 2, "children": [{"nodeid": 1, "depth": 1, "split": "hMacdHistDelta1", "split_condition": 0.0199999996, "yes": 3, "no": 4, "missing": 4, "children": [{"nodeid": 3, "depth": 2, "split": "hRsiDelta", "split_condition": 0.140000001, "yes": 7, "no": 8, "missing": 8, "children": [{"nodeid": 7, "leaf": 0.123687468}, {"nodeid": 8, "leaf": 0.0995288119}]}, {"nodeid": 4, "leaf": 0.00235118321}]}, {"nodeid": 2, "depth": 1, "split": "tfAlignment", "split_condition": 2, "yes": 5, "no": 6, "missing": 6, "children": [{"nodeid": 5, "depth": 2, "split": "vpDistToVAH_ATR", "split_condition": 0.0340999998, "yes": 9, "no": 10, "missing": 10, "children": [{"nodeid": 9, "leaf": 0.0574729703}, {"nodeid": 10, "leaf": -0.00435664086}]}, {"nodeid": 6, "depth": 2, "split": "fearGreedIndex", "split_condition": 76, "yes": 11, "no": 12, "missing": 12, "children": [{"nodeid": 11, "leaf": -0.0252568927}, {"nodeid": 12, "leaf": -0.0787008479}]}]}]}, {"nodeid": 0, "depth": 0, "split": "vpDistToVAL_ATR", "split_condition": 0.0186999999, "yes": 1, "no": 2, "missing": 2, "children": [{"nodeid": 1, "depth": 1, "split": "vpDistToVAH_ATR", "split_condition": 2.44889998, "yes": 3, "no": 4, "missing": 4, "children": [{"nodeid": 3, "leaf": 0.1155641}, {"nodeid": 4, "depth": 2, "split": "dayOfWeek", "split_condition": 1, "yes": 7, "no": 8, "missing": 8, "children": [{"nodeid": 7, "leaf": 0.0734128579}, {"nodeid": 8, "leaf": -0.0183874648}]}]}, {"nodeid": 2, "depth": 1, "split": "tfAlignment", "split_condition": 2, "yes": 5, "no": 6, "missing": 6, "children": [{"nodeid": 5, "depth": 2, "split": "tfAlignment", "split_condition": -1, "yes": 9, "no": 10, "missing": 10, "children": [{"nodeid": 9, "leaf": -0.0573108867}, {"nodeid": 10, "leaf": 0.0117732687}]}, {"nodeid": 6, "depth": 2, "split": "hAdxDelta", "split_condition": 8.53999996, "yes": 11, "no": 12, "missing": 12, "children": [{"nodeid": 11, "leaf": -0.0506251566}, {"nodeid": 12, "leaf": 0.0243388228}]}]}]}, {"nodeid": 0, "depth": 0, "split": "vpVAWidth", "split_condition": 4.15579987, "yes": 1, "no": 2, "missing": 2, "children": [{"nodeid": 1, "depth": 1, "split": "vpDistToVAH_ATR", "split_condition": 2.36299992, "yes": 3, "no": 4, "missing": 4, "children": [{"nodeid": 3, "depth": 2, "split": "hMacdHistDelta1", "split_condition": -0.00999999978, "yes": 7, "no": 8, "missing": 8, "children": [{"nodeid": 7, "leaf": 0.152538717}, {"nodeid": 8, "leaf": 0.102776162}]}, {"nodeid": 4, "depth": 2, "split": "dayOfWeek", "split_condition": 3, "yes": 9, "no": 10, "missing": 10, "children": [{"nodeid": 9, "leaf": 0.125113115}, {"nodeid": 10, "leaf": -0.0309025086}]}]}, {"nodeid": 2, "depth": 1, "split": "dayOfWeek", "split_condition": 5, "yes": 5, "no": 6, "missing": 6, "children": [{"nodeid": 5, "depth": 2, "split": "hMacdHistDelta", "split_condition": 0.0199999996, "yes": 11, "no": 12, "missing": 12, "children": [{"nodeid": 11, "leaf": -0.00573611027}, {"nodeid": 12, "leaf": 0.0302616935}]}, {"nodeid": 6, "depth": 2, "split": "hMacdHistDelta", "split_condition": -0.779999971, "yes": 13, "no": 14, "missing": 14, "children": [{"nodeid": 13, "leaf": -0.061735332}, {"nodeid": 14, "leaf": -0.0176605172}]}]}]}, {"nodeid": 0, "depth": 0, "split": "vpDistToVAL_ATR", "split_condition": 0.0186999999, "yes": 1, "no": 2, "missing": 2, "children": [{"nodeid": 1, "depth": 1, "split": "vpDistToPocATR", "split_condition": -0.595200002, "yes": 3, "no": 4, "missing": 4, "children": [{"nodeid": 3, "depth": 2, "split": "dStackBull", "split_condition": 1, "yes": 7, "no": 8, "missing": 8, "children": [{"nodeid": 7, "leaf": -0.0242242403}, {"nodeid": 8, "leaf": 0.0494474806}]}, {"nodeid": 4, "leaf": 0.113354705}]}, {"nodeid": 2, "depth": 1, "split": "hBBPercentB", "split_condition": 1.03980005, "yes": 5, "no": 6, "missing": 6, "children": [{"nodeid": 5, "depth": 2, "split": "dayOfWeek", "split_condition": 5, "yes": 9, "no": 10, "missing": 10, "children": [{"nodeid": 9, "leaf": -0.00531730847}, {"nodeid": 10, "leaf": -0.0382784829}]}, {"nodeid": 6, "depth": 2, "split": "atrPercentile", "split_condition": 20, "yes": 11, "no": 12, "missing": 12, "children": [{"nodeid": 11, "leaf": 0.112287916}, {"nodeid": 12, "leaf": 0.029796306}]}]}]}, {"nodeid": 0, "depth": 0, "split": "vpVAWidth", "split_condition": 2.97449994, "yes": 1, "no": 2, "missing": 2, "children": [{"nodeid": 1, "depth": 1, "split": "dBBBandwidth", "split_condition": 4.82840014, "yes": 3, "no": 4, "missing": 4, "children": [{"nodeid": 3, "leaf": 0.0568878539}, {"nodeid": 4, "leaf": 0.107642405}]}, {"nodeid": 2, "depth": 1, "split": "tfAlignment", "split_condition": 2, "yes": 5, "no": 6, "missing": 6, "children": [{"nodeid": 5, "depth": 2, "split": "tfAlignment", "split_condition": -1, "yes": 7, "no": 8, "missing": 8, "children": [{"nodeid": 7, "leaf": -0.034698762}, {"nodeid": 8, "leaf": 0.0181449763}]}, {"nodeid": 6, "depth": 2, "split": "dAdxDelta", "split_condition": 0.860000014, "yes": 9, "no": 10, "missing": 10, "children": [{"nodeid": 9, "leaf": -0.0545699708}, {"nodeid": 10, "leaf": -0.00852748286}]}]}]}, {"nodeid": 0, "depth": 0, "split": "vpVAWidth", "split_condition": 3.2651, "yes": 1, "no": 2, "missing": 2, "children": [{"nodeid": 1, "depth": 1, "split": "vpDistToVAL_ATR", "split_condition": 0.0186999999, "yes": 3, "no": 4, "missing": 4, "children": [{"nodeid": 3, "leaf": 0.109312057}, {"nodeid": 4, "leaf": 0.0137708755}]}, {"nodeid": 2, "depth": 1, "split": "tfAlignment", "split_condition": 2, "yes": 5, "no": 6, "missing": 6, "children": [{"nodeid": 5, "depth": 2, "split": "vpDistToVAH_ATR", "split_condition": 0.0340999998, "yes": 7, "no": 8, "missing": 8, "children": [{"nodeid": 7, "leaf": 0.0483319722}, {"nodeid": 8, "leaf": -0.00437033223}]}, {"nodeid": 6, "depth": 2, "split": "hRsi", "split_condition": 69.5, "yes": 9, "no": 10, "missing": 10, "children": [{"nodeid": 9, "leaf": -0.0465367734}, {"nodeid": 10, "leaf": 0.0130528649}]}]}]}, {"nodeid": 0, "depth": 0, "split": "vpDistToVAH_ATR", "split_condition": 0.0340999998, "yes": 1, "no": 2, "missing": 2, "children": [{"nodeid": 1, "depth": 1, "split": "vpDistToPocATR", "split_condition": 1.24360001, "yes": 3, "no": 4, "missing": 4, "children": [{"nodeid": 3, "depth": 2, "split": "dRsi", "split_condition": 61, "yes": 7, "no": 8, "missing": 8, "children": [{"nodeid": 7, "leaf": 0.112338535}, {"nodeid": 8, "leaf": 0.0796982273}]}, {"nodeid": 4, "depth": 2, "split": "hRsi", "split_condition": 70.4000015, "yes": 9, "no": 10, "missing": 10, "children": [{"nodeid": 9, "leaf": -0.0161234941}, {"nodeid": 10, "leaf": 0.0536157787}]}]}, {"nodeid": 2, "depth": 1, "split": "dayOfWeek", "split_condition": 1, "yes": 5, "no": 6, "missing": 6, "children": [{"nodeid": 5, "depth": 2, "split": "dMacdHist", "split_condition": -1.02999997, "yes": 11, "no": 12, "missing": 12, "children": [{"nodeid": 11, "leaf": 0.0846513286}, {"nodeid": 12, "leaf": 0.00280852872}]}, {"nodeid": 6, "depth": 2, "split": "dStochK", "split_condition": 6, "yes": 13, "no": 14, "missing": 14, "children": [{"nodeid": 13, "leaf": 0.0204987805}, {"nodeid": 14, "leaf": -0.0209009591}]}]}]}, {"nodeid": 0, "depth": 0, "split": "vpDistToVAL_ATR", "split_condition": 0.0186999999, "yes": 1, "no": 2, "missing": 2, "children": [{"nodeid": 1, "depth": 1, "split": "vpDistToPocATR", "split_condition": -0.514400005, "yes": 3, "no": 4, "missing": 4, "children": [{"nodeid": 3, "depth": 2, "split": "hBBPercentB", "split_condition": 0.0979000032, "yes": 7, "no": 8, "missing": 8, "children": [{"nodeid": 7, "leaf": 0.0496020131}, {"nodeid": 8, "leaf": -0.0272957273}]}, {"nodeid": 4, "leaf": 0.110028841}]}, {"nodeid": 2, "depth": 1, "split": "atrPercent", "split_condition": 2.85890007, "yes": 5, "no": 6, "missing": 6, "children": [{"nodeid": 5, "depth": 2, "split": "dayOfWeek", "split_condition": 5, "yes": 9, "no": 10, "missing": 10, "children": [{"nodeid": 9, "leaf": 0.0132523328}, {"nodeid": 10, "leaf": -0.0312696509}]}, {"nodeid": 6, "depth": 2, "split": "eStochK", "split_condition": 9.39999962, "yes": 11, "no": 12, "missing": 12, "children": [{"nodeid": 11, "leaf": -0.0842975155}, {"nodeid": 12, "leaf": -0.0235704016}]}]}]}, {"nodeid": 0, "depth": 0, "split": "vpVAWidth", "split_condition": 3.2651, "yes": 1, "no": 2, "missing": 2, "children": [{"nodeid": 1, "depth": 1, "split": "dStochK", "split_condition": 18.3999996, "yes": 3, "no": 4, "missing": 4, "children": [{"nodeid": 3, "leaf": 0.0565426424}, {"nodeid": 4, "depth": 2, "split": "hBBBandwidth", "split_condition": 2.75880003, "yes": 7, "no": 8, "missing": 8, "children": [{"nodeid": 7, "leaf": 0.128824219}, {"nodeid": 8, "leaf": 0.095997192}]}]}, {"nodeid": 2, "depth": 1, "split": "hVolumeRatio", "split_condition": 0.930000007, "yes": 5, "no": 6, "missing": 6, "children": [{"nodeid": 5, "depth": 2, "split": "hBBBandwidth", "split_condition": 2.2888, "yes": 9, "no": 10, "missing": 10, "children": [{"nodeid": 9, "leaf": 0.0523119755}, {"nodeid": 10, "leaf": -0.0138963806}]}, {"nodeid": 6, "depth": 2, "split": "hBBPercentB", "split_condition": 1.13590002, "yes": 11, "no": 12, "missing": 12, "children": [{"nodeid": 11, "leaf": 0.0140329003}, {"nodeid": 12, "leaf": 0.0842903852}]}]}]}, {"nodeid": 0, "depth": 0, "split": "vpDistToVAL_ATR", "split_condition": 0.0186999999, "yes": 1, "no": 2, "missing": 2, "children": [{"nodeid": 1, "depth": 1, "split": "vpDistToPocATR", "split_condition": -0.595200002, "yes": 3, "no": 4, "missing": 4, "children": [{"nodeid": 3, "depth": 2, "split": "vpDistToPocATR", "split_condition": -2.85879993, "yes": 7, "no": 8, "missing": 8, "children": [{"nodeid": 7, "leaf": 0.00682414789}, {"nodeid": 8, "leaf": -0.0667067617}]}, {"nodeid": 4, "leaf": 0.108553901}]}, {"nodeid": 2, "depth": 1, "split": "hVolumeRatio", "split_condition": 1.16999996, "yes": 5, "no": 6, "missing": 6, "children": [{"nodeid": 5, "depth": 2, "split": "atrPercent", "split_condition": 2.89689994, "yes": 9, "no": 10, "missing": 10, "children": [{"nodeid": 9, "leaf": -0.00445057265}, {"nodeid": 10, "leaf": -0.0396323912}]}, {"nodeid": 6, "depth": 2, "split": "vpDistToVAH_ATR", "split_condition": -1.21249998, "yes": 11, "no": 12, "missing": 12, "children": [{"nodeid": 11, "leaf": 0.0805502757}, {"nodeid": 12, "leaf": 0.0112672029}]}]}]}, {"nodeid": 0, "depth": 0, "split": "vpVAWidth", "split_condition": 3.2651, "yes": 1, "no": 2, "missing": 2, "children": [{"nodeid": 1, "depth": 1, "split": "dBBBandwidth", "split_condition": 4.56430006, "yes": 3, "no": 4, "missing": 4, "children": [{"nodeid": 3, "leaf": 0.00399333332}, {"nodeid": 4, "depth": 2, "split": "volScalarML", "split_condition": 0.769999981, "yes": 7, "no": 8, "missing": 8, "children": [{"nodeid": 7, "leaf": 0.0716519207}, {"nodeid": 8, "leaf": 0.106504612}]}]}, {"nodeid": 2, "depth": 1, "split": "hBBPercentB", "split_condition": 1.04990005, "yes": 5, "no": 6, "missing": 6, "children": [{"nodeid": 5, "depth": 2, "split": "dailyScore", "split_condition": -5, "yes": 9, "no": 10, "missing": 10, "children": [{"nodeid": 9, "leaf": -0.0496580265}, {"nodeid": 10, "leaf": -0.00203392445}]}, {"nodeid": 6, "depth": 2, "split": "dailyScore", "split_condition": 4, "yes": 11, "no": 12, "missing": 12, "children": [{"nodeid": 11, "leaf": 0.0730114952}, {"nodeid": 12, "leaf": 1.92387984e-06}]}]}]}, {"nodeid": 0, "depth": 0, "split": "vpVAWidth", "split_condition": 2.97449994, "yes": 1, "no": 2, "missing": 2, "children": [{"nodeid": 1, "depth": 1, "split": "dBBBandwidth", "split_condition": 4.56430006, "yes": 3, "no": 4, "missing": 4, "children": [{"nodeid": 3, "leaf": 0.0125322612}, {"nodeid": 4, "leaf": 0.102516569}]}, {"nodeid": 2, "depth": 1, "split": "atrPercent", "split_condition": 1.05050004, "yes": 5, "no": 6, "missing": 6, "children": [{"nodeid": 5, "depth": 2, "split": "ethBtcDelta6", "split_condition": 0.0450999998, "yes": 7, "no": 8, "missing": 8, "children": [{"nodeid": 7, "leaf": 0.0690533444}, {"nodeid": 8, "leaf": 0.00175001787}]}, {"nodeid": 6, "depth": 2, "split": "hVolumeRatio", "split_condition": 1.27999997, "yes": 9, "no": 10, "missing": 10, "children": [{"nodeid": 9, "leaf": -0.011598628}, {"nodeid": 10, "leaf": 0.0217618924}]}]}]}, {"nodeid": 0, "depth": 0, "split": "vpDistToVAL_ATR", "split_condition": 0.0186999999, "yes": 1, "no": 2, "missing": 2, "children": [{"nodeid": 1, "depth": 1, "split": "vpDistToPocATR", "split_condition": -0.595200002, "yes": 3, "no": 4, "missing": 4, "children": [{"nodeid": 3, "depth": 2, "split": "vpDistToPocATR", "split_condition": -2.85879993, "yes": 7, "no": 8, "missing": 8, "children": [{"nodeid": 7, "leaf": 0.0139148114}, {"nodeid": 8, "leaf": -0.0639319122}]}, {"nodeid": 4, "leaf": 0.107316948}]}, {"nodeid": 2, "depth": 1, "split": "hMacdHistDelta", "split_condition": 0.0599999987, "yes": 5, "no": 6, "missing": 6, "children": [{"nodeid": 5, "depth": 2, "split": "hRsiDelta1", "split_condition": -6.23999977, "yes": 9, "no": 10, "missing": 10, "children": [{"nodeid": 9, "leaf": 0.0240775552}, {"nodeid": 10, "leaf": -0.0204554461}]}, {"nodeid": 6, "depth": 2, "split": "tfAlignment", "split_condition": -1, "yes": 11, "no": 12, "missing": 12, "children": [{"nodeid": 11, "leaf": -0.0322588757}, {"nodeid": 12, "leaf": 0.0240808893}]}]}]}, {"nodeid": 0, "depth": 0, "split": "dBBBandwidth", "split_condition": 35.8005981, "yes": 1, "no": 2, "missing": 2, "children": [{"nodeid": 1, "depth": 1, "split": "hBBSqueeze", "split_condition": 1, "yes": 3, "no": 4, "missing": 4, "children": [{"nodeid": 3, "depth": 2, "split": "hVolumeRatio", "split_condition": 0.280000001, "yes": 7, "no": 8, "missing": 8, "children": [{"nodeid": 7, "leaf": -0.0759920403}, {"nodeid": 8, "leaf": 0.00380815566}]}, {"nodeid": 4, "depth": 2, "split": "hVolumeRatio", "split_condition": 0.469999999, "yes": 9, "no": 10, "missing": 10, "children": [{"nodeid": 9, "leaf": -0.0212302841}, {"nodeid": 10, "leaf": 0.0455538183}]}]}, {"nodeid": 2, "depth": 1, "split": "eStochK", "split_condition": 9.60000038, "yes": 5, "no": 6, "missing": 6, "children": [{"nodeid": 5, "depth": 2, "split": "hAdx", "split_condition": 49.7999992, "yes": 11, "no": 12, "missing": 12, "children": [{"nodeid": 11, "leaf": -0.090504244}, {"nodeid": 12, "leaf": 0.0136432564}]}, {"nodeid": 6, "depth": 2, "split": "hVolumeRatio", "split_condition": 0.980000019, "yes": 13, "no": 14, "missing": 14, "children": [{"nodeid": 13, "leaf": -0.0256468486}, {"nodeid": 14, "leaf": 0.0222463366}]}]}]}, {"nodeid": 0, "depth": 0, "split": "hBBPercentB", "split_condition": 1.13590002, "yes": 1, "no": 2, "missing": 2, "children": [{"nodeid": 1, "depth": 1, "split": "tfAlignment", "split_condition": 2, "yes": 3, "no": 4, "missing": 4, "children": [{"nodeid": 3, "depth": 2, "split": "tfAlignment", "split_condition": -1, "yes": 7, "no": 8, "missing": 8, "children": [{"nodeid": 7, "leaf": -0.0263876654}, {"nodeid": 8, "leaf": 0.0132837594}]}, {"nodeid": 4, "depth": 2, "split": "dAdxDelta", "split_condition": 0.439999998, "yes": 9, "no": 10, "missing": 10, "children": [{"nodeid": 9, "leaf": -0.045778688}, {"nodeid": 10, "leaf": -0.00179065485}]}]}, {"nodeid": 2, "depth": 1, "split": "dailyScore", "split_condition": 5, "yes": 5, "no": 6, "missing": 6, "children": [{"nodeid": 5, "depth": 2, "split": "dStructBear", "split_condition": 1, "yes": 11, "no": 12, "missing": 12, "children": [{"nodeid": 11, "leaf": 0.123221599}, {"nodeid": 12, "leaf": 0.0424825661}]}, {"nodeid": 6, "leaf": -0.0071208179}]}]}, {"nodeid": 0, "depth": 0, "split": "dayOfWeek", "split_condition": 5, "yes": 1, "no": 2, "missing": 2, "children": [{"nodeid": 1, "depth": 1, "split": "dVolumeRatio", "split_condition": 0.819999993, "yes": 3, "no": 4, "missing": 4, "children": [{"nodeid": 3, "depth": 2, "split": "tfAlignment", "split_condition": -1, "yes": 7, "no": 8, "missing": 8, "children": [{"nodeid": 7, "leaf": -0.0185135286}, {"nodeid": 8, "leaf": 0.0366451703}]}, {"nodeid": 4, "depth": 2, "split": "atrPercent", "split_condition": 1.34179997, "yes": 9, "no": 10, "missing": 10, "children": [{"nodeid": 9, "leaf": 0.0415872}, {"nodeid": 10, "leaf": -0.0074390918}]}]}, {"nodeid": 2, "depth": 1, "split": "vix", "split_condition": 23.1000004, "yes": 5, "no": 6, "missing": 6, "children": [{"nodeid": 5, "depth": 2, "split": "dRsi", "split_condition": 55, "yes": 11, "no": 12, "missing": 12, "children": [{"nodeid": 11, "leaf": -0.0569123887}, {"nodeid": 12, "leaf": -0.011903367}]}, {"nodeid": 6, "depth": 2, "split": "scoreSum", "split_condition": -5, "yes": 13, "no": 14, "missing": 14, "children": [{"nodeid": 13, "leaf": -0.0122209014}, {"nodeid": 14, "leaf": 0.0446992628}]}]}]}, {"nodeid": 0, "depth": 0, "split": "dStochK", "split_condition": 5.80000019, "yes": 1, "no": 2, "missing": 2, "children": [{"nodeid": 1, "depth": 1, "split": "dayOfWeek", "split_condition": 4, "yes": 3, "no": 4, "missing": 4, "children": [{"nodeid": 3, "depth": 2, "split": "barsSinceRegimeChange", "split_condition": 100, "yes": 7, "no": 8, "missing": 8, "children": [{"nodeid": 7, "leaf": 0.0371504687}, {"nodeid": 8, "leaf": 0.112895146}]}, {"nodeid": 4, "depth": 2, "split": "ethBtcDelta6", "split_condition": 0.280999988, "yes": 9, "no": 10, "missing": 10, "children": [{"nodeid": 9, "leaf": 0.0405464619}, {"nodeid": 10, "leaf": -0.0699302778}]}]}, {"nodeid": 2, "depth": 1, "split": "vpDistToVAL_ATR", "split_condition": 0.0186999999, "yes": 5, "no": 6, "missing": 6, "children": [{"nodeid": 5, "depth": 2, "split": "vpDistToPocATR", "split_condition": -0.595200002, "yes": 11, "no": 12, "missing": 12, "children": [{"nodeid": 11, "leaf": -0.0118166022}, {"nodeid": 12, "leaf": 0.106104448}]}, {"nodeid": 6, "depth": 2, "split": "hMacdHistDelta", "split_condition": 0.0199999996, "yes": 13, "no": 14, "missing": 14, "children": [{"nodeid": 13, "leaf": -0.0189428478}, {"nodeid": 14, "leaf": 0.0104545206}]}]}]}, {"nodeid": 0, "depth": 0, "split": "tfAlignment", "split_condition": 2, "yes": 1, "no": 2, "missing": 2, "children": [{"nodeid": 1, "depth": 1, "split": "vpDistToVAH_ATR", "split_condition": 0.0340999998, "yes": 3, "no": 4, "missing": 4, "children": [{"nodeid": 3, "depth": 2, "split": "vpDistToPocATR", "split_condition": 1.24360001, "yes": 7, "no": 8, "missing": 8, "children": [{"nodeid": 7, "leaf": 0.104619615}, {"nodeid": 8, "leaf": 0.0181068778}]}, {"nodeid": 4, "depth": 2, "split": "vpDistToPocATR", "split_condition": 1.41750002, "yes": 9, "no": 10, "missing": 10, "children": [{"nodeid": 9, "leaf": -0.00597641431}, {"nodeid": 10, "leaf": 0.0337372385}]}]}, {"nodeid": 2, "depth": 1, "split": "dStochK", "split_condition": 92.5, "yes": 5, "no": 6, "missing": 6, "children": [{"nodeid": 5, "depth": 2, "split": "eStochK", "split_condition": 89.1999969, "yes": 11, "no": 12, "missing": 12, "children": [{"nodeid": 11, "leaf": -0.0455192402}, {"nodeid": 12, "leaf": 0.0161300655}]}, {"nodeid": 6, "depth": 2, "split": "dMacdHist", "split_condition": 503.570007, "yes": 13, "no": 14, "missing": 14, "children": [{"nodeid": 13, "leaf": 0.0275581963}, {"nodeid": 14, "leaf": -0.107265174}]}]}]}, {"nodeid": 0, "depth": 0, "split": "eMacdHist", "split_condition": 6.57000017, "yes": 1, "no": 2, "missing": 2, "children": [{"nodeid": 1, "depth": 1, "split": "hMacdAccel", "split_condition": -0.00999999978, "yes": 3, "no": 4, "missing": 4, "children": [{"nodeid": 3, "depth": 2, "split": "dBBBandwidth", "split_condition": 18.9881001, "yes": 7, "no": 8, "missing": 8, "children": [{"nodeid": 7, "leaf": 0.0396935008}, {"nodeid": 8, "leaf": 0.00198627519}]}, {"nodeid": 4, "depth": 2, "split": "vpDistToVAH_ATR", "split_condition": 0.0340999998, "yes": 9, "no": 10, "missing": 10, "children": [{"nodeid": 9, "leaf": 0.0265707728}, {"nodeid": 10, "leaf": -0.0145602068}]}]}, {"nodeid": 2, "depth": 1, "split": "hBBPercentB", "split_condition": 1.04990005, "yes": 5, "no": 6, "missing": 6, "children": [{"nodeid": 5, "depth": 2, "split": "dStochK", "split_condition": 12, "yes": 11, "no": 12, "missing": 12, "children": [{"nodeid": 11, "leaf": 0.00167954247}, {"nodeid": 12, "leaf": -0.0637592599}]}, {"nodeid": 6, "depth": 2, "split": "scoreSum", "split_condition": 17, "yes": 13, "no": 14, "missing": 14, "children": [{"nodeid": 13, "leaf": 0.0963959917}, {"nodeid": 14, "leaf": -0.0432719402}]}]}]}, {"nodeid": 0, "depth": 0, "split": "tfAlignment", "split_condition": 2, "yes": 1, "no": 2, "missing": 2, "children": [{"nodeid": 1, "depth": 1, "split": "vpDistToVAL_ATR", "split_condition": 4.70709991, "yes": 3, "no": 4, "missing": 4, "children": [{"nodeid": 3, "depth": 2, "split": "vpDistToVAH_ATR", "split_condition": 0.0340999998, "yes": 7, "no": 8, "missing": 8, "children": [{"nodeid": 7, "leaf": 0.0674154535}, {"nodeid": 8, "leaf": -0.00649861479}]}, {"nodeid": 4, "depth": 2, "split": "atrPercent", "split_condition": 1.60430002, "yes": 9, "no": 10, "missing": 10, "children": [{"nodeid": 9, "leaf": 0.0664399341}, {"nodeid": 10, "leaf": 0.019449288}]}]}, {"nodeid": 2, "depth": 1, "split": "dxyAboveEma20", "split_condition": 1, "yes": 5, "no": 6, "missing": 6, "children": [{"nodeid": 5, "depth": 2, "split": "dRsi", "split_condition": 76.1999969, "yes": 11, "no": 12, "missing": 12, "children": [{"nodeid": 11, "leaf": -0.0551024191}, {"nodeid": 12, "leaf": 0.0143625466}]}, {"nodeid": 6, "depth": 2, "split": "vpVAWidth", "split_condition": 7.36000013, "yes": 13, "no": 14, "missing": 14, "children": [{"nodeid": 13, "leaf": 0.111858264}, {"nodeid": 14, "leaf": -0.0112210251}]}]}]}, {"nodeid": 0, "depth": 0, "split": "dayOfWeek", "split_condition": 5, "yes": 1, "no": 2, "missing": 2, "children": [{"nodeid": 1, "depth": 1, "split": "dStochK", "split_condition": 5.80000019, "yes": 3, "no": 4, "missing": 4, "children": [{"nodeid": 3, "depth": 2, "split": "dAdxDelta", "split_condition": 1.64999998, "yes": 7, "no": 8, "missing": 8, "children": [{"nodeid": 7, "leaf": 0.0634541512}, {"nodeid": 8, "leaf": -0.0296330042}]}, {"nodeid": 4, "depth": 2, "split": "tfAlignment", "split_condition": -1, "yes": 9, "no": 10, "missing": 10, "children": [{"nodeid": 9, "leaf": -0.0256033782}, {"nodeid": 10, "leaf": 0.00755242771}]}]}, {"nodeid": 2, "depth": 1, "split": "dayOfWeek", "split_condition": 6, "yes": 5, "no": 6, "missing": 6, "children": [{"nodeid": 5, "depth": 2, "split": "atrPercent", "split_condition": 1.79890001, "yes": 11, "no": 12, "missing": 12, "children": [{"nodeid": 11, "leaf": -0.0849751532}, {"nodeid": 12, "leaf": -0.0161431786}]}, {"nodeid": 6, "depth": 2, "split": "dRsi", "split_condition": 38.9000015, "yes": 13, "no": 14, "missing": 14, "children": [{"nodeid": 13, "leaf": -0.0673721954}, {"nodeid": 14, "leaf": 0.0135205956}]}]}]}, {"nodeid": 0, "depth": 0, "split": "hBBPercentB", "split_condition": 0.0979000032, "yes": 1, "no": 2, "missing": 2, "children": [{"nodeid": 1, "depth": 1, "split": "dMacdHist", "split_condition": 0, "yes": 3, "no": 4, "missing": 4, "children": [{"nodeid": 3, "depth": 2, "split": "dEmaCross", "split_condition": -1, "yes": 7, "no": 8, "missing": 8, "children": [{"nodeid": 7, "leaf": 0.0157692209}, {"nodeid": 8, "leaf": 0.0896729305}]}, {"nodeid": 4, "depth": 2, "split": "barsSinceRegimeChange", "split_condition": 63, "yes": 9, "no": 10, "missing": 10, "children": [{"nodeid": 9, "leaf": -0.0459907949}, {"nodeid": 10, "leaf": 0.0340553038}]}]}, {"nodeid": 2, "depth": 1, "split": "atrPercent", "split_condition": 3.58159995, "yes": 5, "no": 6, "missing": 6, "children": [{"nodeid": 5, "depth": 2, "split": "tfAlignment", "split_condition": 2, "yes": 11, "no": 12, "missing": 12, "children": [{"nodeid": 11, "leaf": 0.00971425883}, {"nodeid": 12, "leaf": -0.0199238341}]}, {"nodeid": 6, "depth": 2, "split": "dRsi", "split_condition": 72.4000015, "yes": 13, "no": 14, "missing": 14, "children": [{"nodeid": 13, "leaf": -0.0427241549}, {"nodeid": 14, "leaf": 0.0307812672}]}]}]}, {"nodeid": 0, "depth": 0, "split": "dMacdHist", "split_condition": 46.8800011, "yes": 1, "no": 2, "missing": 2, "children": [{"nodeid": 1, "depth": 1, "split": "hVolumeRatio", "split_condition": 1.27999997, "yes": 3, "no": 4, "missing": 4, "children": [{"nodeid": 3, "depth": 2, "split": "atrPercent", "split_condition": 2.91750002, "yes": 7, "no": 8, "missing": 8, "children": [{"nodeid": 7, "leaf": 0.00672048097}, {"nodeid": 8, "leaf": -0.0196101889}]}, {"nodeid": 4, "depth": 2, "split": "hAdx", "split_condition": 25.1000004, "yes": 9, "no": 10, "missing": 10, "children": [{"nodeid": 9, "leaf": 0.0109106712}, {"nodeid": 10, "leaf": 0.0523189306}]}]}, {"nodeid": 2, "depth": 1, "split": "hAdx", "split_condition": 23.7999992, "yes": 5, "no": 6, "missing": 6, "children": [{"nodeid": 5, "depth": 2, "split": "dRsiDelta", "split_condition": -3.94000006, "yes": 11, "no": 12, "missing": 12, "children": [{"nodeid": 11, "leaf": -0.084294945}, {"nodeid": 12, "leaf": 0.0199761111}]}, {"nodeid": 6, "depth": 2, "split": "hRsiAccel", "split_condition": 10.9300003, "yes": 13, "no": 14, "missing": 14, "children": [{"nodeid": 13, "leaf": -0.0653656647}, {"nodeid": 14, "leaf": 0.0709519163}]}]}]}, {"nodeid": 0, "depth": 0, "split": "vpVAWidth", "split_condition": 3.2651, "yes": 1, "no": 2, "missing": 2, "children": [{"nodeid": 1, "depth": 1, "split": "dBBBandwidth", "split_condition": 4.09070015, "yes": 3, "no": 4, "missing": 4, "children": [{"nodeid": 3, "leaf": 0.0150578758}, {"nodeid": 4, "leaf": 0.103545211}]}, {"nodeid": 2, "depth": 1, "split": "ethBtcDelta6", "split_condition": -2.82949996, "yes": 5, "no": 6, "missing": 6, "children": [{"nodeid": 5, "depth": 2, "split": "ethBtcDelta6", "split_condition": -3.81760001, "yes": 7, "no": 8, "missing": 8, "children": [{"nodeid": 7, "leaf": 0.00197286787}, {"nodeid": 8, "leaf": 0.0708361641}]}, {"nodeid": 6, "depth": 2, "split": "hMacdHistDelta", "split_condition": 0.00999999978, "yes": 9, "no": 10, "missing": 10, "children": [{"nodeid": 9, "leaf": -0.0108387228}, {"nodeid": 10, "leaf": 0.0113606555}]}]}]}, {"nodeid": 0, "depth": 0, "split": "tfAlignment", "split_condition": 2, "yes": 1, "no": 2, "missing": 2, "children": [{"nodeid": 1, "depth": 1, "split": "vpDistToVAL_ATR", "split_condition": 6.24370003, "yes": 3, "no": 4, "missing": 4, "children": [{"nodeid": 3, "depth": 2, "split": "dBBBandwidth", "split_condition": 37.2038994, "yes": 7, "no": 8, "missing": 8, "children": [{"nodeid": 7, "leaf": 0.00465644384}, {"nodeid": 8, "leaf": -0.0305305663}]}, {"nodeid": 4, "depth": 2, "split": "barsSinceRegimeChange", "split_condition": 15, "yes": 9, "no": 10, "missing": 10, "children": [{"nodeid": 9, "leaf": -0.0422533639}, {"nodeid": 10, "leaf": 0.0530633144}]}]}, {"nodeid": 2, "depth": 1, "split": "dxyAboveEma20", "split_condition": 1, "yes": 5, "no": 6, "missing": 6, "children": [{"nodeid": 5, "depth": 2, "split": "hRsiAccel", "split_condition": 10.9300003, "yes": 11, "no": 12, "missing": 12, "children": [{"nodeid": 11, "leaf": -0.0475762896}, {"nodeid": 12, "leaf": 0.110790707}]}, {"nodeid": 6, "depth": 2, "split": "dailyScore", "split_condition": 8, "yes": 13, "no": 14, "missing": 14, "children": [{"nodeid": 13, "leaf": 0.0234230701}, {"nodeid": 14, "leaf": -0.0464105904}]}]}]}, {"nodeid": 0, "depth": 0, "split": "dVolumeRatio", "split_condition": 0.699999988, "yes": 1, "no": 2, "missing": 2, "children": [{"nodeid": 1, "depth": 1, "split": "scoreSum", "split_condition": -9, "yes": 3, "no": 4, "missing": 4, "children": [{"nodeid": 3, "depth": 2, "split": "vpDistToVAL_ATR", "split_condition": 0.753099978, "yes": 7, "no": 8, "missing": 8, "children": [{"nodeid": 7, "leaf": 0.0244477857}, {"nodeid": 8, "leaf": -0.0630664602}]}, {"nodeid": 4, "depth": 2, "split": "scoreSum", "split_condition": 10, "yes": 9, "no": 10, "missing": 10, "children": [{"nodeid": 9, "leaf": 0.033063788}, {"nodeid": 10, "leaf": -0.0197084043}]}]}, {"nodeid": 2, "depth": 1, "split": "vpVAWidth", "split_condition": 56.2709007, "yes": 5, "no": 6, "missing": 6, "children": [{"nodeid": 5, "depth": 2, "split": "fearGreedIndex", "split_condition": 20, "yes": 11, "no": 12, "missing": 12, "children": [{"nodeid": 11, "leaf": 0.0447251201}, {"nodeid": 12, "leaf": -0.00608542701}]}, {"nodeid": 6, "depth": 2, "split": "hRsi", "split_condition": 37.4000015, "yes": 13, "no": 14, "missing": 14, "children": [{"nodeid": 13, "leaf": -0.000175508569}, {"nodeid": 14, "leaf": -0.100150362}]}]}]}, {"nodeid": 0, "depth": 0, "split": "hAdx", "split_condition": 13.1999998, "yes": 1, "no": 2, "missing": 2, "children": [{"nodeid": 1, "depth": 1, "split": "hBBBandwidth", "split_condition": 2.41960001, "yes": 3, "no": 4, "missing": 4, "children": [{"nodeid": 3, "depth": 2, "split": "hBBBandwidth", "split_condition": 1.79630005, "yes": 7, "no": 8, "missing": 8, "children": [{"nodeid": 7, "leaf": 0.0640846267}, {"nodeid": 8, "leaf": 0.163697228}]}, {"nodeid": 4, "depth": 2, "split": "hRsiDelta1", "split_condition": -2.6099999, "yes": 9, "no": 10, "missing": 10, "children": [{"nodeid": 9, "leaf": 0.0768027827}, {"nodeid": 10, "leaf": 0.0040904046}]}]}, {"nodeid": 2, "depth": 1, "split": "hBBPercentB", "split_condition": 1.16820002, "yes": 5, "no": 6, "missing": 6, "children": [{"nodeid": 5, "depth": 2, "split": "vpDistToVAL_ATR", "split_condition": 0.0186999999, "yes": 11, "no": 12, "missing": 12, "children": [{"nodeid": 11, "leaf": 0.0192699712}, {"nodeid": 12, "leaf": -0.00971839484}]}, {"nodeid": 6, "depth": 2, "split": "fearGreedIndex", "split_condition": 72, "yes": 13, "no": 14, "missing": 14, "children": [{"nodeid": 13, "leaf": 0.0969577953}, {"nodeid": 14, "leaf": -0.00435523642}]}]}]}, {"nodeid": 0, "depth": 0, "split": "eMacdHist", "split_condition": 6.57000017, "yes": 1, "no": 2, "missing": 2, "children": [{"nodeid": 1, "depth": 1, "split": "tfAlignment", "split_condition": -1, "yes": 3, "no": 4, "missing": 4, "children": [{"nodeid": 3, "depth": 2, "split": "vpDistToVAH_ATR", "split_condition": 0.0340999998, "yes": 7, "no": 8, "missing": 8, "children": [{"nodeid": 7, "leaf": 0.097950995}, {"nodeid": 8, "leaf": -0.0258599762}]}, {"nodeid": 4, "depth": 2, "split": "vpDistToVAH_ATR", "split_condition": 6.46280003, "yes": 9, "no": 10, "missing": 10, "children": [{"nodeid": 9, "leaf": 0.00491918577}, {"nodeid": 10, "leaf": 0.0477696843}]}]}, {"nodeid": 2, "depth": 1, "split": "vix", "split_condition": 24.6000004, "yes": 5, "no": 6, "missing": 6, "children": [{"nodeid": 5, "depth": 2, "split": "hBBBandwidth", "split_condition": 2.23569989, "yes": 11, "no": 12, "missing": 12, "children": [{"nodeid": 11, "leaf": 0.0496816672}, {"nodeid": 12, "leaf": -0.0544488244}]}, {"nodeid": 6, "depth": 2, "split": "hRsiDelta1", "split_condition": 3.5, "yes": 13, "no": 14, "missing": 14, "children": [{"nodeid": 13, "leaf": 0.0583066307}, {"nodeid": 14, "leaf": -0.0669856444}]}]}]}, {"nodeid": 0, "depth": 0, "split": "hRsiAccel", "split_condition": -7.94999981, "yes": 1, "no": 2, "missing": 2, "children": [{"nodeid": 1, "depth": 1, "split": "eStochK", "split_condition": 97.5999985, "yes": 3, "no": 4, "missing": 4, "children": [{"nodeid": 3, "depth": 2, "split": "fearGreedIndex", "split_condition": 72, "yes": 7, "no": 8, "missing": 8, "children": [{"nodeid": 7, "leaf": 0.027051989}, {"nodeid": 8, "leaf": 0.0892189071}]}, {"nodeid": 4, "depth": 2, "split": "dStochK", "split_condition": 40.9000015, "yes": 9, "no": 10, "missing": 10, "children": [{"nodeid": 9, "leaf": -0.0902532041}, {"nodeid": 10, "leaf": 0.044382222}]}]}, {"nodeid": 2, "depth": 1, "split": "dailyScore", "split_condition": -4, "yes": 5, "no": 6, "missing": 6, "children": [{"nodeid": 5, "depth": 2, "split": "hRsi", "split_condition": 34.7000008, "yes": 11, "no": 12, "missing": 12, "children": [{"nodeid": 11, "leaf": 0.0219091512}, {"nodeid": 12, "leaf": -0.0436099581}]}, {"nodeid": 6, "depth": 2, "split": "vpDistToVAH_ATR", "split_condition": 6.75019979, "yes": 13, "no": 14, "missing": 14, "children": [{"nodeid": 13, "leaf": -0.00213883538}, {"nodeid": 14, "leaf": 0.0344471559}]}]}]}, {"nodeid": 0, "depth": 0, "split": "vpDistToVAH_ATR", "split_condition": 0.0340999998, "yes": 1, "no": 2, "missing": 2, "children": [{"nodeid": 1, "depth": 1, "split": "vpDistToPocATR", "split_condition": 0.769400001, "yes": 3, "no": 4, "missing": 4, "children": [{"nodeid": 3, "leaf": 0.103716187}, {"nodeid": 4, "depth": 2, "split": "atrPercent", "split_condition": 1.63670003, "yes": 7, "no": 8, "missing": 8, "children": [{"nodeid": 7, "leaf": 0.0337257199}, {"nodeid": 8, "leaf": -0.0122302119}]}]}, {"nodeid": 2, "depth": 1, "split": "dEmaCross", "split_condition": -1, "yes": 5, "no": 6, "missing": 6, "children": [{"nodeid": 5, "depth": 2, "split": "vpDistToPocATR", "split_condition": 1.81120002, "yes": 9, "no": 10, "missing": 10, "children": [{"nodeid": 9, "leaf": -0.0268882643}, {"nodeid": 10, "leaf": 0.0672664344}]}, {"nodeid": 6, "depth": 2, "split": "vpDistToVAH_ATR", "split_condition": 5.15679979, "yes": 11, "no": 12, "missing": 12, "children": [{"nodeid": 11, "leaf": -0.00844909903}, {"nodeid": 12, "leaf": 0.0277336687}]}]}]}, {"nodeid": 0, "depth": 0, "split": "hMacdHist", "split_condition": 21.1800003, "yes": 1, "no": 2, "missing": 2, "children": [{"nodeid": 1, "depth": 1, "split": "dailyScore", "split_condition": -4, "yes": 3, "no": 4, "missing": 4, "children": [{"nodeid": 3, "depth": 2, "split": "hMacdHist", "split_condition": 2.55999994, "yes": 7, "no": 8, "missing": 8, "children": [{"nodeid": 7, "leaf": -0.0361790769}, {"nodeid": 8, "leaf": 0.0513139926}]}, {"nodeid": 4, "depth": 2, "split": "dStochK", "split_condition": 6, "yes": 9, "no": 10, "missing": 10, "children": [{"nodeid": 9, "leaf": 0.0445850119}, {"nodeid": 10, "leaf": 0.00351618486}]}]}, {"nodeid": 2, "depth": 1, "split": "hAdx", "split_condition": 25.2999992, "yes": 5, "no": 6, "missing": 6, "children": [{"nodeid": 5, "depth": 2, "split": "vpDistToVAH_ATR", "split_condition": 0.204600006, "yes": 11, "no": 12, "missing": 12, "children": [{"nodeid": 11, "leaf": -0.0825527832}, {"nodeid": 12, "leaf": 0.0222290177}]}, {"nodeid": 6, "depth": 2, "split": "hRsiAccel", "split_condition": -6.73000002, "yes": 13, "no": 14, "missing": 14, "children": [{"nodeid": 13, "leaf": 0.0174677577}, {"nodeid": 14, "leaf": -0.0771429986}]}]}]}, {"nodeid": 0, "depth": 0, "split": "hBBSqueeze", "split_condition": 1, "yes": 1, "no": 2, "missing": 2, "children": [{"nodeid": 1, "depth": 1, "split": "eStochK", "split_condition": 5.4000001, "yes": 3, "no": 4, "missing": 4, "children": [{"nodeid": 3, "depth": 2, "split": "hRsiAccel", "split_condition": 7.88000011, "yes": 7, "no": 8, "missing": 8, "children": [{"nodeid": 7, "leaf": -0.0698870718}, {"nodeid": 8, "leaf": 0.00292977109}]}, {"nodeid": 4, "depth": 2, "split": "vpDistToPocATR", "split_condition": -0.0478000008, "yes": 9, "no": 10, "missing": 10, "children": [{"nodeid": 9, "leaf": -0.0141335698}, {"nodeid": 10, "leaf": 0.0071272417}]}]}, {"nodeid": 2, "depth": 1, "split": "hAdx", "split_condition": 21.7000008, "yes": 5, "no": 6, "missing": 6, "children": [{"nodeid": 5, "depth": 2, "split": "dAdxDelta", "split_condition": -0.300000012, "yes": 11, "no": 12, "missing": 12, "children": [{"nodeid": 11, "leaf": 0.0569697395}, {"nodeid": 12, "leaf": 0.00647803536}]}, {"nodeid": 6, "depth": 2, "split": "vix", "split_condition": 13.3000002, "yes": 13, "no": 14, "missing": 14, "children": [{"nodeid": 13, "leaf": -0.10829778}, {"nodeid": 14, "leaf": 0.0022124534}]}]}]}, {"nodeid": 0, "depth": 0, "split": "dayOfWeek", "split_condition": 1, "yes": 1, "no": 2, "missing": 2, "children": [{"nodeid": 1, "depth": 1, "split": "hMacdHistDelta1", "split_condition": -0.0399999991, "yes": 3, "no": 4, "missing": 4, "children": [{"nodeid": 3, "depth": 2, "split": "atrPercent", "split_condition": 1.45140004, "yes": 7, "no": 8, "missing": 8, "children": [{"nodeid": 7, "leaf": 0.112534478}, {"nodeid": 8, "leaf": 0.0330766663}]}, {"nodeid": 4, "depth": 2, "split": "hRsiDelta1", "split_condition": -1.61000001, "yes": 9, "no": 10, "missing": 10, "children": [{"nodeid": 9, "leaf": -0.045707088}, {"nodeid": 10, "leaf": 0.024035491}]}]}, {"nodeid": 2, "depth": 1, "split": "vpVAWidth", "split_condition": 2.97449994, "yes": 5, "no": 6, "missing": 6, "children": [{"nodeid": 5, "depth": 2, "split": "eStochK", "split_condition": 53.4000015, "yes": 11, "no": 12, "missing": 12, "children": [{"nodeid": 11, "leaf": 0.105720304}, {"nodeid": 12, "leaf": 0.0590668619}]}, {"nodeid": 6, "depth": 2, "split": "hAdx", "split_condition": 58.4000015, "yes": 13, "no": 14, "missing": 14, "children": [{"nodeid": 13, "leaf": -0.00571326166}, {"nodeid": 14, "leaf": -0.0794981867}]}]}]}, {"nodeid": 0, "depth": 0, "split": "eMacdHist", "split_condition": 6.57000017, "yes": 1, "no": 2, "missing": 2, "children": [{"nodeid": 1, "depth": 1, "split": "eStochK", "split_condition": 14.1000004, "yes": 3, "no": 4, "missing": 4, "children": [{"nodeid": 3, "depth": 2, "split": "hBBBandwidth", "split_condition": 2.36919999, "yes": 7, "no": 8, "missing": 8, "children": [{"nodeid": 7, "leaf": 0.0975278616}, {"nodeid": 8, "leaf": -0.0206594821}]}, {"nodeid": 4, "depth": 2, "split": "hVolumeRatio", "split_condition": 0.819999993, "yes": 9, "no": 10, "missing": 10, "children": [{"nodeid": 9, "leaf": 0.000820512243}, {"nodeid": 10, "leaf": 0.0222871695}]}]}, {"nodeid": 2, "depth": 1, "split": "vix", "split_condition": 17.5, "yes": 5, "no": 6, "missing": 6, "children": [{"nodeid": 5, "depth": 2, "split": "hAdx", "split_condition": 25.2999992, "yes": 11, "no": 12, "missing": 12, "children": [{"nodeid": 11, "leaf": 0.0014101651}, {"nodeid": 12, "leaf": -0.0972760543}]}, {"nodeid": 6, "depth": 2, "split": "dayOfWeek", "split_condition": 5, "yes": 13, "no": 14, "missing": 14, "children": [{"nodeid": 13, "leaf": 0.0131380055}, {"nodeid": 14, "leaf": -0.0552039221}]}]}]}, {"nodeid": 0, "depth": 0, "split": "hVolumeRatio", "split_condition": 0.319999993, "yes": 1, "no": 2, "missing": 2, "children": [{"nodeid": 1, "depth": 1, "split": "dStructBear", "split_condition": 1, "yes": 3, "no": 4, "missing": 4, "children": [{"nodeid": 3, "depth": 2, "split": "hBBPercentB", "split_condition": 0.451000005, "yes": 7, "no": 8, "missing": 8, "children": [{"nodeid": 7, "leaf": -0.0600170493}, {"nodeid": 8, "leaf": 0.0197574589}]}, {"nodeid": 4, "depth": 2, "split": "vpDistToVAL_ATR", "split_condition": 1.31930006, "yes": 9, "no": 10, "missing": 10, "children": [{"nodeid": 9, "leaf": -0.0469561182}, {"nodeid": 10, "leaf": -0.135485515}]}]}, {"nodeid": 2, "depth": 1, "split": "dVolumeRatio", "split_condition": 0.560000002, "yes": 5, "no": 6, "missing": 6, "children": [{"nodeid": 5, "depth": 2, "split": "dRsiDelta", "split_condition": -1.42999995, "yes": 11, "no": 12, "missing": 12, "children": [{"nodeid": 11, "leaf": -0.0158402678}, {"nodeid": 12, "leaf": 0.0406969041}]}, {"nodeid": 6, "depth": 2, "split": "hBBPercentB", "split_condition": 0.0979000032, "yes": 13, "no": 14, "missing": 14, "children": [{"nodeid": 13, "leaf": 0.0257283598}, {"nodeid": 14, "leaf": -0.0058865333}]}]}]}, {"nodeid": 0, "depth": 0, "split": "dayOfWeek", "split_condition": 5, "yes": 1, "no": 2, "missing": 2, "children": [{"nodeid": 1, "depth": 1, "split": "hMacdHistDelta", "split_condition": 0.0599999987, "yes": 3, "no": 4, "missing": 4, "children": [{"nodeid": 3, "depth": 2, "split": "hAdxDelta", "split_condition": -1.14999998, "yes": 7, "no": 8, "missing": 8, "children": [{"nodeid": 7, "leaf": -0.0173298623}, {"nodeid": 8, "leaf": 0.0145805329}]}, {"nodeid": 4, "depth": 2, "split": "dRsiDelta", "split_condition": -4.09000015, "yes": 9, "no": 10, "missing": 10, "children": [{"nodeid": 9, "leaf": -0.095790796}, {"nodeid": 10, "leaf": 0.0242513753}]}]}, {"nodeid": 2, "depth": 1, "split": "ethBtcRatio", "split_condition": 0.0541899987, "yes": 5, "no": 6, "missing": 6, "children": [{"nodeid": 5, "depth": 2, "split": "ethBtcRatio", "split_condition": 0.0535999984, "yes": 11, "no": 12, "missing": 12, "children": [{"nodeid": 11, "leaf": -0.0081343865}, {"nodeid": 12, "leaf": 0.115031257}]}, {"nodeid": 6, "depth": 2, "split": "dayOfWeek", "split_condition": 6, "yes": 13, "no": 14, "missing": 14, "children": [{"nodeid": 13, "leaf": -0.0538117588}, {"nodeid": 14, "leaf": -0.00202005333}]}]}]}, {"nodeid": 0, "depth": 0, "split": "hBBPercentB", "split_condition": 0.888199985, "yes": 1, "no": 2, "missing": 2, "children": [{"nodeid": 1, "depth": 1, "split": "dVolumeRatio", "split_condition": 0.930000007, "yes": 3, "no": 4, "missing": 4, "children": [{"nodeid": 3, "depth": 2, "split": "eMacdHist", "split_condition": 8.10999966, "yes": 7, "no": 8, "missing": 8, "children": [{"nodeid": 7, "leaf": 0.00748459948}, {"nodeid": 8, "leaf": -0.039426554}]}, {"nodeid": 4, "depth": 2, "split": "eStochK", "split_condition": 5.4000001, "yes": 9, "no": 10, "missing": 10, "children": [{"nodeid": 9, "leaf": -0.0563293472}, {"nodeid": 10, "leaf": -0.0117942197}]}]}, {"nodeid": 2, "depth": 1, "split": "vpDistToVAH_ATR", "split_condition": 3.98600006, "yes": 5, "no": 6, "missing": 6, "children": [{"nodeid": 5, "depth": 2, "split": "vpDistToVAL_ATR", "split_condition": 9.06729984, "yes": 11, "no": 12, "missing": 12, "children": [{"nodeid": 11, "leaf": -0.00671156636}, {"nodeid": 12, "leaf": 0.0462981127}]}, {"nodeid": 6, "depth": 2, "split": "scoreDivergence", "split_condition": 3, "yes": 13, "no": 14, "missing": 14, "children": [{"nodeid": 13, "leaf": 0.00250334945}, {"nodeid": 14, "leaf": 0.114019729}]}]}]}, {"nodeid": 0, "depth": 0, "split": "dayOfWeek", "split_condition": 5, "yes": 1, "no": 2, "missing": 2, "children": [{"nodeid": 1, "depth": 1, "split": "dAdx", "split_condition": 37.0999985, "yes": 3, "no": 4, "missing": 4, "children": [{"nodeid": 3, "depth": 2, "split": "atrPercent", "split_condition": 2.68980002, "yes": 7, "no": 8, "missing": 8, "children": [{"nodeid": 7, "leaf": 0.0215031635}, {"nodeid": 8, "leaf": -0.00454642298}]}, {"nodeid": 4, "depth": 2, "split": "vix", "split_condition": 18.2999992, "yes": 9, "no": 10, "missing": 10, "children": [{"nodeid": 9, "leaf": 0.00525746169}, {"nodeid": 10, "leaf": -0.0345695987}]}]}, {"nodeid": 2, "depth": 1, "split": "atrPercent", "split_condition": 1.8944, "yes": 5, "no": 6, "missing": 6, "children": [{"nodeid": 5, "depth": 2, "split": "vix", "split_condition": 13.6000004, "yes": 11, "no": 12, "missing": 12, "children": [{"nodeid": 11, "leaf": -0.0855587348}, {"nodeid": 12, "leaf": -0.0184432473}]}, {"nodeid": 6, "depth": 2, "split": "dMacdHist", "split_condition": -2.32999992, "yes": 13, "no": 14, "missing": 14, "children": [{"nodeid": 13, "leaf": -0.0433804803}, {"nodeid": 14, "leaf": 0.0141740469}]}]}]}, {"nodeid": 0, "depth": 0, "split": "hRsiAccel", "split_condition": -2.00999999, "yes": 1, "no": 2, "missing": 2, "children": [{"nodeid": 1, "depth": 1, "split": "dStochK", "split_condition": 57.9000015, "yes": 3, "no": 4, "missing": 4, "children": [{"nodeid": 3, "depth": 2, "split": "hBBPercentB", "split_condition": 0.352899998, "yes": 7, "no": 8, "missing": 8, "children": [{"nodeid": 7, "leaf": 0.0203907322}, {"nodeid": 8, "leaf": -0.0172452424}]}, {"nodeid": 4, "depth": 2, "split": "hMacdHist", "split_condition": -80.5299988, "yes": 9, "no": 10, "missing": 10, "children": [{"nodeid": 9, "leaf": -0.0925865993}, {"nodeid": 10, "leaf": 0.0307833999}]}]}, {"nodeid": 2, "depth": 1, "split": "dailyScore", "split_condition": 8, "yes": 5, "no": 6, "missing": 6, "children": [{"nodeid": 5, "depth": 2, "split": "hRsi", "split_condition": 70.4000015, "yes": 11, "no": 12, "missing": 12, "children": [{"nodeid": 11, "leaf": -0.00647892896}, {"nodeid": 12, "leaf": 0.0413764752}]}, {"nodeid": 6, "depth": 2, "split": "dAdxDelta", "split_condition": -0.860000014, "yes": 13, "no": 14, "missing": 14, "children": [{"nodeid": 13, "leaf": 0.0545613542}, {"nodeid": 14, "leaf": -0.0572580211}]}]}]}, {"nodeid": 0, "depth": 0, "split": "dayOfWeek", "split_condition": 1, "yes": 1, "no": 2, "missing": 2, "children": [{"nodeid": 1, "depth": 1, "split": "hMacdHistDelta1", "split_condition": -0.0299999993, "yes": 3, "no": 4, "missing": 4, "children": [{"nodeid": 3, "depth": 2, "split": "hStochK", "split_condition": 30.7999992, "yes": 7, "no": 8, "missing": 8, "children": [{"nodeid": 7, "leaf": 0.0210697427}, {"nodeid": 8, "leaf": 0.108969592}]}, {"nodeid": 4, "depth": 2, "split": "vpDistToVAH_ATR", "split_condition": 9.61919975, "yes": 9, "no": 10, "missing": 10, "children": [{"nodeid": 9, "leaf": -0.000903144595}, {"nodeid": 10, "leaf": 0.105076589}]}]}, {"nodeid": 2, "depth": 1, "split": "ethBtcDelta6", "split_condition": -2.82949996, "yes": 5, "no": 6, "missing": 6, "children": [{"nodeid": 5, "depth": 2, "split": "hRsiDelta", "split_condition": -14.1599998, "yes": 11, "no": 12, "missing": 12, "children": [{"nodeid": 11, "leaf": 0.0989308059}, {"nodeid": 12, "leaf": 0.0181956869}]}, {"nodeid": 6, "depth": 2, "split": "hAdxDelta", "split_condition": -10.4799995, "yes": 13, "no": 14, "missing": 14, "children": [{"nodeid": 13, "leaf": -0.0505422652}, {"nodeid": 14, "leaf": -0.00288464921}]}]}]}, {"nodeid": 0, "depth": 0, "split": "vpDistToVAH_ATR", "split_condition": 0.0340999998, "yes": 1, "no": 2, "missing": 2, "children": [{"nodeid": 1, "depth": 1, "split": "vpDistToVAL_ATR", "split_condition": 0.0186999999, "yes": 3, "no": 4, "missing": 4, "children": [{"nodeid": 3, "leaf": 0.103899799}, {"nodeid": 4, "depth": 2, "split": "eStochK", "split_condition": 14.1000004, "yes": 7, "no": 8, "missing": 8, "children": [{"nodeid": 7, "leaf": -0.0463622101}, {"nodeid": 8, "leaf": 0.00964851025}]}]}, {"nodeid": 2, "depth": 1, "split": "hMacdAccel", "split_condition": -0.00999999978, "yes": 5, "no": 6, "missing": 6, "children": [{"nodeid": 5, "depth": 2, "split": "dAdxDelta", "split_condition": -0.779999971, "yes": 9, "no": 10, "missing": 10, "children": [{"nodeid": 9, "leaf": 0.0303995758}, {"nodeid": 10, "leaf": -0.00285328575}]}, {"nodeid": 6, "depth": 2, "split": "dStochK", "split_condition": 6, "yes": 11, "no": 12, "missing": 12, "children": [{"nodeid": 11, "leaf": 0.0226416234}, {"nodeid": 12, "leaf": -0.0195092373}]}]}]}, {"nodeid": 0, "depth": 0, "split": "dayOfWeek", "split_condition": 3, "yes": 1, "no": 2, "missing": 2, "children": [{"nodeid": 1, "depth": 1, "split": "dAdxDelta", "split_condition": -1.42999995, "yes": 3, "no": 4, "missing": 4, "children": [{"nodeid": 3, "depth": 2, "split": "barsSinceRegimeChange", "split_condition": 75, "yes": 7, "no": 8, "missing": 8, "children": [{"nodeid": 7, "leaf": -0.00566308852}, {"nodeid": 8, "leaf": 0.0628479347}]}, {"nodeid": 4, "depth": 2, "split": "hMacdAccel", "split_condition": 0, "yes": 9, "no": 10, "missing": 10, "children": [{"nodeid": 9, "leaf": 0.0256643835}, {"nodeid": 10, "leaf": -0.00418082578}]}]}, {"nodeid": 2, "depth": 1, "split": "hRsiDelta1", "split_condition": 4.76999998, "yes": 5, "no": 6, "missing": 6, "children": [{"nodeid": 5, "depth": 2, "split": "hRsiAccel", "split_condition": 7.53999996, "yes": 11, "no": 12, "missing": 12, "children": [{"nodeid": 11, "leaf": -0.00612267759}, {"nodeid": 12, "leaf": 0.0510515682}]}, {"nodeid": 6, "depth": 2, "split": "ethBtcDelta6", "split_condition": -2.46300006, "yes": 13, "no": 14, "missing": 14, "children": [{"nodeid": 13, "leaf": 0.0913162008}, {"nodeid": 14, "leaf": -0.0529928617}]}]}]}, {"nodeid": 0, "depth": 0, "split": "hAdxDelta", "split_condition": -3.69000006, "yes": 1, "no": 2, "missing": 2, "children": [{"nodeid": 1, "depth": 1, "split": "dBBBandwidth", "split_condition": 36.4799004, "yes": 3, "no": 4, "missing": 4, "children": [{"nodeid": 3, "depth": 2, "split": "hMacdHistDelta1", "split_condition": 11.6499996, "yes": 7, "no": 8, "missing": 8, "children": [{"nodeid": 7, "leaf": -0.000595743652}, {"nodeid": 8, "leaf": -0.0811324641}]}, {"nodeid": 4, "depth": 2, "split": "dStochK", "split_condition": 85.9000015, "yes": 9, "no": 10, "missing": 10, "children": [{"nodeid": 9, "leaf": -0.0536056422}, {"nodeid": 10, "leaf": 0.0135783432}]}]}, {"nodeid": 2, "depth": 1, "split": "scoreDivergence", "split_condition": 1, "yes": 5, "no": 6, "missing": 6, "children": [{"nodeid": 5, "depth": 2, "split": "fearGreedIndex", "split_condition": 25, "yes": 11, "no": 12, "missing": 12, "children": [{"nodeid": 11, "leaf": 0.0394858718}, {"nodeid": 12, "leaf": -0.0401876569}]}, {"nodeid": 6, "depth": 2, "split": "dEmaCross", "split_condition": -1, "yes": 13, "no": 14, "missing": 14, "children": [{"nodeid": 13, "leaf": -0.0109680546}, {"nodeid": 14, "leaf": 0.0145374183}]}]}]}, {"nodeid": 0, "depth": 0, "split": "hVolumeRatio", "split_condition": 0.949999988, "yes": 1, "no": 2, "missing": 2, "children": [{"nodeid": 1, "depth": 1, "split": "atrPercent", "split_condition": 2.85890007, "yes": 3, "no": 4, "missing": 4, "children": [{"nodeid": 3, "depth": 2, "split": "dStochK", "split_condition": 12.8999996, "yes": 7, "no": 8, "missing": 8, "children": [{"nodeid": 7, "leaf": 0.0278189909}, {"nodeid": 8, "leaf": -0.00827370211}]}, {"nodeid": 4, "depth": 2, "split": "dBBBandwidth", "split_condition": 21.8507004, "yes": 9, "no": 10, "missing": 10, "children": [{"nodeid": 9, "leaf": -0.0755029246}, {"nodeid": 10, "leaf": -0.0187665969}]}]}, {"nodeid": 2, "depth": 1, "split": "vpDistToVAH_ATR", "split_condition": 6.46280003, "yes": 5, "no": 6, "missing": 6, "children": [{"nodeid": 5, "depth": 2, "split": "hStructBear", "split_condition": 1, "yes": 11, "no": 12, "missing": 12, "children": [{"nodeid": 11, "leaf": 0.0112122977}, {"nodeid": 12, "leaf": -0.0224535186}]}, {"nodeid": 6, "depth": 2, "split": "fearGreedIndex", "split_condition": 49, "yes": 13, "no": 14, "missing": 14, "children": [{"nodeid": 13, "leaf": 0.0308562424}, {"nodeid": 14, "leaf": 0.0928217247}]}]}]}, {"nodeid": 0, "depth": 0, "split": "eMacdHist", "split_condition": 6.57000017, "yes": 1, "no": 2, "missing": 2, "children": [{"nodeid": 1, "depth": 1, "split": "eMacdHist", "split_condition": 0.0199999996, "yes": 3, "no": 4, "missing": 4, "children": [{"nodeid": 3, "depth": 2, "split": "vpVAWidth", "split_condition": 2.97449994, "yes": 7, "no": 8, "missing": 8, "children": [{"nodeid": 7, "leaf": 0.0929305851}, {"nodeid": 8, "leaf": -0.00486069638}]}, {"nodeid": 4, "depth": 2, "split": "dBBBandwidth", "split_condition": 5.20959997, "yes": 9, "no": 10, "missing": 10, "children": [{"nodeid": 9, "leaf": -0.0906836241}, {"nodeid": 10, "leaf": 0.019575445}]}]}, {"nodeid": 2, "depth": 1, "split": "barsSinceRegimeChange", "split_condition": 100, "yes": 5, "no": 6, "missing": 6, "children": [{"nodeid": 5, "depth": 2, "split": "hStochK", "split_condition": 66.6999969, "yes": 11, "no": 12, "missing": 12, "children": [{"nodeid": 11, "leaf": -0.0856763944}, {"nodeid": 12, "leaf": -0.00964259449}]}, {"nodeid": 6, "depth": 2, "split": "ethBtcDelta6", "split_condition": 0.326099992, "yes": 13, "no": 14, "missing": 14, "children": [{"nodeid": 13, "leaf": 0.0449502021}, {"nodeid": 14, "leaf": -0.0431738459}]}]}]}, {"nodeid": 0, "depth": 0, "split": "hBBPercentB", "split_condition": 1.13590002, "yes": 1, "no": 2, "missing": 2, "children": [{"nodeid": 1, "depth": 1, "split": "hAdx", "split_condition": 13.1999998, "yes": 3, "no": 4, "missing": 4, "children": [{"nodeid": 3, "depth": 2, "split": "dStructBear", "split_condition": 1, "yes": 7, "no": 8, "missing": 8, "children": [{"nodeid": 7, "leaf": 0.0614156127}, {"nodeid": 8, "leaf": -0.0289973747}]}, {"nodeid": 4, "depth": 2, "split": "dBBBandwidth", "split_condition": 11.1588001, "yes": 9, "no": 10, "missing": 10, "children": [{"nodeid": 9, "leaf": -0.0246705972}, {"nodeid": 10, "leaf": -0.0004667264}]}]}, {"nodeid": 2, "depth": 1, "split": "hStochK", "split_condition": 94.6999969, "yes": 5, "no": 6, "missing": 6, "children": [{"nodeid": 5, "depth": 2, "split": "eRsi", "split_condition": 68.5, "yes": 11, "no": 12, "missing": 12, "children": [{"nodeid": 11, "leaf": 0.0824206397}, {"nodeid": 12, "leaf": -0.0577735677}]}, {"nodeid": 6, "depth": 2, "split": "hAdxDelta", "split_condition": -1.50999999, "yes": 13, "no": 14, "missing": 14, "children": [{"nodeid": 13, "leaf": 0.139502093}, {"nodeid": 14, "leaf": 0.0447018705}]}]}]}, {"nodeid": 0, "depth": 0, "split": "tfAlignment", "split_condition": 2, "yes": 1, "no": 2, "missing": 2, "children": [{"nodeid": 1, "depth": 1, "split": "vpDistToVAH_ATR", "split_condition": 0.0340999998, "yes": 3, "no": 4, "missing": 4, "children": [{"nodeid": 3, "depth": 2, "split": "vpDistToPocATR", "split_condition": 0.801299989, "yes": 7, "no": 8, "missing": 8, "children": [{"nodeid": 7, "leaf": 0.103485182}, {"nodeid": 8, "leaf": 0.0144663546}]}, {"nodeid": 4, "depth": 2, "split": "vpDistToVAL_ATR", "split_condition": 3.17210007, "yes": 9, "no": 10, "missing": 10, "children": [{"nodeid": 9, "leaf": -0.00861370843}, {"nodeid": 10, "leaf": 0.0148944771}]}]}, {"nodeid": 2, "depth": 1, "split": "hAdxDelta", "split_condition": 8.53999996, "yes": 5, "no": 6, "missing": 6, "children": [{"nodeid": 5, "depth": 2, "split": "hMacdAccel", "split_condition": -19.1399994, "yes": 11, "no": 12, "missing": 12, "children": [{"nodeid": 11, "leaf": -0.0990985185}, {"nodeid": 12, "leaf": -0.0189595781}]}, {"nodeid": 6, "depth": 2, "split": "dVolumeRatio", "split_condition": 1.5, "yes": 13, "no": 14, "missing": 14, "children": [{"nodeid": 13, "leaf": 0.0963121504}, {"nodeid": 14, "leaf": -0.00076916226}]}]}]}, {"nodeid": 0, "depth": 0, "split": "eMacdHist", "split_condition": 0.0199999996, "yes": 1, "no": 2, "missing": 2, "children": [{"nodeid": 1, "depth": 1, "split": "fearGreedIndex", "split_condition": 70, "yes": 3, "no": 4, "missing": 4, "children": [{"nodeid": 3, "depth": 2, "split": "hBBBandwidth", "split_condition": 1.94700003, "yes": 7, "no": 8, "missing": 8, "children": [{"nodeid": 7, "leaf": 0.0476006716}, {"nodeid": 8, "leaf": -0.0144963209}]}, {"nodeid": 4, "depth": 2, "split": "dailyScore", "split_condition": -2, "yes": 9, "no": 10, "missing": 10, "children": [{"nodeid": 9, "leaf": -0.0670277476}, {"nodeid": 10, "leaf": 0.0189412441}]}]}, {"nodeid": 2, "depth": 1, "split": "hMacdHist", "split_condition": 21.1800003, "yes": 5, "no": 6, "missing": 6, "children": [{"nodeid": 5, "depth": 2, "split": "dayOfWeek", "split_condition": 5, "yes": 11, "no": 12, "missing": 12, "children": [{"nodeid": 11, "leaf": 0.0259581804}, {"nodeid": 12, "leaf": -0.00339807803}]}, {"nodeid": 6, "depth": 2, "split": "hMacdHistDelta", "split_condition": 11.5900002, "yes": 13, "no": 14, "missing": 14, "children": [{"nodeid": 13, "leaf": -0.102985851}, {"nodeid": 14, "leaf": -0.00884908345}]}]}]}, {"nodeid": 0, "depth": 0, "split": "dayOfWeek", "split_condition": 5, "yes": 1, "no": 2, "missing": 2, "children": [{"nodeid": 1, "depth": 1, "split": "hBBBandwidth", "split_condition": 2.36919999, "yes": 3, "no": 4, "missing": 4, "children": [{"nodeid": 3, "depth": 2, "split": "eMacdHist", "split_condition": -0.0500000007, "yes": 7, "no": 8, "missing": 8, "children": [{"nodeid": 7, "leaf": 0.0975841284}, {"nodeid": 8, "leaf": 0.01361313}]}, {"nodeid": 4, "depth": 2, "split": "hVolumeRatio", "split_condition": 0.280000001, "yes": 9, "no": 10, "missing": 10, "children": [{"nodeid": 9, "leaf": -0.11975044}, {"nodeid": 10, "leaf": 0.00648172898}]}]}, {"nodeid": 2, "depth": 1, "split": "atrPercent", "split_condition": 2.37290001, "yes": 5, "no": 6, "missing": 6, "children": [{"nodeid": 5, "depth": 2, "split": "ethBtcRatio", "split_condition": 0.0315730013, "yes": 11, "no": 12, "missing": 12, "children": [{"nodeid": 11, "leaf": 0.0544334725}, {"nodeid": 12, "leaf": -0.0327419266}]}, {"nodeid": 6, "depth": 2, "split": "hBBPercentB", "split_condition": 0.352899998, "yes": 13, "no": 14, "missing": 14, "children": [{"nodeid": 13, "leaf": 0.0427870192}, {"nodeid": 14, "leaf": -0.00920241605}]}]}]}, {"nodeid": 0, "depth": 0, "split": "hBBSqueeze", "split_condition": 1, "yes": 1, "no": 2, "missing": 2, "children": [{"nodeid": 1, "depth": 1, "split": "eStochK", "split_condition": 5.4000001, "yes": 3, "no": 4, "missing": 4, "children": [{"nodeid": 3, "depth": 2, "split": "hRsiAccel", "split_condition": 8.01000023, "yes": 7, "no": 8, "missing": 8, "children": [{"nodeid": 7, "leaf": -0.0621689521}, {"nodeid": 8, "leaf": 0.0243362095}]}, {"nodeid": 4, "depth": 2, "split": "fearGreedIndex", "split_condition": 20, "yes": 9, "no": 10, "missing": 10, "children": [{"nodeid": 9, "leaf": 0.0328095667}, {"nodeid": 10, "leaf": -0.00333047286}]}]}, {"nodeid": 2, "depth": 1, "split": "dAdxDelta", "split_condition": -0.300000012, "yes": 5, "no": 6, "missing": 6, "children": [{"nodeid": 5, "depth": 2, "split": "hAdxDelta", "split_condition": -6.92999983, "yes": 11, "no": 12, "missing": 12, "children": [{"nodeid": 11, "leaf": 0.125450373}, {"nodeid": 12, "leaf": 0.0286071785}]}, {"nodeid": 6, "depth": 2, "split": "ethBtcDelta6", "split_condition": 0.496399999, "yes": 13, "no": 14, "missing": 14, "children": [{"nodeid": 13, "leaf": 0.0124391904}, {"nodeid": 14, "leaf": -0.0599346645}]}]}]}, {"nodeid": 0, "depth": 0, "split": "dStochK", "split_condition": 87, "yes": 1, "no": 2, "missing": 2, "children": [{"nodeid": 1, "depth": 1, "split": "dBBBandwidth", "split_condition": 11.2517996, "yes": 3, "no": 4, "missing": 4, "children": [{"nodeid": 3, "depth": 2, "split": "atrPercent", "split_condition": 0.984300017, "yes": 7, "no": 8, "missing": 8, "children": [{"nodeid": 7, "leaf": 0.0153443459}, {"nodeid": 8, "leaf": -0.0431807712}]}, {"nodeid": 4, "depth": 2, "split": "hAdxDelta", "split_condition": 4.61000013, "yes": 9, "no": 10, "missing": 10, "children": [{"nodeid": 9, "leaf": -0.0069312281}, {"nodeid": 10, "leaf": 0.0304058623}]}]}, {"nodeid": 2, "depth": 1, "split": "hMacdAccel", "split_condition": -1.00999999, "yes": 5, "no": 6, "missing": 6, "children": [{"nodeid": 5, "depth": 2, "split": "hStructBull", "split_condition": 1, "yes": 11, "no": 12, "missing": 12, "children": [{"nodeid": 11, "leaf": 0.0278266203}, {"nodeid": 12, "leaf": -0.080473572}]}, {"nodeid": 6, "depth": 2, "split": "ethBtcDelta6", "split_condition": -0.725399971, "yes": 13, "no": 14, "missing": 14, "children": [{"nodeid": 13, "leaf": -0.00140479405}, {"nodeid": 14, "leaf": 0.0449447967}]}]}]}, {"nodeid": 0, "depth": 0, "split": "dAdx", "split_condition": 18, "yes": 1, "no": 2, "missing": 2, "children": [{"nodeid": 1, "depth": 1, "split": "ethBtcDelta6", "split_condition": 0.764199972, "yes": 3, "no": 4, "missing": 4, "children": [{"nodeid": 3, "depth": 2, "split": "vpDistToPocATR", "split_condition": -2.17569995, "yes": 7, "no": 8, "missing": 8, "children": [{"nodeid": 7, "leaf": 0.0513632558}, {"nodeid": 8, "leaf": -0.00518173026}]}, {"nodeid": 4, "depth": 2, "split": "hBBPercentB", "split_condition": 0.2958, "yes": 9, "no": 10, "missing": 10, "children": [{"nodeid": 9, "leaf": -0.027016947}, {"nodeid": 10, "leaf": 0.067423746}]}]}, {"nodeid": 2, "depth": 1, "split": "hBBPercentB", "split_condition": 0.0979000032, "yes": 5, "no": 6, "missing": 6, "children": [{"nodeid": 5, "depth": 2, "split": "vpDistToVAH_ATR", "split_condition": 11.9224997, "yes": 11, "no": 12, "missing": 12, "children": [{"nodeid": 11, "leaf": 0.0147664053}, {"nodeid": 12, "leaf": 0.120543815}]}, {"nodeid": 6, "depth": 2, "split": "hMacdHistDelta", "split_condition": -0.779999971, "yes": 13, "no": 14, "missing": 14, "children": [{"nodeid": 13, "leaf": -0.0280867312}, {"nodeid": 14, "leaf": -0.000955971132}]}]}]}, {"nodeid": 0, "depth": 0, "split": "hBBPercentB", "split_condition": 1.13590002, "yes": 1, "no": 2, "missing": 2, "children": [{"nodeid": 1, "depth": 1, "split": "hAdx", "split_condition": 13.1999998, "yes": 3, "no": 4, "missing": 4, "children": [{"nodeid": 3, "depth": 2, "split": "vix", "split_condition": 25.6000004, "yes": 7, "no": 8, "missing": 8, "children": [{"nodeid": 7, "leaf": 0.0487376153}, {"nodeid": 8, "leaf": -0.0666419268}]}, {"nodeid": 4, "depth": 2, "split": "vix", "split_condition": 24.2000008, "yes": 9, "no": 10, "missing": 10, "children": [{"nodeid": 9, "leaf": -0.0076687471}, {"nodeid": 10, "leaf": 0.0131694591}]}]}, {"nodeid": 2, "depth": 1, "split": "dailyScore", "split_condition": 5, "yes": 5, "no": 6, "missing": 6, "children": [{"nodeid": 5, "depth": 2, "split": "scoreDivergence", "split_condition": 2, "yes": 11, "no": 12, "missing": 12, "children": [{"nodeid": 11, "leaf": 0.0268109087}, {"nodeid": 12, "leaf": 0.101634577}]}, {"nodeid": 6, "leaf": -0.0196446832}]}]}, {"nodeid": 0, "depth": 0, "split": "dVolumeRatio", "split_condition": 0.819999993, "yes": 1, "no": 2, "missing": 2, "children": [{"nodeid": 1, "depth": 1, "split": "dRsi", "split_condition": 38.9000015, "yes": 3, "no": 4, "missing": 4, "children": [{"nodeid": 3, "depth": 2, "split": "vix", "split_condition": 13.3999996, "yes": 7, "no": 8, "missing": 8, "children": [{"nodeid": 7, "leaf": -0.131564006}, {"nodeid": 8, "leaf": -0.0178612005}]}, {"nodeid": 4, "depth": 2, "split": "dRsiDelta", "split_condition": -5.67999983, "yes": 9, "no": 10, "missing": 10, "children": [{"nodeid": 9, "leaf": -0.0564331375}, {"nodeid": 10, "leaf": 0.0155117912}]}]}, {"nodeid": 2, "depth": 1, "split": "dStochK", "split_condition": 50.0999985, "yes": 5, "no": 6, "missing": 6, "children": [{"nodeid": 5, "depth": 2, "split": "tfAlignment", "split_condition": 2, "yes": 11, "no": 12, "missing": 12, "children": [{"nodeid": 11, "leaf": -0.0125008151}, {"nodeid": 12, "leaf": -0.0704583451}]}, {"nodeid": 6, "depth": 2, "split": "vpDistToVAL_ATR", "split_condition": 0.0186999999, "yes": 13, "no": 14, "missing": 14, "children": [{"nodeid": 13, "leaf": 0.0827405974}, {"nodeid": 14, "leaf": 0.000628661946}]}]}]}, {"nodeid": 0, "depth": 0, "split": "ethBtcRatio", "split_condition": 0.0546300001, "yes": 1, "no": 2, "missing": 2, "children": [{"nodeid": 1, "depth": 1, "split": "hAdxDelta", "split_condition": -10.0699997, "yes": 3, "no": 4, "missing": 4, "children": [{"nodeid": 3, "depth": 2, "split": "vix", "split_condition": 14.8999996, "yes": 7, "no": 8, "missing": 8, "children": [{"nodeid": 7, "leaf": -0.122567348}, {"nodeid": 8, "leaf": -0.0317841731}]}, {"nodeid": 4, "depth": 2, "split": "hMacdHist", "split_condition": 18.7199993, "yes": 9, "no": 10, "missing": 10, "children": [{"nodeid": 9, "leaf": 0.0181578901}, {"nodeid": 10, "leaf": -0.0402492173}]}]}, {"nodeid": 2, "depth": 1, "split": "dayOfWeek", "split_condition": 5, "yes": 5, "no": 6, "missing": 6, "children": [{"nodeid": 5, "depth": 2, "split": "hMacdHistDelta1", "split_condition": -0.439999998, "yes": 11, "no": 12, "missing": 12, "children": [{"nodeid": 11, "leaf": 0.0234147999}, {"nodeid": 12, "leaf": -0.00778340036}]}, {"nodeid": 6, "depth": 2, "split": "dayOfWeek", "split_condition": 6, "yes": 13, "no": 14, "missing": 14, "children": [{"nodeid": 13, "leaf": -0.0472733192}, {"nodeid": 14, "leaf": 0.001365192}]}]}]}, {"nodeid": 0, "depth": 0, "split": "dailyScore", "split_condition": 8, "yes": 1, "no": 2, "missing": 2, "children": [{"nodeid": 1, "depth": 1, "split": "dMacdHist", "split_condition": 0.25999999, "yes": 3, "no": 4, "missing": 4, "children": [{"nodeid": 3, "depth": 2, "split": "vpDistToVAH_ATR", "split_condition": 0.0340999998, "yes": 7, "no": 8, "missing": 8, "children": [{"nodeid": 7, "leaf": 0.0374043547}, {"nodeid": 8, "leaf": -0.00609305734}]}, {"nodeid": 4, "depth": 2, "split": "hRsiAccel", "split_condition": -8.85000038, "yes": 9, "no": 10, "missing": 10, "children": [{"nodeid": 9, "leaf": 0.0698898956}, {"nodeid": 10, "leaf": 0.0151933087}]}]}, {"nodeid": 2, "depth": 1, "split": "dAdxDelta", "split_condition": 2.36999989, "yes": 5, "no": 6, "missing": 6, "children": [{"nodeid": 5, "depth": 2, "split": "dStochK", "split_condition": 86.5, "yes": 11, "no": 12, "missing": 12, "children": [{"nodeid": 11, "leaf": -0.0341853164}, {"nodeid": 12, "leaf": 0.0453695022}]}, {"nodeid": 6, "depth": 2, "split": "dMacdHist", "split_condition": 0.870000005, "yes": 13, "no": 14, "missing": 14, "children": [{"nodeid": 13, "leaf": -0.0696159303}, {"nodeid": 14, "leaf": -0.1391294}]}]}]}, {"nodeid": 0, "depth": 0, "split": "eRsi", "split_condition": 38.7000008, "yes": 1, "no": 2, "missing": 2, "children": [{"nodeid": 1, "depth": 1, "split": "hBBPercentB", "split_condition": 0.0979000032, "yes": 3, "no": 4, "missing": 4, "children": [{"nodeid": 3, "depth": 2, "split": "hMacdAccel", "split_condition": 0.0599999987, "yes": 7, "no": 8, "missing": 8, "children": [{"nodeid": 7, "leaf": -0.0161652379}, {"nodeid": 8, "leaf": 0.0469411053}]}, {"nodeid": 4, "depth": 2, "split": "hBBPercentB", "split_condition": 0.42899999, "yes": 9, "no": 10, "missing": 10, "children": [{"nodeid": 9, "leaf": -0.0491450168}, {"nodeid": 10, "leaf": 0.0221750233}]}]}, {"nodeid": 2, "depth": 1, "split": "hBBPercentB", "split_condition": 0.261500001, "yes": 5, "no": 6, "missing": 6, "children": [{"nodeid": 5, "depth": 2, "split": "hRsiDelta1", "split_condition": 1.41999996, "yes": 11, "no": 12, "missing": 12, "children": [{"nodeid": 11, "leaf": 0.037979003}, {"nodeid": 12, "leaf": -0.03178408}]}, {"nodeid": 6, "depth": 2, "split": "vpVAWidth", "split_condition": 34.9352989, "yes": 13, "no": 14, "missing": 14, "children": [{"nodeid": 13, "leaf": 0.00394259719}, {"nodeid": 14, "leaf": -0.0294557754}]}]}]}, {"nodeid": 0, "depth": 0, "split": "vpDistToVAH_ATR", "split_condition": -2.69140005, "yes": 1, "no": 2, "missing": 2, "children": [{"nodeid": 1, "depth": 1, "split": "dMacdHist", "split_condition": 584.320007, "yes": 3, "no": 4, "missing": 4, "children": [{"nodeid": 3, "depth": 2, "split": "dAdx", "split_condition": 50.7000008, "yes": 7, "no": 8, "missing": 8, "children": [{"nodeid": 7, "leaf": 0.0526164137}, {"nodeid": 8, "leaf": -0.0378613137}]}, {"nodeid": 4, "leaf": -0.0793548897}]}, {"nodeid": 2, "depth": 1, "split": "tfAlignment", "split_condition": 2, "yes": 5, "no": 6, "missing": 6, "children": [{"nodeid": 5, "depth": 2, "split": "fourHScore", "split_condition": 1, "yes": 9, "no": 10, "missing": 10, "children": [{"nodeid": 9, "leaf": -0.00625935942}, {"nodeid": 10, "leaf": 0.0157839656}]}, {"nodeid": 6, "depth": 2, "split": "hAdx", "split_condition": 43.7000008, "yes": 11, "no": 12, "missing": 12, "children": [{"nodeid": 11, "leaf": -0.0247888137}, {"nodeid": 12, "leaf": 0.0440915488}]}]}]}, {"nodeid": 0, "depth": 0, "split": "atrPercent", "split_condition": 0.892499983, "yes": 1, "no": 2, "missing": 2, "children": [{"nodeid": 1, "depth": 1, "split": "hMacdAccel", "split_condition": -0.230000004, "yes": 3, "no": 4, "missing": 4, "children": [{"nodeid": 3, "depth": 2, "split": "isWeekend", "split_condition": 1, "yes": 7, "no": 8, "missing": 8, "children": [{"nodeid": 7, "leaf": -0.0958621353}, {"nodeid": 8, "leaf": 0.038017828}]}, {"nodeid": 4, "depth": 2, "split": "dAdx", "split_condition": 15.8000002, "yes": 9, "no": 10, "missing": 10, "children": [{"nodeid": 9, "leaf": -0.00224067806}, {"nodeid": 10, "leaf": 0.106633}]}]}, {"nodeid": 2, "depth": 1, "split": "dRsi", "split_condition": 43.2000008, "yes": 5, "no": 6, "missing": 6, "children": [{"nodeid": 5, "depth": 2, "split": "vpDistToVAH_ATR", "split_condition": 2.17190003, "yes": 11, "no": 12, "missing": 12, "children": [{"nodeid": 11, "leaf": 0.0907294676}, {"nodeid": 12, "leaf": -0.0213875454}]}, {"nodeid": 6, "depth": 2, "split": "vpDistToVAL_ATR", "split_condition": 0.0709000006, "yes": 13, "no": 14, "missing": 14, "children": [{"nodeid": 13, "leaf": 0.053191442}, {"nodeid": 14, "leaf": 0.00208628457}]}]}]}, {"nodeid": 0, "depth": 0, "split": "vpVAWidth", "split_condition": 32.0293007, "yes": 1, "no": 2, "missing": 2, "children": [{"nodeid": 1, "depth": 1, "split": "dMacdHist", "split_condition": 584.320007, "yes": 3, "no": 4, "missing": 4, "children": [{"nodeid": 3, "depth": 2, "split": "dEmaCross", "split_condition": -1, "yes": 7, "no": 8, "missing": 8, "children": [{"nodeid": 7, "leaf": -0.00786009897}, {"nodeid": 8, "leaf": 0.00905882381}]}, {"nodeid": 4, "depth": 2, "split": "dVolumeRatio", "split_condition": 1.09000003, "yes": 9, "no": 10, "missing": 10, "children": [{"nodeid": 9, "leaf": -0.0129912915}, {"nodeid": 10, "leaf": -0.120931923}]}]}, {"nodeid": 2, "depth": 1, "split": "eStochK", "split_condition": 9.60000038, "yes": 5, "no": 6, "missing": 6, "children": [{"nodeid": 5, "depth": 2, "split": "hAdxDelta", "split_condition": 1.22000003, "yes": 11, "no": 12, "missing": 12, "children": [{"nodeid": 11, "leaf": -0.105649173}, {"nodeid": 12, "leaf": -0.010156054}]}, {"nodeid": 6, "depth": 2, "split": "ethBtcDelta6", "split_condition": -3.45589995, "yes": 13, "no": 14, "missing": 14, "children": [{"nodeid": 13, "leaf": 0.0604772866}, {"nodeid": 14, "leaf": -0.0189912077}]}]}]}, {"nodeid": 0, "depth": 0, "split": "dVolumeRatio", "split_condition": 0.670000017, "yes": 1, "no": 2, "missing": 2, "children": [{"nodeid": 1, "depth": 1, "split": "dBBBandwidth", "split_condition": 7.8604002, "yes": 3, "no": 4, "missing": 4, "children": [{"nodeid": 3, "depth": 2, "split": "ethBtcDelta6", "split_condition": 0.0450999998, "yes": 7, "no": 8, "missing": 8, "children": [{"nodeid": 7, "leaf": 0.124643102}, {"nodeid": 8, "leaf": 0.00653368467}]}, {"nodeid": 4, "depth": 2, "split": "hVolumeRatio", "split_condition": 0.330000013, "yes": 9, "no": 10, "missing": 10, "children": [{"nodeid": 9, "leaf": -0.0474009775}, {"nodeid": 10, "leaf": 0.0142919114}]}]}, {"nodeid": 2, "depth": 1, "split": "dayOfWeek", "split_condition": 5, "yes": 5, "no": 6, "missing": 6, "children": [{"nodeid": 5, "depth": 2, "split": "vix", "split_condition": 12.6000004, "yes": 11, "no": 12, "missing": 12, "children": [{"nodeid": 11, "leaf": 0.0546966791}, {"nodeid": 12, "leaf": -0.00170755386}]}, {"nodeid": 6, "depth": 2, "split": "tfAlignment", "split_condition": 1, "yes": 13, "no": 14, "missing": 14, "children": [{"nodeid": 13, "leaf": -0.0429341011}, {"nodeid": 14, "leaf": -0.00299133337}]}]}]}, {"nodeid": 0, "depth": 0, "split": "hAdx", "split_condition": 13.1999998, "yes": 1, "no": 2, "missing": 2, "children": [{"nodeid": 1, "depth": 1, "split": "vix", "split_condition": 25.6000004, "yes": 3, "no": 4, "missing": 4, "children": [{"nodeid": 3, "depth": 2, "split": "dBBPercentB", "split_condition": 0.728500009, "yes": 7, "no": 8, "missing": 8, "children": [{"nodeid": 7, "leaf": 0.0714043006}, {"nodeid": 8, "leaf": -0.0211331621}]}, {"nodeid": 4, "leaf": -0.0498762503}]}, {"nodeid": 2, "depth": 1, "split": "dMacdHist", "split_condition": -654.070007, "yes": 5, "no": 6, "missing": 6, "children": [{"nodeid": 5, "depth": 2, "split": "eMacdHist", "split_condition": 29.9699993, "yes": 9, "no": 10, "missing": 10, "children": [{"nodeid": 9, "leaf": 0.0240883622}, {"nodeid": 10, "leaf": 0.101974227}]}, {"nodeid": 6, "depth": 2, "split": "eMacdHist", "split_condition": 34.0699997, "yes": 11, "no": 12, "missing": 12, "children": [{"nodeid": 11, "leaf": 0.000666924985}, {"nodeid": 12, "leaf": -0.0400869176}]}]}]}, {"nodeid": 0, "depth": 0, "split": "ethBtcDelta6", "split_condition": -2.82949996, "yes": 1, "no": 2, "missing": 2, "children": [{"nodeid": 1, "depth": 1, "split": "hRsiDelta", "split_condition": -10.9200001, "yes": 3, "no": 4, "missing": 4, "children": [{"nodeid": 3, "depth": 2, "split": "hRsiDelta1", "split_condition": -0.99000001, "yes": 7, "no": 8, "missing": 8, "children": [{"nodeid": 7, "leaf": 0.0349313468}, {"nodeid": 8, "leaf": 0.182044998}]}, {"nodeid": 4, "depth": 2, "split": "eStochK", "split_condition": 88.8000031, "yes": 9, "no": 10, "missing": 10, "children": [{"nodeid": 9, "leaf": 0.00209877384}, {"nodeid": 10, "leaf": 0.0917803496}]}]}, {"nodeid": 2, "depth": 1, "split": "dRsiDelta", "split_condition": -12.7299995, "yes": 5, "no": 6, "missing": 6, "children": [{"nodeid": 5, "depth": 2, "split": "hBBBandwidth", "split_condition": 13.9605999, "yes": 11, "no": 12, "missing": 12, "children": [{"nodeid": 11, "leaf": -0.151182204}, {"nodeid": 12, "leaf": -0.0293974411}]}, {"nodeid": 6, "depth": 2, "split": "hRsi", "split_condition": 39.5, "yes": 13, "no": 14, "missing": 14, "children": [{"nodeid": 13, "leaf": 0.0189853236}, {"nodeid": 14, "leaf": -0.00344920228}]}]}]}, {"nodeid": 0, "depth": 0, "split": "fourHScore", "split_condition": 9, "yes": 1, "no": 2, "missing": 2, "children": [{"nodeid": 1, "depth": 1, "split": "vpDistToVAL_ATR", "split_condition": 0.630900025, "yes": 3, "no": 4, "missing": 4, "children": [{"nodeid": 3, "depth": 2, "split": "vpDistToPocATR", "split_condition": -0.382400006, "yes": 7, "no": 8, "missing": 8, "children": [{"nodeid": 7, "leaf": 0.00199447712}, {"nodeid": 8, "leaf": 0.101989292}]}, {"nodeid": 4, "depth": 2, "split": "vix", "split_condition": 12, "yes": 9, "no": 10, "missing": 10, "children": [{"nodeid": 9, "leaf": -0.108724833}, {"nodeid": 10, "leaf": -0.00186624879}]}]}, {"nodeid": 2, "depth": 1, "split": "dAdx", "split_condition": 24.3999996, "yes": 5, "no": 6, "missing": 6, "children": [{"nodeid": 5, "leaf": 0.0153133525}, {"nodeid": 6, "leaf": 0.108782016}]}]}, {"nodeid": 0, "depth": 0, "split": "vpDistToVAL_ATR", "split_condition": -1.91820002, "yes": 1, "no": 2, "missing": 2, "children": [{"nodeid": 1, "depth": 1, "split": "hRsiAccel", "split_condition": 0.0399999991, "yes": 3, "no": 4, "missing": 4, "children": [{"nodeid": 3, "depth": 2, "split": "hStochK", "split_condition": 58.2999992, "yes": 7, "no": 8, "missing": 8, "children": [{"nodeid": 7, "leaf": 0.0400390662}, {"nodeid": 8, "leaf": 0.158074886}]}, {"nodeid": 4, "depth": 2, "split": "dailyScore", "split_condition": -3, "yes": 9, "no": 10, "missing": 10, "children": [{"nodeid": 9, "leaf": -0.0704906359}, {"nodeid": 10, "leaf": 0.0575778261}]}]}, {"nodeid": 2, "depth": 1, "split": "fearGreedIndex", "split_condition": 53, "yes": 5, "no": 6, "missing": 6, "children": [{"nodeid": 5, "depth": 2, "split": "dVolumeRatio", "split_condition": 0.330000013, "yes": 11, "no": 12, "missing": 12, "children": [{"nodeid": 11, "leaf": 0.087554872}, {"nodeid": 12, "leaf": -0.0107452292}]}, {"nodeid": 6, "depth": 2, "split": "atrPercentile", "split_condition": 72, "yes": 13, "no": 14, "missing": 14, "children": [{"nodeid": 13, "leaf": 0.0180504974}, {"nodeid": 14, "leaf": -0.00427974714}]}]}]}, {"nodeid": 0, "depth": 0, "split": "hMacdHistDelta", "split_condition": 0.0900000036, "yes": 1, "no": 2, "missing": 2, "children": [{"nodeid": 1, "depth": 1, "split": "vpVAWidth", "split_condition": 2.97449994, "yes": 3, "no": 4, "missing": 4, "children": [{"nodeid": 3, "leaf": 0.0881582126}, {"nodeid": 4, "depth": 2, "split": "hRsiAccel", "split_condition": 3.61999989, "yes": 7, "no": 8, "missing": 8, "children": [{"nodeid": 7, "leaf": -0.0130538242}, {"nodeid": 8, "leaf": 0.0074481233}]}]}, {"nodeid": 2, "depth": 1, "split": "dRsiDelta", "split_condition": -5.53000021, "yes": 5, "no": 6, "missing": 6, "children": [{"nodeid": 5, "leaf": -0.113082007}, {"nodeid": 6, "depth": 2, "split": "hBBBandwidth", "split_condition": 6.09959984, "yes": 9, "no": 10, "missing": 10, "children": [{"nodeid": 9, "leaf": 0.0274796039}, {"nodeid": 10, "leaf": 0.000959900673}]}]}]}, {"nodeid": 0, "depth": 0, "split": "atrPercent", "split_condition": 3.4986999, "yes": 1, "no": 2, "missing": 2, "children": [{"nodeid": 1, "depth": 1, "split": "dRsiDelta", "split_condition": -5.1500001, "yes": 3, "no": 4, "missing": 4, "children": [{"nodeid": 3, "depth": 2, "split": "hRsiAccel", "split_condition": 3.8499999, "yes": 7, "no": 8, "missing": 8, "children": [{"nodeid": 7, "leaf": -0.0506707095}, {"nodeid": 8, "leaf": 0.047331091}]}, {"nodeid": 4, "depth": 2, "split": "dAdxDelta", "split_condition": -1.38999999, "yes": 9, "no": 10, "missing": 10, "children": [{"nodeid": 9, "leaf": 0.0343811363}, {"nodeid": 10, "leaf": 0.00511165755}]}]}, {"nodeid": 2, "depth": 1, "split": "dAdxDelta", "split_condition": 1.33000004, "yes": 5, "no": 6, "missing": 6, "children": [{"nodeid": 5, "depth": 2, "split": "ethBtcRatio", "split_condition": 0.0739220008, "yes": 11, "no": 12, "missing": 12, "children": [{"nodeid": 11, "leaf": -0.0181929227}, {"nodeid": 12, "leaf": -0.0815526396}]}, {"nodeid": 6, "depth": 2, "split": "ethBtcRatio", "split_condition": 0.0526200011, "yes": 13, "no": 14, "missing": 14, "children": [{"nodeid": 13, "leaf": -0.0352387913}, {"nodeid": 14, "leaf": 0.0409559458}]}]}]}, {"nodeid": 0, "depth": 0, "split": "hBBPercentB", "split_condition": 0.0732999966, "yes": 1, "no": 2, "missing": 2, "children": [{"nodeid": 1, "depth": 1, "split": "hRsiAccel", "split_condition": 3.4000001, "yes": 3, "no": 4, "missing": 4, "children": [{"nodeid": 3, "depth": 2, "split": "barsSinceRegimeChange", "split_condition": 63, "yes": 7, "no": 8, "missing": 8, "children": [{"nodeid": 7, "leaf": -0.0409727171}, {"nodeid": 8, "leaf": 0.0402648039}]}, {"nodeid": 4, "depth": 2, "split": "hStochK", "split_condition": 4.5, "yes": 9, "no": 10, "missing": 10, "children": [{"nodeid": 9, "leaf": 0.128329724}, {"nodeid": 10, "leaf": 0.0237182248}]}]}, {"nodeid": 2, "depth": 1, "split": "fourHScore", "split_condition": -5, "yes": 5, "no": 6, "missing": 6, "children": [{"nodeid": 5, "depth": 2, "split": "hRsiAccel", "split_condition": -9.27999973, "yes": 11, "no": 12, "missing": 12, "children": [{"nodeid": 11, "leaf": 0.0683359727}, {"nodeid": 12, "leaf": -0.0427409038}]}, {"nodeid": 6, "depth": 2, "split": "tfAlignment", "split_condition": 2, "yes": 13, "no": 14, "missing": 14, "children": [{"nodeid": 13, "leaf": 0.00329789706}, {"nodeid": 14, "leaf": -0.0125270514}]}]}]}, {"nodeid": 0, "depth": 0, "split": "scoreDivergence", "split_condition": 1, "yes": 1, "no": 2, "missing": 2, "children": [{"nodeid": 1, "depth": 1, "split": "hAdxDelta", "split_condition": 0.709999979, "yes": 3, "no": 4, "missing": 4, "children": [{"nodeid": 3, "depth": 2, "split": "eMacdHist", "split_condition": -3.42000008, "yes": 7, "no": 8, "missing": 8, "children": [{"nodeid": 7, "leaf": 0.0449197702}, {"nodeid": 8, "leaf": -0.0484888181}]}, {"nodeid": 4, "depth": 2, "split": "dVolumeRatio", "split_condition": 0.970000029, "yes": 9, "no": 10, "missing": 10, "children": [{"nodeid": 9, "leaf": 0.0572166033}, {"nodeid": 10, "leaf": -0.0246084239}]}]}, {"nodeid": 2, "depth": 1, "split": "dAdx", "split_condition": 41.7000008, "yes": 5, "no": 6, "missing": 6, "children": [{"nodeid": 5, "depth": 2, "split": "fearGreedIndex", "split_condition": 20, "yes": 11, "no": 12, "missing": 12, "children": [{"nodeid": 11, "leaf": 0.0466120988}, {"nodeid": 12, "leaf": 0.00407110108}]}, {"nodeid": 6, "depth": 2, "split": "dStochK", "split_condition": 13.1999998, "yes": 13, "no": 14, "missing": 14, "children": [{"nodeid": 13, "leaf": 0.0435948521}, {"nodeid": 14, "leaf": -0.0287477355}]}]}]}, {"nodeid": 0, "depth": 0, "split": "atrPercent", "split_condition": 0.798900008, "yes": 1, "no": 2, "missing": 2, "children": [{"nodeid": 1, "depth": 1, "split": "hMacdAccel", "split_condition": -0.100000001, "yes": 3, "no": 4, "missing": 4, "children": [{"nodeid": 3, "depth": 2, "split": "hAdx", "split_condition": 21.2000008, "yes": 7, "no": 8, "missing": 8, "children": [{"nodeid": 7, "leaf": -0.103723429}, {"nodeid": 8, "leaf": 0.0520600751}]}, {"nodeid": 4, "depth": 2, "split": "hAdx", "split_condition": 18.6000004, "yes": 9, "no": 10, "missing": 10, "children": [{"nodeid": 9, "leaf": 0.133003026}, {"nodeid": 10, "leaf": 0.0379724279}]}]}, {"nodeid": 2, "depth": 1, "split": "vpVAWidth", "split_condition": 2.97449994, "yes": 5, "no": 6, "missing": 6, "children": [{"nodeid": 5, "leaf": 0.0927578956}, {"nodeid": 6, "depth": 2, "split": "vpDistToVAL_ATR", "split_condition": -3.44630003, "yes": 11, "no": 12, "missing": 12, "children": [{"nodeid": 11, "leaf": 0.0524505489}, {"nodeid": 12, "leaf": -0.00178838614}]}]}]}, {"nodeid": 0, "depth": 0, "split": "fearGreedIndex", "split_condition": 20, "yes": 1, "no": 2, "missing": 2, "children": [{"nodeid": 1, "depth": 1, "split": "hRsi", "split_condition": 38.0999985, "yes": 3, "no": 4, "missing": 4, "children": [{"nodeid": 3, "depth": 2, "split": "atrPercentile", "split_condition": 57, "yes": 7, "no": 8, "missing": 8, "children": [{"nodeid": 7, "leaf": 0.105165139}, {"nodeid": 8, "leaf": -0.0020094167}]}, {"nodeid": 4, "depth": 2, "split": "dRsiDelta", "split_condition": 1.75999999, "yes": 9, "no": 10, "missing": 10, "children": [{"nodeid": 9, "leaf": -0.0276757609}, {"nodeid": 10, "leaf": 0.0641129836}]}]}, {"nodeid": 2, "depth": 1, "split": "eRsi", "split_condition": 38.5, "yes": 5, "no": 6, "missing": 6, "children": [{"nodeid": 5, "depth": 2, "split": "dStochK", "split_condition": 90.1999969, "yes": 11, "no": 12, "missing": 12, "children": [{"nodeid": 11, "leaf": -0.0239354502}, {"nodeid": 12, "leaf": 0.0799579248}]}, {"nodeid": 6, "depth": 2, "split": "dStochK", "split_condition": 5.80000019, "yes": 13, "no": 14, "missing": 14, "children": [{"nodeid": 13, "leaf": 0.0332091115}, {"nodeid": 14, "leaf": -0.00116160919}]}]}]}, {"nodeid": 0, "depth": 0, "split": "dayOfWeek", "split_condition": 1, "yes": 1, "no": 2, "missing": 2, "children": [{"nodeid": 1, "depth": 1, "split": "hStochK", "split_condition": 3.5, "yes": 3, "no": 4, "missing": 4, "children": [{"nodeid": 3, "leaf": -0.0913427994}, {"nodeid": 4, "depth": 2, "split": "vpDistToVAH_ATR", "split_condition": 5.04290009, "yes": 7, "no": 8, "missing": 8, "children": [{"nodeid": 7, "leaf": 0.0100807613}, {"nodeid": 8, "leaf": 0.0647619292}]}]}, {"nodeid": 2, "depth": 1, "split": "eRsi", "split_condition": 26.7000008, "yes": 5, "no": 6, "missing": 6, "children": [{"nodeid": 5, "depth": 2, "split": "atrPercent", "split_condition": 1.55659997, "yes": 9, "no": 10, "missing": 10, "children": [{"nodeid": 9, "leaf": 0.134013265}, {"nodeid": 10, "leaf": 0.0297020972}]}, {"nodeid": 6, "depth": 2, "split": "dRsi", "split_condition": 54.7999992, "yes": 11, "no": 12, "missing": 12, "children": [{"nodeid": 11, "leaf": -0.0111507764}, {"nodeid": 12, "leaf": 0.0078378059}]}]}]}, {"nodeid": 0, "depth": 0, "split": "eStochK", "split_condition": 94.3000031, "yes": 1, "no": 2, "missing": 2, "children": [{"nodeid": 1, "depth": 1, "split": "dayOfWeek", "split_condition": 5, "yes": 3, "no": 4, "missing": 4, "children": [{"nodeid": 3, "depth": 2, "split": "hAdx", "split_condition": 13.6000004, "yes": 7, "no": 8, "missing": 8, "children": [{"nodeid": 7, "leaf": 0.0401031822}, {"nodeid": 8, "leaf": -0.0020001689}]}, {"nodeid": 4, "depth": 2, "split": "vix", "split_condition": 13, "yes": 9, "no": 10, "missing": 10, "children": [{"nodeid": 9, "leaf": -0.0791254491}, {"nodeid": 10, "leaf": -0.00897021871}]}]}, {"nodeid": 2, "depth": 1, "split": "dMacdHist", "split_condition": 0.00999999978, "yes": 5, "no": 6, "missing": 6, "children": [{"nodeid": 5, "depth": 2, "split": "dVolumeRatio", "split_condition": 0.610000014, "yes": 11, "no": 12, "missing": 12, "children": [{"nodeid": 11, "leaf": 0.0569948331}, {"nodeid": 12, "leaf": -0.0196874011}]}, {"nodeid": 6, "depth": 2, "split": "atrPercent", "split_condition": 1.66709995, "yes": 13, "no": 14, "missing": 14, "children": [{"nodeid": 13, "leaf": 0.109939747}, {"nodeid": 14, "leaf": 0.0294986404}]}]}]}, {"nodeid": 0, "depth": 0, "split": "hBBPercentB", "split_condition": 0.0979000032, "yes": 1, "no": 2, "missing": 2, "children": [{"nodeid": 1, "depth": 1, "split": "hStochCross", "split_condition": 1, "yes": 3, "no": 4, "missing": 4, "children": [{"nodeid": 3, "depth": 2, "split": "atrPercentile", "split_condition": 97, "yes": 7, "no": 8, "missing": 8, "children": [{"nodeid": 7, "leaf": 0.00730850874}, {"nodeid": 8, "leaf": 0.0904371738}]}, {"nodeid": 4, "depth": 2, "split": "fearGreedIndex", "split_condition": 44, "yes": 9, "no": 10, "missing": 10, "children": [{"nodeid": 9, "leaf": -0.00753004709}, {"nodeid": 10, "leaf": 0.125631988}]}]}, {"nodeid": 2, "depth": 1, "split": "eRsi", "split_condition": 37, "yes": 5, "no": 6, "missing": 6, "children": [{"nodeid": 5, "depth": 2, "split": "eMacdHist", "split_condition": -0.00999999978, "yes": 11, "no": 12, "missing": 12, "children": [{"nodeid": 11, "leaf": -0.0199774727}, {"nodeid": 12, "leaf": -0.0892743617}]}, {"nodeid": 6, "depth": 2, "split": "atrPercent", "split_condition": 4.08739996, "yes": 13, "no": 14, "missing": 14, "children": [{"nodeid": 13, "leaf": 0.00362770562}, {"nodeid": 14, "leaf": -0.0211299546}]}]}]}, {"nodeid": 0, "depth": 0, "split": "dBBBandwidth", "split_condition": 11.0194998, "yes": 1, "no": 2, "missing": 2, "children": [{"nodeid": 1, "depth": 1, "split": "dBBBandwidth", "split_condition": 8.86730003, "yes": 3, "no": 4, "missing": 4, "children": [{"nodeid": 3, "depth": 2, "split": "hBBPercentB", "split_condition": 0.669399977, "yes": 7, "no": 8, "missing": 8, "children": [{"nodeid": 7, "leaf": 0.0167503711}, {"nodeid": 8, "leaf": -0.0435707793}]}, {"nodeid": 4, "depth": 2, "split": "ethBtcDelta6", "split_condition": 0.353500009, "yes": 9, "no": 10, "missing": 10, "children": [{"nodeid": 9, "leaf": -0.0717914402}, {"nodeid": 10, "leaf": 0.0145010278}]}]}, {"nodeid": 2, "depth": 1, "split": "tfAlignment", "split_condition": 2, "yes": 5, "no": 6, "missing": 6, "children": [{"nodeid": 5, "depth": 2, "split": "vix", "split_condition": 12.6000004, "yes": 11, "no": 12, "missing": 12, "children": [{"nodeid": 11, "leaf": 0.0863432884}, {"nodeid": 12, "leaf": 0.00311976089}]}, {"nodeid": 6, "depth": 2, "split": "dRsi", "split_condition": 54.5, "yes": 13, "no": 14, "missing": 14, "children": [{"nodeid": 13, "leaf": -0.0891772285}, {"nodeid": 14, "leaf": -0.00921022054}]}]}]}, {"nodeid": 0, "depth": 0, "split": 