{"features": ["dRsi", "dMacdHist", "dAdx", "dAdxBullish", "dEmaCross", "dStackBull", "dStackBear", "dStructBull", "dStructBear", "dStochK", "dStochCross", "dMacdCross", "dDivergence", "dEma20Rising", "dBBPercentB", "dBBSqueeze", "dBBBandwidth", "dVolumeRatio", "dAboveVwap", "hRsi", "hMacdHist", "hAdx", "hAdxBullish", "hEmaCross", "hStackBull", "hStackBear", "hStructBull", "hStructBear", "hStochK", "hStochCross", "hMacdCross", "hDivergence", "hEma20Rising", "hBBPercentB", "hBBSqueeze", "hBBBandwidth", "hVolumeRatio", "hAboveVwap", "eRsi", "eEmaCross", "eStochK", "eMacdHist", "fundingSignal", "oiSignal", "takerSignal", "crowdingSignal", "derivativesCombined", "fundingRateRaw", "oiChangePct", "takerRatioRaw", "longPctRaw", "vix", "dxyAboveEma20", "volScalarML", "last3Green", "last3Red", "last3VolIncreasing", "obvRising", "adLineAccumulation", "atrPercent", "atrPercentile", "tfAlignment", "momentumAlignment", "structureAlignment", "dayOfWeek", "barsSinceRegimeChange", "regimeCode", "dRsiDelta", "dAdxDelta", "hRsiDelta", "hAdxDelta", "hMacdHistDelta", "fearGreedIndex", "fearGreedZone", "ethBtcRatio", "ethBtcDelta6", "basisPct", "basisExtreme", "fiftyTwoWeekPct", "distToFiftyTwoHigh", "gapPercent", "gapFilled", "gapDirectionAligned", "relStrengthVsSpy", "beta", "vixLevelCode", "isMarketHours", "vpDistToPocATR", "vpAbovePoc", "vpVAWidth", "vpInValueArea", "vpDistToVAH_ATR", "vpDistToVAL_ATR", "hRsiDelta1", "hMacdHistDelta1", "dRsiDelta1", "hRsiAccel", "hMacdAccel", "dAdxAccel", "hourBucket", "isWeekend", "volWeightedRsi", "hVolWeightedRsi", "atrExpansionRate", "fundingSlope"], "trees": [{"nodeid": 0, "depth": 0, "split": "dayOfWeek", "split_condition": 5, "yes": 1, "no": 2, "missing": 2, "children": [{"nodeid": 1, "depth": 1, "split": "tfAlignment", "split_condition": 2, "yes": 3, "no": 4, "missing": 4, "children": [{"nodeid": 3, "depth": 2, "split": "tfAlignment", "split_condition": -1, "yes": 7, "no": 8, "missing": 8, "children": [{"nodeid": 7, "depth": 3, "split": "relStrengthVsSpy", "split_condition": 0.0211999994, "yes": 15, "no": 16, "missing": 16, "children": [{"nodeid": 15, "leaf": 0.00300975912}, {"nodeid": 16, "leaf": -0.0344097055}]}, {"nodeid": 8, "depth": 3, "split": "relStrengthVsSpy", "split_condition": 0.0211999994, "yes": 17, "no": 18, "missing": 18, "children": [{"nodeid": 17, "leaf": 0.0611390956}, {"nodeid": 18, "leaf": 0.0261578858}]}]}, {"nodeid": 4, "depth": 2, "split": "relStrengthVsSpy", "split_condition": 2.41260004, "yes": 9, "no": 10, "missing": 10, "children": [{"nodeid": 9, "leaf": 0.0615323149}, {"nodeid": 10, "depth": 3, "split": "eStochK", "split_condition": 57.2000008, "yes": 19, "no": 20, "missing": 20, "children": [{"nodeid": 19, "leaf": -0.0467353575}, {"nodeid": 20, "leaf": -0.0103103574}]}]}]}, {"nodeid": 2, "depth": 1, "split": "ethBtcRatio", "split_condition": 0.0546710007, "yes": 5, "no": 6, "missing": 6, "children": [{"nodeid": 5, "depth": 2, "split": "relStrengthVsSpy", "split_condition": 0.0211999994, "yes": 11, "no": 12, "missing": 12, "children": [{"nodeid": 11, "depth": 3, "split": "dStochK", "split_condition": 23.1000004, "yes": 21, "no": 22, "missing": 22, "children": [{"nodeid": 21, "leaf": 0.0204865355}, {"nodeid": 22, "leaf": 0.0902573019}]}, {"nodeid": 12, "depth": 3, "split": "hStochK", "split_condition": 76.6999969, "yes": 23, "no": 24, "missing": 24, "children": [{"nodeid": 23, "leaf": -0.0264064576}, {"nodeid": 24, "leaf": 0.0181675833}]}]}, {"nodeid": 6, "depth": 2, "split": "dStochK", "split_condition": 91.0999985, "yes": 13, "no": 14, "missing": 14, "children": [{"nodeid": 13, "depth": 3, "split": "dayOfWeek", "split_condition": 6, "yes": 25, "no": 26, "missing": 26, "children": [{"nodeid": 25, "leaf": -0.0511867367}, {"nodeid": 26, "leaf": -0.0250332151}]}, {"nodeid": 14, "depth": 3, "split": "hDivergence", "split_condition": 0, "yes": 27, "no": 28, "missing": 28, "children": [{"nodeid": 27, "leaf": 0.0504922979}, {"nodeid": 28, "leaf": -0.0159285702}]}]}]}]}, {"nodeid": 0, "depth": 0, "split": "tfAlignment", "split_condition": 2, "yes": 1, "no": 2, "missing": 2, "children": [{"nodeid": 1, "depth": 1, "split": "gapDirectionAligned", "split_condition": 0.0399999991, "yes": 3, "no": 4, "missing": 4, "children": [{"nodeid": 3, "depth": 2, "split": "relStrengthVsSpy", "split_condition": 2.59200001, "yes": 7, "no": 8, "missing": 8, "children": [{"nodeid": 7, "leaf": 0.0972333923}, {"nodeid": 8, "depth": 3, "split": "hVolWeightedRsi", "split_condition": 96.9599991, "yes": 13, "no": 14, "missing": 14, "children": [{"nodeid": 13, "leaf": 0.0212872196}, {"nodeid": 14, "leaf": 0.0696671456}]}]}, {"nodeid": 4, "depth": 2, "split": "tfAlignment", "split_condition": -1, "yes": 9, "no": 10, "missing": 10, "children": [{"nodeid": 9, "depth": 3, "split": "hRsi", "split_condition": 38.0999985, "yes": 15, "no": 16, "missing": 16, "children": [{"nodeid": 15, "leaf": -0.016104551}, {"nodeid": 16, "leaf": -0.0423444211}]}, {"nodeid": 10, "depth": 3, "split": "hVolWeightedRsi", "split_condition": 29.25, "yes": 17, "no": 18, "missing": 18, "children": [{"nodeid": 17, "leaf": -0.00466544693}, {"nodeid": 18, "leaf": 0.0198565256}]}]}]}, {"nodeid": 2, "depth": 1, "split": "relStrengthVsSpy", "split_condition": 0.0211999994, "yes": 5, "no": 6, "missing": 6, "children": [{"nodeid": 5, "leaf": 0.0853681192}, {"nodeid": 6, "depth": 2, "split": "eRsi", "split_condition": 59.7999992, "yes": 11, "no": 12, "missing": 12, "children": [{"nodeid": 11, "depth": 3, "split": "hRsiDelta", "split_condition": -10.5100002, "yes": 19, "no": 20, "missing": 20, "children": [{"nodeid": 19, "leaf": -0.0237975679}, {"nodeid": 20, "leaf": -0.0509924404}]}, {"nodeid": 12, "depth": 3, "split": "fundingSlope", "split_condition": -0.00750900013, "yes": 21, "no": 22, "missing": 22, "children": [{"nodeid": 21, "leaf": -0.0267470069}, {"nodeid": 22, "leaf": 0.0142023135}]}]}]}]}, {"nodeid": 0, "depth": 0, "split": "dayOfWeek", "split_condition": 5, "yes": 1, "no": 2, "missing": 2, "children": [{"nodeid": 1, "depth": 1, "split": "dBBBandwidth", "split_condition": 35.5783005, "yes": 3, "no": 4, "missing": 4, "children": [{"nodeid": 3, "depth": 2, "split": "gapDirectionAligned", "split_condition": 0.0399999991, "yes": 7, "no": 8, "missing": 8, "children": [{"nodeid": 7, "depth": 3, "split": "gapDirectionAligned", "split_condition": 0, "yes": 15, "no": 16, "missing": 16, "children": [{"nodeid": 15, "leaf": 0.0136309685}, {"nodeid": 16, "leaf": 0.0876448601}]}, {"nodeid": 8, "depth": 3, "split": "dAdx", "split_condition": 20.2000008, "yes": 17, "no": 18, "missing": 18, "children": [{"nodeid": 17, "leaf": 0.0256193317}, {"nodeid": 18, "leaf": 0.0023137962}]}]}, {"nodeid": 4, "depth": 2, "split": "hBBPercentB", "split_condition": 0.833899975, "yes": 9, "no": 10, "missing": 10, "children": [{"nodeid": 9, "depth": 3, "split": "vpDistToPocATR", "split_condition": -10.6999998, "yes": 19, "no": 20, "missing": 20, "children": [{"nodeid": 19, "leaf": 0.0441056602}, {"nodeid": 20, "leaf": -0.0258616898}]}, {"nodeid": 10, "depth": 3, "split": "hBBPercentB", "split_condition": 1.03610003, "yes": 21, "no": 22, "missing": 22, "children": [{"nodeid": 21, "leaf": 0.00277714967}, {"nodeid": 22, "leaf": 0.0432316177}]}]}]}, {"nodeid": 2, "depth": 1, "split": "gapDirectionAligned", "split_condition": 0.126699999, "yes": 5, "no": 6, "missing": 6, "children": [{"nodeid": 5, "depth": 2, "split": "gapDirectionAligned", "split_condition": 0, "yes": 11, "no": 12, "missing": 12, "children": [{"nodeid": 11, "depth": 3, "split": "dAdx", "split_condition": 17.2000008, "yes": 23, "no": 24, "missing": 24, "children": [{"nodeid": 23, "leaf": 0.0442612655}, {"nodeid": 24, "leaf": -0.0252288319}]}, {"nodeid": 12, "depth": 3, "split": "atrExpansionRate", "split_condition": -0.068599999, "yes": 25, "no": 26, "missing": 26, "children": [{"nodeid": 25, "leaf": 0.0374685898}, {"nodeid": 26, "leaf": 0.087132059}]}]}, {"nodeid": 6, "depth": 2, "split": "dayOfWeek", "split_condition": 6, "yes": 13, "no": 14, "missing": 14, "children": [{"nodeid": 13, "depth": 3, "split": "hVolumeRatio", "split_condition": 1.42999995, "yes": 27, "no": 28, "missing": 28, "children": [{"nodeid": 27, "leaf": -0.0571339205}, {"nodeid": 28, "leaf": 0.00899912789}]}, {"nodeid": 14, "depth": 3, "split": "dBBBandwidth", "split_condition": 7.87279987, "yes": 29, "no": 30, "missing": 30, "children": [{"nodeid": 29, "leaf": 0.0369852744}, {"nodeid": 30, "leaf": -0.0320305191}]}]}]}]}, {"nodeid": 0, "depth": 0, "split": "relStrengthVsSpy", "split_condition": 0.0639000013, "yes": 1, "no": 2, "missing": 2, "children": [{"nodeid": 1, "depth": 1, "split": "fiftyTwoWeekPct", "split_condition": -0.515900016, "yes": 3, "no": 4, "missing": 4, "children": [{"nodeid": 3, "depth": 2, "split": "relStrengthVsSpy", "split_condition": -2.20160007, "yes": 7, "no": 8, "missing": 8, "children": [{"nodeid": 7, "depth": 3, "split": "fearGreedIndex", "split_condition": 20, "yes": 13, "no": 14, "missing": 14, "children": [{"nodeid": 13, "leaf": 0.051172968}, {"nodeid": 14, "leaf": 5.15823103e-06}]}, {"nodeid": 8, "depth": 3, "split": "dRsi", "split_condition": 44.5999985, "yes": 15, "no": 16, "missing": 16, "children": [{"nodeid": 15, "leaf": -0.024654096}, {"nodeid": 16, "leaf": 0.0232400689}]}]}, {"nodeid": 4, "leaf": 0.0897696391}]}, {"nodeid": 2, "depth": 1, "split": "dRsi", "split_condition": 43.2999992, "yes": 5, "no": 6, "missing": 6, "children": [{"nodeid": 5, "depth": 2, "split": "hRsi", "split_condition": 56.0999985, "yes": 9, "no": 10, "missing": 10, "children": [{"nodeid": 9, "depth": 3, "split": "atrPercent", "split_condition": 0.819100022, "yes": 17, "no": 18, "missing": 18, "children": [{"nodeid": 17, "leaf": 0.0247778539}, {"nodeid": 18, "leaf": -0.03228724}]}, {"nodeid": 10, "depth": 3, "split": "atrPercent", "split_condition": 2.44899988, "yes": 19, "no": 20, "missing": 20, "children": [{"nodeid": 19, "leaf": 0.0453983992}, {"nodeid": 20, "leaf": -0.0104351128}]}]}, {"nodeid": 6, "depth": 2, "split": "atrPercentile", "split_condition": 9, "yes": 11, "no": 12, "missing": 12, "children": [{"nodeid": 11, "depth": 3, "split": "relStrengthVsSpy", "split_condition": 3.5875001, "yes": 21, "no": 22, "missing": 22, "children": [{"nodeid": 21, "leaf": 0.00113915373}, {"nodeid": 22, "leaf": 0.0332608111}]}, {"nodeid": 12, "depth": 3, "split": "dRsi", "split_condition": 58.2000008, "yes": 23, "no": 24, "missing": 24, "children": [{"nodeid": 23, "leaf": 0.00361625408}, {"nodeid": 24, "leaf": -0.0191943198}]}]}]}]}, {"nodeid": 0, "depth": 0, "split": "dayOfWeek", "split_condition": 5, "yes": 1, "no": 2, "missing": 2, "children": [{"nodeid": 1, "depth": 1, "split": "tfAlignment", "split_condition": 2, "yes": 3, "no": 4, "missing": 4, "children": [{"nodeid": 3, "depth": 2, "split": "tfAlignment", "split_condition": -1, "yes": 7, "no": 8, "missing": 8, "children": [{"nodeid": 7, "depth": 3, "split": "gapDirectionAligned", "split_condition": 0.0399999991, "yes": 15, "no": 16, "missing": 16, "children": [{"nodeid": 15, "leaf": 0.0823361501}, {"nodeid": 16, "leaf": -0.0264388323}]}, {"nodeid": 8, "depth": 3, "split": "gapDirectionAligned", "split_condition": 0.0399999991, "yes": 17, "no": 18, "missing": 18, "children": [{"nodeid": 17, "leaf": 0.0529770963}, {"nodeid": 18, "leaf": 0.0238875989}]}]}, {"nodeid": 4, "depth": 2, "split": "gapDirectionAligned", "split_condition": 0.0759000033, "yes": 9, "no": 10, "missing": 10, "children": [{"nodeid": 9, "depth": 3, "split": "fiftyTwoWeekPct", "split_condition": 1.04369998, "yes": 19, "no": 20, "missing": 20, "children": [{"nodeid": 19, "leaf": 0.0545923896}, {"nodeid": 20, "leaf": -0.0182998385}]}, {"nodeid": 10, "depth": 3, "split": "eStochK", "split_condition": 80.1999969, "yes": 21, "no": 22, "missing": 22, "children": [{"nodeid": 21, "leaf": -0.0481543094}, {"nodeid": 22, "leaf": -0.00616292981}]}]}]}, {"nodeid": 2, "depth": 1, "split": "gapDirectionAligned", "split_condition": 0.126699999, "yes": 5, "no": 6, "missing": 6, "children": [{"nodeid": 5, "depth": 2, "split": "fiftyTwoWeekPct", "split_condition": 0.376700014, "yes": 11, "no": 12, "missing": 12, "children": [{"nodeid": 11, "leaf": 0.0827571973}, {"nodeid": 12, "depth": 3, "split": "hVolWeightedRsi", "split_condition": 42.5449982, "yes": 23, "no": 24, "missing": 24, "children": [{"nodeid": 23, "leaf": -0.0383068211}, {"nodeid": 24, "leaf": 0}]}]}, {"nodeid": 6, "depth": 2, "split": "dayOfWeek", "split_condition": 6, "yes": 13, "no": 14, "missing": 14, "children": [{"nodeid": 13, "depth": 3, "split": "vix", "split_condition": 30.1000004, "yes": 25, "no": 26, "missing": 26, "children": [{"nodeid": 25, "leaf": -0.0508241169}, {"nodeid": 26, "leaf": -0.00164188014}]}, {"nodeid": 14, "depth": 3, "split": "hBBBandwidth", "split_condition": 3.56019998, "yes": 27, "no": 28, "missing": 28, "children": [{"nodeid": 27, "leaf": 0.0102460934}, {"nodeid": 28, "leaf": -0.0322691463}]}]}]}]}, {"nodeid": 0, "depth": 0, "split": "tfAlignment", "split_condition": -1, "yes": 1, "no": 2, "missing": 2, "children": [{"nodeid": 1, "depth": 1, "split": "ethBtcRatio", "split_condition": 0.0602889992, "yes": 3, "no": 4, "missing": 4, "children": [{"nodeid": 3, "depth": 2, "split": "hStackBear", "split_condition": 1, "yes": 7, "no": 8, "missing": 8, "children": [{"nodeid": 7, "leaf": 0.0413022749}, {"nodeid": 8, "depth": 3, "split": "dBBBandwidth", "split_condition": 54.9990997, "yes": 15, "no": 16, "missing": 16, "children": [{"nodeid": 15, "leaf": 0}, {"nodeid": 16, "leaf": -0.0559559278}]}]}, {"nodeid": 4, "depth": 2, "split": "vpDistToVAH_ATR", "split_condition": 1, "yes": 9, "no": 10, "missing": 10, "children": [{"nodeid": 9, "depth": 3, "split": "atrPercentile", "split_condition": 57, "yes": 17, "no": 18, "missing": 18, "children": [{"nodeid": 17, "leaf": -0.0320478864}, {"nodeid": 18, "leaf": -0.0707961172}]}, {"nodeid": 10, "depth": 3, "split": "hRsiDelta", "split_condition": -8.77000046, "yes": 19, "no": 20, "missing": 20, "children": [{"nodeid": 19, "leaf": 0.0406574681}, {"nodeid": 20, "leaf": -0.0213293936}]}]}]}, {"nodeid": 2, "depth": 1, "split": "tfAlignment", "split_condition": 2, "yes": 5, "no": 6, "missing": 6, "children": [{"nodeid": 5, "depth": 2, "split": "fiftyTwoWeekPct", "split_condition": 0, "yes": 11, "no": 12, "missing": 12, "children": [{"nodeid": 11, "depth": 3, "split": "hVolumeRatio", "split_condition": 0.370000005, "yes": 21, "no": 22, "missing": 22, "children": [{"nodeid": 21, "leaf": -0.0309428629}, {"nodeid": 22, "leaf": 0.0108890152}]}, {"nodeid": 12, "depth": 3, "split": "fiftyTwoWeekPct", "split_condition": 0.0247000009, "yes": 23, "no": 24, "missing": 24, "children": [{"nodeid": 23, "leaf": 0.0800358206}, {"nodeid": 24, "leaf": 0.0174474791}]}]}, {"nodeid": 6, "depth": 2, "split": "dBBPercentB", "split_condition": 1.03509998, "yes": 13, "no": 14, "missing": 14, "children": [{"nodeid": 13, "depth": 3, "split": "fiftyTwoWeekPct", "split_condition": 0.280000001, "yes": 25, "no": 26, "missing": 26, "children": [{"nodeid": 25, "leaf": -0.010716809}, {"nodeid": 26, "leaf": -0.0365397707}]}, {"nodeid": 14, "depth": 3, "split": "fiftyTwoWeekPct", "split_condition": 8.69869995, "yes": 27, "no": 28, "missing": 28, "children": [{"nodeid": 27, "leaf": -0.0105093895}, {"nodeid": 28, "leaf": 0.0382081382}]}]}]}]}, {"nodeid": 0, "depth": 0, "split": "gapDirectionAligned", "split_condition": 0.0399999991, "yes": 1, "no": 2, "missing": 2, "children": [{"nodeid": 1, "depth": 1, "split": "relStrengthVsSpy", "split_condition": 0.0211999994, "yes": 3, "no": 4, "missing": 4, "children": [{"nodeid": 3, "leaf": 0.0821160898}, {"nodeid": 4, "depth": 2, "split": "hVolWeightedRsi", "split_condition": 89.8379974, "yes": 7, "no": 8, "missing": 8, "children": [{"nodeid": 7, "depth": 3, "split": "dStackBear", "split_condition": 1, "yes": 13, "no": 14, "missing": 14, "children": [{"nodeid": 13, "leaf": -0.0169422235}, {"nodeid": 14, "leaf": 0.0152075812}]}, {"nodeid": 8, "depth": 3, "split": "eMacdHist", "split_condition": 0.00999999978, "yes": 15, "no": 16, "missing": 16, "children": [{"nodeid": 15, "leaf": 0.0124793835}, {"nodeid": 16, "leaf": 0.0534182303}]}]}]}, {"nodeid": 2, "depth": 1, "split": "atrExpansionRate", "split_condition": -0.0798000023, "yes": 5, "no": 6, "missing": 6, "children": [{"nodeid": 5, "depth": 2, "split": "dRsi", "split_condition": 41.2000008, "yes": 9, "no": 10, "missing": 10, "children": [{"nodeid": 9, "depth": 3, "split": "vix", "split_condition": 24.6000004, "yes": 17, "no": 18, "missing": 18, "children": [{"nodeid": 17, "leaf": -0.057098031}, {"nodeid": 18, "leaf": -0.0230744183}]}, {"nodeid": 10, "depth": 3, "split": "hStackBull", "split_condition": 1, "yes": 19, "no": 20, "missing": 20, "children": [{"nodeid": 19, "leaf": -0.00683634961}, {"nodeid": 20, "leaf": -0.0395145305}]}]}, {"nodeid": 6, "depth": 2, "split": "hVolWeightedRsi", "split_condition": 18.3840008, "yes": 11, "no": 12, "missing": 12, "children": [{"nodeid": 11, "depth": 3, "split": "dRsiDelta", "split_condition": 0.629999995, "yes": 21, "no": 22, "missing": 22, "children": [{"nodeid": 21, "leaf": -0.012882798}, {"nodeid": 22, "leaf": -0.0644899309}]}, {"nodeid": 12, "depth": 3, "split": "dRsi", "split_condition": 57.5999985, "yes": 23, "no": 24, "missing": 24, "children": [{"nodeid": 23, "leaf": 0.00283112354}, {"nodeid": 24, "leaf": -0.0161913354}]}]}]}]}, {"nodeid": 0, "depth": 0, "split": "dayOfWeek", "split_condition": 5, "yes": 1, "no": 2, "missing": 2, "children": [{"nodeid": 1, "depth": 1, "split": "dBBBandwidth", "split_condition": 35.5783005, "yes": 3, "no": 4, "missing": 4, "children": [{"nodeid": 3, "depth": 2, "split": "relStrengthVsSpy", "split_condition": 0.0211999994, "yes": 7, "no": 8, "missing": 8, "children": [{"nodeid": 7, "depth": 3, "split": "fiftyTwoWeekPct", "split_condition": -0.515900016, "yes": 15, "no": 16, "missing": 16, "children": [{"nodeid": 15, "leaf": 0.0143978959}, {"nodeid": 16, "leaf": 0.0782383606}]}, {"nodeid": 8, "depth": 3, "split": "dAdx", "split_condition": 18.1000004, "yes": 17, "no": 18, "missing": 18, "children": [{"nodeid": 17, "leaf": 0.0310567375}, {"nodeid": 18, "leaf": 0.00630351668}]}]}, {"nodeid": 4, "depth": 2, "split": "hMacdHistDelta", "split_condition": -0.0500000007, "yes": 9, "no": 10, "missing": 10, "children": [{"nodeid": 9, "depth": 3, "split": "dAdx", "split_condition": 40.7999992, "yes": 19, "no": 20, "missing": 20, "children": [{"nodeid": 19, "leaf": -0.0131160943}, {"nodeid": 20, "leaf": -0.0544408225}]}, {"nodeid": 10, "depth": 3, "split": "gapDirectionAligned", "split_condition": 0.343699992, "yes": 21, "no": 22, "missing": 22, "children": [{"nodeid": 21, "leaf": 0.0175959095}, {"nodeid": 22, "leaf": -0.0151608484}]}]}]}, {"nodeid": 2, "depth": 1, "split": "gapDirectionAligned", "split_condition": 0.126699999, "yes": 5, "no": 6, "missing": 6, "children": [{"nodeid": 5, "depth": 2, "split": "fiftyTwoWeekPct", "split_condition": 0.0247000009, "yes": 11, "no": 12, "missing": 12, "children": [{"nodeid": 11, "leaf": 0.0767631829}, {"nodeid": 12, "depth": 3, "split": "dAdx", "split_condition": 18.1000004, "yes": 23, "no": 24, "missing": 24, "children": [{"nodeid": 23, "leaf": 0.0341514759}, {"nodeid": 24, "leaf": -0.0207622405}]}]}, {"nodeid": 6, "depth": 2, "split": "dBBPercentB", "split_condition": 0.369199991, "yes": 13, "no": 14, "missing": 14, "children": [{"nodeid": 13, "depth": 3, "split": "hVolumeRatio", "split_condition": 1.62, "yes": 25, "no": 26, "missing": 26, "children": [{"nodeid": 25, "leaf": -0.0470239669}, {"nodeid": 26, "leaf": 0.0203592479}]}, {"nodeid": 14, "depth": 3, "split": "gapDirectionAligned", "split_condition": 2.69679999, "yes": 27, "no": 28, "missing": 28, "children": [{"nodeid": 27, "leaf": -0.0336150788}, {"nodeid": 28, "leaf": -0.00538288197}]}]}]}]}, {"nodeid": 0, "depth": 0, "split": "dayOfWeek", "split_condition": 5, "yes": 1, "no": 2, "missing": 2, "children": [{"nodeid": 1, "depth": 1, "split": "tfAlignment", "split_condition": 2, "yes": 3, "no": 4, "missing": 4, "children": [{"nodeid": 3, "depth": 2, "split": "tfAlignment", "split_condition": -1, "yes": 7, "no": 8, "missing": 8, "children": [{"nodeid": 7, "depth": 3, "split": "relStrengthVsSpy", "split_condition": 0.6074, "yes": 15, "no": 16, "missing": 16, "children": [{"nodeid": 15, "leaf": 0}, {"nodeid": 16, "leaf": -0.028073797}]}, {"nodeid": 8, "depth": 3, "split": "dRsiDelta", "split_condition": -4.8499999, "yes": 17, "no": 18, "missing": 18, "children": [{"nodeid": 17, "leaf": 0.00249438803}, {"nodeid": 18, "leaf": 0.0304365139}]}]}, {"nodeid": 4, "depth": 2, "split": "eRsi", "split_condition": 58.7999992, "yes": 9, "no": 10, "missing": 10, "children": [{"nodeid": 9, "depth": 3, "split": "hBBPercentB", "split_condition": 0.128999993, "yes": 19, "no": 20, "missing": 20, "children": [{"nodeid": 19, "leaf": 0.00216062577}, {"nodeid": 20, "leaf": -0.0376712494}]}, {"nodeid": 10, "depth": 3, "split": "dAdxDelta", "split_condition": -0.540000021, "yes": 21, "no": 22, "missing": 22, "children": [{"nodeid": 21, "leaf": -0.0389463976}, {"nodeid": 22, "leaf": 0.00508995261}]}]}]}, {"nodeid": 2, "depth": 1, "split": "fiftyTwoWeekPct", "split_condition": -0.0896999985, "yes": 5, "no": 6, "missing": 6, "children": [{"nodeid": 5, "depth": 2, "split": "vix", "split_condition": 27.7999992, "yes": 11, "no": 12, "missing": 12, "children": [{"nodeid": 11, "depth": 3, "split": "tfAlignment", "split_condition": 1, "yes": 23, "no": 24, "missing": 24, "children": [{"nodeid": 23, "leaf": -0.0496185496}, {"nodeid": 24, "leaf": -0.00815208163}]}, {"nodeid": 12, "depth": 3, "split": "dRsiDelta", "split_condition": -3.51999998, "yes": 25, "no": 26, "missing": 26, "children": [{"nodeid": 25, "leaf": 0.0218779519}, {"nodeid": 26, "leaf": -0.024957208}]}]}, {"nodeid": 6, "depth": 2, "split": "relStrengthVsSpy", "split_condition": 0.0211999994, "yes": 13, "no": 14, "missing": 14, "children": [{"nodeid": 13, "leaf": 0.07421197}, {"nodeid": 14, "depth": 3, "split": "regimeCode", "split_condition": 1, "yes": 27, "no": 28, "missing": 28, "children": [{"nodeid": 27, "leaf": -0.000940476952}, {"nodeid": 28, "leaf": -0.0294624623}]}]}]}]}, {"nodeid": 0, "depth": 0, "split": "dayOfWeek", "split_condition": 5, "yes": 1, "no": 2, "missing": 2, "children": [{"nodeid": 1, "depth": 1, "split": "tfAlignment", "split_condition": 2, "yes": 3, "no": 4, "missing": 4, "children": [{"nodeid": 3, "depth": 2, "split": "tfAlignment", "split_condition": -1, "yes": 7, "no": 8, "missing": 8, "children": [{"nodeid": 7, "depth": 3, "split": "dayOfWeek", "split_condition": 1, "yes": 15, "no": 16, "missing": 16, "children": [{"nodeid": 15, "leaf": 0.0140217422}, {"nodeid": 16, "leaf": -0.0253230017}]}, {"nodeid": 8, "depth": 3, "split": "atrPercent", "split_condition": 2.57500005, "yes": 17, "no": 18, "missing": 18, "children": [{"nodeid": 17, "leaf": 0.0317484662}, {"nodeid": 18, "leaf": 0.0105991084}]}]}, {"nodeid": 4, "depth": 2, "split": "hAdxDelta", "split_condition": 5.44000006, "yes": 9, "no": 10, "missing": 10, "children": [{"nodeid": 9, "depth": 3, "split": "atrExpansionRate", "split_condition": -0.0820000023, "yes": 19, "no": 20, "missing": 20, "children": [{"nodeid": 19, "leaf": -0.0497720055}, {"nodeid": 20, "leaf": -0.0216009486}]}, {"nodeid": 10, "depth": 3, "split": "ethBtcDelta6", "split_condition": -0.631799996, "yes": 21, "no": 22, "missing": 22, "children": [{"nodeid": 21, "leaf": -0.0155451847}, {"nodeid": 22, "leaf": 0.0211609509}]}]}]}, {"nodeid": 2, "depth": 1, "split": "ethBtcRatio", "split_condition": 0.0546710007, "yes": 5, "no": 6, "missing": 6, "children": [{"nodeid": 5, "depth": 2, "split": "gapPercent", "split_condition": 15.3576002, "yes": 11, "no": 12, "missing": 12, "children": [{"nodeid": 11, "depth": 3, "split": "hBBPercentB", "split_condition": 0.861599982, "yes": 23, "no": 24, "missing": 24, "children": [{"nodeid": 23, "leaf": 0.0158634726}, {"nodeid": 24, "leaf": 0.0602287017}]}, {"nodeid": 12, "depth": 3, "split": "volScalarML", "split_condition": 1.27999997, "yes": 25, "no": 26, "missing": 26, "children": [{"nodeid": 25, "leaf": 0.00112531229}, {"nodeid": 26, "leaf": -0.034111876}]}]}, {"nodeid": 6, "depth": 2, "split": "dayOfWeek", "split_condition": 6, "yes": 13, "no": 14, "missing": 14, "children": [{"nodeid": 13, "depth": 3, "split": "dStochK", "split_condition": 73.0999985, "yes": 27, "no": 28, "missing": 28, "children": [{"nodeid": 27, "leaf": -0.0460891835}, {"nodeid": 28, "leaf": -0.0155736478}]}, {"nodeid": 14, "depth": 3, "split": "atrPercent", "split_condition": 0.900699973, "yes": 29, "no": 30, "missing": 30, "children": [{"nodeid": 29, "leaf": 0.02647385}, {"nodeid": 30, "leaf": -0.0187604483}]}]}]}]}, {"nodeid": 0, "depth": 0, "split": "hBBPercentB", "split_condition": 1.12820005, "yes": 1, "no": 2, "missing": 2, "children": [{"nodeid": 1, "depth": 1, "split": "dBBBandwidth", "split_condition": 40.926899, "yes": 3, "no": 4, "missing": 4, "children": [{"nodeid": 3, "depth": 2, "split": "atrExpansionRate", "split_condition": -0.0749000013, "yes": 7, "no": 8, "missing": 8, "children": [{"nodeid": 7, "depth": 3, "split": "vix", "split_condition": 24.6000004, "yes": 11, "no": 12, "missing": 12, "children": [{"nodeid": 11, "leaf": -0.0243989751}, {"nodeid": 12, "leaf": 0.00565905916}]}, {"nodeid": 8, "depth": 3, "split": "dAdxDelta", "split_condition": -0.529999971, "yes": 13, "no": 14, "missing": 14, "children": [{"nodeid": 13, "leaf": 0.0148605304}, {"nodeid": 14, "leaf": 0.00121279177}]}]}, {"nodeid": 4, "depth": 2, "split": "basisPct", "split_condition": 2.09999998e-05, "yes": 9, "no": 10, "missing": 10, "children": [{"nodeid": 9, "depth": 3, "split": "hAdx", "split_condition": 13.1999998, "yes": 15, "no": 16, "missing": 16, "children": [{"nodeid": 15, "leaf": 0.0198518038}, {"nodeid": 16, "leaf": -0.0299228281}]}, {"nodeid": 10, "depth": 3, "split": "gapPercent", "split_condition": 25.6109009, "yes": 17, "no": 18, "missing": 18, "children": [{"nodeid": 17, "leaf": 0.0370981246}, {"nodeid": 18, "leaf": -0.00818539225}]}]}]}, {"nodeid": 2, "depth": 1, "split": "dStructBull", "split_condition": 1, "yes": 5, "no": 6, "missing": 6, "children": [{"nodeid": 5, "leaf": 0.0638186857}, {"nodeid": 6, "leaf": 0.011322326}]}]}, {"nodeid": 0, "depth": 0, "split": "hVolWeightedRsi", "split_condition": 41.480999, "yes": 1, "no": 2, "missing": 2, "children": [{"nodeid": 1, "depth": 1, "split": "relStrengthVsSpy", "split_condition": 0.0211999994, "yes": 3, "no": 4, "missing": 4, "children": [{"nodeid": 3, "depth": 2, "split": "relStrengthVsSpy", "split_condition": 0, "yes": 7, "no": 8, "missing": 8, "children": [{"nodeid": 7, "depth": 3, "split": "relStrengthVsSpy", "split_condition": -2.86260009, "yes": 15, "no": 16, "missing": 16, "children": [{"nodeid": 15, "leaf": 0.0112878028}, {"nodeid": 16, "leaf": -0.0161558129}]}, {"nodeid": 8, "leaf": 0.068914488}]}, {"nodeid": 4, "depth": 2, "split": "dAdx", "split_condition": 20.8999996, "yes": 9, "no": 10, "missing": 10, "children": [{"nodeid": 9, "depth": 3, "split": "hRsiDelta", "split_condition": -9.14999962, "yes": 17, "no": 18, "missing": 18, "children": [{"nodeid": 17, "leaf": -0.0212861728}, {"nodeid": 18, "leaf": 0.0107466383}]}, {"nodeid": 10, "depth": 3, "split": "dRsi", "split_condition": 41.2000008, "yes": 19, "no": 20, "missing": 20, "children": [{"nodeid": 19, "leaf": -0.0311705917}, {"nodeid": 20, "leaf": -0.0122821899}]}]}]}, {"nodeid": 2, "depth": 1, "split": "atrPercent", "split_condition": 1.42540002, "yes": 5, "no": 6, "missing": 6, "children": [{"nodeid": 5, "depth": 2, "split": "hRsiDelta", "split_condition": -2.54999995, "yes": 11, "no": 12, "missing": 12, "children": [{"nodeid": 11, "depth": 3, "split": "eMacdHist", "split_condition": -1.25999999, "yes": 21, "no": 22, "missing": 22, "children": [{"nodeid": 21, "leaf": 0.0247180965}, {"nodeid": 22, "leaf": 0.072200574}]}, {"nodeid": 12, "depth": 3, "split": "hBBPercentB", "split_condition": 1.12820005, "yes": 23, "no": 24, "missing": 24, "children": [{"nodeid": 23, "leaf": 0.0132079693}, {"nodeid": 24, "leaf": 0.0647670403}]}]}, {"nodeid": 6, "depth": 2, "split": "eMacdHist", "split_condition": -5.26999998, "yes": 13, "no": 14, "missing": 14, "children": [{"nodeid": 13, "depth": 3, "split": "volWeightedRsi", "split_condition": 37.5239983, "yes": 25, "no": 26, "missing": 26, "children": [{"nodeid": 25, "leaf": 0.00410806946}, {"nodeid": 26, "leaf": -0.0339866057}]}, {"nodeid": 14, "depth": 3, "split": "dAdx", "split_condition": 43.0999985, "yes": 27, "no": 28, "missing": 28, "children": [{"nodeid": 27, "leaf": 0.012230305}, {"nodeid": 28, "leaf": -0.0176177714}]}]}]}]}, {"nodeid": 0, "depth": 0, "split": "tfAlignment", "split_condition": 2, "yes": 1, "no": 2, "missing": 2, "children": [{"nodeid": 1, "depth": 1, "split": "tfAlignment", "split_condition": -1, "yes": 3, "no": 4, "missing": 4, "children": [{"nodeid": 3, "depth": 2, "split": "hRsi", "split_condition": 37.5, "yes": 7, "no": 8, "missing": 8, "children": [{"nodeid": 7, "depth": 3, "split": "ethBtcRatio", "split_condition": 0.0602889992, "yes": 15, "no": 16, "missing": 16, "children": [{"nodeid": 15, "leaf": 0.0310135819}, {"nodeid": 16, "leaf": -0.0101501811}]}, {"nodeid": 8, "depth": 3, "split": "fiftyTwoWeekPct", "split_condition": -0.103799999, "yes": 17, "no": 18, "missing": 18, "children": [{"nodeid": 17, "leaf": -0.0348793082}, {"nodeid": 18, "leaf": -0.00720358593}]}]}, {"nodeid": 4, "depth": 2, "split": "hVolWeightedRsi", "split_condition": 42.5449982, "yes": 9, "no": 10, "missing": 10, "children": [{"nodeid": 9, "depth": 3, "split": "hVolWeightedRsi", "split_condition": 15.6450005, "yes": 19, "no": 20, "missing": 20, "children": [{"nodeid": 19, "leaf": -0.0202014633}, {"nodeid": 20, "leaf": 0.00875786226}]}, {"nodeid": 10, "depth": 3, "split": "ethBtcRatio", "split_condition": 0.0787220001, "yes": 21, "no": 22, "missing": 22, "children": [{"nodeid": 21, "leaf": 0.0273459144}, {"nodeid": 22, "leaf": -0.0125218108}]}]}]}, {"nodeid": 2, "depth": 1, "split": "hRsi", "split_condition": 70.5999985, "yes": 5, "no": 6, "missing": 6, "children": [{"nodeid": 5, "depth": 2, "split": "ethBtcRatio", "split_condition": 0.0306209996, "yes": 11, "no": 12, "missing": 12, "children": [{"nodeid": 11, "depth": 3, "split": "fiftyTwoWeekPct", "split_condition": 0.30219999, "yes": 23, "no": 24, "missing": 24, "children": [{"nodeid": 23, "leaf": 0.0421362482}, {"nodeid": 24, "leaf": -0.0218512099}]}, {"nodeid": 12, "depth": 3, "split": "hBBBandwidth", "split_condition": 2.69280005, "yes": 25, "no": 26, "missing": 26, "children": [{"nodeid": 25, "leaf": 0.0106379203}, {"nodeid": 26, "leaf": -0.0340956934}]}]}, {"nodeid": 6, "depth": 2, "split": "fundingSlope", "split_condition": -0.00573900016, "yes": 13, "no": 14, "missing": 14, "children": [{"nodeid": 13, "depth": 3, "split": "fiftyTwoWeekPct", "split_condition": 9.02589989, "yes": 27, "no": 28, "missing": 28, "children": [{"nodeid": 27, "leaf": -0.0181066878}, {"nodeid": 28, "leaf": 0.0199645236}]}, {"nodeid": 14, "leaf": 0.0384237617}]}]}]}, {"nodeid": 0, "depth": 0, "split": "gapDirectionAligned", "split_condition": 0.0399999991, "yes": 1, "no": 2, "missing": 2, "children": [{"nodeid": 1, "depth": 1, "split": "fiftyTwoWeekPct", "split_condition": 0.855000019, "yes": 3, "no": 4, "missing": 4, "children": [{"nodeid": 3, "leaf": 0.0740263462}, {"nodeid": 4, "depth": 2, "split": "tfAlignment", "split_condition": 2, "yes": 7, "no": 8, "missing": 8, "children": [{"nodeid": 7, "depth": 3, "split": "gapDirectionAligned", "split_condition": -2.46880007, "yes": 13, "no": 14, "missing": 14, "children": [{"nodeid": 13, "leaf": 0.0513742343}, {"nodeid": 14, "leaf": 0.00945823919}]}, {"nodeid": 8, "depth": 3, "split": "eStochK", "split_condition": 62.4000015, "yes": 15, "no": 16, "missing": 16, "children": [{"nodeid": 15, "leaf": -0.0288536642}, {"nodeid": 16, "leaf": 0}]}]}]}, {"nodeid": 2, "depth": 1, "split": "tfAlignment", "split_condition": -1, "yes": 5, "no": 6, "missing": 6, "children": [{"nodeid": 5, "depth": 2, "split": "vpDistToPocATR", "split_condition": -4.07999992, "yes": 9, "no": 10, "missing": 10, "children": [{"nodeid": 9, "depth": 3, "split": "gapDirectionAligned", "split_condition": 11.3999996, "yes": 17, "no": 18, "missing": 18, "children": [{"nodeid": 17, "leaf": -0.0125611993}, {"nodeid": 18, "leaf": 0.0414556265}]}, {"nodeid": 10, "depth": 3, "split": "vix", "split_condition": 25.8999996, "yes": 19, "no": 20, "missing": 20, "children": [{"nodeid": 19, "leaf": -0.0431528948}, {"nodeid": 20, "leaf": -0.0169454534}]}]}, {"nodeid": 6, "depth": 2, "split": "tfAlignment", "split_condition": 2, "yes": 11, "no": 12, "missing": 12, "children": [{"nodeid": 11, "depth": 3, "split": "hBBSqueeze", "split_condition": 1, "yes": 21, "no": 22, "missing": 22, "children": [{"nodeid": 21, "leaf": 0.003470022}, {"nodeid": 22, "leaf": 0.0297557842}]}, {"nodeid": 12, "depth": 3, "split": "eStochK", "split_condition": 87.8000031, "yes": 23, "no": 24, "missing": 24, "children": [{"nodeid": 23, "leaf": -0.0361263081}, {"nodeid": 24, "leaf": 0.00912184827}]}]}]}]}, {"nodeid": 0, "depth": 0, "split": "dayOfWeek", "split_condition": 5, "yes": 1, "no": 2, "missing": 2, "children": [{"nodeid": 1, "depth": 1, "split": "tfAlignment", "split_condition": 2, "yes": 3, "no": 4, "missing": 4, "children": [{"nodeid": 3, "depth": 2, "split": "tfAlignment", "split_condition": -1, "yes": 7, "no": 8, "missing": 8, "children": [{"nodeid": 7, "depth": 3, "split": "dayOfWeek", "split_condition": 1, "yes": 15, "no": 16, "missing": 16, "children": [{"nodeid": 15, "leaf": 0.0182368457}, {"nodeid": 16, "leaf": -0.0195299443}]}, {"nodeid": 8, "depth": 3, "split": "relStrengthVsSpy", "split_condition": 0.0211999994, "yes": 17, "no": 18, "missing": 18, "children": [{"nodeid": 17, "leaf": 0.043343626}, {"nodeid": 18, "leaf": 0.0185655877}]}]}, {"nodeid": 4, "depth": 2, "split": "relStrengthVsSpy", "split_condition": 2.41260004, "yes": 9, "no": 10, "missing": 10, "children": [{"nodeid": 9, "leaf": 0.0494401604}, {"nodeid": 10, "depth": 3, "split": "eStochK", "split_condition": 59.2000008, "yes": 19, "no": 20, "missing": 20, "children": [{"nodeid": 19, "leaf": -0.0343607403}, {"nodeid": 20, "leaf": -0.00188908633}]}]}]}, {"nodeid": 2, "depth": 1, "split": "dayOfWeek", "split_condition": 6, "yes": 5, "no": 6, "missing": 6, "children": [{"nodeid": 5, "depth": 2, "split": "relStrengthVsSpy", "split_condition": 0.0211999994, "yes": 11, "no": 12, "missing": 12, "children": [{"nodeid": 11, "depth": 3, "split": "relStrengthVsSpy", "split_condition": -0.00889999978, "yes": 21, "no": 22, "missing": 22, "children": [{"nodeid": 21, "leaf": -0.0346490145}, {"nodeid": 22, "leaf": 0.0578010045}]}, {"nodeid": 12, "depth": 3, "split": "hRsi", "split_condition": 72.9000015, "yes": 23, "no": 24, "missing": 24, "children": [{"nodeid": 23, "leaf": -0.0399830751}, {"nodeid": 24, "leaf": 0.0165098961}]}]}, {"nodeid": 6, "depth": 2, "split": "dRsi", "split_condition": 38.2000008, "yes": 13, "no": 14, "missing": 14, "children": [{"nodeid": 13, "depth": 3, "split": "relStrengthVsSpy", "split_condition": 0.1382, "yes": 25, "no": 26, "missing": 26, "children": [{"nodeid": 25, "leaf": -0.0242677983}, {"nodeid": 26, "leaf": -0.0585258789}]}, {"nodeid": 14, "depth": 3, "split": "tfAlignment", "split_condition": 2, "yes": 27, "no": 28, "missing": 28, "children": [{"nodeid": 27, "leaf": 0.00754771614}, {"nodeid": 28, "leaf": -0.0244424473}]}]}]}]}, {"nodeid": 0, "depth": 0, "split": "gapDirectionAligned", "split_condition": 0.0759000033, "yes": 1, "no": 2, "missing": 2, "children": [{"nodeid": 1, "depth": 1, "split": "gapDirectionAligned", "split_condition": 0, "yes": 3, "no": 4, "missing": 4, "children": [{"nodeid": 3, "depth": 2, "split": "tfAlignment", "split_condition": 2, "yes": 7, "no": 8, "missing": 8, "children": [{"nodeid": 7, "depth": 3, "split": "atrPercent", "split_condition": 1.58829999, "yes": 15, "no": 16, "missing": 16, "children": [{"nodeid": 15, "leaf": 0.0430514291}, {"nodeid": 16, "leaf": 0.00946652703}]}, {"nodeid": 8, "depth": 3, "split": "hBBPercentB", "split_condition": 0.996299982, "yes": 17, "no": 18, "missing": 18, "children": [{"nodeid": 17, "leaf": -0.0273452792}, {"nodeid": 18, "leaf": 0.0117177321}]}]}, {"nodeid": 4, "depth": 2, "split": "dMacdHist", "split_condition": 0.00999999978, "yes": 9, "no": 10, "missing": 10, "children": [{"nodeid": 9, "leaf": 0.0683292747}, {"nodeid": 10, "leaf": 0.0116076441}]}]}, {"nodeid": 2, "depth": 1, "split": "tfAlignment", "split_condition": -1, "yes": 5, "no": 6, "missing": 6, "children": [{"nodeid": 5, "depth": 2, "split": "fearGreedIndex", "split_condition": 20, "yes": 11, "no": 12, "missing": 12, "children": [{"nodeid": 11, "depth": 3, "split": "gapPercent", "split_condition": 42.1453018, "yes": 19, "no": 20, "missing": 20, "children": [{"nodeid": 19, "leaf": 0.0113362242}, {"nodeid": 20, "leaf": -0.0376328677}]}, {"nodeid": 12, "depth": 3, "split": "vpDistToPocATR", "split_condition": -8.38000011, "yes": 21, "no": 22, "missing": 22, "children": [{"nodeid": 21, "leaf": 0.00564279081}, {"nodeid": 22, "leaf": -0.036658626}]}]}, {"nodeid": 6, "depth": 2, "split": "tfAlignment", "split_condition": 2, "yes": 13, "no": 14, "missing": 14, "children": [{"nodeid": 13, "depth": 3, "split": "hBBPercentB", "split_condition": 0.949500024, "yes": 23, "no": 24, "missing": 24, "children": [{"nodeid": 23, "leaf": 0.00288977637}, {"nodeid": 24, "leaf": 0.0294317249}]}, {"nodeid": 14, "depth": 3, "split": "basisPct", "split_condition": -0.0523369983, "yes": 25, "no": 26, "missing": 26, "children": [{"nodeid": 25, "leaf": -0.0617794171}, {"nodeid": 26, "leaf": -0.025695134}]}]}]}]}, {"nodeid": 0, "depth": 0, "split": "tfAlignment", "split_condition": -1, "yes": 1, "no": 2, "missing": 2, "children": [{"nodeid": 1, "depth": 1, "split": "volScalarML", "split_condition": 0.889999986, "yes": 3, "no": 4, "missing": 4, "children": [{"nodeid": 3, "depth": 2, "split": "fiftyTwoWeekPct", "split_condition": 0, "yes": 7, "no": 8, "missing": 8, "children": [{"nodeid": 7, "depth": 3, "split": "vix", "split_condition": 26.7999992, "yes": 15, "no": 16, "missing": 16, "children": [{"nodeid": 15, "leaf": -0.0340830088}, {"nodeid": 16, "leaf": 0.0117756836}]}, {"nodeid": 8, "depth": 3, "split": "fiftyTwoWeekPct", "split_condition": 0.0247000009, "yes": 17, "no": 18, "missing": 18, "children": [{"nodeid": 17, "leaf": 0.0638187453}, {"nodeid": 18, "leaf": -0.0100681558}]}]}, {"nodeid": 4, "depth": 2, "split": "hRsiDelta", "split_condition": -13.0900002, "yes": 9, "no": 10, "missing": 10, "children": [{"nodeid": 9, "depth": 3, "split": "fiftyTwoWeekPct", "split_condition": -3.0769999, "yes": 19, "no": 20, "missing": 20, "children": [{"nodeid": 19, "leaf": 0}, {"nodeid": 20, "leaf": 0.0249909293}]}, {"nodeid": 10, "depth": 3, "split": "hRsiDelta", "split_condition": 4.80999994, "yes": 21, "no": 22, "missing": 22, "children": [{"nodeid": 21, "leaf": -0.0431374982}, {"nodeid": 22, "leaf": -0.0138220284}]}]}]}, {"nodeid": 2, "depth": 1, "split": "tfAlignment", "split_condition": 2, "yes": 5, "no": 6, "missing": 6, "children": [{"nodeid": 5, "depth": 2, "split": "hBBSqueeze", "split_condition": 1, "yes": 11, "no": 12, "missing": 12, "children": [{"nodeid": 11, "depth": 3, "split": "volScalarML", "split_condition": 0.769999981, "yes": 23, "no": 24, "missing": 24, "children": [{"nodeid": 23, "leaf": 0.0238698982}, {"nodeid": 24, "leaf": 0.00412086723}]}, {"nodeid": 12, "depth": 3, "split": "momentumAlignment", "split_condition": 1, "yes": 25, "no": 26, "missing": 26, "children": [{"nodeid": 25, "leaf": 0.0315437242}, {"nodeid": 26, "leaf": -0.00349166989}]}]}, {"nodeid": 6, "depth": 2, "split": "fiftyTwoWeekPct", "split_condition": 0.256700009, "yes": 13, "no": 14, "missing": 14, "children": [{"nodeid": 13, "depth": 3, "split": "fiftyTwoWeekPct", "split_condition": -0.00960000046, "yes": 27, "no": 28, "missing": 28, "children": [{"nodeid": 27, "leaf": -0.0182804503}, {"nodeid": 28, "leaf": 0.0298152324}]}, {"nodeid": 14, "depth": 3, "split": "fiftyTwoWeekPct", "split_condition": 3.15429997, "yes": 29, "no": 30, "missing": 30, "children": [{"nodeid": 29, "leaf": -0.0364550017}, {"nodeid": 30, "leaf": -0.0124049475}]}]}]}]}, {"nodeid": 0, "depth": 0, "split": "dayOfWeek", "split_condition": 5, "yes": 1, "no": 2, "missing": 2, "children": [{"nodeid": 1, "depth": 1, "split": "atrPercent", "split_condition": 2.57500005, "yes": 3, "no": 4, "missing": 4, "children": [{"nodeid": 3, "depth": 2, "split": "dAdxDelta", "split_condition": 1.25999999, "yes": 7, "no": 8, "missing": 8, "children": [{"nodeid": 7, "depth": 3, "split": "gapDirectionAligned", "split_condition": 0.0399999991, "yes": 15, "no": 16, "missing": 16, "children": [{"nodeid": 15, "leaf": 0.0380938165}, {"nodeid": 16, "leaf": 0.0121459756}]}, {"nodeid": 8, "depth": 3, "split": "gapPercent", "split_condition": 13.0960999, "yes": 17, "no": 18, "missing": 18, "children": [{"nodeid": 17, "leaf": 0.0124494415}, {"nodeid": 18, "leaf": -0.0285173338}]}]}, {"nodeid": 4, "depth": 2, "split": "hAdxDelta", "split_condition": 0.189999998, "yes": 9, "no": 10, "missing": 10, "children": [{"nodeid": 9, "depth": 3, "split": "gapDirectionAligned", "split_condition": 4.41690016, "yes": 19, "no": 20, "missing": 20, "children": [{"nodeid": 19, "leaf": -0.00392657705}, {"nodeid": 20, "leaf": -0.0290976502}]}, {"nodeid": 10, "depth": 3, "split": "fearGreedIndex", "split_condition": 20, "yes": 21, "no": 22, "missing": 22, "children": [{"nodeid": 21, "leaf": 0.0307296012}, {"nodeid": 22, "leaf": -0.000906317437}]}]}]}, {"nodeid": 2, "depth": 1, "split": "gapDirectionAligned", "split_condition": 0.126699999, "yes": 5, "no": 6, "missing": 6, "children": [{"nodeid": 5, "depth": 2, "split": "fiftyTwoWeekPct", "split_condition": 0.376700014, "yes": 11, "no": 12, "missing": 12, "children": [{"nodeid": 11, "leaf": 0.0659360215}, {"nodeid": 12, "depth": 3, "split": "hRsi", "split_condition": 72.9000015, "yes": 23, "no": 24, "missing": 24, "children": [{"nodeid": 23, "leaf": -0.0179491099}, {"nodeid": 24, "leaf": 0.0260824692}]}]}, {"nodeid": 6, "depth": 2, "split": "vix", "split_condition": 23.1000004, "yes": 13, "no": 14, "missing": 14, "children": [{"nodeid": 13, "depth": 3, "split": "basisPct", "split_condition": 0.00037200001, "yes": 25, "no": 26, "missing": 26, "children": [{"nodeid": 25, "leaf": -0.0413361043}, {"nodeid": 26, "leaf": -0.00392481638}]}, {"nodeid": 14, "depth": 3, "split": "fearGreedIndex", "split_condition": 25, "yes": 27, "no": 28, "missing": 28, "children": [{"nodeid": 27, "leaf": -0.0270537045}, {"nodeid": 28, "leaf": 0.0069443821}]}]}]}]}, {"nodeid": 0, "depth": 0, "split": "dayOfWeek", "split_condition": 5, "yes": 1, "no": 2, "missing": 2, "children": [{"nodeid": 1, "depth": 1, "split": "dBBBandwidth", "split_condition": 40.926899, "yes": 3, "no": 4, "missing": 4, "children": [{"nodeid": 3, "depth": 2, "split": "atrExpansionRate", "split_condition": -0.0888999999, "yes": 7, "no": 8, "missing": 8, "children": [{"nodeid": 7, "depth": 3, "split": "dBBPercentB", "split_condition": 0.225500003, "yes": 13, "no": 14, "missing": 14, "children": [{"nodeid": 13, "leaf": -0.0424283706}, {"nodeid": 14, "leaf": 0.000688019267}]}, {"nodeid": 8, "depth": 3, "split": "gapPercent", "split_condition": 3.21079993, "yes": 15, "no": 16, "missing": 16, "children": [{"nodeid": 15, "leaf": 0.0644905195}, {"nodeid": 16, "leaf": 0.0124626141}]}]}, {"nodeid": 4, "depth": 2, "split": "basisPct", "split_condition": -0.0167970005, "yes": 9, "no": 10, "missing": 10, "children": [{"nodeid": 9, "depth": 3, "split": "eEmaCross", "split_condition": 3, "yes": 17, "no": 18, "missing": 18, "children": [{"nodeid": 17, "leaf": -0.0399977788}, {"nodeid": 18, "leaf": 0.00444146013}]}, {"nodeid": 10, "depth": 3, "split": "vix", "split_condition": 17, "yes": 19, "no": 20, "missing": 20, "children": [{"nodeid": 19, "leaf": 0.0162044615}, {"nodeid": 20, "leaf": -0.00924576074}]}]}]}, {"nodeid": 2, "depth": 1, "split": "hVolumeRatio", "split_condition": 1.67999995, "yes": 5, "no": 6, "missing": 6, "children": [{"nodeid": 5, "depth": 2, "split": "basisPct", "split_condition": 2.09999998e-05, "yes": 11, "no": 12, "missing": 12, "children": [{"nodeid": 11, "depth": 3, "split": "dayOfWeek", "split_condition": 6, "yes": 21, "no": 22, "missing": 22, "children": [{"nodeid": 21, "leaf": -0.0335040912}, {"nodeid": 22, "leaf": -0.016472267}]}, {"nodeid": 12, "depth": 3, "split": "hRsiDelta", "split_condition": 5.69999981, "yes": 23, "no": 24, "missing": 24, "children": [{"nodeid": 23, "leaf": 0.0128738554}, {"nodeid": 24, "leaf": -0.0294484589}]}]}, {"nodeid": 6, "leaf": 0.0271379985}]}]}, {"nodeid": 0, "depth": 0, "split": "dayOfWeek", "split_condition": 5, "yes": 1, "no": 2, "missing": 2, "children": [{"nodeid": 1, "depth": 1, "split": "atrPercent", "split_condition": 1.42540002, "yes": 3, "no": 4, "missing": 4, "children": [{"nodeid": 3, "depth": 2, "split": "hVolWeightedRsi", "split_condition": 17.3999996, "yes": 7, "no": 8, "missing": 8, "children": [{"nodeid": 7, "leaf": -0.016115319}, {"nodeid": 8, "depth": 3, "split": "gapPercent", "split_condition": 15.5788002, "yes": 15, "no": 16, "missing": 16, "children": [{"nodeid": 15, "leaf": 0.0307252463}, {"nodeid": 16, "leaf": -0.00615097163}]}]}, {"nodeid": 4, "depth": 2, "split": "ethBtcDelta6", "split_condition": -2.89479995, "yes": 9, "no": 10, "missing": 10, "children": [{"nodeid": 9, "depth": 3, "split": "ethBtcRatio", "split_condition": 0.0676800013, "yes": 17, "no": 18, "missing": 18, "children": [{"nodeid": 17, "leaf": 0.00910748821}, {"nodeid": 18, "leaf": 0.0641282052}]}, {"nodeid": 10, "depth": 3, "split": "hStochK", "split_condition": 14.6000004, "yes": 19, "no": 20, "missing": 20, "children": [{"nodeid": 19, "leaf": -0.0165627245}, {"nodeid": 20, "leaf": 0.0057877372}]}]}]}, {"nodeid": 2, "depth": 1, "split": "ethBtcRatio", "split_condition": 0.0543279983, "yes": 5, "no": 6, "missing": 6, "children": [{"nodeid": 5, "depth": 2, "split": "ethBtcRatio", "split_condition": 0.0526200011, "yes": 11, "no": 12, "missing": 12, "children": [{"nodeid": 11, "depth": 3, "split": "relStrengthVsSpy", "split_condition": 0.0211999994, "yes": 21, "no": 22, "missing": 22, "children": [{"nodeid": 21, "leaf": 0.0339568071}, {"nodeid": 22, "leaf": -0.0124394726}]}, {"nodeid": 12, "leaf": 0.073669903}]}, {"nodeid": 6, "depth": 2, "split": "dayOfWeek", "split_condition": 6, "yes": 13, "no": 14, "missing": 14, "children": [{"nodeid": 13, "depth": 3, "split": "hVolumeRatio", "split_condition": 1.42999995, "yes": 23, "no": 24, "missing": 24, "children": [{"nodeid": 23, "leaf": -0.0395166017}, {"nodeid": 24, "leaf": 0.00941581652}]}, {"nodeid": 14, "depth": 3, "split": "hBBBandwidth", "split_condition": 3.98970008, "yes": 25, "no": 26, "missing": 26, "children": [{"nodeid": 25, "leaf": 0.0133367646}, {"nodeid": 26, "leaf": -0.0200152379}]}]}]}]}, {"nodeid": 0, "depth": 0, "split": "relStrengthVsSpy", "split_condition": 0.0211999994, "yes": 1, "no": 2, "missing": 2, "children": [{"nodeid": 1, "depth": 1, "split": "relStrengthVsSpy", "split_condition": 0, "yes": 3, "no": 4, "missing": 4, "children": [{"nodeid": 3, "depth": 2, "split": "fearGreedIndex", "split_condition": 20, "yes": 7, "no": 8, "missing": 8, "children": [{"nodeid": 7, "depth": 3, "split": "volScalarML", "split_condition": 0.980000019, "yes": 13, "no": 14, "missing": 14, "children": [{"nodeid": 13, "leaf": 0.0501744859}, {"nodeid": 14, "leaf": -0.00285140309}]}, {"nodeid": 8, "depth": 3, "split": "tfAlignment", "split_condition": -1, "yes": 15, "no": 16, "missing": 16, "children": [{"nodeid": 15, "leaf": -0.0241554547}, {"nodeid": 16, "leaf": 0.00630380446}]}]}, {"nodeid": 4, "leaf": 0.065073289}]}, {"nodeid": 2, "depth": 1, "split": "tfAlignment", "split_condition": 2, "yes": 5, "no": 6, "missing": 6, "children": [{"nodeid": 5, "depth": 2, "split": "tfAlignment", "split_condition": -1, "yes": 9, "no": 10, "missing": 10, "children": [{"nodeid": 9, "depth": 3, "split": "hBBPercentB", "split_condition": 0.926900029, "yes": 17, "no": 18, "missing": 18, "children": [{"nodeid": 17, "leaf": -0.0272149798}, {"nodeid": 18, "leaf": 0.0356655158}]}, {"nodeid": 10, "depth": 3, "split": "relStrengthVsSpy", "split_condition": 4.70709991, "yes": 19, "no": 20, "missing": 20, "children": [{"nodeid": 19, "leaf": 0}, {"nodeid": 20, "leaf": 0.0192327555}]}]}, {"nodeid": 6, "depth": 2, "split": "eStochK", "split_condition": 57.9000015, "yes": 11, "no": 12, "missing": 12, "children": [{"nodeid": 11, "depth": 3, "split": "hRsiDelta", "split_condition": -11.0600004, "yes": 21, "no": 22, "missing": 22, "children": [{"nodeid": 21, "leaf": -0.00903881527}, {"nodeid": 22, "leaf": -0.0359017812}]}, {"nodeid": 12, "depth": 3, "split": "hVolWeightedRsi", "split_condition": 38.4459991, "yes": 23, "no": 24, "missing": 24, "children": [{"nodeid": 23, "leaf": -0.0257602185}, {"nodeid": 24, "leaf": 0.00172169507}]}]}]}]}, {"nodeid": 0, "depth": 0, "split": "tfAlignment", "split_condition": 2, "yes": 1, "no": 2, "missing": 2, "children": [{"nodeid": 1, "depth": 1, "split": "tfAlignment", "split_condition": -1, "yes": 3, "no": 4, "missing": 4, "children": [{"nodeid": 3, "depth": 2, "split": "relStrengthVsSpy", "split_condition": 0.579900026, "yes": 7, "no": 8, "missing": 8, "children": [{"nodeid": 7, "depth": 3, "split": "fiftyTwoWeekPct", "split_condition": -0.0896999985, "yes": 13, "no": 14, "missing": 14, "children": [{"nodeid": 13, "leaf": -0.00967451464}, {"nodeid": 14, "leaf": 0.0593648069}]}, {"nodeid": 8, "depth": 3, "split": "dMacdHist", "split_condition": 1.91999996, "yes": 15, "no": 16, "missing": 16, "children": [{"nodeid": 15, "leaf": -0.0305719618}, {"nodeid": 16, "leaf": -0.00278605823}]}]}, {"nodeid": 4, "depth": 2, "split": "hVolumeRatio", "split_condition": 0.99000001, "yes": 9, "no": 10, "missing": 10, "children": [{"nodeid": 9, "depth": 3, "split": "vpAbovePoc", "split_condition": 4.5999999, "yes": 17, "no": 18, "missing": 18, "children": [{"nodeid": 17, "leaf": 0.00664885482}, {"nodeid": 18, "leaf": -0.0199008267}]}, {"nodeid": 10, "depth": 3, "split": "relStrengthVsSpy", "split_condition": 0.744199991, "yes": 19, "no": 20, "missing": 20, "children": [{"nodeid": 19, "leaf": 0.0416816287}, {"nodeid": 20, "leaf": 0.0185914617}]}]}]}, {"nodeid": 2, "depth": 1, "split": "relStrengthVsSpy", "split_condition": 0.0211999994, "yes": 5, "no": 6, "missing": 6, "children": [{"nodeid": 5, "leaf": 0.0613338053}, {"nodeid": 6, "depth": 2, "split": "hBBPercentB", "split_condition": 1.16419995, "yes": 11, "no": 12, "missing": 12, "children": [{"nodeid": 11, "depth": 3, "split": "hBBBandwidth", "split_condition": 2.75110006, "yes": 21, "no": 22, "missing": 22, "children": [{"nodeid": 21, "leaf": 0.00978314318}, {"nodeid": 22, "leaf": -0.0269212853}]}, {"nodeid": 12, "leaf": 0.0330195352}]}]}]}, {"nodeid": 0, "depth": 0, "split": "gapDirectionAligned", "split_condition": 0.0399999991, "yes": 1, "no": 2, "missing": 2, "children": [{"nodeid": 1, "depth": 1, "split": "fiftyTwoWeekPct", "split_condition": 0.1664, "yes": 3, "no": 4, "missing": 4, "children": [{"nodeid": 3, "leaf": 0.0670617744}, {"nodeid": 4, "depth": 2, "split": "hRsi", "split_condition": 66.8000031, "yes": 7, "no": 8, "missing": 8, "children": [{"nodeid": 7, "depth": 3, "split": "atrPercentile", "split_condition": 7, "yes": 13, "no": 14, "missing": 14, "children": [{"nodeid": 13, "leaf": 0.0141583635}, {"nodeid": 14, "leaf": -0.0177523028}]}, {"nodeid": 8, "depth": 3, "split": "gapPercent", "split_condition": 12.5155001, "yes": 15, "no": 16, "missing": 16, "children": [{"nodeid": 15, "leaf": 0.0313406996}, {"nodeid": 16, "leaf": -9.16378485e-05}]}]}]}, {"nodeid": 2, "depth": 1, "split": "dEmaCross", "split_condition": -1, "yes": 5, "no": 6, "missing": 6, "children": [{"nodeid": 5, "depth": 2, "split": "fiftyTwoWeekPct", "split_condition": 0.902100027, "yes": 9, "no": 10, "missing": 10, "children": [{"nodeid": 9, "depth": 3, "split": "hRsi", "split_condition": 38.0999985, "yes": 17, "no": 18, "missing": 18, "children": [{"nodeid": 17, "leaf": -0.00191095751}, {"nodeid": 18, "leaf": -0.0219122618}]}, {"nodeid": 10, "depth": 3, "split": "ethBtcDelta6", "split_condition": -0.915400028, "yes": 19, "no": 20, "missing": 20, "children": [{"nodeid": 19, "leaf": -0.0142695429}, {"nodeid": 20, "leaf": 0.0303034838}]}]}, {"nodeid": 6, "depth": 2, "split": "gapDirectionAligned", "split_condition": 5.73850012, "yes": 11, "no": 12, "missing": 12, "children": [{"nodeid": 11, "depth": 3, "split": "atrPercentile", "split_condition": 48, "yes": 21, "no": 22, "missing": 22, "children": [{"nodeid": 21, "leaf": 0.00457589142}, {"nodeid": 22, "leaf": -0.0122384718}]}, {"nodeid": 12, "depth": 3, "split": "ethBtcDelta6", "split_condition": 0.270500004, "yes": 23, "no": 24, "missing": 24, "children": [{"nodeid": 23, "leaf": 0.0291266292}, {"nodeid": 24, "leaf": 0.00079523836}]}]}]}]}, {"nodeid": 0, "depth": 0, "split": "atrExpansionRate", "split_condition": -0.0749000013, "yes": 1, "no": 2, "missing": 2, "children": [{"nodeid": 1, "depth": 1, "split": "vix", "split_condition": 24.3999996, "yes": 3, "no": 4, "missing": 4, "children": [{"nodeid": 3, "depth": 2, "split": "vix", "split_condition": 22.5, "yes": 7, "no": 8, "missing": 8, "children": [{"nodeid": 7, "depth": 3, "split": "fundingSlope", "split_condition": -0.00531100016, "yes": 15, "no": 16, "missing": 16, "children": [{"nodeid": 15, "leaf": -0.0219804551}, {"nodeid": 16, "leaf": 0}]}, {"nodeid": 8, "depth": 3, "split": "fearGreedIndex", "split_condition": 38, "yes": 17, "no": 18, "missing": 18, "children": [{"nodeid": 17, "leaf": -0.0578238554}, {"nodeid": 18, "leaf": -0.0135571156}]}]}, {"nodeid": 4, "depth": 2, "split": "hAdxDelta", "split_condition": -4.71000004, "yes": 9, "no": 10, "missing": 10, "children": [{"nodeid": 9, "depth": 3, "split": "fiftyTwoWeekPct", "split_condition": 1.28480005, "yes": 19, "no": 20, "missing": 20, "children": [{"nodeid": 19, "leaf": -0.0344045088}, {"nodeid": 20, "leaf": 0.0172169004}]}, {"nodeid": 10, "depth": 3, "split": "basisPct", "split_condition": -0.0214479994, "yes": 21, "no": 22, "missing": 22, "children": [{"nodeid": 21, "leaf": -0.00933110714}, {"nodeid": 22, "leaf": 0.0277697649}]}]}]}, {"nodeid": 2, "depth": 1, "split": "gapPercent", "split_condition": 3.21079993, "yes": 5, "no": 6, "missing": 6, "children": [{"nodeid": 5, "depth": 2, "split": "hRsiDelta", "split_condition": -4.48999977, "yes": 11, "no": 12, "missing": 12, "children": [{"nodeid": 11, "leaf": 0.0684467852}, {"nodeid": 12, "leaf": 0.0245339517}]}, {"nodeid": 6, "depth": 2, "split": "eStochK", "split_condition": 5.5, "yes": 13, "no": 14, "missing": 14, "children": [{"nodeid": 13, "depth": 3, "split": "dBBBandwidth", "split_condition": 25.0911007, "yes": 23, "no": 24, "missing": 24, "children": [{"nodeid": 23, "leaf": -0.00413827179}, {"nodeid": 24, "leaf": -0.0346156955}]}, {"nodeid": 14, "depth": 3, "split": "fiftyTwoWeekPct", "split_condition": -0.0324999988, "yes": 25, "no": 26, "missing": 26, "children": [{"nodeid": 25, "leaf": -0.00226995698}, {"nodeid": 26, "leaf": 0.00955025014}]}]}]}]}, {"nodeid": 0, "depth": 0, "split": "dayOfWeek", "split_condition": 5, "yes": 1, "no": 2, "missing": 2, "children": [{"nodeid": 1, "depth": 1, "split": "atrPercent", "split_condition": 2.6092999, "yes": 3, "no": 4, "missing": 4, "children": [{"nodeid": 3, "depth": 2, "split": "dAdxDelta", "split_condition": 1.21000004, "yes": 7, "no": 8, "missing": 8, "children": [{"nodeid": 7, "depth": 3, "split": "dStochK", "split_condition": 5.9000001, "yes": 15, "no": 16, "missing": 16, "children": [{"nodeid": 15, "leaf": 0.0484169945}, {"nodeid": 16, "leaf": 0.0145270405}]}, {"nodeid": 8, "depth": 3, "split": "hAdxDelta", "split_condition": -0.239999995, "yes": 17, "no": 18, "missing": 18, "children": [{"nodeid": 17, "leaf": -0.0245039035}, {"nodeid": 18, "leaf": 0.00730592757}]}]}, {"nodeid": 4, "depth": 2, "split": "hAdxDelta", "split_condition": 2.8599999, "yes": 9, "no": 10, "missing": 10, "children": [{"nodeid": 9, "depth": 3, "split": "dRsi", "split_condition": 43.2000008, "yes": 19, "no": 20, "missing": 20, "children": [{"nodeid": 19, "leaf": -0.0268079024}, {"nodeid": 20, "leaf": -0.000777138106}]}, {"nodeid": 10, "depth": 3, "split": "fearGreedIndex", "split_condition": 14, "yes": 21, "no": 22, "missing": 22, "children": [{"nodeid": 21, "leaf": 0.0447603203}, {"nodeid": 22, "leaf": 0.00901342463}]}]}]}, {"nodeid": 2, "depth": 1, "split": "dayOfWeek", "split_condition": 6, "yes": 5, "no": 6, "missing": 6, "children": [{"nodeid": 5, "depth": 2, "split": "vix", "split_condition": 30.1000004, "yes": 11, "no": 12, "missing": 12, "children": [{"nodeid": 11, "depth": 3, "split": "fearGreedIndex", "split_condition": 60, "yes": 23, "no": 24, "missing": 24, "children": [{"nodeid": 23, "leaf": -0.0389754139}, {"nodeid": 24, "leaf": -0.00959003996}]}, {"nodeid": 12, "depth": 3, "split": "atrExpansionRate", "split_condition": -0.055399999, "yes": 25, "no": 26, "missing": 26, "children": [{"nodeid": 25, "leaf": 0.0266940724}, {"nodeid": 26, "leaf": -0.00957261305}]}]}, {"nodeid": 6, "depth": 2, "split": "dBBBandwidth", "split_condition": 8.38010025, "yes": 13, "no": 14, "missing": 14, "children": [{"nodeid": 13, "depth": 3, "split": "vix", "split_condition": 17.2000008, "yes": 27, "no": 28, "missing": 28, "children": [{"nodeid": 27, "leaf": 0.00453602476}, {"nodeid": 28, "leaf": 0.0661007389}]}, {"nodeid": 14, "depth": 3, "split": "hVolWeightedRsi", "split_condition": 29.0720005, "yes": 29, "no": 30, "missing": 30, "children": [{"nodeid": 29, "leaf": -0.0205622222}, {"nodeid": 30, "leaf": 0.00447855657}]}]}]}]}, {"nodeid": 0, "depth": 0, "split": "gapDirectionAligned", "split_condition": 0.0399999991, "yes": 1, "no": 2, "missing": 2, "children": [{"nodeid": 1, "depth": 1, "split": "fiftyTwoWeekPct", "split_condition": 0.1664, "yes": 3, "no": 4, "missing": 4, "children": [{"nodeid": 3, "leaf": 0.0657649189}, {"nodeid": 4, "depth": 2, "split": "hRsi", "split_condition": 70.5999985, "yes": 7, "no": 8, "missing": 8, "children": [{"nodeid": 7, "depth": 3, "split": "dAdx", "split_condition": 39.2000008, "yes": 13, "no": 14, "missing": 14, "children": [{"nodeid": 13, "leaf": 0.000658924866}, {"nodeid": 14, "leaf": -0.0304458886}]}, {"nodeid": 8, "depth": 3, "split": "fundingSlope", "split_condition": -0.00433199992, "yes": 15, "no": 16, "missing": 16, "children": [{"nodeid": 15, "leaf": 0.0101238303}, {"nodeid": 16, "leaf": 0.0586999543}]}]}]}, {"nodeid": 2, "depth": 1, "split": "vpAbovePoc", "split_condition": 0, "yes": 5, "no": 6, "missing": 6, "children": [{"nodeid": 5, "depth": 2, "split": "dAdx", "split_condition": 20.8999996, "yes": 9, "no": 10, "missing": 10, "children": [{"nodeid": 9, "depth": 3, "split": "eRsi", "split_condition": 46.2000008, "yes": 17, "no": 18, "missing": 18, "children": [{"nodeid": 17, "leaf": 0.000454591325}, {"nodeid": 18, "leaf": 0.0294913333}]}, {"nodeid": 10, "depth": 3, "split": "hBBPercentB", "split_condition": 0.404399991, "yes": 19, "no": 20, "missing": 20, "children": [{"nodeid": 19, "leaf": 0.0112183876}, {"nodeid": 20, "leaf": -0.0110696675}]}]}, {"nodeid": 6, "depth": 2, "split": "hBBPercentB", "split_condition": 1.12820005, "yes": 11, "no": 12, "missing": 12, "children": [{"nodeid": 11, "depth": 3, "split": "hBBPercentB", "split_condition": 0.118600003, "yes": 21, "no": 22, "missing": 22, "children": [{"nodeid": 21, "leaf": 0.00379392016}, {"nodeid": 22, "leaf": -0.0131953126}]}, {"nodeid": 12, "depth": 3, "split": "fundingSlope", "split_condition": -0.00636800006, "yes": 23, "no": 24, "missing": 24, "children": [{"nodeid": 23, "leaf": 0.022811424}, {"nodeid": 24, "leaf": 0.0646416843}]}]}]}]}, {"nodeid": 0, "depth": 0, "split": "hBBPercentB", "split_condition": 1.14450002, "yes": 1, "no": 2, "missing": 2, "children": [{"nodeid": 1, "depth": 1, "split": "relStrengthVsSpy", "split_condition": 0.0211999994, "yes": 3, "no": 4, "missing": 4, "children": [{"nodeid": 3, "depth": 2, "split": "relStrengthVsSpy", "split_condition": 0, "yes": 7, "no": 8, "missing": 8, "children": [{"nodeid": 7, "depth": 3, "split": "relStrengthVsSpy", "split_condition": -2.86260009, "yes": 13, "no": 14, "missing": 14, "children": [{"nodeid": 13, "leaf": 0.0171551127}, {"nodeid": 14, "leaf": -0.010982764}]}, {"nodeid": 8, "leaf": 0.0602928214}]}, {"nodeid": 4, "depth": 2, "split": "dAdx", "split_condition": 20.8999996, "yes": 9, "no": 10, "missing": 10, "children": [{"nodeid": 9, "depth": 3, "split": "relStrengthVsSpy", "split_condition": 3.51799989, "yes": 15, "no": 16, "missing": 16, "children": [{"nodeid": 15, "leaf": -0.000654347066}, {"nodeid": 16, "leaf": 0.01967231}]}, {"nodeid": 10, "depth": 3, "split": "hVolumeRatio", "split_condition": 0.970000029, "yes": 17, "no": 18, "missing": 18, "children": [{"nodeid": 17, "leaf": -0.0131412214}, {"nodeid": 18, "leaf": 0.00300235418}]}]}]}, {"nodeid": 2, "depth": 1, "split": "dRsi", "split_condition": 54.5999985, "yes": 5, "no": 6, "missing": 6, "children": [{"nodeid": 5, "leaf": 0.0635025725}, {"nodeid": 6, "depth": 2, "split": "hAdx", "split_condition": 30.6000004, "yes": 11, "no": 12, "missing": 12, "children": [{"nodeid": 11, "leaf": 0.0113416454}, {"nodeid": 12, "leaf": 0.0553093813}]}]}]}, {"nodeid": 0, "depth": 0, "split": "gapDirectionAligned", "split_condition": 0.0399999991, "yes": 1, "no": 2, "missing": 2, "children": [{"nodeid": 1, "depth": 1, "split": "relStrengthVsSpy", "split_condition": 0.0211999994, "yes": 3, "no": 4, "missing": 4, "children": [{"nodeid": 3, "leaf": 0.063593708}, {"nodeid": 4, "depth": 2, "split": "tfAlignment", "split_condition": 2, "yes": 7, "no": 8, "missing": 8, "children": [{"nodeid": 7, "depth": 3, "split": "relStrengthVsSpy", "split_condition": 10.6487999, "yes": 13, "no": 14, "missing": 14, "children": [{"nodeid": 13, "leaf": 0.0121001322}, {"nodeid": 14, "leaf": 0.0643956661}]}, {"nodeid": 8, "depth": 3, "split": "hAdxDelta", "split_condition": 1.53999996, "yes": 15, "no": 16, "missing": 16, "children": [{"nodeid": 15, "leaf": -0.0244495701}, {"nodeid": 16, "leaf": 0.00601541298}]}]}]}, {"nodeid": 2, "depth": 1, "split": "tfAlignment", "split_condition": -1, "yes": 5, "no": 6, "missing": 6, "children": [{"nodeid": 5, "depth": 2, "split": "fearGreedIndex", "split_condition": 20, "yes": 9, "no": 10, "missing": 10, "children": [{"nodeid": 9, "depth": 3, "split": "relStrengthVsSpy", "split_condition": -1.94410002, "yes": 17, "no": 18, "missing": 18, "children": [{"nodeid": 17, "leaf": 0.0476516448}, {"nodeid": 18, "leaf": -0.0110363523}]}, {"nodeid": 10, "depth": 3, "split": "gapDirectionAligned", "split_condition": 13.0799999, "yes": 19, "no": 20, "missing": 20, "children": [{"nodeid": 19, "leaf": -0.0289060604}, {"nodeid": 20, "leaf": 0.00823033415}]}]}, {"nodeid": 6, "depth": 2, "split": "tfAlignment", "split_condition": 2, "yes": 11, "no": 12, "missing": 12, "children": [{"nodeid": 11, "depth": 3, "split": "hBBSqueeze", "split_condition": 1, "yes": 21, "no": 22, "missing": 22, "children": [{"nodeid": 21, "leaf": 0.000391820184}, {"nodeid": 22, "leaf": 0.0228502378}]}, {"nodeid": 12, "depth": 3, "split": "hMacdHist", "split_condition": -0.00999999978, "yes": 23, "no": 24, "missing": 24, "children": [{"nodeid": 23, "leaf": -0.00455429405}, {"nodeid": 24, "leaf": -0.0328775309}]}]}]}]}, {"nodeid": 0, "depth": 0, "split": "dayOfWeek", "split_condition": 5, "yes": 1, "no": 2, "missing": 2, "children": [{"nodeid": 1, "depth": 1, "split": "tfAlignment", "split_condition": 2, "yes": 3, "no": 4, "missing": 4, "children": [{"nodeid": 3, "depth": 2, "split": "tfAlignment", "split_condition": -1, "yes": 7, "no": 8, "missing": 8, "children": [{"nodeid": 7, "depth": 3, "split": "dayOfWeek", "split_condition": 1, "yes": 15, "no": 16, "missing": 16, "children": [{"nodeid": 15, "leaf": 0.0237744432}, {"nodeid": 16, "leaf": -0.0172984656}]}, {"nodeid": 8, "depth": 3, "split": "dVolumeRatio", "split_condition": 0.560000002, "yes": 17, "no": 18, "missing": 18, "children": [{"nodeid": 17, "leaf": 0.0396880433}, {"nodeid": 18, "leaf": 0.0128980773}]}]}, {"nodeid": 4, "depth": 2, "split": "ethBtcRatio", "split_condition": 0.069190003, "yes": 9, "no": 10, "missing": 10, "children": [{"nodeid": 9, "depth": 3, "split": "eRsi", "split_condition": 59, "yes": 19, "no": 20, "missing": 20, "children": [{"nodeid": 19, "leaf": -0.0111126807}, {"nodeid": 20, "leaf": 0.0121576497}]}, {"nodeid": 10, "depth": 3, "split": "vixLevelCode", "split_condition": -0.25999999, "yes": 21, "no": 22, "missing": 22, "children": [{"nodeid": 21, "leaf": 0}, {"nodeid": 22, "leaf": -0.0369480513}]}]}]}, {"nodeid": 2, "depth": 1, "split": "gapDirectionAligned", "split_condition": 0.126699999, "yes": 5, "no": 6, "missing": 6, "children": [{"nodeid": 5, "depth": 2, "split": "gapDirectionAligned", "split_condition": 0, "yes": 11, "no": 12, "missing": 12, "children": [{"nodeid": 11, "depth": 3, "split": "tfAlignment", "split_condition": 2, "yes": 23, "no": 24, "missing": 24, "children": [{"nodeid": 23, "leaf": 0.00973366573}, {"nodeid": 24, "leaf": -0.0205975026}]}, {"nodeid": 12, "depth": 3, "split": "dBBPercentB", "split_condition": 0.728399992, "yes": 25, "no": 26, "missing": 26, "children": [{"nodeid": 25, "leaf": 0.0568641834}, {"nodeid": 26, "leaf": 0.0218128916}]}]}, {"nodeid": 6, "depth": 2, "split": "ethBtcRatio", "split_condition": 0.0572099984, "yes": 13, "no": 14, "missing": 14, "children": [{"nodeid": 13, "depth": 3, "split": "ethBtcRatio", "split_condition": 0.0526200011, "yes": 27, "no": 28, "missing": 28, "children": [{"nodeid": 27, "leaf": -0.0154194226}, {"nodeid": 28, "leaf": 0.0442830883}]}, {"nodeid": 14, "depth": 3, "split": "basisPct", "split_condition": 0.00208700006, "yes": 29, "no": 30, "missing": 30, "children": [{"nodeid": 29, "leaf": -0.0313873999}, {"nodeid": 30, "leaf": 0.00651513133}]}]}]}]}, {"nodeid": 0, "depth": 0, "split": "dayOfWeek", "split_condition": 5, "yes": 1, "no": 2, "missing": 2, "children": [{"nodeid": 1, "depth": 1, "split": "tfAlignment", "split_condition": 2, "yes": 3, "no": 4, "missing": 4, "children": [{"nodeid": 3, "depth": 2, "split": "tfAlignment", "split_condition": -1, "yes": 7, "no": 8, "missing": 8, "children": [{"nodeid": 7, "depth": 3, "split": "gapDirectionAligned", "split_condition": 0.0399999991, "yes": 15, "no": 16, "missing": 16, "children": [{"nodeid": 15, "leaf": 0.0589492135}, {"nodeid": 16, "leaf": -0.0122565646}]}, {"nodeid": 8, "depth": 3, "split": "dVolumeRatio", "split_condition": 0.829999983, "yes": 17, "no": 18, "missing": 18, "children": [{"nodeid": 17, "leaf": 0.0257727038}, {"nodeid": 18, "leaf": 0.00766057521}]}]}, {"nodeid": 4, "depth": 2, "split": "eStochK", "split_condition": 59.2000008, "yes": 9, "no": 10, "missing": 10, "children": [{"nodeid": 9, "depth": 3, "split": "gapPercent", "split_condition": 10.4770002, "yes": 19, "no": 20, "missing": 20, "children": [{"nodeid": 19, "leaf": 0.00904479623}, {"nodeid": 20, "leaf": -0.0341234915}]}, {"nodeid": 10, "depth": 3, "split": "hMacdHistDelta", "split_condition": -1.73000002, "yes": 21, "no": 22, "missing": 22, "children": [{"nodeid": 21, "leaf": -0.0220282059}, {"nodeid": 22, "leaf": 0.0133338617}]}]}]}, {"nodeid": 2, "depth": 1, "split": "gapDirectionAligned", "split_condition": 0.126699999, "yes": 5, "no": 6, "missing": 6, "children": [{"nodeid": 5, "depth": 2, "split": "gapDirectionAligned", "split_condition": 0, "yes": 11, "no": 12, "missing": 12, "children": [{"nodeid": 11, "depth": 3, "split": "tfAlignment", "split_condition": 2, "yes": 23, "no": 24, "missing": 24, "children": [{"nodeid": 23, "leaf": 0.00682076812}, {"nodeid": 24, "leaf": -0.0220456831}]}, {"nodeid": 12, "leaf": 0.0485008322}]}, {"nodeid": 6, "depth": 2, "split": "beta", "split_condition": 1.55999994, "yes": 13, "no": 14, "missing": 14, "children": [{"nodeid": 13, "depth": 3, "split": "hVolWeightedRsi", "split_condition": 32.8889999, "yes": 25, "no": 26, "missing": 26, "children": [{"nodeid": 25, "leaf": -0.0158892851}, {"nodeid": 26, "leaf": 0.003068547}]}, {"nodeid": 14, "depth": 3, "split": "hBBSqueeze", "split_condition": 1, "yes": 27, "no": 28, "missing": 28, "children": [{"nodeid": 27, "leaf": -0.0384730659}, {"nodeid": 28, "leaf": 0.00377447973}]}]}]}]}, {"nodeid": 0, "depth": 0, "split": "gapDirectionAligned", "split_condition": 0.0399999991, "yes": 1, "no": 2, "missing": 2, "children": [{"nodeid": 1, "depth": 1, "split": "gapDirectionAligned", "split_condition": 0, "yes": 3, "no": 4, "missing": 4, "children": [{"nodeid": 3, "depth": 2, "split": "atrPercentile", "split_condition": 9, "yes": 7, "no": 8, "missing": 8, "children": [{"nodeid": 7, "depth": 3, "split": "dBBBandwidth", "split_condition": 22.1587009, "yes": 13, "no": 14, "missing": 14, "children": [{"nodeid": 13, "leaf": 0.0379524343}, {"nodeid": 14, "leaf": -0.000411412766}]}, {"nodeid": 8, "depth": 3, "split": "fundingSlope", "split_condition": 0.00322999991, "yes": 15, "no": 16, "missing": 16, "children": [{"nodeid": 15, "leaf": -0.0090437727}, {"nodeid": 16, "leaf": 0.0314909928}]}]}, {"nodeid": 4, "leaf": 0.0570017397}]}, {"nodeid": 2, "depth": 1, "split": "vpAbovePoc", "split_condition": -0.00999999978, "yes": 5, "no": 6, "missing": 6, "children": [{"nodeid": 5, "depth": 2, "split": "dBBBandwidth", "split_condition": 40.926899, "yes": 9, "no": 10, "missing": 10, "children": [{"nodeid": 9, "depth": 3, "split": "dStructBear", "split_condition": 1, "yes": 17, "no": 18, "missing": 18, "children": [{"nodeid": 17, "leaf": 0.00232742843}, {"nodeid": 18, "leaf": 0.0244787596}]}, {"nodeid": 10, "depth": 3, "split": "dRsi", "split_condition": 41.0999985, "yes": 19, "no": 20, "missing": 20, "children": [{"nodeid": 19, "leaf": -0.031915132}, {"nodeid": 20, "leaf": 0}]}]}, {"nodeid": 6, "depth": 2, "split": "gapDirectionAligned", "split_condition": 2.6243999, "yes": 11, "no": 12, "missing": 12, "children": [{"nodeid": 11, "depth": 3, "split": "fearGreedIndex", "split_condition": 25, "yes": 21, "no": 22, "missing": 22, "children": [{"nodeid": 21, "leaf": 0.0114271799}, {"nodeid": 22, "leaf": -0.0197116937}]}, {"nodeid": 12, "depth": 3, "split": "dRsi", "split_condition": 45.9000015, "yes": 23, "no": 24, "missing": 24, "children": [{"nodeid": 23, "leaf": -0.00910411403}, {"nodeid": 24, "leaf": 0.00990201626}]}]}]}]}, {"nodeid": 0, "depth": 0, "split": "dayOfWeek", "split_condition": 5, "yes": 1, "no": 2, "missing": 2, "children": [{"nodeid": 1, "depth": 1, "split": "atrPercent", "split_condition": 1.56910002, "yes": 3, "no": 4, "missing": 4, "children": [{"nodeid": 3, "depth": 2, "split": "gapDirectionAligned", "split_condition": 0.0399999991, "yes": 7, "no": 8, "missing": 8, "children": [{"nodeid": 7, "depth": 3, "split": "dEmaCross", "split_condition": 3, "yes": 15, "no": 16, "missing": 16, "children": [{"nodeid": 15, "leaf": 0.0582251064}, {"nodeid": 16, "leaf": 0.00933021307}]}, {"nodeid": 8, "depth": 3, "split": "gapDirectionAligned", "split_condition": 5.5250001, "yes": 17, "no": 18, "missing": 18, "children": [{"nodeid": 17, "leaf": 0.00405310234}, {"nodeid": 18, "leaf": 0.0332972035}]}]}, {"nodeid": 4, "depth": 2, "split": "dStochK", "split_condition": 5.5999999, "yes": 9, "no": 10, "missing": 10, "children": [{"nodeid": 9, "depth": 3, "split": "dVolumeRatio", "split_condition": 1.38, "yes": 19, "no": 20, "missing": 20, "children": [{"nodeid": 19, "leaf": 0.0381182134}, {"nodeid": 20, "leaf": -0.00452746917}]}, {"nodeid": 10, "depth": 3, "split": "hStochK", "split_condition": 2.4000001, "yes": 21, "no": 22, "missing": 22, "children": [{"nodeid": 21, "leaf": -0.0305819847}, {"nodeid": 22, "leaf": 7.55769943e-05}]}]}]}, {"nodeid": 2, "depth": 1, "split": "dayOfWeek", "split_condition": 6, "yes": 5, "no": 6, "missing": 6, "children": [{"nodeid": 5, "depth": 2, "split": "gapDirectionAligned", "split_condition": 0.126699999, "yes": 11, "no": 12, "missing": 12, "children": [{"nodeid": 11, "depth": 3, "split": "fiftyTwoWeekPct", "split_condition": 0.376700014, "yes": 23, "no": 24, "missing": 24, "children": [{"nodeid": 23, "leaf": 0.0527732559}, {"nodeid": 24, "leaf": -0.0143749593}]}, {"nodeid": 12, "depth": 3, "split": "fearGreedIndex", "split_condition": 14, "yes": 25, "no": 26, "missing": 26, "children": [{"nodeid": 25, "leaf": 0.0160812326}, {"nodeid": 26, "leaf": -0.0364791155}]}]}, {"nodeid": 6, "depth": 2, "split": "dBBBandwidth", "split_condition": 7.87279987, "yes": 13, "no": 14, "missing": 14, "children": [{"nodeid": 13, "leaf": 0.0462609604}, {"nodeid": 14, "depth": 3, "split": "vix", "split_condition": 22.8999996, "yes": 27, "no": 28, "missing": 28, "children": [{"nodeid": 27, "leaf": -0.0152728604}, {"nodeid": 28, "leaf": 0.00848297123}]}]}]}]}, {"nodeid": 0, "depth": 0, "split": "hVolWeightedRsi", "split_condition": 41.480999, "yes": 1, "no": 2, "missing": 2, "children": [{"nodeid": 1, "depth": 1, "split": "dAdx", "split_condition": 27.2000008, "yes": 3, "no": 4, "missing": 4, "children": [{"nodeid": 3, "depth": 2, "split": "dStochK", "split_condition": 5.5999999, "yes": 7, "no": 8, "missing": 8, "children": [{"nodeid": 7, "depth": 3, "split": "dAdx", "split_condition": 23.1000004, "yes": 15, "no": 16, "missing": 16, "children": [{"nodeid": 15, "leaf": 0.0302801169}, {"nodeid": 16, "leaf": -0.00344206369}]}, {"nodeid": 8, "depth": 3, "split": "hVolumeRatio", "split_condition": 0.289999992, "yes": 17, "no": 18, "missing": 18, "children": [{"nodeid": 17, "leaf": -0.0339306742}, {"nodeid": 18, "leaf": 0.000586074777}]}]}, {"nodeid": 4, "depth": 2, "split": "dStochK", "split_condition": 12, "yes": 9, "no": 10, "missing": 10, "children": [{"nodeid": 9, "depth": 3, "split": "hMacdHist", "split_condition": 1.42999995, "yes": 19, "no": 20, "missing": 20, "children": [{"nodeid": 19, "leaf": -0.0032526569}, {"nodeid": 20, "leaf": 0.0277040694}]}, {"nodeid": 10, "depth": 3, "split": "hAdxBullish", "split_condition": 1, "yes": 21, "no": 22, "missing": 22, "children": [{"nodeid": 21, "leaf": -0.0227870066}, {"nodeid": 22, "leaf": -0.00548641616}]}]}]}, {"nodeid": 2, "depth": 1, "split": "hMacdHist", "split_condition": 20.8600006, "yes": 5, "no": 6, "missing": 6, "children": [{"nodeid": 5, "depth": 2, "split": "volScalarML", "split_condition": 0.779999971, "yes": 11, "no": 12, "missing": 12, "children": [{"nodeid": 11, "depth": 3, "split": "barsSinceRegimeChange", "split_condition": 17, "yes": 23, "no": 24, "missing": 24, "children": [{"nodeid": 23, "leaf": -0.00581035949}, {"nodeid": 24, "leaf": 0.033766184}]}, {"nodeid": 12, "depth": 3, "split": "gapPercent", "split_condition": 29.9582005, "yes": 25, "no": 26, "missing": 26, "children": [{"nodeid": 25, "leaf": 0.00961306877}, {"nodeid": 26, "leaf": -0.0117393751}]}]}, {"nodeid": 6, "depth": 2, "split": "hVolWeightedRsi", "split_condition": 95.0400009, "yes": 13, "no": 14, "missing": 14, "children": [{"nodeid": 13, "depth": 3, "split": "hVolumeRatio", "split_condition": 0.829999983, "yes": 27, "no": 28, "missing": 28, "children": [{"nodeid": 27, "leaf": 0}, {"nodeid": 28, "leaf": -0.0342966206}]}, {"nodeid": 14, "leaf": 0.0174590182}]}]}]}, {"nodeid": 0, "depth": 0, "split": "gapDirectionAligned", "split_condition": 0.0399999991, "yes": 1, "no": 2, "missing": 2, "children": [{"nodeid": 1, "depth": 1, "split": "relStrengthVsSpy", "split_condition": 0.0211999994, "yes": 3, "no": 4, "missing": 4, "children": [{"nodeid": 3, "leaf": 0.0609429143}, {"nodeid": 4, "depth": 2, "split": "atrPercent", "split_condition": 1.58829999, "yes": 7, "no": 8, "missing": 8, "children": [{"nodeid": 7, "depth": 3, "split": "gapDirectionAligned", "split_condition": -1.02269995, "yes": 13, "no": 14, "missing": 14, "children": [{"nodeid": 13, "leaf": 0.0515236445}, {"nodeid": 14, "leaf": -0.00277094124}]}, {"nodeid": 8, "depth": 3, "split": "dAdx", "split_condition": 20.2999992, "yes": 15, "no": 16, "missing": 16, "children": [{"nodeid": 15, "leaf": 0.019874515}, {"nodeid": 16, "leaf": -0.0122460313}]}]}]}, {"nodeid": 2, "depth": 1, "split": "vpAbovePoc", "split_condition": 0, "yes": 5, "no": 6, "missing": 6, "children": [{"nodeid": 5, "depth": 2, "split": "hVolumeRatio", "split_condition": 0.330000013, "yes": 9, "no": 10, "missing": 10, "children": [{"nodeid": 9, "leaf": -0.0442857333}, {"nodeid": 10, "depth": 3, "split": "relStrengthVsSpy", "split_condition": -1.80659997, "yes": 17, "no": 18, "missing": 18, "children": [{"nodeid": 17, "leaf": 0.041420646}, {"nodeid": 18, "leaf": 0.00553833926}]}]}, {"nodeid": 6, "depth": 2, "split": "hBBPercentB", "split_condition": 1.12820005, "yes": 11, "no": 12, "missing": 12, "children": [{"nodeid": 11, "depth": 3, "split": "gapDirectionAligned", "split_condition": 2.49959993, "yes": 19, "no": 20, "missing": 20, "children": [{"nodeid": 19, "leaf": -0.017099319}, {"nodeid": 20, "leaf": -0.00337232999}]}, {"nodeid": 12, "depth": 3, "split": "fundingSlope", "split_condition": -0.00750900013, "yes": 21, "no": 22, "missing": 22, "children": [{"nodeid": 21, "leaf": 0.0177560113}, {"nodeid": 22, "leaf": 0.0604746304}]}]}]}]}, {"nodeid": 0, "depth": 0, "split": "dayOfWeek", "split_condition": 5, "yes": 1, "no": 2, "missing": 2, "children": [{"nodeid": 1, "depth": 1, "split": "relStrengthVsSpy", "split_condition": 0.0211999994, "yes": 3, "no": 4, "missing": 4, "children": [{"nodeid": 3, "depth": 2, "split": "fiftyTwoWeekPct", "split_condition": -0.515900016, "yes": 7, "no": 8, "missing": 8, "children": [{"nodeid": 7, "depth": 3, "split": "dayOfWeek", "split_condition": 1, "yes": 15, "no": 16, "missing": 16, "children": [{"nodeid": 15, "leaf": 0.0453482531}, {"nodeid": 16, "leaf": -0.00240215776}]}, {"nodeid": 8, "leaf": 0.060072165}]}, {"nodeid": 4, "depth": 2, "split": "hBBPercentB", "split_condition": 1.16419995, "yes": 9, "no": 10, "missing": 10, "children": [{"nodeid": 9, "depth": 3, "split": "atrPercent", "split_condition": 5.24590015, "yes": 17, "no": 18, "missing": 18, "children": [{"nodeid": 17, "leaf": 0.000788297679}, {"nodeid": 18, "leaf": -0.0280881431}]}, {"nodeid": 10, "depth": 3, "split": "fundingSlope", "split_condition": -0.00889999978, "yes": 19, "no": 20, "missing": 20, "children": [{"nodeid": 19, "leaf": 0.0121455658}, {"nodeid": 20, "leaf": 0.0611455217}]}]}]}, {"nodeid": 2, "depth": 1, "split": "vixLevelCode", "split_condition": 2.58999991, "yes": 5, "no": 6, "missing": 6, "children": [{"nodeid": 5, "depth": 2, "split": "hDivergence", "split_condition": 0, "yes": 11, "no": 12, "missing": 12, "children": [{"nodeid": 11, "depth": 3, "split": "dStochK", "split_condition": 94, "yes": 21, "no": 22, "missing": 22, "children": [{"nodeid": 21, "leaf": 0.00781723671}, {"nodeid": 22, "leaf": 0.0452792533}]}, {"nodeid": 12, "depth": 3, "split": "gapDirectionAligned", "split_condition": 0.126699999, "yes": 23, "no": 24, "missing": 24, "children": [{"nodeid": 23, "leaf": 0.00581822824}, {"nodeid": 24, "leaf": -0.0146949692}]}]}, {"nodeid": 6, "depth": 2, "split": "fiftyTwoWeekPct", "split_condition": -3.8599999, "yes": 13, "no": 14, "missing": 14, "children": [{"nodeid": 13, "leaf": -0.00247348589}, {"nodeid": 14, "depth": 3, "split": "dAdxDelta", "split_condition": 0.439999998, "yes": 25, "no": 26, "missing": 26, "children": [{"nodeid": 25, "leaf": -0.0567000993}, {"nodeid": 26, "leaf": -0.0260813329}]}]}]}]}, {"nodeid": 0, "depth": 0, "split": "dayOfWeek", "split_condition": 5, "yes": 1, "no": 2, "missing": 2, "children": [{"nodeid": 1, "depth": 1, "split": "tfAlignment", "split_condition": 2, "yes": 3, "no": 4, "missing": 4, "children": [{"nodeid": 3, "depth": 2, "split": "tfAlignment", "split_condition": -1, "yes": 7, "no": 8, "missing": 8, "children": [{"nodeid": 7, "depth": 3, "split": "gapDirectionAligned", "split_condition": 0.0399999991, "yes": 15, "no": 16, "missing": 16, "children": [{"nodeid": 15, "leaf": 0.0543643124}, {"nodeid": 16, "leaf": -0.0111359367}]}, {"nodeid": 8, "depth": 3, "split": "dVolumeRatio", "split_condition": 0.560000002, "yes": 17, "no": 18, "missing": 18, "children": [{"nodeid": 17, "leaf": 0.0360342935}, {"nodeid": 18, "leaf": 0.0113448408}]}]}, {"nodeid": 4, "depth": 2, "split": "eStochK", "split_condition": 89.0999985, "yes": 9, "no": 10, "missing": 10, "children": [{"nodeid": 9, "depth": 3, "split": "dAdxDelta", "split_condition": 1.86000001, "yes": 19, "no": 20, "missing": 20, "children": [{"nodeid": 19, "leaf": -0.0240882691}, {"nodeid": 20, "leaf": 0.00870213937}]}, {"nodeid": 10, "depth": 3, "split": "fearGreedIndex", "split_condition": 56, "yes": 21, "no": 22, "missing": 22, "children": [{"nodeid": 21, "leaf": -0.0166110788}, {"nodeid": 22, "leaf": 0.0323740579}]}]}]}, {"nodeid": 2, "depth": 1, "split": "gapDirectionAligned", "split_condition": 0.0399999991, "yes": 5, "no": 6, "missing": 6, "children": [{"nodeid": 5, "depth": 2, "split": "relStrengthVsSpy", "split_condition": 0.0211999994, "yes": 11, "no": 12, "missing": 12, "children": [{"nodeid": 11, "leaf": 0.0559887365}, {"nodeid": 12, "depth": 3, "split": "dAdx", "split_condition": 23.2000008, "yes": 23, "no": 24, "missing": 24, "children": [{"nodeid": 23, "leaf": 0.0174756553}, {"nodeid": 24, "leaf": -0.0167056657}]}]}, {"nodeid": 6, "depth": 2, "split": "vix", "split_condition": 23.1000004, "yes": 13, "no": 14, "missing": 14, "children": [{"nodeid": 13, "depth": 3, "split": "fearGreedIndex", "split_condition": 49, "yes": 25, "no": 26, "missing": 26, "children": [{"nodeid": 25, "leaf": -0.0378891714}, {"nodeid": 26, "leaf": -0.0111500667}]}, {"nodeid": 14, "depth": 3, "split": "dAdx", "split_condition": 41.7000008, "yes": 27, "no": 28, "missing": 28, "children": [{"nodeid": 27, "leaf": 0.0011945063}, {"nodeid": 28, "leaf": -0.0450227372}]}]}]}]}, {"nodeid": 0, "depth": 0, "split": "tfAlignment", "split_condition": 2, "yes": 1, "no": 2, "missing": 2, "children": [{"nodeid": 1, "depth": 1, "split": "tfAlignment", "split_condition": -1, "yes": 3, "no": 4, "missing": 4, "children": [{"nodeid": 3, "depth": 2, "split": "relStrengthVsSpy", "split_condition": 0.274599999, "yes": 7, "no": 8, "missing": 8, "children": [{"nodeid": 7, "depth": 3, "split": "fiftyTwoWeekPct", "split_condition": -0.465900004, "yes": 15, "no": 16, "missing": 16, "children": [{"nodeid": 15, "leaf": -0.0089959614}, {"nodeid": 16, "leaf": 0.0567255802}]}, {"nodeid": 8, "depth": 3, "split": "ethBtcRatio", "split_condition": 0.0682620034, "yes": 17, "no": 18, "missing": 18, "children": [{"nodeid": 17, "leaf": -0.0270086806}, {"nodeid": 18, "leaf": -0.00708310539}]}]}, {"nodeid": 4, "depth": 2, "split": "hBBSqueeze", "split_condition": 1, "yes": 9, "no": 10, "missing": 10, "children": [{"nodeid": 9, "depth": 3, "split": "dRsiDelta", "split_condition": 4.55000019, "yes": 19, "no": 20, "missing": 20, "children": [{"nodeid": 19, "leaf": 0.00101158768}, {"nodeid": 20, "leaf": 0.0195551403}]}, {"nodeid": 10, "depth": 3, "split": "fundingSlope", "split_condition": -0.00101899996, "yes": 21, "no": 22, "missing": 22, "children": [{"nodeid": 21, "leaf": 0.0303800944}, {"nodeid": 22, "leaf": 0.000854270533}]}]}]}, {"nodeid": 2, "depth": 1, "split": "dStochK", "split_condition": 57.4000015, "yes": 5, "no": 6, "missing": 6, "children": [{"nodeid": 5, "depth": 2, "split": "ethBtcRatio", "split_condition": 0.0302559994, "yes": 11, "no": 12, "missing": 12, "children": [{"nodeid": 11, "leaf": 0.00959661417}, {"nodeid": 12, "depth": 3, "split": "basisPct", "split_condition": -0.0382370017, "yes": 23, "no": 24, "missing": 24, "children": [{"nodeid": 23, "leaf": -0.0639088079}, {"nodeid": 24, "leaf": -0.0266530272}]}]}, {"nodeid": 6, "depth": 2, "split": "fiftyTwoWeekPct", "split_condition": 0.30219999, "yes": 13, "no": 14, "missing": 14, "children": [{"nodeid": 13, "depth": 3, "split": "ethBtcRatio", "split_condition": 0.0521299988, "yes": 25, "no": 26, "missing": 26, "children": [{"nodeid": 25, "leaf": 0.0559737161}, {"nodeid": 26, "leaf": -0.00213239575}]}, {"nodeid": 14, "depth": 3, "split": "fiftyTwoWeekPct", "split_condition": 1.76359999, "yes": 27, "no": 28, "missing": 28, "children": [{"nodeid": 27, "leaf": -0.0338119157}, {"nodeid": 28, "leaf": -0.00440610526}]}]}]}]}, {"nodeid": 0, "depth": 0, "split": "dayOfWeek", "split_condition": 5, "yes": 1, "no": 2, "missing": 2, "children": [{"nodeid": 1, "depth": 1, "split": "relStrengthVsSpy", "split_condition": 0.0211999994, "yes": 3, "no": 4, "missing": 4, "children": [{"nodeid": 3, "depth": 2, "split": "gapDirectionAligned", "split_condition": 2.66810012, "yes": 7, "no": 8, "missing": 8, "children": [{"nodeid": 7, "leaf": 0.0594284795}, {"nodeid": 8, "depth": 3, "split": "gapDirectionAligned", "split_condition": 6.34670019, "yes": 15, "no": 16, "missing": 16, "children": [{"nodeid": 15, "leaf": -0.0211896691}, {"nodeid": 16, "leaf": 0.0197601188}]}]}, {"nodeid": 4, "depth": 2, "split": "hMacdHistDelta", "split_condition": 0.0599999987, "yes": 9, "no": 10, "missing": 10, "children": [{"nodeid": 9, "depth": 3, "split": "dMacdHist", "split_condition": 0.649999976, "yes": 17, "no": 18, "missing": 18, "children": [{"nodeid": 17, "leaf": -0.00915713515}, {"nodeid": 18, "leaf": 0.0103549631}]}, {"nodeid": 10, "depth": 3, "split": "volScalarML", "split_condition": 1.01999998, "yes": 19, "no": 20, "missing": 20, "children": [{"nodeid": 19, "leaf": 0.0210476723}, {"nodeid": 20, "leaf": -0.00173807726}]}]}]}, {"nodeid": 2, "depth": 1, "split": "vix", "split_condition": 22.8999996, "yes": 5, "no": 6, "missing": 6, "children": [{"nodeid": 5, "depth": 2, "split": "vixLevelCode", "split_condition": 2.0999999, "yes": 11, "no": 12, "missing": 12, "children": [{"nodeid": 11, "depth": 3, "split": "dRsi", "split_condition": 52.7999992, "yes": 21, "no": 22, "missing": 22, "children": [{"nodeid": 21, "leaf": -0.0272826143}, {"nodeid": 22, "leaf": -0.00333417393}]}, {"nodeid": 12, "depth": 3, "split": "ethBtcDelta6", "split_condition": -0.41960001, "yes": 23, "no": 24, "missing": 24, "children": [{"nodeid": 23, "leaf": -0.0233628098}, {"nodeid": 24, "leaf": -0.0624978952}]}]}, {"nodeid": 6, "depth": 2, "split": "fearGreedIndex", "split_condition": 25, "yes": 13, "no": 14, "missing": 14, "children": [{"nodeid": 13, "depth": 3, "split": "eRsi", "split_condition": 38.7000008, "yes": 25, "no": 26, "missing": 26, "children": [{"nodeid": 25, "leaf": 0.0203102808}, {"nodeid": 26, "leaf": -0.0225986224}]}, {"nodeid": 14, "depth": 3, "split": "dMacdHist", "split_condition": 2.27999997, "yes": 27, "no": 28, "missing": 28, "children": [{"nodeid": 27, "leaf": 0.0240577068}, {"nodeid": 28, "leaf": -0.0184123293}]}]}]}]}, {"nodeid": 0, "depth": 0, "split": "dAdx", "split_condition": 23.5, "yes": 1, "no": 2, "missing": 2, "children": [{"nodeid": 1, "depth": 1, "split": "atrExpansionRate", "split_condition": -0.0303000007, "yes": 3, "no": 4, "missing": 4, "children": [{"nodeid": 3, "depth": 2, "split": "dMacdHist", "split_condition": -1.52999997, "yes": 7, "no": 8, "missing": 8, "children": [{"nodeid": 7, "depth": 3, "split": "hMacdHistDelta", "split_condition": 11.29, "yes": 15, "no": 16, "missing": 16, "children": [{"nodeid": 15, "leaf": -0.0263270978}, {"nodeid": 16, "leaf": 0.0114878919}]}, {"nodeid": 8, "depth": 3, "split": "hMacdHistDelta", "split_condition": -1.02999997, "yes": 17, "no": 18, "missing": 18, "children": [{"nodeid": 17, "leaf": 0.0280804541}, {"nodeid": 18, "leaf": -0.000588686962}]}]}, {"nodeid": 4, "depth": 2, "split": "atrExpansionRate", "split_condition": -0.0198999997, "yes": 9, "no": 10, "missing": 10, "children": [{"nodeid": 9, "depth": 3, "split": "vix", "split_condition": 24.7999992, "yes": 19, "no": 20, "missing": 20, "children": [{"nodeid": 19, "leaf": 0.0427539088}, {"nodeid": 20, "leaf": 0.0107704224}]}, {"nodeid": 10, "depth": 3, "split": "eStochK", "split_condition": 53.7000008, "yes": 21, "no": 22, "missing": 22, "children": [{"nodeid": 21, "leaf": 3.10413561e-05}, {"nodeid": 22, "leaf": 0.0193744805}]}]}]}, {"nodeid": 2, "depth": 1, "split": "eStochK", "split_condition": 5.5, "yes": 5, "no": 6, "missing": 6, "children": [{"nodeid": 5, "depth": 2, "split": "vix", "split_condition": 19.7999992, "yes": 11, "no": 12, "missing": 12, "children": [{"nodeid": 11, "depth": 3, "split": "vpDistToPocATR", "split_condition": 7.8499999, "yes": 23, "no": 24, "missing": 24, "children": [{"nodeid": 23, "leaf": -0.0179576669}, {"nodeid": 24, "leaf": 0.0161722377}]}, {"nodeid": 12, "depth": 3, "split": "vix", "split_condition": 25.7999992, "yes": 25, "no": 26, "missing": 26, "children": [{"nodeid": 25, "leaf": -0.0573999286}, {"nodeid": 26, "leaf": -0.0176919233}]}]}, {"nodeid": 6, "depth": 2, "split": "dAdx", "split_condition": 24.8999996, "yes": 13, "no": 14, "missing": 14, "children": [{"nodeid": 13, "depth": 3, "split": "eStochK", "split_condition": 91.5999985, "yes": 27, "no": 28, "missing": 28, "children": [{"nodeid": 27, "leaf": -0.0150548564}, {"nodeid": 28, "leaf": -0.063102223}]}, {"nodeid": 14, "depth": 3, "split": "vpDistToPocATR", "split_condition": -7.67999983, "yes": 29, "no": 30, "missing": 30, "children": [{"nodeid": 29, "leaf": 0.0165610723}, {"nodeid": 30, "leaf": -0.00196518865}]}]}]}]}, {"nodeid": 0, "depth": 0, "split": "dayOfWeek", "split_condition": 5, "yes": 1, "no": 2, "missing": 2, "children": [{"nodeid": 1, "depth": 1, "split": "hBBPercentB", "split_condition": 1.16419995, "yes": 3, "no": 4, "missing": 4, "children": [{"nodeid": 3, "depth": 2, "split": "relStrengthVsSpy", "split_condition": 0.0211999994, "yes": 7, "no": 8, "missing": 8, "children": [{"nodeid": 7, "depth": 3, "split": "fiftyTwoWeekPct", "split_condition": -0.515900016, "yes": 15, "no": 16, "missing": 16, "children": [{"nodeid": 15, "leaf": 0.00319805113}, {"nodeid": 16, "leaf": 0.0580284111}]}, {"nodeid": 8, "depth": 3, "split": "atrPercent", "split_condition": 2.65619993, "yes": 17, "no": 18, "missing": 18, "children": [{"nodeid": 17, "leaf": 0.00453822594}, {"nodeid": 18, "leaf": -0.00841367431}]}]}, {"nodeid": 4, "depth": 2, "split": "hAdx", "split_condition": 23.7000008, "yes": 9, "no": 10, "missing": 10, "children": [{"nodeid": 9, "leaf": 0.0235638563}, {"nodeid": 10, "leaf": 0.0595752783}]}]}, {"nodeid": 2, "depth": 1, "split": "vixLevelCode", "split_condition": 4.86000013, "yes": 5, "no": 6, "missing": 6, "children": [{"nodeid": 5, "depth": 2, "split": "ethBtcRatio", "split_condition": 0.0572099984, "yes": 11, "no": 12, "missing": 12, "children": [{"nodeid": 11, "depth": 3, "split": "gapPercent", "split_condition": 12.6884003, "yes": 19, "no": 20, "missing": 20, "children": [{"nodeid": 19, "leaf": 0.0361146219}, {"nodeid": 20, "leaf": -0.00418160902}]}, {"nodeid": 12, "depth": 3, "split": "dayOfWeek", "split_condition": 6, "yes": 21, "no": 22, "missing": 22, "children": [{"nodeid": 21, "leaf": -0.0208202507}, {"nodeid": 22, "leaf": -0.00379032129}]}]}, {"nodeid": 6, "depth": 2, "split": "hAdx", "split_condition": 34.7999992, "yes": 13, "no": 14, "missing": 14, "children": [{"nodeid": 13, "leaf": -0.054312475}, {"nodeid": 14, "leaf": -0.0109989634}]}]}]}, {"nodeid": 0, "depth": 0, "split": "hBBPercentB", "split_condition": 0.949500024, "yes": 1, "no": 2, "missing": 2, "children": [{"nodeid": 1, "depth": 1, "split": "ethBtcDelta6", "split_condition": -2.89479995, "yes": 3, "no": 4, "missing": 4, "children": [{"nodeid": 3, "depth": 2, "split": "ethBtcDelta6", "split_condition": -3.7671001, "yes": 7, "no": 8, "missing": 8, "children": [{"nodeid": 7, "depth": 3, "split": "hBBPercentB", "split_condition": 0.0702999979, "yes": 15, "no": 16, "missing": 16, "children": [{"nodeid": 15, "leaf": 0.0227564741}, {"nodeid": 16, "leaf": -0.0179795511}]}, {"nodeid": 8, "depth": 3, "split": "volScalarML", "split_condition": 1.13999999, "yes": 17, "no": 18, "missing": 18, "children": [{"nodeid": 17, "leaf": 0.0539991856}, {"nodeid": 18, "leaf": 0.000861438457}]}]}, {"nodeid": 4, "depth": 2, "split": "dAdx", "split_condition": 41.7999992, "yes": 9, "no": 10, "missing": 10, "children": [{"nodeid": 9, "depth": 3, "split": "beta", "split_condition": 4.69000006, "yes": 19, "no": 20, "missing": 20, "children": [{"nodeid": 19, "leaf": 0.00111794693}, {"nodeid": 20, "leaf": -0.0179107841}]}, {"nodeid": 10, "depth": 3, "split": "barsSinceRegimeChange", "split_condition": 87, "yes": 21, "no": 22, "missing": 22, "children": [{"nodeid": 21, "leaf": -0.0335553735}, {"nodeid": 22, "leaf": -0.00784192793}]}]}]}, {"nodeid": 2, "depth": 1, "split": "dStructBull", "split_condition": 1, "yes": 5, "no": 6, "missing": 6, "children": [{"nodeid": 5, "depth": 2, "split": "fundingSlope", "split_condition": -0.00933600031, "yes": 11, "no": 12, "missing": 12, "children": [{"nodeid": 11, "depth": 3, "split": "vixLevelCode", "split_condition": 0.0700000003, "yes": 23, "no": 24, "missing": 24, "children": [{"nodeid": 23, "leaf": 0.0297742877}, {"nodeid": 24, "leaf": -0.00476630172}]}, {"nodeid": 12, "depth": 3, "split": "basisPct", "split_condition": -0.0725750029, "yes": 25, "no": 26, "missing": 26, "children": [{"nodeid": 25, "leaf": 0}, {"nodeid": 26, "leaf": 0.0513005741}]}]}, {"nodeid": 6, "depth": 2, "split": "dRsiDelta", "split_condition": 5.82000017, "yes": 13, "no": 14, "missing": 14, "children": [{"nodeid": 13, "depth": 3, "split": "last3Green", "split_condition": 1, "yes": 27, "no": 28, "missing": 28, "children": [{"nodeid": 27, "leaf": -0.0380146466}, {"nodeid": 28, "leaf": -0.00186293502}]}, {"nodeid": 14, "depth": 3, "split": "dRsiDelta", "split_condition": 7.78999996, "yes": 29, "no": 30, "missing": 30, "children": [{"nodeid": 29, "leaf": 0.0364871547}, {"nodeid": 30, "leaf": -0.00187548797}]}]}]}]}, {"nodeid": 0, "depth": 0, "split": "tfAlignment", "split_condition": 2, "yes": 1, "no": 2, "missing": 2, "children": [{"nodeid": 1, "depth": 1, "split": "tfAlignment", "split_condition": -1, "yes": 3, "no": 4, "missing": 4, "children": [{"nodeid": 3, "depth": 2, "split": "ethBtcDelta6", "split_condition": -4.46820021, "yes": 7, "no": 8, "missing": 8, "children": [{"nodeid": 7, "leaf": 0.0310165044}, {"nodeid": 8, "depth": 3, "split": "eRsi", "split_condition": 37.2999992, "yes": 15, "no": 16, "missing": 16, "children": [{"nodeid": 15, "leaf": -0.0322601683}, {"nodeid": 16, "leaf": -0.00937690493}]}]}, {"nodeid": 4, "depth": 2, "split": "hBBPercentB", "split_condition": 1.12820005, "yes": 9, "no": 10, "missing": 10, "children": [{"nodeid": 9, "depth": 3, "split": "fiftyTwoWeekPct", "split_condition": -0.0324999988, "yes": 17, "no": 18, "missing": 18, "children": [{"nodeid": 17, "leaf": 0.000103170147}, {"nodeid": 18, "leaf": 0.011449595}]}, {"nodeid": 10, "depth": 3, "split": "eMacdHist", "split_condition": 0.140000001, "yes": 19, "no": 20, "missing": 20, "children": [{"nodeid": 19, "leaf": 0.0592288971}, {"nodeid": 20, "leaf": 0.0168347042}]}]}]}, {"nodeid": 2, "depth": 1, "split": "hAdxDelta", "split_condition": 7.21000004, "yes": 5, "no": 6, "missing": 6, "children": [{"nodeid": 5, "depth": 2, "split": "ethBtcDelta6", "split_condition": -1.88709998, "yes": 11, "no": 12, "missing": 12, "children": [{"nodeid": 11, "depth": 3, "split": "vixLevelCode", "split_condition": -0.0900000036, "yes": 21, "no": 22, "missing": 22, "children": [{"nodeid": 21, "leaf": 0.0307451785}, {"nodeid": 22, "leaf": -0.00331687997}]}, {"nodeid": 12, "depth": 3, "split": "eMacdHist", "split_condition": -0.0399999991, "yes": 23, "no": 24, "missing": 24, "children": [{"nodeid": 23, "leaf": -0.03570069}, {"nodeid": 24, "leaf": -0.0152433729}]}]}, {"nodeid": 6, "depth": 2, "split": "hAdxDelta", "split_condition": 10.5799999, "yes": 13, "no": 14, "missing": 14, "children": [{"nodeid": 13, "depth": 3, "split": "atrPercentile", "split_condition": 66, "yes": 25, "no": 26, "missing": 26, "children": [{"nodeid": 25, "leaf": 0.0525893159}, {"nodeid": 26, "leaf": 0}]}, {"nodeid": 14, "depth": 3, "split": "hBBPercentB", "split_condition": 0.916400015, "yes": 27, "no": 28, "missing": 28, "children": [{"nodeid": 27, "leaf": -0.0284517258}, {"nodeid": 28, "leaf": 0.00314947846}]}]}]}]}, {"nodeid": 0, "depth": 0, "split": "dayOfWeek", "split_condition": 5, "yes": 1, "no": 2, "missing": 2, "children": [{"nodeid": 1, "depth": 1, "split": "atrPercentile", "split_condition": 9, "yes": 3, "no": 4, "missing": 4, "children": [{"nodeid": 3, "depth": 2, "split": "dRsiDelta", "split_condition": -6.57000017, "yes": 7, "no": 8, "missing": 8, "children": [{"nodeid": 7, "leaf": -0.0417093858}, {"nodeid": 8, "depth": 3, "split": "hBBPercentB", "split_condition": 0.365700006, "yes": 15, "no": 16, "missing": 16, "children": [{"nodeid": 15, "leaf": 0.0310694035}, {"nodeid": 16, "leaf": 0.0111438073}]}]}, {"nodeid": 4, "depth": 2, "split": "volWeightedRsi", "split_condition": 47.0999985, "yes": 9, "no": 10, "missing": 10, "children": [{"nodeid": 9, "depth": 3, "split": "gapDirectionAligned", "split_condition": 0.491400003, "yes": 17, "no": 18, "missing": 18, "children": [{"nodeid": 17, "leaf": 0.0400528722}, {"nodeid": 18, "leaf": 0.00420571724}]}, {"nodeid": 10, "depth": 3, "split": "eRsi", "split_condition": 67.3000031, "yes": 19, "no": 20, "missing": 20, "children": [{"nodeid": 19, "leaf": -0.00758029101}, {"nodeid": 20, "leaf": 0.0164131559}]}]}]}, {"nodeid": 2, "depth": 1, "split": "dayOfWeek", "split_condition": 6, "yes": 5, "no": 6, "missing": 6, "children": [{"nodeid": 5, "depth": 2, "split": "vix", "split_condition": 30.1000004, "yes": 11, "no": 12, "missing": 12, "children": [{"nodeid": 11, "depth": 3, "split": "hRsi", "split_condition": 71.6999969, "yes": 21, "no": 22, "missing": 22, "children": [{"nodeid": 21, "leaf": -0.0291228388}, {"nodeid": 22, "leaf": 0.0176058393}]}, {"nodeid": 12, "depth": 3, "split": "dBBPercentB", "split_condition": 0.281100005, "yes": 23, "no": 24, "missing": 24, "children": [{"nodeid": 23, "leaf": 0.0349433385}, {"nodeid": 24, "leaf": -0.00316673517}]}]}, {"nodeid": 6, "depth": 2, "split": "eRsi", "split_condition": 52.7000008, "yes": 13, "no": 14, "missing": 14, "children": [{"nodeid": 13, "depth": 3, "split": "dRsiDelta", "split_condition": 1.12, "yes": 25, "no": 26, "missing": 26, "children": [{"nodeid": 25, "leaf": -0.00572572229}, {"nodeid": 26, "leaf": -0.0397913158}]}, {"nodeid": 14, "depth": 3, "split": "dAdx", "split_condition": 24.5, "yes": 27, "no": 28, "missing": 28, "children": [{"nodeid": 27, "leaf": 0.0241195858}, {"nodeid": 28, "leaf": -0.00575422449}]}]}]}]}, {"nodeid": 0, "depth": 0, "split": "dayOfWeek", "split_condition": 5, "yes": 1, "no": 2, "missing": 2, "children": [{"nodeid": 1, "depth": 1, "split": "atrExpansionRate", "split_condition": -0.0988999978, "yes": 3, "no": 4, "missing": 4, "children": [{"nodeid": 3, "depth": 2, "split": "hAdxDelta", "split_condition": 2.61999989, "yes": 7, "no": 8, "missing": 8, "children": [{"nodeid": 7, "depth": 3, "split": "hEmaCross", "split_condition": -1, "yes": 15, "no": 16, "missing": 16, "children": [{"nodeid": 15, "leaf": -0.0396336727}, {"nodeid": 16, "leaf": -0.0118999919}]}, {"nodeid": 8, "depth": 3, "split": "ethBtcRatio", "split_condition": 0.0540300012, "yes": 17, "no": 18, "missing": 18, "children": [{"nodeid": 17, "leaf": -0.00867151748}, {"nodeid": 18, "leaf": 0.0294598937}]}]}, {"nodeid": 4, "depth": 2, "split": "hMacdHistDelta", "split_condition": 0.00999999978, "yes": 9, "no": 10, "missing": 10, "children": [{"nodeid": 9, "depth": 3, "split": "gapPercent", "split_condition": 29.9582005, "yes": 19, "no": 20, "missing": 20, "children": [{"nodeid": 19, "leaf": 0.00434275623}, {"nodeid": 20, "leaf": -0.0197546631}]}, {"nodeid": 10, "depth": 3, "split": "volScalarML", "split_condition": 1.04999995, "yes": 21, "no": 22, "missing": 22, "children": [{"nodeid": 21, "leaf": 0.021310756}, {"nodeid": 22, "leaf": -0.000123379694}]}]}]}, {"nodeid": 2, "depth": 1, "split": "ethBtcRatio", "split_condition": 0.0572099984, "yes": 5, "no": 6, "missing": 6, "children": [{"nodeid": 5, "depth": 2, "split": "hAdxDelta", "split_condition": -4.71000004, "yes": 11, "no": 12, "missing": 12, "children": [{"nodeid": 11, "depth": 3, "split": "hStochK", "split_condition": 29.7000008, "yes": 23, "no": 