{"features": ["dRsi", "dMacdHist", "dAdx", "dAdxBullish", "dEmaCross", "dStackBull", "dStackBear", "dStructBull", "dStructBear", "dStochK", "dStochCross", "dMacdCross", "dDivergence", "dEma20Rising", "dBBPercentB", "dBBSqueeze", "dBBBandwidth", "dVolumeRatio", "dAboveVwap", "hRsi", "hMacdHist", "hAdx", "hAdxBullish", "hEmaCross", "hStackBull", "hStackBear", "hStructBull", "hStructBear", "hStochK", "hStochCross", "hMacdCross", "hDivergence", "hEma20Rising", "hBBPercentB", "hBBSqueeze", "hBBBandwidth", "hVolumeRatio", "hAboveVwap", "eRsi", "eEmaCross", "eStochK", "eMacdHist", "fundingSignal", "oiSignal", "takerSignal", "crowdingSignal", "derivativesCombined", "vix", "dxyAboveEma20", "volScalarML", "last3Green", "last3Red", "last3VolIncreasing", "obvRising", "adLineAccumulation", "atrPercent", "atrPercentile", "dailyScore", "fourHScore"], "trees": [{"nodeid": 0, "depth": 0, "split": "dAdx", "split_condition": 20.1000004, "yes": 1, "no": 2, "missing": 2, "children": [{"nodeid": 1, "depth": 1, "split": "dRsi", "split_condition": 61.5, "yes": 3, "no": 4, "missing": 4, "children": [{"nodeid": 3, "depth": 2, "split": "dRsi", "split_condition": 33.5, "yes": 7, "no": 8, "missing": 8, "children": [{"nodeid": 7, "leaf": -0.0997134596}, {"nodeid": 8, "leaf": 0.0472096838}]}, {"nodeid": 4, "depth": 2, "split": "hBBBandwidth", "split_condition": 11.7761002, "yes": 9, "no": 10, "missing": 10, "children": [{"nodeid": 9, "leaf": -0.0403987393}, {"nodeid": 10, "leaf": 0.0393029153}]}]}, {"nodeid": 2, "depth": 1, "split": "hEmaCross", "split_condition": 3, "yes": 5, "no": 6, "missing": 6, "children": [{"nodeid": 5, "depth": 2, "split": "dStackBull", "split_condition": 1, "yes": 11, "no": 12, "missing": 12, "children": [{"nodeid": 11, "leaf": -0.043495331}, {"nodeid": 12, "leaf": 0.0595599897}]}, {"nodeid": 6, "depth": 2, "split": "dRsi", "split_condition": 70.8000031, "yes": 13, "no": 14, "missing": 14, "children": [{"nodeid": 13, "leaf": -0.0602041595}, {"nodeid": 14, "leaf": -0.0145495087}]}]}]}, {"nodeid": 0, "depth": 0, "split": "dAdx", "split_condition": 20.1000004, "yes": 1, "no": 2, "missing": 2, "children": [{"nodeid": 1, "depth": 1, "split": "dailyScore", "split_condition": 6, "yes": 3, "no": 4, "missing": 4, "children": [{"nodeid": 3, "depth": 2, "split": "dailyScore", "split_condition": -5, "yes": 7, "no": 8, "missing": 8, "children": [{"nodeid": 7, "leaf": -0.0223164931}, {"nodeid": 8, "leaf": 0.061288543}]}, {"nodeid": 4, "depth": 2, "split": "fourHScore", "split_condition": 4, "yes": 9, "no": 10, "missing": 10, "children": [{"nodeid": 9, "leaf": 0.0382911302}, {"nodeid": 10, "leaf": -0.0296612475}]}]}, {"nodeid": 2, "depth": 1, "split": "dailyScore", "split_condition": -7, "yes": 5, "no": 6, "missing": 6, "children": [{"nodeid": 5, "depth": 2, "split": "dAdx", "split_condition": 29.3999996, "yes": 11, "no": 12, "missing": 12, "children": [{"nodeid": 11, "leaf": -0.0378285982}, {"nodeid": 12, "leaf": -0.116633736}]}, {"nodeid": 6, "depth": 2, "split": "fourHScore", "split_condition": 3, "yes": 13, "no": 14, "missing": 14, "children": [{"nodeid": 13, "leaf": 0.0222821888}, {"nodeid": 14, "leaf": -0.0462220572}]}]}]}, {"nodeid": 0, "depth": 0, "split": "dAdx", "split_condition": 20.1000004, "yes": 1, "no": 2, "missing": 2, "children": [{"nodeid": 1, "depth": 1, "split": "dailyScore", "split_condition": 7, "yes": 3, "no": 4, "missing": 4, "children": [{"nodeid": 3, "depth": 2, "split": "dailyScore", "split_condition": -5, "yes": 7, "no": 8, "missing": 8, "children": [{"nodeid": 7, "leaf": -0.0179666858}, {"nodeid": 8, "leaf": 0.0514196828}]}, {"nodeid": 4, "depth": 2, "split": "dMacdHist", "split_condition": 0.680000007, "yes": 9, "no": 10, "missing": 10, "children": [{"nodeid": 9, "leaf": -0.00708572147}, {"nodeid": 10, "leaf": -0.0783033371}]}]}, {"nodeid": 2, "depth": 1, "split": "dailyScore", "split_condition": -7, "yes": 5, "no": 6, "missing": 6, "children": [{"nodeid": 5, "depth": 2, "split": "dAdx", "split_condition": 29.3999996, "yes": 11, "no": 12, "missing": 12, "children": [{"nodeid": 11, "leaf": -0.0328160301}, {"nodeid": 12, "leaf": -0.107475914}]}, {"nodeid": 6, "depth": 2, "split": "hEmaCross", "split_condition": 3, "yes": 13, "no": 14, "missing": 14, "children": [{"nodeid": 13, "leaf": 0.0167047065}, {"nodeid": 14, "leaf": -0.0430389456}]}]}]}, {"nodeid": 0, "depth": 0, "split": "dAdx", "split_condition": 21.2999992, "yes": 1, "no": 2, "missing": 2, "children": [{"nodeid": 1, "depth": 1, "split": "dailyScore", "split_condition": 6, "yes": 3, "no": 4, "missing": 4, "children": [{"nodeid": 3, "depth": 2, "split": "dailyScore", "split_condition": -5, "yes": 7, "no": 8, "missing": 8, "children": [{"nodeid": 7, "leaf": -0.00813408289}, {"nodeid": 8, "leaf": 0.0482964031}]}, {"nodeid": 4, "depth": 2, "split": "dMacdHist", "split_condition": 0.689999998, "yes": 9, "no": 10, "missing": 10, "children": [{"nodeid": 9, "leaf": 0.00447031716}, {"nodeid": 10, "leaf": -0.0497520305}]}]}, {"nodeid": 2, "depth": 1, "split": "dailyScore", "split_condition": -10, "yes": 5, "no": 6, "missing": 6, "children": [{"nodeid": 5, "depth": 2, "split": "hMacdHist", "split_condition": 0.409999996, "yes": 11, "no": 12, "missing": 12, "children": [{"nodeid": 11, "leaf": -0.115269743}, {"nodeid": 12, "leaf": -0.0330072716}]}, {"nodeid": 6, "depth": 2, "split": "hEmaCross", "split_condition": 3, "yes": 13, "no": 14, "missing": 14, "children": [{"nodeid": 13, "leaf": 0.00290373596}, {"nodeid": 14, "leaf": -0.039832253}]}]}]}, {"nodeid": 0, "depth": 0, "split": "dAdx", "split_condition": 19.2999992, "yes": 1, "no": 2, "missing": 2, "children": [{"nodeid": 1, "depth": 1, "split": "dailyScore", "split_condition": 6, "yes": 3, "no": 4, "missing": 4, "children": [{"nodeid": 3, "depth": 2, "split": "dailyScore", "split_condition": -5, "yes": 7, "no": 8, "missing": 8, "children": [{"nodeid": 7, "leaf": -0.0127201406}, {"nodeid": 8, "leaf": 0.0494409539}]}, {"nodeid": 4, "depth": 2, "split": "dBBPercentB", "split_condition": 0.839100003, "yes": 9, "no": 10, "missing": 10, "children": [{"nodeid": 9, "leaf": 0.0142723741}, {"nodeid": 10, "leaf": -0.0401917472}]}]}, {"nodeid": 2, "depth": 1, "split": "dailyScore", "split_condition": -7, "yes": 5, "no": 6, "missing": 6, "children": [{"nodeid": 5, "depth": 2, "split": "dAdx", "split_condition": 27.8999996, "yes": 11, "no": 12, "missing": 12, "children": [{"nodeid": 11, "leaf": -0.0262219701}, {"nodeid": 12, "leaf": -0.0914690942}]}, {"nodeid": 6, "depth": 2, "split": "hEmaCross", "split_condition": 3, "yes": 13, "no": 14, "missing": 14, "children": [{"nodeid": 13, "leaf": 0.0177451335}, {"nodeid": 14, "leaf": -0.0312981866}]}]}]}, {"nodeid": 0, "depth": 0, "split": "dailyScore", "split_condition": -6, "yes": 1, "no": 2, "missing": 2, "children": [{"nodeid": 1, "depth": 1, "split": "fourHScore", "split_condition": -3, "yes": 3, "no": 4, "missing": 4, "children": [{"nodeid": 3, "depth": 2, "split": "dBBPercentB", "split_condition": 0.271299988, "yes": 7, "no": 8, "missing": 8, "children": [{"nodeid": 7, "leaf": -0.0470703728}, {"nodeid": 8, "leaf": -0.10002289}]}, {"nodeid": 4, "depth": 2, "split": "vix", "split_condition": 40.7999992, "yes": 9, "no": 10, "missing": 10, "children": [{"nodeid": 9, "leaf": 0.0292402115}, {"nodeid": 10, "leaf": -0.115698986}]}]}, {"nodeid": 2, "depth": 1, "split": "dailyScore", "split_condition": 5, "yes": 5, "no": 6, "missing": 6, "children": [{"nodeid": 5, "depth": 2, "split": "dVolumeRatio", "split_condition": 0.959999979, "yes": 11, "no": 12, "missing": 12, "children": [{"nodeid": 11, "leaf": 0.0145936105}, {"nodeid": 12, "leaf": 0.0515069552}]}, {"nodeid": 6, "depth": 2, "split": "fourHScore", "split_condition": 2, "yes": 13, "no": 14, "missing": 14, "children": [{"nodeid": 13, "leaf": 0.0385791771}, {"nodeid": 14, "leaf": -0.0267868992}]}]}]}, {"nodeid": 0, "depth": 0, "split": "dAdx", "split_condition": 22.8999996, "yes": 1, "no": 2, "missing": 2, "children": [{"nodeid": 1, "depth": 1, "split": "dRsi", "split_condition": 61.2999992, "yes": 3, "no": 4, "missing": 4, "children": [{"nodeid": 3, "depth": 2, "split": "hBBBandwidth", "split_condition": 12.7200003, "yes": 7, "no": 8, "missing": 8, "children": [{"nodeid": 7, "leaf": 0.0312441271}, {"nodeid": 8, "leaf": -0.0124908341}]}, {"nodeid": 4, "depth": 2, "split": "hBBPercentB", "split_condition": 0.738300025, "yes": 9, "no": 10, "missing": 10, "children": [{"nodeid": 9, "leaf": 0.0542406403}, {"nodeid": 10, "leaf": -0.0285775568}]}]}, {"nodeid": 2, "depth": 1, "split": "dEmaCross", "split_condition": -1, "yes": 5, "no": 6, "missing": 6, "children": [{"nodeid": 5, "depth": 2, "split": "vix", "split_condition": 35.0999985, "yes": 11, "no": 12, "missing": 12, "children": [{"nodeid": 11, "leaf": -0.0450044386}, {"nodeid": 12, "leaf": -0.145936772}]}, {"nodeid": 6, "depth": 2, "split": "fourHScore", "split_condition": 2, "yes": 13, "no": 14, "missing": 14, "children": [{"nodeid": 13, "leaf": 0.0256601926}, {"nodeid": 14, "leaf": -0.0324174799}]}]}]}, {"nodeid": 0, "depth": 0, "split": "dAdx", "split_condition": 20.1000004, "yes": 1, "no": 2, "missing": 2, "children": [{"nodeid": 1, "depth": 1, "split": "dailyScore", "split_condition": 7, "yes": 3, "no": 4, "missing": 4, "children": [{"nodeid": 3, "depth": 2, "split": "dailyScore", "split_condition": -5, "yes": 7, "no": 8, "missing": 8, "children": [{"nodeid": 7, "leaf": -0.0131156715}, {"nodeid": 8, "leaf": 0.0363380872}]}, {"nodeid": 4, "depth": 2, "split": "volScalarML", "split_condition": 1.25999999, "yes": 9, "no": 10, "missing": 10, "children": [{"nodeid": 9, "leaf": -0.0347916149}, {"nodeid": 10, "leaf": 0.0522767566}]}]}, {"nodeid": 2, "depth": 1, "split": "dBBBandwidth", "split_condition": 15.1949997, "yes": 5, "no": 6, "missing": 6, "children": [{"nodeid": 5, "depth": 2, "split": "dEmaCross", "split_condition": 3, "yes": 11, "no": 12, "missing": 12, "children": [{"nodeid": 11, "leaf": 0.0275274944}, {"nodeid": 12, "leaf": -0.0224460848}]}, {"nodeid": 6, "depth": 2, "split": "atrPercent", "split_condition": 4.62300014, "yes": 13, "no": 14, "missing": 14, "children": [{"nodeid": 13, "leaf": -0.0281769671}, {"nodeid": 14, "leaf": -0.0886636674}]}]}]}, {"nodeid": 0, "depth": 0, "split": "dAdx", "split_condition": 19.2999992, "yes": 1, "no": 2, "missing": 2, "children": [{"nodeid": 1, "depth": 1, "split": "dVolumeRatio", "split_condition": 0.800000012, "yes": 3, "no": 4, "missing": 4, "children": [{"nodeid": 3, "depth": 2, "split": "dailyScore", "split_condition": 5, "yes": 7, "no": 8, "missing": 8, "children": [{"nodeid": 7, "leaf": 0.00655154837}, {"nodeid": 8, "leaf": -0.0340149365}]}, {"nodeid": 4, "depth": 2, "split": "dailyScore", "split_condition": 7, "yes": 9, "no": 10, "missing": 10, "children": [{"nodeid": 9, "leaf": 0.0398102961}, {"nodeid": 10, "leaf": -0.0160413124}]}]}, {"nodeid": 2, "depth": 1, "split": "dEmaCross", "split_condition": -1, "yes": 5, "no": 6, "missing": 6, "children": [{"nodeid": 5, "depth": 2, "split": "volScalarML", "split_condition": 0.980000019, "yes": 11, "no": 12, "missing": 12, "children": [{"nodeid": 11, "leaf": -0.000487319165}, {"nodeid": 12, "leaf": -0.0597623773}]}, {"nodeid": 6, "depth": 2, "split": "dEmaCross", "split_condition": 3, "yes": 13, "no": 14, "missing": 14, "children": [{"nodeid": 13, "leaf": 0.0269727744}, {"nodeid": 14, "leaf": -0.0239770859}]}]}]}, {"nodeid": 0, "depth": 0, "split": "dBBBandwidth", "split_condition": 14.8823996, "yes": 1, "no": 2, "missing": 2, "children": [{"nodeid": 1, "depth": 1, "split": "dRsi", "split_condition": 61.2000008, "yes": 3, "no": 4, "missing": 4, "children": [{"nodeid": 3, "depth": 2, "split": "dailyScore", "split_condition": -7, "yes": 7, "no": 8, "missing": 8, "children": [{"nodeid": 7, "leaf": -0.0284116305}, {"nodeid": 8, "leaf": 0.0256146025}]}, {"nodeid": 4, "depth": 2, "split": "vix", "split_condition": 21.8999996, "yes": 9, "no": 10, "missing": 10, "children": [{"nodeid": 9, "leaf": -0.0387704447}, {"nodeid": 10, "leaf": 0.00396184996}]}]}, {"nodeid": 2, "depth": 1, "split": "dailyScore", "split_condition": -6, "yes": 5, "no": 6, "missing": 6, "children": [{"nodeid": 5, "depth": 2, "split": "hDivergence", "split_condition": 1, "yes": 11, "no": 12, "missing": 12, "children": [{"nodeid": 11, "leaf": -0.0634111091}, {"nodeid": 12, "leaf": -0.0119108558}]}, {"nodeid": 6, "depth": 2, "split": "hBBPercentB", "split_condition": 0.317499995, "yes": 13, "no": 14, "missing": 14, "children": [{"nodeid": 13, "leaf": 0.0290295333}, {"nodeid": 14, "leaf": -0.0194487292}]}]}]}, {"nodeid": 0, "depth": 0, "split": "dAdx", "split_condition": 20.1000004, "yes": 1, "no": 2, "missing": 2, "children": [{"nodeid": 1, "depth": 1, "split": "dVolumeRatio", "split_condition": 0.819999993, "yes": 3, "no": 4, "missing": 4, "children": [{"nodeid": 3, "depth": 2, "split": "vix", "split_condition": 26, "yes": 7, "no": 8, "missing": 8, "children": [{"nodeid": 7, "leaf": -0.012039301}, {"nodeid": 8, "leaf": 0.0246554334}]}, {"nodeid": 4, "depth": 2, "split": "dRsi", "split_condition": 33.5, "yes": 9, "no": 10, "missing": 10, "children": [{"nodeid": 9, "leaf": -0.0941997021}, {"nodeid": 10, "leaf": 0.0309215784}]}]}, {"nodeid": 2, "depth": 1, "split": "atrPercent", "split_condition": 2.06399989, "yes": 5, "no": 6, "missing": 6, "children": [{"nodeid": 5, "depth": 2, "split": "dEmaCross", "split_condition": 3, "yes": 11, "no": 12, "missing": 12, "children": [{"nodeid": 11, "leaf": 0.0275411848}, {"nodeid": 12, "leaf": -0.0135644367}]}, {"nodeid": 6, "depth": 2, "split": "hStochK", "split_condition": 15.3999996, "yes": 13, "no": 14, "missing": 14, "children": [{"nodeid": 13, "leaf": 0.00405275449}, {"nodeid": 14, "leaf": -0.0380537398}]}]}]}, {"nodeid": 0, "depth": 0, "split": "dAdx", "split_condition": 23, "yes": 1, "no": 2, "missing": 2, "children": [{"nodeid": 1, "depth": 1, "split": "dailyScore", "split_condition": 5, "yes": 3, "no": 4, "missing": 4, "children": [{"nodeid": 3, "depth": 2, "split": "dailyScore", "split_condition": -5, "yes": 7, "no": 8, "missing": 8, "children": [{"nodeid": 7, "leaf": -0.00632833689}, {"nodeid": 8, "leaf": 0.0337343626}]}, {"nodeid": 4, "depth": 2, "split": "dMacdHist", "split_condition": 0.74000001, "yes": 9, "no": 10, "missing": 10, "children": [{"nodeid": 9, "leaf": 0.00425761333}, {"nodeid": 10, "leaf": -0.038998168}]}]}, {"nodeid": 2, "depth": 1, "split": "hEmaCross", "split_condition": -1, "yes": 5, "no": 6, "missing": 6, "children": [{"nodeid": 5, "depth": 2, "split": "atrPercentile", "split_condition": 21, "yes": 11, "no": 12, "missing": 12, "children": [{"nodeid": 11, "leaf": 0.00670941407}, {"nodeid": 12, "leaf": -0.0513408296}]}, {"nodeid": 6, "depth": 2, "split": "hBBPercentB", "split_condition": 0.398600012, "yes": 13, "no": 14, "missing": 14, "children": [{"nodeid": 13, "leaf": 0.032389123}, {"nodeid": 14, "leaf": -0.0160662662}]}]}]}, {"nodeid": 0, "depth": 0, "split": "vix", "split_condition": 57.0999985, "yes": 1, "no": 2, "missing": 2, "children": [{"nodeid": 1, "depth": 1, "split": "fourHScore", "split_condition": 3, "yes": 3, "no": 4, "missing": 4, "children": [{"nodeid": 3, "depth": 2, "split": "dailyScore", "split_condition": -4, "yes": 5, "no": 6, "missing": 6, "children": [{"nodeid": 5, "leaf": -0.0179635733}, {"nodeid": 6, "leaf": 0.0315861665}]}, {"nodeid": 4, "depth": 2, "split": "dStackBear", "split_condition": 1, "yes": 7, "no": 8, "missing": 8, "children": [{"nodeid": 7, "leaf": -0.0165163856}, {"nodeid": 8, "leaf": 0.0382322073}]}]}, {"nodeid": 2, "leaf": -0.135839134}]}, {"nodeid": 0, "depth": 0, "split": "dAdx", "split_condition": 22.8999996, "yes": 1, "no": 2, "missing": 2, "children": [{"nodeid": 1, "depth": 1, "split": "dailyScore", "split_condition": 6, "yes": 3, "no": 4, "missing": 4, "children": [{"nodeid": 3, "depth": 2, "split": "hBBBandwidth", "split_condition": 13.6121998, "yes": 7, "no": 8, "missing": 8, "children": [{"nodeid": 7, "leaf": 0.0254714433}, {"nodeid": 8, "leaf": -0.00960746873}]}, {"nodeid": 4, "depth": 2, "split": "dBBBandwidth", "split_condition": 11.5353003, "yes": 9, "no": 10, "missing": 10, "children": [{"nodeid": 9, "leaf": 0.00232382119}, {"nodeid": 10, "leaf": -0.0342937373}]}]}, {"nodeid": 2, "depth": 1, "split": "dVolumeRatio", "split_condition": 0.560000002, "yes": 5, "no": 6, "missing": 6, "children": [{"nodeid": 5, "depth": 2, "split": "hBBBandwidth", "split_condition": 11.0208998, "yes": 11, "no": 12, "missing": 12, "children": [{"nodeid": 11, "leaf": -0.0677626356}, {"nodeid": 12, "leaf": -0.136834934}]}, {"nodeid": 6, "depth": 2, "split": "hMacdHist", "split_condition": -1.21000004, "yes": 13, "no": 14, "missing": 14, "children": [{"nodeid": 13, "leaf": 0.0278527476}, {"nodeid": 14, "leaf": -0.0148024336}]}]}]}, {"nodeid": 0, "depth": 0, "split": "dAdx", "split_condition": 19.7000008, "yes": 1, "no": 2, "missing": 2, "children": [{"nodeid": 1, "depth": 1, "split": "dVolumeRatio", "split_condition": 0.699999988, "yes": 3, "no": 4, "missing": 4, "children": [{"nodeid": 3, "depth": 2, "split": "dMacdHist", "split_condition": 0.0299999993, "yes": 7, "no": 8, "missing": 8, "children": [{"nodeid": 7, "leaf": -0.0698583573}, {"nodeid": 8, "leaf": -0.00252547418}]}, {"nodeid": 4, "depth": 2, "split": "dRsi", "split_condition": 33.5, "yes": 9, "no": 10, "missing": 10, "children": [{"nodeid": 9, "leaf": -0.0798209235}, {"nodeid": 10, "leaf": 0.0211644135}]}]}, {"nodeid": 2, "depth": 1, "split": "hEmaCross", "split_condition": -1, "yes": 5, "no": 6, "missing": 6, "children": [{"nodeid": 5, "depth": 2, "split": "dStackBull", "split_condition": 1, "yes": 11, "no": 12, "missing": 12, "children": [{"nodeid": 11, "leaf": -0.0382660441}, {"nodeid": 12, "leaf": 0.0542271845}]}, {"nodeid": 6, "depth": 2, "split": "fourHScore", "split_condition": 2, "yes": 13, "no": 14, "missing": 14, "children": [{"nodeid": 13, "leaf": 0.026624633}, {"nodeid": 14, "leaf": -0.014741105}]}]}]}, {"nodeid": 0, "depth": 0, "split": "dailyScore", "split_condition": -5, "yes": 1, "no": 2, "missing": 2, "children": [{"nodeid": 1, "depth": 1, "split": "fourHScore", "split_condition": -3, "yes": 3, "no": 4, "missing": 4, "children": [{"nodeid": 3, "depth": 2, "split": "dAdx", "split_condition": 29.3999996, "yes": 7, "no": 8, "missing": 8, "children": [{"nodeid": 7, "leaf": -0.0218085181}, {"nodeid": 8, "leaf": -0.0593573228}]}, {"nodeid": 4, "depth": 2, "split": "dBBBandwidth", "split_condition": 28.9507999, "yes": 9, "no": 10, "missing": 10, "children": [{"nodeid": 9, "leaf": 0.0337722413}, {"nodeid": 10, "leaf": -0.0565690175}]}]}, {"nodeid": 2, "depth": 1, "split": "dEmaCross", "split_condition": 3, "yes": 5, "no": 6, "missing": 6, "children": [{"nodeid": 5, "depth": 2, "split": "hBBBandwidth", "split_condition": 13.3887997, "yes": 11, "no": 12, "missing": 12, "children": [{"nodeid": 11, "leaf": 0.0327831954}, {"nodeid": 12, "leaf": -0.00571844308}]}, {"nodeid": 6, "depth": 2, "split": "dBBBandwidth", "split_condition": 5.08440018, "yes": 13, "no": 14, "missing": 14, "children": [{"nodeid": 13, "leaf": 0.0549819246}, {"nodeid": 14, "leaf": -0.0102786636}]}]}]}, {"nodeid": 0, "depth": 0, "split": "dBBBandwidth", "split_condition": 16.6163998, "yes": 1, "no": 2, "missing": 2, "children": [{"nodeid": 1, "depth": 1, "split": "vix", "split_condition": 34.4000015, "yes": 3, "no": 4, "missing": 4, "children": [{"nodeid": 3, "depth": 2, "split": "dailyScore", "split_condition": 5, "yes": 7, "no": 8, "missing": 8, "children": [{"nodeid": 7, "leaf": 0.0150294704}, {"nodeid": 8, "leaf": -0.00952474866}]}, {"nodeid": 4, "depth": 2, "split": "dailyScore", "split_condition": -3, "yes": 9, "no": 10, "missing": 10, "children": [{"nodeid": 9, "leaf": 0.00223111268}, {"nodeid": 10, "leaf": 0.103991501}]}]}, {"nodeid": 2, "depth": 1, "split": "dBBPercentB", "split_condition": 1.08420002, "yes": 5, "no": 6, "missing": 6, "children": [{"nodeid": 5, "depth": 2, "split": "eStochK", "split_condition": 11.8000002, "yes": 11, "no": 12, "missing": 12, "children": [{"nodeid": 11, "leaf": 0.0173806679}, {"nodeid": 12, "leaf": -0.024196228}]}, {"nodeid": 6, "depth": 2, "split": "hRsi", "split_condition": 75.9000015, "yes": 13, "no": 14, "missing": 14, "children": [{"nodeid": 13, "leaf": 0.0586517453}, {"nodeid": 14, "leaf": 0.117200054}]}]}]}, {"nodeid": 0, "depth": 0, "split": "atrPercent", "split_condition": 4.50110006, "yes": 1, "no": 2, "missing": 2, "children": [{"nodeid": 1, "depth": 1, "split": "dRsi", "split_condition": 32.2000008, "yes": 3, "no": 4, "missing": 4, "children": [{"nodeid": 3, "depth": 2, "split": "dEmaCross", "split_condition": -1, "yes": 7, "no": 8, "missing": 8, "children": [{"nodeid": 7, "leaf": -0.065381594}, {"nodeid": 8, "leaf": 0.0419141203}]}, {"nodeid": 4, "depth": 2, "split": "dVolumeRatio", "split_condition": 1.11000001, "yes": 9, "no": 10, "missing": 10, "children": [{"nodeid": 9, "leaf": -0.0026762113}, {"nodeid": 10, "leaf": 0.0204517189}]}]}, {"nodeid": 2, "depth": 1, "split": "dVolumeRatio", "split_condition": 0.670000017, "yes": 5, "no": 6, "missing": 6, "children": [{"nodeid": 5, "leaf": 0.0338324606}, {"nodeid": 6, "depth": 2, "split": "hBBPercentB", "split_condition": 0.398600012, "yes": 11, "no": 12, "missing": 12, "children": [{"nodeid": 11, "leaf": -0.0258280691}, {"nodeid": 12, "leaf": -0.101516001}]}]}]}, {"nodeid": 0, "depth": 0, "split": "dailyScore", "split_condition": -4, "yes": 1, "no": 2, "missing": 2, "children": [{"nodeid": 1, "depth": 1, "split": "dStackBull", "split_condition": 1, "yes": 3, "no": 4, "missing": 4, "children": [{"nodeid": 3, "depth": 2, "split": "fourHScore", "split_condition": -1, "yes": 7, "no": 8, "missing": 8, "children": [{"nodeid": 7, "leaf": -0.0280419085}, {"nodeid": 8, "leaf": 0.0277751368}]}, {"nodeid": 4, "depth": 2, "split": "dBBBandwidth", "split_condition": 10.7235003, "yes": 9, "no": 10, "missing": 10, "children": [{"nodeid": 9, "leaf": 0.115321949}, {"nodeid": 10, "leaf": 0.0366008729}]}]}, {"nodeid": 2, "depth": 1, "split": "fourHScore", "split_condition": 2, "yes": 5, "no": 6, "missing": 6, "children": [{"nodeid": 5, "depth": 2, "split": "atrPercentile", "split_condition": 74, "yes": 11, "no": 12, "missing": 12, "children": [{"nodeid": 11, "leaf": 0.0395171419}, {"nodeid": 12, "leaf": 0.00604930241}]}, {"nodeid": 6, "depth": 2, "split": "dMacdHist", "split_condition": -0.150000006, "yes": 13, "no": 14, "missing": 14, "children": [{"nodeid": 13, "leaf": -0.0326284766}, {"nodeid": 14, "leaf": 0.00012576241}]}]}]}, {"nodeid": 0, "depth": 0, "split": "dailyScore", "split_condition": -5, "yes": 1, "no": 2, "missing": 2, "children": [{"nodeid": 1, "depth": 1, "split": "dStackBull", "split_condition": 1, "yes": 3, "no": 4, "missing": 4, "children": [{"nodeid": 3, "depth": 2, "split": "dEmaCross", "split_condition": -1, "yes": 7, "no": 8, "missing": 8, "children": [{"nodeid": 7, "leaf": -0.0123673184}, {"nodeid": 8, "leaf": -0.0549692102}]}, {"nodeid": 4, "leaf": 0.0996670648}]}, {"nodeid": 2, "depth": 1, "split": "hBBPercentB", "split_condition": 0.300399989, "yes": 5, "no": 6, "missing": 6, "children": [{"nodeid": 5, "depth": 2, "split": "fourHScore", "split_condition": 2, "yes": 9, "no": 10, "missing": 10, "children": [{"nodeid": 9, "leaf": 0.0397261754}, {"nodeid": 10, "leaf": -0.00974412914}]}, {"nodeid": 6, "depth": 2, "split": "dBBBandwidth", "split_condition": 5.85790014, "yes": 11, "no": 12, "missing": 12, "children": [{"nodeid": 11, "leaf": 0.031846974}, {"nodeid": 12, "leaf": -0.00667460123}]}]}]}, {"nodeid": 0, "depth": 0, "split": "vix", "split_condition": 57.0999985, "yes": 1, "no": 2, "missing": 2, "children": [{"nodeid": 1, "depth": 1, "split": "dVolumeRatio", "split_condition": 0.689999998, "yes": 3, "no": 4, "missing": 4, "children": [{"nodeid": 3, "depth": 2, "split": "dRsi", "split_condition": 72.9000015, "yes": 7, "no": 8, "missing": 8, "children": [{"nodeid": 7, "leaf": -0.023113085}, {"nodeid": 8, "leaf": 0.112456203}]}, {"nodeid": 4, "depth": 2, "split": "dRsi", "split_condition": 32.2000008, "yes": 9, "no": 10, "missing": 10, "children": [{"nodeid": 9, "leaf": -0.0401498117}, {"nodeid": 10, "leaf": 0.00666413782}]}]}, {"nodeid": 2, "depth": 1, "split": "eRsi", "split_condition": 54.7999992, "yes": 5, "no": 6, "missing": 6, "children": [{"nodeid": 5, "leaf": -0.0746128708}, {"nodeid": 6, "leaf": -0.125437587}]}]}, {"nodeid": 0, "depth": 0, "split": "dailyScore", "split_condition": -12, "yes": 1, "no": 2, "missing": 2, "children": [{"nodeid": 1, "leaf": -0.121765509}, {"nodeid": 2, "depth": 1, "split": "vix", "split_condition": 57.0999985, "yes": 3, "no": 4, "missing": 4, "children": [{"nodeid": 3, "depth": 2, "split": "vix", "split_condition": 16.1000004, "yes": 5, "no": 6, "missing": 6, "children": [{"nodeid": 5, "leaf": 0.0449425392}, {"nodeid": 6, "leaf": 5.09674792e-05}]}, {"nodeid": 4, "leaf": -0.11067009}]}]}, {"nodeid": 0, "depth": 0, "split": "dAdx", "split_condition": 15.1000004, "yes": 1, "no": 2, "missing": 2, "children": [{"nodeid": 1, "depth": 1, "split": "hBBBandwidth", "split_condition": 9.34869957, "yes": 3, "no": 4, "missing": 4, "children": [{"nodeid": 3, "depth": 2, "split": "dRsi", "split_condition": 62, "yes": 7, "no": 8, "missing": 8, "children": [{"nodeid": 7, "leaf": 0.0375900492}, {"nodeid": 8, "leaf": -0.070081979}]}, {"nodeid": 4, "depth": 2, "split": "dVolumeRatio", "split_condition": 0.850000024, "yes": 9, "no": 10, "missing": 10, "children": [{"nodeid": 9, "leaf": -0.0519128107}, {"nodeid": 10, "leaf": 0.00614321977}]}]}, {"nodeid": 2, "depth": 1, "split": "hMacdHist", "split_condition": -1.21000004, "yes": 5, "no": 6, "missing": 6, "children": [{"nodeid": 5, "depth": 2, "split": "fourHScore", "split_condition": -6, "yes": 11, "no": 12, "missing": 12, "children": [{"nodeid": 11, "leaf": -0.000956261007}, {"nodeid": 12, "leaf": 0.0374729298}]}, {"nodeid": 6, "depth": 2, "split": "volScalarML", "split_condition": 1.32000005, "yes": 13, "no": 14, "missing": 14, "children": [{"nodeid": 13, "leaf": -0.00232621911}, {"nodeid": 14, "leaf": -0.0323925614}]}]}]}, {"nodeid": 0, "depth": 0, "split": "vix", "split_condition": 53.5, "yes": 1, "no": 2, "missing": 2, "children": [{"nodeid": 1, "depth": 1, "split": "dEmaCross", "split_condition": 3, "yes": 3, "no": 4, "missing": 4, "children": [{"nodeid": 3, "depth": 2, "split": "dRsi", "split_condition": 49.9000015, "yes": 7, "no": 8, "missing": 8, "children": [{"nodeid": 7, "leaf": 0.00149480335}, {"nodeid": 8, "leaf": 0.0342718586}]}, {"nodeid": 4, "depth": 2, "split": "dBBBandwidth", "split_condition": 5.00349998, "yes": 9, "no": 10, "missing": 10, "children": [{"nodeid": 9, "leaf": 0.0547469147}, {"nodeid": 10, "leaf": -0.00944996625}]}]}, {"nodeid": 2, "depth": 1, "split": "hAdx", "split_condition": 22.8999996, "yes": 5, "no": 6, "missing": 6, "children": [{"nodeid": 5, "leaf": -0.0481939912}, {"nodeid": 6, "leaf": -0.112123407}]}]}, {"nodeid": 0, "depth": 0, "split": "dVolumeRatio", "split_condition": 1.11000001, "yes": 1, "no": 2, "missing": 2, "children": [{"nodeid": 1, "depth": 1, "split": "hBBBandwidth", "split_condition": 12.8381004, "yes": 3, "no": 4, "missing": 4, "children": [{"nodeid": 3, "depth": 2, "split": "dBBPercentB", "split_condition": 0.125599995, "yes": 7, "no": 8, "missing": 8, "children": [{"nodeid": 7, "leaf": 0.0396816544}, {"nodeid": 8, "leaf": -0.00128096202}]}, {"nodeid": 4, "depth": 2, "split": "last3Green", "split_condition": 1, "yes": 9, "no": 10, "missing": 10, "children": [{"nodeid": 9, "leaf": -0.0269942731}, {"nodeid": 10, "leaf": 0.0196593367}]}]}, {"nodeid": 2, "depth": 1, "split": "dRsi", "split_condition": 34.7000008, "yes": 5, "no": 6, "missing": 6, "children": [{"nodeid": 5, "depth": 2, "split": "volScalarML", "split_condition": 0.839999974, "yes": 11, "no": 12, "missing": 12, "children": [{"nodeid": 11, "leaf": 0.0909562334}, {"nodeid": 12, "leaf": -0.0331731401}]}, {"nodeid": 6, "depth": 2, "split": "dRsi", "split_condition": 58.4000015, "yes": 13, "no": 14, "missing": 14, "children": [{"nodeid": 13, "leaf": 0.0299155172}, {"nodeid": 14, "leaf": 0.0023731899}]}]}]}, {"nodeid": 0, "depth": 0, "split": "eMacdHist", "split_condition": 1.21000004, "yes": 1, "no": 2, "missing": 2, "children": [{"nodeid": 1, "depth": 1, "split": "dailyScore", "split_condition": 5, "yes": 3, "no": 4, "missing": 4, "children": [{"nodeid": 3, "depth": 2, "split": "dailyScore", "split_condition": -2, "yes": 7, "no": 8, "missing": 8, "children": [{"nodeid": 7, "leaf": -0.00591266667}, {"nodeid": 8, "leaf": 0.0189913996}]}, {"nodeid": 4, "depth": 2, "split": "dRsi", "split_condition": 70.8000031, "yes": 9, "no": 10, "missing": 10, "children": [{"nodeid": 9, "leaf": -0.0129102487}, {"nodeid": 10, "leaf": 0.0222357716}]}]}, {"nodeid": 2, "depth": 1, "split": "hBBPercentB", "split_condition": 0.963800013, "yes": 5, "no": 6, "missing": 6, "children": [{"nodeid": 5, "depth": 2, "split": "dAdx", "split_condition": 30.2000008, "yes": 11, "no": 12, "missing": 12, "children": [{"nodeid": 11, "leaf": -0.00543875247}, {"nodeid": 12, "leaf": -0.0583060272}]}, {"nodeid": 6, "depth": 2, "split": "dStochK", "split_condition": 83.1999969, "yes": 13, "no": 14, "missing": 14, "children": [{"nodeid": 13, "leaf": -0.122288026}, {"nodeid": 14, "leaf": -0.0534366965}]}]}]}, {"nodeid": 0, "depth": 0, "split": "vix", "split_condition": 57.0999985, "yes": 1, "no": 2, "missing": 2, "children": [{"nodeid": 1, "depth": 1, "split": "dVolumeRatio", "split_condition": 0.699999988, "yes": 3, "no": 4, "missing": 4, "children": [{"nodeid": 3, "depth": 2, "split": "dAdx", "split_condition": 30.8999996, "yes": 5, "no": 6, "missing": 6, "children": [{"nodeid": 5, "leaf": -0.0242633726}, {"nodeid": 6, "leaf": 0.0275237747}]}, {"nodeid": 4, "depth": 2, "split": "dBBBandwidth", "split_condition": 14.8823996, "yes": 7, "no": 8, "missing": 8, "children": [{"nodeid": 7, "leaf": 0.0108377589}, {"nodeid": 8, "leaf": -0.00589914946}]}]}, {"nodeid": 2, "leaf": -0.0939732417}]}, {"nodeid": 0, "depth": 0, "split": "hDivergence", "split_condition": 0, "yes": 1, "no": 2, "missing": 2, "children": [{"nodeid": 1, "depth": 1, "split": "hBBBandwidth", "split_condition": 3.23189998, "yes": 3, "no": 4, "missing": 4, "children": [{"nodeid": 3, "depth": 2, "split": "dRsi", "split_condition": 61.5, "yes": 7, "no": 8, "missing": 8, "children": [{"nodeid": 7, "leaf": 0.0989365131}, {"nodeid": 8, "leaf": 0.00585482782}]}, {"nodeid": 4, "depth": 2, "split": "dRsi", "split_condition": 47.9000015, "yes": 9, "no": 10, "missing": 10, "children": [{"nodeid": 9, "leaf": 0.0602334812}, {"nodeid": 10, "leaf": -0.0445032902}]}]}, {"nodeid": 2, "depth": 1, "split": "dailyScore", "split_condition": -5, "yes": 5, "no": 6, "missing": 6, "children": [{"nodeid": 5, "depth": 2, "split": "fourHScore", "split_condition": -1, "yes": 11, "no": 12, "missing": 12, "children": [{"nodeid": 11, "leaf": -0.0209741127}, {"nodeid": 12, "leaf": 0.0467634797}]}, {"nodeid": 6, "depth": 2, "split": "hStochK", "split_condition": 20.2999992, "yes": 13, "no": 14, "missing": 14, "children": [{"nodeid": 13, "leaf": 0.0282341428}, {"nodeid": 14, "leaf": 9.87642561e-05}]}]}]}, {"nodeid": 0, "depth": 0, "split": "dailyScore", "split_condition": -12, "yes": 1, "no": 2, "missing": 2, "children": [{"nodeid": 1, "leaf": -0.101793587}, {"nodeid": 2, "depth": 1, "split": "dailyScore", "split_condition": 5, "yes": 3, "no": 4, "missing": 4, "children": [{"nodeid": 3, "depth": 2, "split": "atrPercent", "split_condition": 1.75559998, "yes": 5, "no": 6, "missing": 6, "children": [{"nodeid": 5, "leaf": 0.0220469292}, {"nodeid": 6, "leaf": -0.00256128772}]}, {"nodeid": 4, "depth": 2, "split": "dRsi", "split_condition": 70.8000031, "yes": 7, "no": 8, "missing": 8, "children": [{"nodeid": 7, "leaf": -0.0130373118}, {"nodeid": 8, "leaf": 0.0198707636}]}]}]}, {"nodeid": 0, "depth": 0, "split": "dVolumeRatio", "split_condition": 1.13, "yes": 1, "no": 2, "missing": 2, "children": [{"nodeid": 1, "depth": 1, "split": "volScalarML", "split_condition": 1.15999997, "yes": 3, "no": 4, "missing": 4, "children": [{"nodeid": 3, "depth": 2, "split": "vix", "split_condition": 22.6000004, "yes": 7, "no": 8, "missing": 8, "children": [{"nodeid": 7, "leaf": -0.0060837646}, {"nodeid": 8, "leaf": 0.0190284643}]}, {"nodeid": 4, "depth": 2, "split": "dMacdHist", "split_condition": -3.47000003, "yes": 9, "no": 10, "missing": 10, "children": [{"nodeid": 9, "leaf": 0.0561051778}, {"nodeid": 10, "leaf": -0.0151573615}]}]}, {"nodeid": 2, "depth": 1, "split": "dailyScore", "split_condition": -11, "yes": 5, "no": 6, "missing": 6, "children": [{"nodeid": 5, "leaf": -0.0848441496}, {"nodeid": 6, "depth": 2, "split": "volScalarML", "split_condition": 0.779999971, "yes": 11, "no": 12, "missing": 12, "children": [{"nodeid": 11, "leaf": 0.0904821157}, {"nodeid": 12, "leaf": 0.0122740921}]}]}]}, {"nodeid": 0, "depth": 0, "split": "vix", "split_condition": 57.0999985, "yes": 1, "no": 2, "missing": 2, "children": [{"nodeid": 1, "depth": 1, "split": "hDivergence", "split_condition": 0, "yes": 3, "no": 4, "missing": 4, "children": [{"nodeid": 3, "depth": 2, "split": "hMacdHist", "split_condition": -0.170000002, "yes": 5, "no": 6, "missing": 6, "children": [{"nodeid": 5, "leaf": 0.00878635701}, {"nodeid": 6, "leaf": -0.0489037149}]}, {"nodeid": 4, "depth": 2, "split": "dVolumeRatio", "split_condition": 1.11000001, "yes": 7, "no": 8, "missing": 8, "children": [{"nodeid": 7, "leaf": -0.00148080045}, {"nodeid": 8, "leaf": 0.0142695354}]}]}, {"nodeid": 2, "leaf": -0.0871995315}]}, {"nodeid": 0, "depth": 0, "split": "atrPercent", "split_condition": 1.72189999, "yes": 1, "no": 2, "missing": 2, "children": [{"nodeid": 1, "depth": 1, "split": "dBBBandwidth", "split_condition": 22.7322006, "yes": 3, "no": 4, "missing": 4, "children": [{"nodeid": 3, "depth": 2, "split": "dStackBear", "split_condition": 1, "yes": 7, "no": 8, "missing": 8, "children": [{"nodeid": 7, "leaf": 0.00295740785}, {"nodeid": 8, "leaf": 0.0596258715}]}, {"nodeid": 4, "leaf": 0.136217356}]}, {"nodeid": 2, "depth": 1, "split": "dRsi", "split_condition": 72.9000015, "yes": 5, "no": 6, "missing": 6, "children": [{"nodeid": 5, "depth": 2, "split": "dRsi", "split_condition": 68, "yes": 9, "no": 10, "missing": 10, "children": [{"nodeid": 9, "leaf": -0.00741177564}, {"nodeid": 10, "leaf": -0.0590131171}]}, {"nodeid": 6, "depth": 2, "split": "dBBPercentB", "split_condition": 0.951699972, "yes": 11, "no": 12, "missing": 12, "children": [{"nodeid": 11, "leaf": -0.00421448192}, {"nodeid": 12, "leaf": 0.083830215}]}]}]}, {"nodeid": 0, "depth": 0, "split": "dailyScore", "split_condition": -12, "yes": 1, "no": 2, "missing": 2, "children": [{"nodeid": 1, "leaf": -0.0959599838}, {"nodeid": 2, "depth": 1, "split": "dRsi", "split_condition": 55.7000008, "yes": 3, "no": 4, "missing": 4, "children": [{"nodeid": 3, "depth": 2, "split": "dailyScore", "split_condition": -2, "yes": 5, "no": 6, "missing": 6, "children": [{"nodeid": 5, "leaf": -0.00598293589}, {"nodeid": 6, "leaf": 0.0162424892}]}, {"nodeid": 4, "depth": 2, "split": "dRsi", "split_condition": 70.8000031, "yes": 7, "no": 8, "missing": 8, "children": [{"nodeid": 7, "leaf": -0.0124296732}, {"nodeid": 8, "leaf": 0.0178628247}]}]}]}, {"nodeid": 0, "depth": 0, "split": "dStochK", "split_condition": 23.6000004, "yes": 1, "no": 2, "missing": 2, "children": [{"nodeid": 1, "depth": 1, "split": "dRsi", "split_condition": 36.2000008, "yes": 3, "no": 4, "missing": 4, "children": [{"nodeid": 3, "depth": 2, "split": "atrPercentile", "split_condition": 87, "yes": 7, "no": 8, "missing": 8, "children": [{"nodeid": 7, "leaf": -0.0374485962}, {"nodeid": 8, "leaf": 0.0320667215}]}, {"nodeid": 4, "depth": 2, "split": "dAdx", "split_condition": 45.9000015, "yes": 9, "no": 10, "missing": 10, "children": [{"nodeid": 9, "leaf": 0.0237488039}, {"nodeid": 10, "leaf": -0.0681433007}]}]}, {"nodeid": 2, "depth": 1, "split": "dMacdHist", "split_condition": 0.109999999, "yes": 5, "no": 6, "missing": 6, "children": [{"nodeid": 5, "depth": 2, "split": "dAdx", "split_condition": 26.1000004, "yes": 11, "no": 12, "missing": 12, "children": [{"nodeid": 11, "leaf": -0.00478996476}, {"nodeid": 12, "leaf": -0.0409302115}]}, {"nodeid": 6, "depth": 2, "split": "hRsi", "split_condition": 62.4000015, "yes": 13, "no": 14, "missing": 14, "children": [{"nodeid": 13, "leaf": 0.0106109101}, {"nodeid": 14, "leaf": -0.00762049714}]}]}]}, {"nodeid": 0, "depth": 0, "split": "hStochK", "split_condition": 13.6000004, "yes": 1, "no": 2, "missing": 2, "children": [{"nodeid": 1, "depth": 1, "split": "volScalarML", "split_condition": 1.13999999, "yes": 3, "no": 4, "missing": 4, "children": [{"nodeid": 3, "depth": 2, "split": "hRsi", "split_condition": 32.2999992, "yes": 7, "no": 8, "missing": 8, "children": [{"nodeid": 7, "leaf": -0.0424563661}, {"nodeid": 8, "leaf": 0.00323013007}]}, {"nodeid": 4, "depth": 2, "split": "dStochK", "split_condition": 80.1999969, "yes": 9, "no": 10, "missing": 10, "children": [{"nodeid": 9, "leaf": 0.0369975045}, {"nodeid": 10, "leaf": -0.0613554493}]}]}, {"nodeid": 2, "depth": 1, "split": "hBBPercentB", "split_condition": -0.117299996, "yes": 5, "no": 6, "missing": 6, "children": [{"nodeid": 5, "leaf": 0.082724534}, {"nodeid": 6, "depth": 2, "split": "hRsi", "split_condition": 36.2999992, "yes": 11, "no": 12, "missing": 12, "children": [{"nodeid": 11, "leaf": -0.0343867056}, {"nodeid": 12, "leaf": -0.00317070144}]}]}]}, {"nodeid": 0, "depth": 0, "split": "dailyScore", "split_condition": -11, "yes": 1, "no": 2, "missing": 2, "children": [{"nodeid": 1, "depth": 1, "split": "dMacdHist", "split_condition": -1.38999999, "yes": 3, "no": 4, "missing": 4, "children": [{"nodeid": 3, "leaf": 0.0106988093}, {"nodeid": 4, "depth": 2, "split": "dMacdHist", "split_condition": -0.389999986, "yes": 7, "no": 8, "missing": 8, "children": [{"nodeid": 7, "leaf": -0.128151864}, {"nodeid": 8, "leaf": -0.054412473}]}]}, {"nodeid": 2, "depth": 1, "split": "dVolumeRatio", "split_condition": 1.11000001, "yes": 5, "no": 6, "missing": 6, "children": [{"nodeid": 5, "depth": 2, "split": "hRsi", "split_condition": 32.7000008, "yes": 9, "no": 10, "missing": 10, "children": [{"nodeid": 9, "leaf": -0.053914357}, {"nodeid": 10, "leaf": -0.000485325785}]}, {"nodeid": 6, "depth": 2, "split": "volScalarML", "split_condition": 0.779999971, "yes": 11, "no": 12, "missing": 12, "children": [{"nodeid": 11, "leaf": 0.0894428641}, {"nodeid": 12, "leaf": 0.00977037381}]}]}]}, {"nodeid": 0, "depth": 0, "split": "dVolumeRatio", "split_condition": 0.529999971, "yes": 1, "no": 2, "missing": 2, "children": [{"nodeid": 1, "depth": 1, "split": "volScalarML", "split_condition": 1.27999997, "yes": 3, "no": 4, "missing": 4, "children": [{"nodeid": 3, "depth": 2, "split": "dMacdHist", "split_condition": 0.649999976, "yes": 7, "no": 8, "missing": 8, "children": [{"nodeid": 7, "leaf": -0.112471439}, {"nodeid": 8, "leaf": -0.0256125312}]}, {"nodeid": 4, "leaf": 0.0207079928}]}, {"nodeid": 2, "depth": 1, "split": "eMacdHist", "split_condition": 1.21000004, "yes": 5, "no": 6, "missing": 6, "children": [{"nodeid": 5, "depth": 2, "split": "dailyScore", "split_condition": 5, "yes": 9, "no": 10, "missing": 10, "children": [{"nodeid": 9, "leaf": 0.00609371159}, {"nodeid": 10, "leaf": -0.00604360597}]}, {"nodeid": 6, "depth": 2, "split": "hBBPercentB", "split_condition": 0.883300006, "yes": 11, "no": 12, "missing": 12, "children": [{"nodeid": 11, "leaf": -0.0145885991}, {"nodeid": 12, "leaf": -0.0749353841}]}]}]}, {"nodeid": 0, "depth": 0, "split": "vix", "split_condition": 16.1000004, "yes": 1, "no": 2, "missing": 2, "children": [{"nodeid": 1, "depth": 1, "split": "hMacdHist", "split_condition": -0.00999999978, "yes": 3, "no": 4, "missing": 4, "children": [{"nodeid": 3, "depth": 2, "split": "hStochK", "split_condition": 24.7999992, "yes": 7, "no": 8, "missing": 8, "children": [{"nodeid": 7, "leaf": 0.0282655098}, {"nodeid": 8, "leaf": -0.0794349685}]}, {"nodeid": 4, "depth": 2, "split": "hMacdHist", "split_condition": 0.430000007, "yes": 9, "no": 10, "missing": 10, "children": [{"nodeid": 9, "leaf": 0.114414535}, {"nodeid": 10, "leaf": 0.0316024981}]}]}, {"nodeid": 2, "depth": 1, "split": "dAdx", "split_condition": 15.1000004, "yes": 5, "no": 6, "missing": 6, "children": [{"nodeid": 5, "depth": 2, "split": "hBBBandwidth", "split_condition": 9.86919975, "yes": 11, "no": 12, "missing": 12, "children": [{"nodeid": 11, "leaf": 0.0212379955}, {"nodeid": 12, "leaf": -0.0143114449}]}, {"nodeid": 6, "depth": 2, "split": "atrPercentile", "split_condition": 4, "yes": 13, "no": 14, "missing": 14, "children": [{"nodeid": 13, "leaf": 0.0386946946}, {"nodeid": 14, "leaf": -0.00584651204}]}]}]}, {"nodeid": 0, "depth": 0, "split": "dailyScore", "split_condition": -5, "yes": 1, "no": 2, "missing": 2, "children": [{"nodeid": 1, "depth": 1, "split": "vix", "split_condition": 22.7000008, "yes": 3, "no": 4, "missing": 4, "children": [{"nodeid": 3, "depth": 2, "split": "dMacdHist", "split_condition": -0.959999979, "yes": 7, "no": 8, "missing": 8, "children": [{"nodeid": 7, "leaf": -0.00404166197}, {"nodeid": 8, "leaf": -0.0623072498}]}, {"nodeid": 4, "depth": 2, "split": "fourHScore", "split_condition": -9, "yes": 9, "no": 10, "missing": 10, "children": [{"nodeid": 9, "leaf": -0.0519087613}, {"nodeid": 10, "leaf": 0.00886438973}]}]}, {"nodeid": 2, "depth": 1, "split": "fourHScore", "split_condition": 3, "yes": 5, "no": 6, "missing": 6, "children": [{"nodeid": 5, "depth": 2, "split": "dVolumeRatio", "split_condition": 0.529999971, "yes": 11, "no": 12, "missing": 12, "children": [{"nodeid": 11, "leaf": -0.0669981167}, {"nodeid": 12, "leaf": 0.0164427795}]}, {"nodeid": 6, "depth": 2, "split": "hStackBear", "split_condition": 1, "yes": 13, "no": 14, "missing": 14, "children": [{"nodeid": 13, "leaf": -0.00815895665}, {"nodeid": 14, "leaf": 0.0466447026}]}]}]}, {"nodeid": 0, "depth": 0, "split": "vix", "split_condition": 16.1000004, "yes": 1, "no": 2, "missing": 2, "children": [{"nodeid": 1, "depth": 1, "split": "hMacdHist", "split_condition": -0.0199999996, "yes": 3, "no": 4, "missing": 4, "children": [{"nodeid": 3, "depth": 2, "split": "atrPercent", "split_condition": 1.03149998, "yes": 7, "no": 8, "missing": 8, "children": [{"nodeid": 7, "leaf": 0.0336291641}, {"nodeid": 8, "leaf": -0.0672444031}]}, {"nodeid": 4, "depth": 2, "split": "hMacdHist", "split_condition": 0.430000007, "yes": 9, "no": 10, "missing": 10, "children": [{"nodeid": 9, "leaf": 0.111887433}, {"nodeid": 10, "leaf": 0.0314845853}]}]}, {"nodeid": 2, "depth": 1, "split": "dVolumeRatio", "split_condition": 1.11000001, "yes": 5, "no": 6, "missing": 6, "children": [{"nodeid": 5, "depth": 2, "split": "dAdx", "split_condition": 15.6000004, "yes": 11, "no": 12, "missing": 12, "children": [{"nodeid": 11, "leaf": 0.00878392439}, {"nodeid": 12, "leaf": -0.00877484772}]}, {"nodeid": 6, "depth": 2, "split": "vix", "split_condition": 18, "yes": 13, "no": 14, "missing": 14, "children": [{"nodeid": 13, "leaf": 0.0452967398}, {"nodeid": 14, "leaf": 0.00343524152}]}]}]}, {"nodeid": 0, "depth": 0, "split": "dailyScore", "split_condition": -12, "yes": 1, "no": 2, "missing": 2, "children": [{"nodeid": 1, "leaf": -0.0944926217}, {"nodeid": 2, "depth": 1, "split": "hDivergence", "split_condition": 0, "yes": 3, "no": 4, "missing": 4, "children": [{"nodeid": 3, "depth": 2, "split": "dStructBull", "split_condition": 1, "yes": 5, "no": 6, "missing": 6, "children": [{"nodeid": 5, "leaf": -0.0520610213}, {"nodeid": 6, "leaf": 0.00085796183}]}, {"nodeid": 4, "depth": 2, "split": "dVolumeRatio", "split_condition": 0.810000002, "yes": 7, "no": 8, "missing": 8, "children": [{"nodeid": 7, "leaf": -0.0073308521}, {"nodeid": 8, "leaf": 0.00605647499}]}]}]}, {"nodeid": 0, "depth": 0, "split": "dailyScore", "split_condition": -12, "yes": 1, "no": 2, "missing": 2, "children": [{"nodeid": 1, "leaf": -0.0912244245}, {"nodeid": 2, "depth": 1, "split": "atrPercent", "split_condition": 1.47889996, "yes": 3, "no": 4, "missing": 4, "children": [{"nodeid": 3, "depth": 2, "split": "dAdx", "split_condition": 36, "yes": 5, "no": 6, "missing": 6, "children": [{"nodeid": 5, "leaf": 0.0153064132}, {"nodeid": 6, "leaf": -0.0254645627}]}, {"nodeid": 4, "depth": 2, "split": "dxyAboveEma20", "split_condition": 1, "yes": 7, "no": 8, "missing": 8, "children": [{"nodeid": 7, "leaf": 0.0078164516}, {"nodeid": 8, "leaf": -0.0108441887}]}]}]}, {"nodeid": 0, "depth": 0, "split": "atrPercent", "split_condition": 1.48370004, "yes": 1, "no": 2, "missing": 2, "children": [{"nodeid": 1, "depth": 1, "split": "vix", "split_condition": 21.2999992, "yes": 3, "no": 4, "missing": 4, "children": [{"nodeid": 3, "depth": 2, "split": "dVolumeRatio", "split_condition": 0.689999998, "yes": 7, "no": 8, "missing": 8, "children": [{"nodeid": 7, "leaf": -0.0406136476}, {"nodeid": 8, "leaf": 0.00235301373}]}, {"nodeid": 4, "depth": 2, "split": "dailyScore", "split_condition": -6, "yes": 9, "no": 10, "missing": 10, "children": [{"nodeid": 9, "leaf": -0.0201756377}, {"nodeid": 10, "leaf": 0.0419601463}]}]}, {"nodeid": 2, "depth": 1, "split": "dEmaCross", "split_condition": 3, "yes": 5, "no": 6, "missing": 6, "children": [{"nodeid": 5, "depth": 2, "split": "dMacdHist", "split_condition": 0.75999999, "yes": 11, "no": 12, "missing": 12, "children": [{"nodeid": 11, "leaf": -0.00264892215}, {"nodeid": 12, "leaf": 0.0277079102}]}, {"nodeid": 6, "depth": 2, "split": "dAdx", "split_condition": 35.2000008, "yes": 13, "no": 14, "missing": 14, "children": [{"nodeid": 13, "leaf": -0.0174784418}, {"nodeid": 14, "leaf": 0.0274704006}]}]}]}, {"nodeid": 0, "depth": 0, "split": "atrPercent", "split_condition": 0.992999971, "yes": 1, "no": 2, "missing": 2, "children": [{"nodeid": 1, "depth": 1, "split": "dRsi", "split_condition": 59, "yes": 3, "no": 4, "missing": 4, "children": [{"nodeid": 3, "depth": 2, "split": "eRsi", "split_condition": 42.4000015, "yes": 7, "no": 8, "missing": 8, "children": [{"nodeid": 7, "leaf": 0.00680551026}, {"nodeid": 8, "leaf": 0.113379136}]}, {"nodeid": 4, "depth": 2, "split": "hMacdHist", "split_condition": -0.430000007, "yes": 9, "no": 10, "missing": 10, "children": [{"nodeid": 9, "leaf": 0.103447214}, {"nodeid": 10, "leaf": -0.00689188996}]}]}, {"nodeid": 2, "depth": 1, "split": "atrPercent", "split_condition": 1.07009995, "yes": 5, "no": 6, "missing": 6, "children": [{"nodeid": 5, "depth": 2, "split": "vix", "split_condition": 20.7000008, "yes": 11, "no": 12, "missing": 12, "children": [{"nodeid": 11, "leaf": -0.0451606661}, {"nodeid": 12, "leaf": 0.0480278097}]}, {"nodeid": 6, "depth": 2, "split": "dRsi", "split_condition": 72.9000015, "yes": 13, "no": 14, "missing": 14, "children": [{"nodeid": 13, "leaf": -0.00165973883}, {"nodeid": 14, "leaf": 0.0276224762}]}]}]}, {"nodeid": 0, "depth": 0, "split": "atrPercent", "split_condition": 4.21899986, "yes": 1, "no": 2, "missing": 2, "children": [{"nodeid": 1, "depth": 1, "split": "atrPercent", "split_condition": 3.4855001, "yes": 3, "no": 4, "missing": 4, "children": [{"nodeid": 3, "depth": 2, "split": "vix", "split_condition": 34.4000015, "yes": 7, "no": 8, "missing": 8, "children": [{"nodeid": 7, "leaf": -0.00239100191}, {"nodeid": 8, "leaf": 0.0338442773}]}, {"nodeid": 4, "depth": 2, "split": "vix", "split_condition": 32.7000008, "yes": 9, "no": 10, "missing": 10, "children": [{"nodeid": 9, "leaf": 0.0445989184}, {"nodeid": 10, "leaf": -0.0522797219}]}]}, {"nodeid": 2, "depth": 1, "split": "dStochCross", "split_condition": 0, "yes": 5, "no": 6, "missing": 6, "children": [{"nodeid": 5, "leaf": 0.0570949689}, {"nodeid": 6, "depth": 2, "split": "dMacdHist", "split_condition": -2.54999995, "yes": 11, "no": 12, "missing": 12, "children": [{"nodeid": 11, "leaf": 0.0149445329}, {"nodeid": 12, "leaf": -0.0575861447}]}]}]}, {"nodeid": 0, "depth": 0, "split": "vix", "split_condition": 57.0999985, "yes": 1, "no": 2, "missing": 2, "children": [{"nodeid": 1, "depth": 1, "split": "dAdx", "split_condition": 22.7999992, "yes": 3, "no": 4, "missing": 4, "children": [{"nodeid": 3, "depth": 2, "split": "vix", "split_condition": 29.5, "yes": 5, "no": 6, "missing": 6, "children": [{"nodeid": 5, "leaf": 0.0001831923}, {"nodeid": 6, "leaf": 0.0248496812}]}, {"nodeid": 4, "depth": 2, "split": "hMacdHist", "split_condition": 1.45000005, "yes": 7, "no": 8, "missing": 8, "children": [{"nodeid": 7, "leaf": -0.0101362905}, {"nodeid": 8, "leaf": 0.0279330462}]}]}, {"nodeid": 2, "leaf": -0.0807743147}]}, {"nodeid": 0, "depth": 0, "split": "vix", "split_condition": 43.7999992, "yes": 1, "no": 2, "missing": 2, "children": [{"nodeid": 1, "depth": 1, "split": "hDivergence", "split_condition": 0, "yes": 3, "no": 4, "missing": 4, "children": [{"nodeid": 3, "depth": 2, "split": "dailyScore", "split_condition": 12, "yes": 7, "no": 8, "missing": 8, "children": [{"nodeid": 7, "leaf": -0.0251339357}, {"nodeid": 8, "leaf": 0.0552756749}]}, {"nodeid": 4, "depth": 2, "split": "dailyScore", "split_condition": -4, "yes": 9, "no": 10, "missing": 10, "children": [{"nodeid": 9, "leaf": -0.00881193113}, {"nodeid": 10, "leaf": 0.00593507895}]}]}, {"nodeid": 2, "depth": 1, "split": "dVolumeRatio", "split_condition": 0.680000007, "yes": 5, "no": 6, "missing": 6, "children": [{"nodeid": 5, "leaf": 0.0319421403}, {"nodeid": 6, "depth": 2, "split": "hStructBull", "split_condition": 1, "yes": 11, "no": 12, "missing": 12, "children": [{"nodeid": 11, "leaf": -0.10281872}, {"nodeid": 12, "leaf": -0.0256021377}]}]}]}, {"nodeid": 0, "depth": 0, "split": "hBBBandwidth", "split_condition": 5.55249977, "yes": 1, "no": 2, "missing": 2, "children": [{"nodeid": 1, "depth": 1, "split": "vix", "split_condition": 21.3999996, "yes": 3, "no": 4, "missing": 4, "children": [{"nodeid": 3, "depth": 2, "split": "hBBPercentB", "split_condition": 0.484200001, "yes": 7, "no": 8, "missing": 8, "children": [{"nodeid": 7, "leaf": 0.0120909018}, {"nodeid": 8, "leaf": -0.0244092327}]}, {"nodeid": 4, "depth": 2, "split": "dRsi", "split_condition": 68.5999985, "yes": 9, "no": 10, "missing": 10, "children": [{"nodeid": 9, "leaf": 0.0348091647}, {"nodeid": 10, "leaf": 0.142953828}]}]}, {"nodeid": 2, "depth": 1, "split": "vix", "split_condition": 16.1000004, "yes": 5, "no": 6, "missing": 6, "children": [{"nodeid": 5, "depth": 2, "split": "atrPercent", "split_condition": 1.36000001, "yes": 11, "no": 12, "missing": 12, "children": [{"nodeid": 11, "leaf": 0.01070162}, {"nodeid": 12, "leaf": 0.0751423985}]}, {"nodeid": 6, "depth": 2, "split": "hBBBandwidth", "split_condition": 6.51620007, "yes": 13, "no": 14, "missing": 14, "children": [{"nodeid": 13, "leaf": -0.0217922032}, {"nodeid": 14, "leaf": -0.00184898474}]}]}]}, {"nodeid": 0, "depth": 0, "split": "hDivergence", "split_condition": 1, "yes": 1, "no": 2, "missing": 2, "children": [{"nodeid": 1, "depth": 1, "split": "dStackBear", "split_condition": 1, "yes": 3, "no": 4, "missing": 4, "children": [{"nodeid": 3, "depth": 2, "split": "vix", "split_condition": 28.5, "yes": 7, "no": 8, "missing": 8, "children": [{"nodeid": 7, "leaf": -0.00827218778}, {"nodeid": 8, "leaf": 0.014081738}]}, {"nodeid": 4, "depth": 2, "split": "atrPercent", "split_condition": 1.79649997, "yes": 9, "no": 10, "missing": 10, "children": [{"nodeid": 9, "leaf": 0.0618650727}, {"nodeid": 10, "leaf": 0.0048226798}]}]}, {"nodeid": 2, "depth": 1, "split": "dailyScore", "split_condition": -5, "yes": 5, "no": 6, "missing": 6, "children": [{"nodeid": 5, "depth": 2, "split": "dMacdHist", "split_condition": -2.28999996, "yes": 11, "no": 12, "missing": 12, "children": [{"nodeid": 11, "leaf": 0.0941503569}, {"nodeid": 12, "leaf": -0.0266400184}]}, {"nodeid": 6, "depth": 2, "split": "atrPercent", "split_condition": 3.30719995, "yes": 13, "no": 14, "missing": 14, "children": [{"nodeid": 13, "leaf": 0.0626539215}, {"nodeid": 14, "leaf": -0.00573763391}]}]}]}, {"nodeid": 0, "depth": 0, "split": "dailyScore", "split_condition": -12, "yes": 1, "no": 2, "missing": 2, "children": [{"nodeid": 1, "leaf": -0.0902598724}, {"nodeid": 2, "depth": 1, "split": "hBBBandwidth", "split_condition": 5.51450014, "yes": 3, "no": 4, "missing": 4, "children": [{"nodeid": 3, "depth": 2, "split": "dAdx", "split_condition": 26.3999996, "yes": 5, "no": 6, "missing": 6, "children": [{"nodeid": 5, "leaf": 0.0175476484}, {"nodeid": 6, "leaf": -0.0123790978}]}, {"nodeid": 4, "depth": 2, "split": "dRsi", "split_condition": 72.9000015, "yes": 7, "no": 8, "missing": 8, "children": [{"nodeid": 7, "leaf": -0.00418301718}, {"nodeid": 8, "leaf": 0.0212001111}]}]}]}, {"nodeid": 0, "depth": 0, "split": "dxyAboveEma20", "split_condition": 1, "yes": 1, "no": 2, "missing": 2, "children": [{"nodeid": 1, "depth": 1, "split": "atrPercentile", "split_condition": 36, "yes": 3, "no": 4, "missing": 4, "children": [{"nodeid": 3, "depth": 2, "split": "fourHScore", "split_condition": 2, "yes": 7, "no": 8, "missing": 8, "children": [{"nodeid": 7, "leaf": 0.0157064311}, {"nodeid": 8, "leaf": -0.0352841541}]}, {"nodeid": 4, "depth": 2, "split": "vix", "split_condition": 32.5999985, "yes": 9, "no": 10, "missing": 10, "children": [{"nodeid": 9, "leaf": 0.0134895248}, {"nodeid": 10, "leaf": -0.0259461198}]}]}, {"nodeid": 2, "depth": 1, "split": "hBBBandwidth", "split_condition": 4.33269978, "yes": 5, "no": 6, "missing": 6, "children": [{"nodeid": 5, "depth": 2, "split": "atrPercentile", "split_condition": 26, "yes": 11, "no": 12, "missing": 12, "children": [{"nodeid": 11, "leaf": 0.0743344799}, {"nodeid": 12, "leaf": 0.0104275001}]}, {"nodeid": 6, "depth": 2, "split": "dMacdHist", "split_condition": 0.129999995, "yes": 13, "no": 14, "missing": 14, "children": [{"nodeid": 13, "leaf": -0.0211867001}, {"nodeid": 14, "leaf": 0.00343132764}]}]}]}, {"nodeid": 0, "depth": 0, "split": "eMacdHist", "split_condition": 1.45000005, "yes": 1, "no": 2, "missing": 2, "children": [{"nodeid": 1, "depth": 1, "split": "dVolumeRatio", "split_condition": 0.819999993, "yes": 3, "no": 4, "missing": 4, "children": [{"nodeid": 3, "depth": 2, "split": "dMacdHist", "split_condition": 0.0299999993, "yes": 7, "no": 8, "missing": 8, "children": [{"nodeid": 7, "leaf": -0.0201216843}, {"nodeid": 8, "leaf": 0.00669424981}]}, {"nodeid": 4, "depth": 2, "split": "dAdx", "split_condition": 45.0999985, "yes": 9, "no": 10, "missing": 10, "children": [{"nodeid": 9, "leaf": 0.008878286}, {"nodeid": 10, "leaf": -0.0450047217}]}]}, {"nodeid": 2, "depth": 1, "split": "dVolumeRatio", "split_condition": 0.899999976, "yes": 5, "no": 6, "missing": 6, "children": [{"nodeid": 5, "leaf": 0.0194723718}, {"nodeid": 6, "depth": 2, "split": "dVolumeRatio", "split_condition": 1.04999995, "yes": 11, "no": 12, "missing": 12, "children": [{"nodeid": 11, "leaf": -0.112352572}, {"nodeid": 12, "leaf": -0.0275533106}]}]}]}, {"nodeid": 0, "depth": 0, "split": "hDivergence", "split_condition": 1, "yes": 1, "no": 2, "missing": 2, "children": [{"nodeid": 1, "depth": 1, "split": "dRsi", "split_condition": 72.9000015, "yes": 3, "no": 4, "missing": 4, "children": [{"nodeid": 3, "depth": 2, "split": "dRsi", "split_condition": 62.7999992, "yes": 7, "no": 8, "missing": 8, "children": [{"nodeid": 7, "leaf": 4.12770714e-05}, {"nodeid": 8, "leaf": -0.0189231858}]}, {"nodeid": 4, "depth": 2, "split": "dVolumeRatio", "split_condition": 0.75, "yes": 9, "no": 10, "missing": 10, "children": [{"nodeid": 9, "leaf": 0.0895941183}, {"nodeid": 10, "leaf": 0.0134115359}]}]}, {"nodeid": 2, "depth": 1, "split": "dAdx", "split_condition": 23.7000008, "yes": 5, "no": 6, "missing": 6, "children": [{"nodeid": 5, "depth": 2, "split": "volScalarML", "split_condition": 0.970000029, "yes": 11, "no": 12, "missing": 12, "children": [{"nodeid": 11, "leaf": -0.0078538442}, {"nodeid": 12, "leaf": 0.065504618}]}, {"nodeid": 6, "depth": 2, "split": "dBBBandwidth", "split_condition": 40.5429993, "yes": 13, "no": 14, "missing": 14, "children": [{"nodeid": 13, "leaf": -0.0050464049}, {"nodeid": 14, "leaf": 0.0687585399}]}]}]}, {"nodeid": 0, "depth": 0, "split": "hRsi", "split_condition": 32.7000008, "yes": 1, "no": 2, "missing": 2, "children": [{"nodeid": 1, "depth": 1, "split": "volScalarML", "split_condition": 1.25, "yes": 3, "no": 4, "missing": 4, "children": [{"nodeid": 3, "depth": 2, "split": "dailyScore", "split_condition": -4, "yes": 7, "no": 8, "missing": 8, "children": [{"nodeid": 7, "leaf": -0.0566712618}, {"nodeid": 8, "leaf": 0.0241100546}]}, {"nodeid": 4, "depth": 2, "split": "dAdx", "split_condition": 25, "yes": 9, "no": 10, "missing": 10, "children": [{"nodeid": 9, "leaf": 0.102246128}, {"nodeid": 10, "leaf": -0.00843363907}]}]}, {"nodeid": 2, "depth": 1, "split": "dBBPercentB", "split_condition": 0.125599995, "yes": 5, "no": 6, "missing": 6, "children": [{"nodeid": 5, "depth": 2, "split": "dBBBandwidth", "split_condition": 16.6163998, "yes": 11, "no": 12, "missing": 12, "children": [{"nodeid": 11, "leaf": 0.0468574166}, {"nodeid": 12, "leaf": -0.019504793}]}, {"nodeid": 6, "depth": 2, "split": "dDivergence", "split_condition": 0, "yes": 13, "no": 14, "missing": 14, "children": [{"nodeid": 13, "leaf": -0.0214805845}, {"nodeid": 14, "leaf": 0.00244796649}]}]}]}, {"nodeid": 0, "depth": 0, "split": "dailyScore", "split_condition": -2, "yes": 1, "no": 2, "missing": 2, "children": [{"nodeid": 1, "depth": 1, "split": "fourHScore", "split_condition": -2, "yes": 3, "no": 4, "missing": 4, "children": [{"nodeid": 3, "depth": 2, "split": "dBBPercentB", "split_condition": 0.329100013, "yes": 7, "no": 8, "missing": 8, "children": [{"nodeid": 7, "leaf": -0.00597155374}, {"nodeid": 8, "leaf": -0.0574959815}]}, {"nodeid": 4, "depth": 2, "split": "hAdx", "split_condition": 23.8999996, "yes": 9, "no": 10, "missing": 10, "children": [{"nodeid": 9, "leaf": 0.0443740748}, {"nodeid": 10, "leaf": -0.0327359959}]}]}, {"nodeid": 2, "depth": 1, "split": "hStackBull", "split_condition": 1, "yes": 5, "no": 6, "missing": 6, "children": [{"nodeid": 5, "depth": 2, "split": "atrPercentile", "split_condition": 74, "yes": 11, "no": 12, "missing": 12, "children": [{"nodeid": 11, "leaf": 0.0357309841}, {"nodeid": 12, "leaf": -0.00985523593}]}, {"nodeid": 6, "depth": 2, "split": "vix", "split_condition": 34.4000015, "yes": 13, "no": 14, "missing": 14, "children": [{"nodeid": 13, "leaf": -0.00545407832}, {"nodeid": 14, "leaf": 0.0546844602}]}]}]}, {"nodeid": 0, "depth": 0, "split": "vix", "split_condition": 53.5, "yes": 1, "no": 2, "missing": 2, "children": [{"nodeid": 1, "depth": 1, "split": "dBBBandwidth", "split_condition": 40.5429993, "yes": 3, "no": 4, "missing": 4, "children": [{"nodeid": 3, "depth": 2, "split": "dBBBandwidth", "split_condition": 36.0372009, "yes": 7, "no": 8, "missing": 8, "children": [{"nodeid": 7, "leaf": 0.00174224598}, {"nodeid": 8, "leaf": -0.0487136729}]}, {"nodeid": 4, "depth": 2, "split": "dMacdHist", "split_condition": 1.88, "yes": 9, "no": 10, "missing": 10, "children": [{"nodeid": 9, "leaf": 0.0591431446}, {"nodeid": 10, "leaf": -0.00952669512}]}]}, {"nodeid": 2, "depth": 1, "split": "hVolumeRatio", "split_condition": 0.879999995, "yes": 5, "no": 6, "missing": 6, "children": [{"nodeid": 5, "leaf": -0.0107002659}, {"nodeid": 6, "leaf": -0.10973227}]}]}, {"nodeid": 0, "depth": 0, "split": "volScalarML", "split_condition": 1.32000005, "yes": 1, "no": 2, "missing": 2, "children": [{"nodeid": 1, "depth": 1, "split": "hRsi", "split_condition": 31.6000004, "yes": 3, "no": 4, "missing": 4, "children": [{"nodeid": 3, "depth": 2, "split": "atrPercentile", "split_condition": 82, "yes": 7, "no": 8, "missing": 8, "children": [{"nodeid": 7, "leaf": -0.0459407754}, {"nodeid": 8, "leaf": 0.0760574192}]}, {"nodeid": 4, "depth": 2, "split": "eMacdHist", "split_condition": 1.27999997, "yes": 9, "no": 10, "missing": 10, "children": [{"nodeid": 9, "leaf": 0.00441050157}, {"nodeid": 10, "leaf": -0.0318135023}]}]}, {"nodeid": 2, "depth": 1, "split": "dMacdHist", "split_condition": -0.360000014, "yes": 5, "no": 6, "missing": 6, "children": [{"nodeid": 5, "depth": 2, "split": "vix", "split_condition": 29.2999992, "yes": 11, "no": 12, "missing": 12, "children": [{"nodeid": 11, "leaf": 0.0344439447}, {"nodeid": 12, "leaf": -0.032188829}]}, {"nodeid": 6, "depth": 2, "split": "hBBBandwidth", "split_condition": 7.4394002, "yes": 13, "no": 14, "missing": 14, "children": [{"nodeid": 13, "leaf": 0.0159359965}, {"nodeid": 14, "leaf": -0.0597603992}]}]}]}, {"nodeid": 0, "depth": 0, "split": "dRsi", "split_condition": 32.2000008, "yes": 1, "no": 2, "missing": 2, "children": [{"nodeid": 1, "depth": 1, "split": "hMacdHist", "split_condition": -1.33000004, "yes": 3, "no": 4, "missing": 4, "children": [{"nodeid": 3, "depth": 2, "split": "vix", "split_condition": 30, "yes": 7, "no": 8, "missing": 8, "children": [{"nodeid": 7, "leaf": 0.0483065061}, {"nodeid": 8, "leaf": -0.0305829197}]}, {"nodeid": 4, "depth": 2, "split": "hRsi", "split_condition": 26, "yes": 9, "no": 10, "missing": 10, "children": [{"nodeid": 9, "leaf": -0.095291391}, {"nodeid": 10, "leaf": -0.0399547629}]}]}, {"nodeid": 2, "depth": 1, "split": "dStochK", "split_condition": 23.6000004, "yes": 5, "no": 6, "missing": 6, "children": [{"nodeid": 5, "depth": 2, "split": "atrPercent", "split_condition": 0.984099984, "yes": 11, "no": 12, "missing": 12, "children": [{"nodeid": 11, "leaf": 0.0970711857}, {"nodeid": 12, "leaf": 0.00835528877}]}, {"nodeid": 6, "depth": 2, "split": "volScalarML", "split_condition": 1.32000005, "yes": 13, "no": 14, "missing": 14, "children": [{"nodeid": 13, "leaf": -0.000897905265}, {"nodeid": 14, "leaf": -0.0303686168}]}]}]}, {"nodeid": 0, "depth": 0, "split": "dAdx", "split_condition": 10.6999998, "yes": 1, "no": 2, "missing": 2, "children": [{"nodeid": 1, "depth": 1, "split": "hBBBandwidth", "split_condition": 6.64900017, "yes": 3, "no": 4, "missing": 4, "children": [{"nodeid": 3, "depth": 2, "split": "dVolumeRatio", "split_condition": 0.889999986, "yes": 7, "no": 8, "missing": 8, "children": [{"nodeid": 7, "leaf": 0.102399208}, {"nodeid": 8, "leaf": 0.014814361}]}, {"nodeid": 4, "leaf": -0.025895277}]}, {"nodeid": 2, "depth": 1, "split": "dAdx", "split_condition": 11.3000002, "yes": 5, "no": 6, "missing": 6, "children": [{"nodeid": 5, "depth": 2, "split": "dBBBandwidth", "split_condition": 11.0488997, "yes": 9, "no": 10, "missing": 10, "children": [{"nodeid": 9, "leaf": -0.010996907}, {"nodeid": 10, "leaf": -0.122180276}]}, {"nodeid": 6, "depth": 2, "split": "hMacdHist", "split_condition": -1.17999995, "yes": 11, "no": 12, "missing": 12, "children": [{"nodeid": 11, "leaf": 0.0131650297}, {"nodeid": 12, "leaf": -0.00313033327}]}]}]}, {"nodeid": 0, "depth": 0, "split": "hStochK", "split_condition": 16.5, "yes": 1, "no": 2, "missing": 2, "children": [{"nodeid": 1, "depth": 1, "split": "vix", "split_condition": 26.7999992, "yes": 3, "no": 4, "missing": 4, "children": [{"nodeid": 3, "depth": 2, "split": "dailyScore", "split_condition": -4, "yes": 7, "no": 8, "missing": 8, "children": [{"nodeid": 7, "leaf": -0.0318546928}, {"nodeid": 8, "leaf": 0.00954572018}]}, {"nodeid": 4, "depth": 2, "split": "dRsi", "split_condition": 52.5, "yes": 9, "no": 10, "missing": 10, "children": [{"nodeid": 9, "leaf": 0.0188170653}, {"nodeid": 10, "leaf": 0.0918058529}]}]}, {"nodeid": 2, "depth": 1, "split": "dVolumeRatio", "split_condition": 0.689999998, "yes": 5, "no": 6, "missing": 6, "children": [{"nodeid": 5, "depth": 2, "split": "vix", "split_condition": 24, "yes": 11, "no": 12, "missing": 12, "children": [{"nodeid": 11, "leaf": -0.0329021476}, {"nodeid": 12, "leaf": 0.00401233602}]}, {"nodeid": 6, "depth": 2, "split": "dBBBandwidth", "split_condition": 14.7381001, "yes": 13, "no": 14, "missing": 14, "children": [{"nodeid": 13, "leaf": 0.00689152023}, {"nodeid": 14, "leaf": -0.0103785032}]}]}]}, {"nodeid": 0, "depth": 0, "split": "dStackBear", "split_condition": 1, "yes": 1, "no": 2, "missing": 2, "children": [{"nodeid": 1, "depth": 1, "split": "atrPercentile", "split_condition": 2, "yes": 3, "no": 4, "missing": 4, "children": [{"nodeid": 3, "depth": 2, "split": "dBBBandwidth", "split_condition": 5.40089989, "yes": 7, "no": 8, "missing": 8, "children": [{"nodeid": 7, "leaf": -0.0131139206}, {"nodeid": 8, "leaf": 0.115712263}]}, {"nodeid": 4, "depth": 2, "split": "dailyScore", "split_condition": -5, "yes": 9, "no": 10, "missing": 10, "children": [{"nodeid": 9, "leaf": -0.0202985387}, {"nodeid": 10, "leaf": 0.000327485352}]}]}, {"nodeid": 2, "depth": 1, "split": "hBBBandwidth", "split_condition": 6.15829992, "yes": 5, "no": 6, "missing": 6, "children": [{"nodeid": 5, "depth": 2, "split": "hBBPercentB", "split_condition": 0.331, "yes": 11, "no": 12, "missing": 12, "children": [{"nodeid": 11, "leaf": 0.0299935974}, {"nodeid": 12, "leaf": 0.108256571}]}, {"nodeid": 6, "depth": 2, "split": "dBBBandwidth", "split_condition": 14.8823996, "yes": 13, "no": 14, "missing": 14, "children": [{"nodeid": 13, "leaf": 0.0264323112}, {"nodeid": 14, "leaf": -0.00470559439}]}]}]}, {"nodeid": 0, "depth": 0, "split": "hMacdHist", "split_condition": -1.17999995, "yes": 1, "no": 2, "missing": 2, "children": [{"nodeid": 1, "depth": 1, "split": "dBBPercentB", "split_condition": 0.68720001, "yes": 3, "no": 4, "missing": 4, "children": [{"nodeid": 3, "depth": 2, "split": "dVolumeRatio", "split_condition": 0.660000026, "yes": 7, "no": 8, "missing": 8, "children": [{"nodeid": 7, "leaf": -0.0912442878}, {"nodeid": 8, "leaf": 0.0154784219}]}, {"nodeid": 4, "leaf": 0.0777539536}]}, {"nodeid": 2, "depth": 1, "split": "hRsi", "split_condition": 26.8999996, "yes": 5, "no": 6, "missing": 6, "children": [{"nodeid": 5, "leaf": -0.0740919858}, {"nodeid": 6, "depth": 2, "split": "dStackBear", "split_condition": 1, "yes": 9, "no": 10, "missing": 10, "children": [{"nodeid": 9, "leaf": -0.00481526321}, {"nodeid": 10, "leaf": 0.00982223637}]}]}]}, {"nodeid": 0, "depth": 0, "split": "hDivergence", "split_condition": 1, "yes": 1, "no": 2, "missing": 2, "children": [{"nodeid": 1, "depth": 1, "split": "dStructBear", "split_condition": 1, "yes": 3, "no": 4, "missing": 4, "children": [{"nodeid": 3, "depth": 2, "split": "hAboveVwap", "split_condition": 1, "yes": 7, "no": 8, "missing": 8, "children": [{"nodeid": 7, "leaf": 0.00365195028}, {"nodeid": 8, "leaf": -0.0106960861}]}, {"nodeid": 4, "depth": 2, "split": "hVolumeRatio", "split_condition": 0.340000004, "yes": 9, "no": 10, "missing": 10, "children": [{"nodeid": 9, "leaf": -0.0502299368}, {"nodeid": 10, "leaf": 0.0140762795}]}]}, {"nodeid": 2, "depth": 1, "split": "dMacdHist", "split_condition": -1.38999999, "yes": 5, "no": 6, "missing": 6, "children": [{"nodeid": 5, "depth": 2, "split": "dAdx", "split_condition": 25, "yes": 11, "no": 12, "missing": 12, "children": [{"nodeid": 11, "leaf": 0.0988328531}, {"nodeid": 12, "leaf": 0.0301472191}]}, {"nodeid": 6, "depth": 2, "split": "dailyScore", "split_condition": -2, "yes": 13, "no": 14, "missing": 14, "children": [{"nodeid": 13, "leaf": -0.0217056479}, {"nodeid": 14, "leaf": 0.0471662581}]}]}]}, {"nodeid": 0, "depth": 0, "split": "hRsi", "split_condition": 78.5, "yes": 1, "no": 2, "missing": 2, "children": [{"nodeid": 1, "depth": 1, "split": "atrPercent", "split_condition": 0.992999971, "yes": 3, "no": 4, "missing": 4, "children": [{"nodeid": 3, "depth": 2, "split": "dStochK", "split_condition": 45.0999985, "yes": 7, "no": 8, "missing": 8, "children": [{"nodeid": 7, "leaf": 0.0616254508}, {"nodeid": 8, "leaf": -0.00306268153}]}, {"nodeid": 4, "depth": 2, "split": "fourHScore", "split_condition": 11, "yes": 9, "no": 10, "missing": 10, "children": [{"nodeid": 9, "leaf": -0.00180003978}, {"nodeid": 10, "leaf": -0.0290575679}]}]}, {"nodeid": 2, "depth": 1, "split": "dMacdHist", "split_condition": 1.10000002, "yes": 5, "no": 6, "missing": 6, "children": [{"nodeid": 5, "leaf": 0.082283251}, {"nodeid": 6, "depth": 2, "split": "dAdx", "split_condition": 33.2999992, "yes": 11, "no": 12, "missing": 12, "children": [{"nodeid": 11, "leaf": -0.0658729076}, {"nodeid": 12, "leaf": 0.0672384426}]}]}]}, {"nodeid": 0, "depth": 0, "split": "hDivergence", "split_condition": 0, "yes": 1, "no": 2, "missing": 2, "children": [{"nodeid": 1, "depth": 1, "split": "hBBBandwidth", "split_condition": 3.23189998, "yes": 3, "no": 4, "missing": 4, "children": [{"nodeid": 3, "depth": 2, "split": "dRsi", "split_condition": 61.5, "yes": 7, "no": 8, "missing": 8, "children": [{"nodeid": 7, "leaf": 0.0776813254}, {"nodeid": 8, "leaf": 0.0069593275}]}, {"nodeid": 4, "depth": 2, "split": "dBBSqueeze", "split_condition": 1, "yes": 9, "no": 10, "missing": 10, "children": [{"nodeid": 9, "leaf": -0.0207798015}, {"nodeid": 10, "leaf": -0.106622532}]}]}, {"nodeid": 2, "depth": 1, "split": "dRsi", "split_condition": 74.1999969, "yes": 5, "no": 6, "missing": 6, "children": [{"nodeid": 5, "depth": 2, "split": "hBBBandwidth", "split_condition": 5.74329996, "yes": 11, "no": 12, "missing": 12, "children": [{"nodeid": 11, "leaf": 0.0118215829}, {"nodeid": 12, "leaf": -0.00386668486}]}, {"nodeid": 6, "depth": 2, "split": "hBBBandwidth", "split_condition": 20.6053009, "yes": 13, "no": 14, "missing": 14, "children": [{"nodeid": 13, "leaf": 0.0187004413}, {"nodeid": 14, "leaf": 0.108475842}]}]}]}, {"nodeid": 0, "depth": 0, "split": "dMacdHist", "split_condition": 2.63000011, "yes": 1, "no": 2, "missing": 2, "children": [{"nodeid": 1, "depth": 1, "split": "hRsi", "split_condition": 79.6999969, "yes": 3, "no": 4, "missing": 4, "children": [{"nodeid": 3, "depth": 2, "split": "hBBPercentB", "split_condition": -0.0177999996, "yes": 7, "no": 8, "missing": 8, "children": [{"nodeid": 7, "leaf": 0.0231527574}, {"nodeid": 8, "leaf": -0.00272182887}]}, {"nodeid": 4, "depth": 2, "split": "hMacdHist", "split_condition": 1.04999995, "yes": 9, "no": 10, "missing": 10, "children": [{"nodeid": 9, "leaf": 0.00983032957}, {"nodeid": 10, "leaf": 0.119243681}]}]}, {"nodeid": 2, "depth": 1, "split": "volScalarML", "split_condition": 1.12, "yes": 5, "no": 6, "missing": 6, "children": [{"nodeid": 5, "depth": 2, "split": "hBBPercentB", "split_condition": 0.931100011, "yes": 11, "no": 12, "missing": 12, "children": [{"nodeid": 11, "leaf": 0.0911211371}, {"nodeid": 12, "leaf": 0.0101761175}]}, {"nodeid": 6, "depth": 2, "split": "dMacdHist", "split_condition": 2.8900001, "yes": 13, "no": 14, "missing": 14, "children": [{"nodeid": 13, "leaf": 0.052301567}, {"nodeid": 14, "leaf": -0.0178486221}]}]}]}, {"nodeid": 0, "depth": 0, "split": "atrPercent", "split_condition": 3.0237, "yes": 1, "no": 2, "missing": 2, "children": [{"nodeid": 1, "depth": 1, "split": "hBBBandwidth", "split_condition": 13.2456999, "yes": 3, "no": 4, "missing": 4, "children": [{"nodeid": 3, "depth": 2, "split": "dMacdHist", "split_condition": 1.64999998, "yes": 7, "no": 8, "missing": 8, "children": [{"nodeid": 7, "leaf": -0.00225149817}, {"nodeid": 8, "leaf": 0.0238216948}]}, {"nodeid": 4, "depth": 2, "split": "eStochK", "split_condition": 93.3000031, "yes": 9, "no": 10, "missing": 10, "children": [{"nodeid": 9, "leaf": -0.0213945545}, {"nodeid": 10, "leaf": 0.0315450244}]}]}, {"nodeid": 2, "depth": 1, "split": "dMacdHist", "split_condition": -3.08999991, "yes": 5, "no": 6, "missing": 6, "children": [{"nodeid": 5, "depth": 2, "split": "dMacdHist", "split_condition": -6.23999977, "yes": 11, "no": 12, "missing": 12, "children": [{"nodeid": 11, "leaf": -0.0454763472}, {"nodeid": 12, "leaf": 0.0961212069}]}, {"nodeid": 6, "depth": 2, "split": "volScalarML", "split_condition": 1.35000002, "yes": 13, "no": 14, "missing": 14, "children": [{"nodeid": 13, "leaf": 0.00971497875}, {"nodeid": 14, "leaf": -0.0527400672}]}]}]}, {"nodeid": 0, "depth": 0, "split": "dRsi", "split_condition": 35.4000015, "yes": 1, "no": 2, "missing": 2, "children": [{"nodeid": 1, "depth": 1, "split": "hMacdHist", "split_condition": 0.879999995, "yes": 3, "no": 4, "missing": 4, "children": [{"nodeid": 3, "depth": 2, "split": "vix", "split_condition": 31.2000008, "yes": 7, "no": 8, "missing": 8, "children": [{"nodeid": 7, "leaf": -0.0121451402}, {"nodeid": 8, "leaf": -0.0622875504}]}, {"nodeid": 4, "leaf": 0.0719175562}]}, {"nodeid": 2, "depth": 1, "split": "dBBPercentB", "split_condition": 0.150199994, "yes": 5, "no": 6, "missing": 6, "children": [{"nodeid": 5, "depth": 2, "split": "volScalarML", "split_condition": 0.939999998, "yes": 9, "no": 10, "missing": 10, "children": [{"nodeid": 9, "leaf": -0.0102327876}, {"nodeid": 10, "leaf": 0.0351812504}]}, {"nodeid": 6, "depth": 2, "split": "dDivergence", "split_condition": 0, "yes": 11, "no": 12, "missing": 12, "children": [{"nodeid": 11, "leaf": -0.0177068673}, {"nodeid": 12, "leaf": 0.00153240224}]}]}]}, {"nodeid": 0, "depth": 0, "split": "dBBPercentB", "split_condition": -0.0377999991, "yes": 1, "no": 2, "missing": 2, "children": [{"nodeid": 1, "depth": 1, "split": "dailyScore", "split_condition": -4, "yes": 3, "no": 4, "missing": 4, "children": [{"nodeid": 3, "depth": 2, "split": "dMacdHist", "split_condition": -2.67000008, "yes": 7, "no": 8, "missing": 8, "children": [{"nodeid": 7, "leaf": 0.0790637285}, {"nodeid": 8, "leaf": -0.00836267788}]}, {"nodeid": 4, "depth": 2, "split": "dStochK", "split_condition": 7.30000019, "yes": 9, "no": 10, "missing": 10, "children": [{"nodeid": 9, "leaf": 0.0945675597}, {"nodeid": 10, "leaf": -0.00470570801}]}]}, {"nodeid": 2, "depth": 1, "split": "hRsi", "split_condition": 34, "yes": 5, "no": 6, "missing": 6, "children": [{"nodeid": 5, "depth": 2, "split": "dBBPercentB", "split_condition": 0.179199994, "yes": 11, "no": 12, "missing": 12, "children": [{"nodeid": 11, "leaf": -0.0352264754}, {"nodeid": 12, "leaf": 0.0664758757}]}, {"nodeid": 6, "depth": 2, "split": "dBBPercentB", "split_condition": 0.125599995, "yes": 13, "no": 14, "missing": 14, "children": [{"nodeid": 13, "leaf": 0.0321855657}, {"nodeid": 14, "leaf": -0.00167159853}]}]}]}, {"nodeid": 0, "depth": 0, "split": "dMacdHist", "split_condition": 0.109999999, "yes": 1, "no": 2, "missing": 2, "children": [{"nodeid": 1, "depth": 1, "split": "dVolumeRatio", "split_condition": 0.810000002, "yes": 3, "no": 4, "missing": 4, "children": [{"nodeid": 3, "depth": 2, "split": "hStructBear", "split_condition": 1, "yes": 7, "no": 8, "missing": 8, "children": [{"nodeid": 7, "leaf": -0.0339258574}, {"nodeid": 8, "leaf": -0.00164125243}]}, {"nodeid": 4, "depth": 2, "split": "eStochK", "split_condition": 15.1999998, "yes": 9, "no": 10, "missing": 10, "children": [{"nodeid": 9, "leaf": -0.0167724565}, {"nodeid": 10, "leaf": 0.00633080443}]}]}, {"nodeid": 2, "depth": 1, "split": "fourHScore", "split_condition": -1, "yes": 5, "no": 6, "missing": 6, "children": [{"nodeid": 5, "depth": 2, "split": "dailyScore", "split_condition": -1, "yes": 11, "no": 12, "missing": 12, "children": [{"nodeid": 11, "leaf": -0.0323181488}, {"nodeid": 12, "leaf": 0.0280783623}]}, {"nodeid": 6, "depth": 2, "split": "dailyScore", "split_condition": 7, "yes": 13, "no": 14, "missing": 14, "children": [{"nodeid": 13, "leaf": 0.023066815}, {"nodeid": 14, "leaf": -0.00377729512}]}]}]}, {"nodeid": 0, "depth": 0, "split": "vix", "split_condition": 16.1000004, "yes": 1, "no": 2, "missing": 2, "children": [{"nodeid": 1, "depth": 1, "split": "dStochK", "split_condition": 60.4000015, "yes": 3, "no": 4, "missing": 4, "children": [{"nodeid": 3, "depth": 2, "split": "hBBPercentB", "split_condition": 0.551599979, "yes": 7, "no": 8, "missing": 8, "children": [{"nodeid": 7, "leaf": 0.0279920157}, {"nodeid": 8, "leaf": -0.077559717}]}, {"nodeid": 4, "depth": 2, "split": "volScalarML", "split_condition": 0.829999983, "yes": 9, "no": 10, "missing": 10, "children": [{"nodeid": 9, "leaf": 0.127888322}, {"nodeid": 10, "leaf": 0.0464756377}]}]}, {"nodeid": 2, "depth": 1, "split": "dStackBear", "split_condition": 1, "yes": 5, "no": 6, "missing": 6, "children": [{"nodeid": 5, "depth": 2, "split": "hDivergence", "split_condition": 1, "yes": 11, "no": 12, "missing": 12, "children": [{"nodeid": 11, "leaf": -0.00591425691}, {"nodeid": 12, "leaf": 0.0337033533}]}, {"nodeid": 6, "depth": 2, "split": "hBBBandwidth", "split_condition": 5.74329996, "yes": 13, "no": 14, "missing": 14, "children": [{"nodeid": 13, "leaf": 0.0805750117}, {"nodeid": 14, "leaf": 0.00716454862}]}]}]}, {"nodeid": 0, "depth": 0, "split": "dVolumeRatio", "split_condition": 0.529999971, "yes": 1, "no": 2, "missing": 2, "children": [{"nodeid": 1, "depth": 1, "split": "dxyAboveEma20", "split_condition": 1, "yes": 3, "no": 4, "missing": 4, "children": [{"nodeid": 3, "leaf": 0.0286314469}, {"nodeid": 4, "depth": 2, "split": "hBBPercentB", "split_condition": 0.547599971, "yes": 7, "no": 8, "missing": 8, "children": [{"nodeid": 7, "leaf": -0.112037301}, {"nodeid": 8, "leaf": -0.0281380769}]}]}, {"nodeid": 2, "depth": 1, "split": "atrPercent", "split_condition": 1.47889996, "yes": 5, "no": 6, "missing": 6, "children": [{"nodeid": 5, "depth": 2, "split": "atrPercentile", "split_condition": 54, "yes": 9, "no": 10, "missing": 10, "children": [{"nodeid": 9, "leaf": 0.0023543858}, {"nodeid": 10, "leaf": 0.0257269479}]}, {"nodeid": 6, "depth": 2, "split": "dRsi", "split_condition": 74.8000031, "yes": 11, "no": 12, "missing": 12, "children": [{"nodeid": 11, "leaf": -0.00276504899}, {"nodeid": 12, "leaf": 0.0478408821}]}]}]}, {"nodeid": 0, "depth": 0, "split": "vix", "split_condition": 24.8999996, "yes": 1, "no": 2, "missing": 2, "children": [{"nodeid": 1, "depth": 1, "split": "vix", "split_condition": 24.7000008, "yes": 3, "no": 4, "missing": 4, "children": [{"nodeid": 3, "depth": 2, "split": "hDivergence", "split_condition": 1, "yes": 7, "no": 8, "missing": 8, "children": [{"nodeid": 7, "leaf": -0.00592559623}, {"nodeid": 8, "leaf": 0.0315022506}]}, {"nodeid": 4, "depth": 2, "split": "dAdx", "split_condition": 17.8999996, "yes": 9, "no": 10, "missing": 10, "children": [{"nodeid": 9, "leaf": -0.0122908195}, {"nodeid": 10, "leaf": -0.0983150229}]}]}, {"nodeid": 2, "depth": 1, "split": "hBBBandwidth", "split_condition": 8.82900047, "yes": 5, "no": 6, "missing": 6, "children": [{"nodeid": 5, "depth": 2, "split": "dStochK", "split_condition": 56.9000015, "yes": 11, "no": 12, "missing": 12, "children": [{"nodeid": 11, "leaf": 0.0343142226}, {"nodeid": 12, "leaf": 0.00136883149}]}, {"nodeid": 6, "depth": 2, "split": "adLineAccumulation", "split_condition": 1, "yes": 13, "no": 14, "missing": 14, "children": [{"nodeid": 13, "leaf": 0.00697057322}, {"nodeid": 14, "leaf": -0.0184363406}]}]}]}, {"nodeid": 0, "depth": 0, "split": "vix", "split_condition": 16.1000004, "yes": 1, "no": 2, "missing": 2, "children": [{"nodeid": 1, "depth": 1, "split": "dStochK", "split_condition": 83, "yes": 3, "no": 4, "missing": 4, "children": [{"nodeid": 3, "depth": 2, "split": "dBBBandwidth", "split_condition": 9.83390045, "yes": 7, "no": 8, "missing": 8, "children": [{"nodeid": 7, "leaf": 0.0335170701}, {"nodeid": 8, "leaf": -0.0683689639}]}, {"nodeid": 4, "depth": 2, "split": "hMacdHist", "split_condition": 0.430000007, "yes": 9, "no": 10, "missing": 10, "children": [{"nodeid": 9, "leaf": 0.148400217}, {"nodeid": 10, "leaf": 0.0205147918}]}]}, {"nodeid": 2, "depth": 1, "split": "vix", "split_condition": 21.7000008, "yes": 5, "no": 6, "missing": 6, "children": [{"nodeid": 5, "depth": 2, "split": "dRsi", "split_condition": 62.7999992, "yes": 11, "no": 12, "missing": 12, "children": [{"nodeid": 11, "leaf": -0.00100578333}, {"nodeid": 12, "leaf": -0.0267105196}]}, {"nodeid": 6, "depth": 2, "split": "hBBBandwidth", "split_condition": 8.53709984, "yes": 13, "no": 14, "missing": 14, "children": [{"nodeid": 13, "leaf": 0.0147894444}, {"nodeid": 14, "leaf": -0.00456370646}]}]}]}, {"nodeid": 0, "depth": 0, "split": "dVolumeRatio", "split_condition": 1.11000001, "yes": 1, "no": 2, "missing": 2, "children": [{"nodeid": 1, "depth": 1, "split": "dRsi", "split_condition": 31.7999992, "yes": 3, "no": 4, "missing": 4, "children": [{"nodeid": 3, "depth": 2, "split": "volScalarML", "split_condition": 0.99000001, "yes": 7, "no": 8, "missing": 8, "children": [{"nodeid": 7, "leaf": -0.104741551}, {"nodeid": 8, "leaf": -0.029501332}]}, {"nodeid": 4, "depth": 2, "split": "dMacdCross", "split_condition": 1, "yes": 9, "no": 10, "missing": 10, "children": [{"nodeid": 9, "leaf": -0.000467628706}, {"nodeid": 10, "leaf": -0.0346276127}]}]}, {"nodeid": 2, "depth": 1, "split": "vix", "split_condition": 17.8999996, "yes": 5, "no": 6, "missing": 6, "children": [{"nodeid": 5, "depth": 2, "split": "atrPercent", "split_condition": 1.09599996, "yes": 11, "no": 12, "missing": 12, "children": [{"nodeid": 11, "leaf": -0.0156675167}, {"nodeid": 12, "leaf": 0.0598491728}]}, {"nodeid": 6, "depth": 2, "split": "vix", "split_condition": 27, "yes": 13, "no": 14, "missing": 14, "children": [{"nodeid": 13, "leaf": -0.00785799697}, {"nodeid": 14, "leaf": 0.0214284547}]}]}]}, {"nodeid": 0, "depth": 0, "split": "dxyAboveEma20", "split_condition": 1, "yes": 1, "no": 2, "missing": 2, "children": [{"nodeid": 1, "depth": 1, "split": "hBBBandwidth", "split_condition": 4.65310001, "yes": 3, "no": 4, "missing": 4, "children": [{"nodeid": 3, "depth": 2, "split": "atrPercentile", "split_condition": 29, "yes": 7, "no": 8, "missing": 8, "children": [{"nodeid": 7, "leaf": -0.052605547}, {"nodeid": 8, "leaf": 0.00875544455}]}, {"nodeid": 4, "depth": 2, "split": "vix", "split_condition": 31.1000004, "yes": 9, "no": 10, "missing": 10, "children": [{"nodeid": 9, "leaf": 0.0117426822}, {"nodeid": 10, "leaf": -0.0275926478}]}]}, {"nodeid": 2, "depth": 1, "split": "hBBBandwidth", "split_condition": 3.88579988, "yes": 5, "no": 6, "missing": 6, "children": [{"nodeid": 5, "depth": 2, "split": "volScalarML", "split_condition": 0.939999998, "yes": 11, "no": 12, "missing": 12, "children": [{"nodeid": 11, "leaf": 0.0817310065}, {"nodeid": 12, "leaf": 0.00898043253}]}, {"nodeid": 6, "depth": 2, "split": "dMacdHist", "split_condition": 0.119999997, "yes": 13, "no": 14, "missing": 14, "children": [{"nodeid": 13, "leaf": -0.0180129856}, {"nodeid": 14, "leaf": 0.00330978609}]}]}]}, {"nodeid": 0, "depth": 0, "split": "atrPercent", "split_condition": 4.62300014, "yes": 1, "no": 2, "missing": 2, "children": [{"nodeid": 1, "depth": 1, "split": "atrPercent", "split_condition": 3.0237, "yes": 3, "no": 4, "missing": 4, "children": [{"nodeid": 3, "depth": 2, "split": "hRsi", "split_condition": 29.5, "yes": 7, "no": 8, "missing": 8, "children": [{"nodeid": 7, "leaf": -0.0385049433}, {"nodeid": 8, "leaf": -0.000429026055}]}, {"nodeid": 4, "depth": 2, "split": "hBBPercentB", "split_condition": 0.180099994, "yes": 9, "no": 10, "missing": 10, "children": [{"nodeid": 9, "leaf": 0.0553076826}, {"nodeid": 10, "leaf": 0.00572235044}]}]}, {"nodeid": 2, "depth": 1, "split": "eMacdHist", "split_condition": 0.100000001, "yes": 5, "no": 6, "missing": 6, "children": [{"nodeid": 5, "depth": 2, "split": "hStackBear", "split_condition": 1, "yes": 11, "no": 12, "missing": 12, "children": [{"nodeid": 11, "leaf": -0.0403853543}, {"nodeid": 12, "leaf": 0.0184251275}]}, {"nodeid": 6, "depth": 2, "split": "hStochK", "split_condition": 87.4000015, "yes": 13, "no": 14, "missing": 14, "children": [{"nodeid": 13, "leaf": -0.0362302549}, {"nodeid": 14, "leaf": -0.0984030291}]}]}]}, {"nodeid": 0, "depth": 0, "split": "atrPercent", "split_condition": 1.47889996, "yes": 1, "no": 2, "missing": 2, "children": [{"nodeid": 1, "depth": 1, "split": "vix", "split_condition": 21.2999992, "yes": 3, "no": 4, "missing": 4, "children": [{"nodeid": 3, "depth": 2, "split": "dRsi", "split_condition": 78.4000015, "yes": 7, "no": 8, "missing": 8, "children": [{"nodeid": 7, "leaf": -0.00319877942}, {"nodeid": 8, "leaf": -0.10460867}]}, {"nodeid": 4, "depth": 2, "split": "dVolumeRatio", "split_condition": 1.24000001, "yes": 9, "no": 10, "missing": 10, "children": [{"nodeid": 9, "leaf": 0.0382358544}, {"nodeid": 10, "leaf": -0.0149933072}]}]}, {"nodeid": 2, "depth": 1, "split": "dBBBandwidth", "split_condition": 6.30749989, "yes": 5, "no": 6, "missing": 6, "children": [{"nodeid": 5, "depth": 2, "split": "eStochK", "split_condition": 73.6999969, "yes": 11, "no": 12, "missing": 12, "children": [{"nodeid": 11, "leaf": -0.0648905188}, {"nodeid": 12, "leaf": 0.0195879396}]}, {"nodeid": 6, "depth": 2, "split": "dailyScore", "split_condition": 7, "yes": 13, "no": 14, "missing": 14, "children": [{"nodeid": 13, "leaf": 0.00179986341}, {"nodeid": 14, "leaf": -0.0131571135}]}]}]}, {"nodeid": 0, "depth": 0, "split": "dStructBear", "split_condition": 1, "yes": 1, "no": 2, "missing": 2, "children": [{"nodeid": 1, "depth": 1, "split": "vix", "split_condition": 21.7000008, "yes": 3, "no": 4, "missing": 4, "children": [{"nodeid": 3, "depth": 2, "split": "fourHScore", "split_condition": 3, "yes": 7, "no": 8, "missing": 8, "children": [{"nodeid": 7, "leaf": 0.00776472827}, {"nodeid": 8, "leaf": -0.0227837656}]}, {"nodeid": 4, "depth": 2, "split": "atrPercent", "split_condition": 1.32770002, "yes": 9, "no": 10, "missing": 10, "children": [{"nodeid": 9, "leaf": 0.05200845}, {"nodeid": 10, "leaf": -0.00114773714}]}]}, {"nodeid": 2, "depth": 1, "split": "hVolumeRatio", "split_condition": 0.319999993, "yes": 5, "no": 6, "missing": 6, "children": [{"nodeid": 5, "depth": 2, "split": "dAdx", "split_condition": 19.1000004, "yes": 11, "no": 12, "missing": 12, "children": [{"nodeid": 11, "leaf": -0.00354808546}, {"nodeid": 12, "leaf": -0.0758358091}]}, {"nodeid": 6, "depth": 2, "split": "dAdx", "split_condition": 18.8999996, "yes": 13, "no": 14, "missing": 14, "children": [{"nodeid": 13, "leaf": -0.00819700863}, {"nodeid": 14, "leaf": 0.0223461632}]}]}]}, {"nodeid": 0, "depth": 0, "split": "hMacdHist", "split_condition": -4.23999977, "yes": 1, "no": 2, "missing": 2, "children": [{"nodeid": 1, "leaf": 0.0665401593}, {"nodeid": 2, "depth": 1, "split": "dBBPercentB", "split_condition": 0.915700018, "yes": 3, "no": 4, "missing": 4, "children": [{"nodeid": 3, "depth": 2, "split": "hRsi", "split_condition": 62, "yes": 5, "no": 6, "missing": 6, "children": [{"nodeid": 5, "leaf": -7.44181452e-05}, {"nodeid": 6, "leaf": -0.0189603362}]}, {"nodeid": 4, "depth": 2, "split": "hStructBull", "split_condition": 1, "yes": 7, "no": 8, "missing": 8, "children": [{"nodeid": 7, "leaf": 0.0313203968}, {"nodeid": 8, "leaf": -0.0106009338}]}]}]}, {"nodeid": 0, "depth": 0, "split": "eEmaCross", "split_condition": -1, "yes": 1, "no": 2, "missing": 2, "children": [{"nodeid": 1, "depth": 1, "split": "dStochK", "split_condition": 47.0999985, "yes": 3, "no": 4, "missing": 4, "children": [{"nodeid": 3, "depth": 2, "split": "dVolumeRatio", "split_condition": 1.99000001, "yes": 7, "no": 8, "missing": 8, "children": [{"nodeid": 7, "leaf": 0.00296279765}, {"nodeid": 8, "leaf": -0.0665436909}]}, {"nodeid": 4, "depth": 2, "split": "vix", "split_condition": 23.8999996, "yes": 9, "no": 10, "missing": 10, "children": [{"nodeid": 9, "leaf": -0.0566994511}, {"nodeid": 10, "leaf": -0.0111786881}]}]}, {"nodeid": 2, "depth": 1, "split": "fourHScore", "split_condition": 3, "yes": 5, "no": 6, "missing": 6, "children": [{"nodeid": 5, "depth": 2, "split": "hVolumeRatio", "split_condition": 0.360000014, "yes": 11, "no": 12, "missing": 12, "children": [{"nodeid": 11, "leaf": -0.0275278296}, {"nodeid": 12, "leaf": 0.0177563317}]}, {"nodeid": 6, "depth": 2, "split": "dMacdHist", "split_condition": -0.150000006, "yes": 13, "no": 14, "missing": 14, "children": [{"nodeid": 13, "leaf": -0.0260696094}, {"nodeid": 14, "leaf": 0.00223358138}]}]}]}, {"nodeid": 0, "depth": 0, "split": "atrPercent", "split_condition": 0.992999971, "yes": 1, "no": 2, "missing": 2, "children": [{"nodeid": 1, "depth": 1, "split": "dRsi", "split_condition": 60.9000015, "yes": 3, "no": 4, "missing": 4, "children": [{"nodeid": 3, "depth": 2, "split": "eRsi", "split_condition": 40.9000015, "yes": 7, "no": 8, "missing": 8, "children": [{"nodeid": 7, "leaf": -0.0208999794}, {"nodeid": 8, "leaf": 0.0905483589}]}, {"nodeid": 4, "depth": 2, "split": "dStructBull", "split_condition": 1, "yes": 9, "no": 10, "missing": 10, "children": [{"nodeid": 9, "leaf": -0.0736838058}, {"nodeid": 10, "leaf": 0.0230150241}]}]}, {"nodeid": 2, "depth": 1, "split": "atrPercent", "split_condition": 1.13409996, "yes": 5, "no": 6, "missing": 6, "children": [{"nodeid": 5, "depth": 2, "split": "vix", "split_condition": 20.7000008, "yes": 11, "no": 12, "missing": 12, "children": [{"nodeid": 11, "leaf": -0.0386714712}, {"nodeid": 12, "leaf": 0.049953077}]}, {"nodeid": 6, "depth": 2, "split": "vix", "split_condition": 18.8999996, "yes": 13, "no": 14, "missing": 14, "children": [{"nodeid": 13, "leaf": 0.0128734624}, {"nodeid": 14, "leaf": -0.00286874804}]}]}]}, {"nodeid": 0, "depth": 0, "split": "dBBBandwidth", "split_condition": 38.7230988, "yes": 1, "no": 2, "missing": 2, "children": [{"nodeid": 1, "depth": 1, "split": "dBBBandwidth", "split_condition": 36.0372009, "yes": 3, "no": 4, "missing": 4, "children": [{"nodeid": 3, "depth": 2, "split": "dailyScore", "split_condition": -11, "yes": 7, "no": 8, "missing": 8, "children": [{"nodeid": 7, "leaf": -0.0666801184}, {"nodeid": 8, "leaf": -0.00126305141}]}, {"nodeid": 4, "depth": 2, "split": "vix", "split_condition": 27.8999996, "yes": 9, "no": 10, "missing": 10, "children": [{"nodeid": 9, "leaf": -0.109524384}, {"nodeid": 10, "leaf": -0.0326847956}]}]}, {"nodeid": 2, "depth": 1, "split": "hBBBandwidth", "split_condition": 18.4542999, "yes": 5, "no": 6, "missing": 6, "children": [{"nodeid": 5, "depth": 2, "split": "hVolumeRatio", "split_condition": 0.75999999, "yes": 11, "no": 12, "missing": 12, "children": [{"nodeid": 11, "leaf": 0.110539973}, {"nodeid": 12, "leaf": 0.0441198312}]}, {"nodeid": 6, "depth": 2, "split": "vix", "split_condition": 22.1000004, "yes": 13, "no": 14, "missing": 14, "children": [{"nodeid": 13, "leaf": 0.0522090904}, {"nodeid": 14, "leaf": -0.0115663782}]}]}]}, {"nodeid": 0, "depth": 0, "split": "dBBPercentB", "split_condition": 0.988499999, "yes": 1, "no": 2, "missing": 2, "children": [{"nodeid": 1, "depth": 1, "split": "hBBPercentB", "split_condition": 1.00370002, "yes": 3, "no": 4, "missing": 4, "children": [{"nodeid": 3, "depth": 2, "split": "dMacdCross", "split_condition": 1, "yes": 7, "no": 8, "missing": 8, "children": [{"nodeid": 7, "leaf": 0.000344445143}, {"nodeid": 8, "leaf": -0.033491645}]}, {"nodeid": 4, "depth": 2, "split": "dBBBandwidth", "split_condition": 8.06219959, "yes": 9, "no": 10, "missing": 10, "children": [{"nodeid": 9, "leaf": 0.0267541986}, {"nodeid": 10, "leaf": -0.051881779}]}]}, {"nodeid": 2, "depth": 1, "split": "dAdx", "split_condition": 27.8999996, "yes": 5, "no": 6, "missing": 6, "children": [{"nodeid": 5, "depth": 2, "split": "hMacdHist", "split_condition": 0.519999981, "yes": 11, "no": 12, "missing": 12, "children": [{"nodeid": 11, "leaf": 0.0406420343}, {"nodeid": 12, "leaf": -0.0142474966}]}, {"nodeid": 6, "depth": 2, "split": "hBBPercentB", "split_condition": 0.897199988, "yes": 13, "no": 14, "missing": 14, "children": [{"nodeid": 13, "leaf": -0.0212537609}, {"nodeid": 14, "leaf": 0.0714465901}]}]}]}, {"nodeid": 0, "depth": 0, "split": "eEmaCross", "split_condition": -1, "yes": 1, "no": 2, "missing": 2, "children": [{"nodeid": 1, "depth": 1, "split": "vix", "split_condition": 25.6000004, "yes": 3, "no": 4, "missing": 4, "children": [{"nodeid": 3, "depth": 2, "split": "hAdx", "split_condition": 22.5, "yes": 7, "no": 8, "missing": 8, "children": [{"nodeid": 7, "leaf": -0.0355296917}, {"nodeid": 8, "leaf": 0.00398656307}]}, {"nodeid": 4, "depth": 2, "split": "hBBBandwidth", "split_condition": 13.9510002, "yes": 9, "no": 10, "missing": 10, "children": [{"nodeid": 9, "leaf": 0.0136589035}, {"nodeid": 10, "leaf": -0.0233689658}]}]}, {"nodeid": 2, "depth": 1, "split": "hMacdHist", "split_condition": -1.28999996, "yes": 5, "no": 6, "missing": 6, "children": [{"nodeid": 5, "depth": 2, "split": "dMacdHist", "split_condition": -0.839999974, "yes": 11, "no": 12, "missing": 12, "children": [{"nodeid": 11, "leaf": 0.000495022978}, {"nodeid": 12, "leaf": 0.0843877122}]}, {"nodeid": 6, "depth": 2, "split": "hRsi", "split_condition": 43.4000015, "yes": 13, "no": 14, "missing": 14, "children": [{"nodeid": 13, "leaf": 0.0287013184}, {"nodeid": 14, "leaf": -0.000633778865}]}]}]}, {"nodeid": 0, "depth": 0, "split": "atrPercentile", "split_condition": 21, "yes": 1, "no": 2, "missing": 2, "children": [{"nodeid": 1, "depth": 1, "split": "atrPercent", "split_condition": 3.7500999, "yes": 3, "no": 4, "missing": 4, "children": [{"nodeid": 3, "depth": 2, "split": "dStructBull", "split_condition": 1, "yes": 7, "no": 8, "missing": 8, "children": [{"nodeid": 7, "leaf": -0.00596931158}, {"nodeid": 8, "leaf": 0.035159111}]}, {"nodeid": 4, "leaf": 0.117088079}]}, {"nodeid": 2, "depth": 1, "split": "dRsi", "split_condition": 70.8000031, "yes": 5, "no": 6, "missing": 6, "children": [{"nodeid": 5, "depth": 2, "split": "fourHScore", "split_condition": 3, "yes": 9, "no": 10, "missing": 10, "children": [{"nodeid": 9, "leaf": 0.00397989945}, {"nodeid": 10, "leaf": -0.010054945}]}, {"nodeid": 6, "depth": 2, "split": "dMacdHist", "split_condition": 0.469999999, "yes": 11, "no": 12, "missing": 12, "children": [{"nodeid": 11, "leaf": 0.0544327199}, {"nodeid": 12, "leaf": -0.000318437495}]}]}]}, {"nodeid": 0, "depth": 0, "split": "dBBPercentB", "split_condition": 0.567900002, "yes": 1, "no": 2, "missing": 2, "children": [{"nodeid": 1, "depth": 1, "split": "dBBPercentB", "split_condition": 0.476700008, "yes": 3, "no": 4, "missing": 4, "children": [{"nodeid": 3, "depth": 2, "split": "hAdx", "split_condition": 17.5, "yes": 7, "no": 8, "missing": 8, "children": [{"nodeid": 7, "leaf": -0.0205069166}, {"nodeid": 8, "leaf": 0.00476731267}]}, {"nodeid": 4, "depth": 2, "split": "vix", "split_condition": 31.8999996, "yes": 9, "no": 10, "missing": 10, "children": [{"nodeid": 9, "leaf": -0.0343270712}, {"nodeid": 10, "leaf": 0.0451329872}]}]}, {"nodeid": 2, "depth": 1, "split": "hBBPercentB", "split_condition": 0.460700005, "yes": 5, "no": 6, "missing": 6, "children": [{"nodeid": 5, "depth": 2, "split": "vix", "split_condition": 29.6000004, "yes": 11, "no": 12, "missing": 12, "children": [{"nodeid": 11, "leaf": 0.0263285935}, {"nodeid": 12, "leaf": 0.107221484}]}, {"nodeid": 6, "depth": 2, "split": "adLineAccumulation", "split_condition": 1, "yes": 13, "no": 14, "missing": 14, "children": [{"nodeid": 13, "leaf": 0.0167021099}, {"nodeid": 14, "leaf": -0.00411242526}]}]}]}, {"nodeid": 0, "depth": 0, "split": "vix", "split_condition": 16.1000004, "yes": 1, "no": 2, "missing": 2, "children": [{"nodeid": 1, "depth": 1, "split": "hMacdHist", "split_condition": 1.49000001, "yes": 3, "no": 4, "missing": 4, "children": [{"nodeid": 3, "depth": 2, "split": "vix", "split_condition": 15.8000002, "yes": 7, "no": 8, "missing": 8, "children": [{"nodeid": 7, "leaf": -0.0119767999}, {"nodeid": 8, "leaf": 0.0613359697}]}, {"nodeid": 4, "leaf": 0.119718313}]}, {"nodeid": 2, "depth": 1, "split": "dBBPercentB", "split_condition": -0.0168999992, "yes": 5, "no": 6, "missing": 6, "children": [{"nodeid": 5, "depth": 2, "split": "hStochK", "split_condition": 5.0999999, "yes": 9, "no": 10, "missing": 10, "children": [{"nodeid": 9, "leaf": -0.00368360057}, {"nodeid": 10, "leaf": 0.0430191867}]}, {"nodeid": 6, "depth": 2, "split": "dVolumeRatio", "split_condition": 2.29999995, "yes": 11, "no": 12, "missing": 12, "children": [{"nodeid": 11, "leaf": -0.0014730189}, {"nodeid": 12, "leaf": -0.0492796078}]}]}]}, {"nodeid": 0, "depth": 0, "split": "eMacdHist", "split_condition": 0.0199999996, "yes": 1, "no": 2, "missing": 2, "children": [{"nodeid": 1, "depth": 1, "split": "vix", "split_condition": 24.8999996, "yes": 3, "no": 4, "missing": 4, "children": [{"nodeid": 3, "depth": 2, "split": "hDivergence", "split_condition": 1, "yes": 7, "no": 8, "missing": 8, "children": [{"nodeid": 7, "leaf": -0.00387749122}, {"nodeid": 8, "leaf": 0.0621929541}]}, {"nodeid": 4, "depth": 2, "split": "dBBPercentB", "split_condition": 0.815100014, "yes": 9, "no": 10, "missing": 10, "children": [{"nodeid": 9, "leaf": 0.0216812156}, {"nodeid": 10, "leaf": -0.00955959689}]}]}, {"nodeid": 2, "depth": 1, "split": "atrPercent", "split_condition": 2.1573, "yes": 5, "no": 6, "missing": 6, "children": [{"nodeid": 5, "depth": 2, "split": "hMacdHist", "split_condition": 2.27999997, "yes": 11, "no": 12, "missing": 12, "children": [{"nodeid": 11, "leaf": -0.000491109153}, {"nodeid": 12, "leaf": 0.0678657815}]}, {"nodeid": 6, "depth": 2, "split": "hAdx", "split_condition": 23.2000008, "yes": 13, "no": 14, "missing": 14, "children": [{"nodeid": 13, "leaf": 0.00666059135}, {"nodeid": 14, "leaf": -0.0336832963}]}]}]}, {"nodeid": 0, "depth": 0, "split": "atrPercentile", "split_condition": 4, "yes": 1, "no": 2, "missing": 2, "children": [{"nodeid": 1, "depth": 1, "split": "eRsi", "split_condition": 48, "yes": 3, "no": 4, "missing": 4, "children": [{"nodeid": 3, "depth": 2, "split": "dVolumeRatio", "split_condition": 1.10000002, "yes": 7, "no": 8, "missing": 8, "children": [{"nodeid": 7, "leaf": -0.0635468587}, {"nodeid": 8, "leaf": 0.128840774}]}, {"nodeid": 4, "depth": 2, "split": "dStochK", "split_condition": 97.1999969, "yes": 9, "no": 10, "missing": 10, "children": [{"nodeid": 9, "leaf": 0.0806416273}, {"nodeid": 10, "leaf": -0.040358223}]}]}, {"nodeid": 2, "depth": 1, "split": "dBBBandwidth", "split_condition": 5.49370003, "yes": 5, "no": 6, "missing": 6, "children": [{"nodeid": 5, "depth": 2, "split": "vix", "split_condition": 18.7999992, "yes": 11, "no": 12, "missing": 12, "children": [{"nodeid": 11, "leaf": -0.00579076307}, {"nodeid": 12, "leaf": 0.0418324359}]}, {"nodeid": 6, "depth": 2, "split": "atrPercent", "split_condition": 1.16709995, "yes": 13, "no": 14, "missing": 14, "children": [{"nodeid": 13, "leaf": -0.0169280004}, {"nodeid": 14, "leaf": 0.000970893656}]}]}]}, {"nodeid": 0, "depth": 0, "split": "dStackBear", "split_condition": 1, "yes": 1, "no": 2, "missing": 2, "children": [{"nodeid": 1, "depth": 1, "split": "dailyScore", "split_condition": -4, "yes": 3, "no": 4, "missing": 4, "children": [{"nodeid": 3, "depth": 2, "split": "dStochK", "split_condition": 45.0999985, "yes": 7, "no": 8, "missing": 8, "children": [{"nodeid": 7, "leaf": 0.00131612772}, {"nodeid": 8, "leaf": -0.0582564883}]}, {"nodeid": 4, "depth": 2, "split": "fourHScore", "split_condition": 2, "yes": 9, "no": 10, "missing": 10, "children": [{"nodeid": 9, "leaf": 0.0149215683}, {"nodeid": 10, "leaf": -0.00405421341}]}]}, {"nodeid": 2, "depth": 1, "split": "hBBBandwidth", "split_condition": 9.86919975, "yes": 5, "no": 6, "missing": 6, "children": [{"nodeid": 5, "depth": 2, "split": "dMacdHist", "split_condition": 0.75999999, "yes": 11, "no": 12, "missing": 12, "children": [{"nodeid": 11, "leaf": 0.017711347}, {"nodeid": 12, "leaf": 0.0719329342}]}, {"nodeid": 6, "depth": 2, "split": "vix", "split_condition": 31, "yes": 13, "no": 14, "missing": 14, "children": [{"nodeid": 13, "leaf": 0.0081695132}, {"nodeid": 14, "leaf": -0.0302517265}]}]}]}, {"nodeid": 0, "depth": 0, "split": "atrPercent", "split_condition": 3.0237, "yes": 1, "no": 2, "missing": 2, "children": [{"nodeid": 1, "depth": 1, "split": "vix", "split_condition": 35.2999992, "yes": 3, "no": 4, "missing": 4, "children": [{"nodeid": 3, "depth": 2, "split": "atrPercent", "split_condition": 1.73730004, "yes": 7, "no": 8, "missing": 8, "children": [{"nodeid": 7, "leaf": 0.00387283019}, {"nodeid": 8, "leaf": -0.00978291128}]}, {"nodeid": 4, "depth": 2, "split": "dBBBandwidth", "split_condition": 21.8416996, "yes": 9, "no": 10, "missing": 10, "children": [{"nodeid": 9, "leaf": 0.0770630017}, {"nodeid": 10, "leaf": -0.0417704992}]}]}, {"nodeid": 2, "depth": 1, "split": "dMacdHist", "split_condition": -3.08999991, "yes": 5, "no": 6, "missing": 6, "children": [{"nodeid": 5, "depth": 2, "split": "dMacdHist", "split_condition": -6.23999977, "yes": 11, "no": 12, "missing": 12, "children": [{"nodeid": 11, "leaf": -0.0248445924}, {"nodeid": 12, "leaf": 0.0903772414}]}, {"nodeid": 6, "depth": 2, "split": "vix", "split_condition": 26.2000008, "yes": 13, "no": 14, "missing": 14, "children": [{"nodeid": 13, "leaf": 0.029222209}, {"nodeid": 14, "leaf": -0.0139019061}]}]}]}, {"nodeid": 0, "depth": 0, "split": "atrPercentile", "split_condition": 